{
    "generation": 32,
    "totalPopulation": 100,
    "brainDataList": [
        {
            "inputSize": 0,
            "hiddenSize": 8,
            "hiddenLayers": 1,
            "outputSize": 4,
            "weights": [
                {
                    "row": 0,
                    "column": 8,
                    "elements": []
                },
                {
                    "row": 8,
                    "column": 4,
                    "elements": [
                        -0.9079747200012207,
                        -0.5297472830374765,
                        -0.2952442426585016,
                        0.3858401148612085,
                        0.8393006324768066,
                        -0.9416126653876582,
                        -0.18554924231422199,
                        -0.27311503887176516,
                        -0.1535429766945331,
                        0.7861940860748291,
                        0.4221222999096348,
                        0.8033132553100586,
                        0.32363006472587588,
                        0.3741841829299162,
                        0.44070836901664736,
                        0.4349637802445727,
                        -0.7300529356384402,
                        -0.30240588168606666,
                        -0.9355642634358077,
                        -0.7574249986924606,
                        -0.900431272017812,
                        0.20757335964606628,
                        0.9274938995646593,
                        -0.310029016002197,
                        -0.6308021914005906,
                        -0.5075247428093181,
                        0.3425013761748872,
                        0.020276131922450703,
                        0.908116716364944,
                        -0.49719805862900698,
                        0.634483814239502,
                        0.3577460902041807
                    ]
                }
            ],
            "biases": [
                {
                    "row": 1,
                    "column": 8,
                    "elements": [
                        -0.9130795001983643,
                        0.2571277517652508,
                        0.2137380838394165,
                        -0.4991379976272583,
                        0.04753485138719782,
                        -0.008562041502542806,
                        -0.08683407306671143,
                        -0.11290204524993897
                    ]
                },
                {
                    "row": 1,
                    "column": 4,
                    "elements": [
                        -0.6060028076171875,
                        0.7042669102228357,
                        0.031464457511901858,
                        -0.6956338882446289
                    ]
                }
            ]
        },
        {
            "inputSize": 0,
            "hiddenSize": 8,
            "hiddenLayers": 1,
            "outputSize": 4,
            "weights": [
                {
                    "row": 0,
                    "column": 8,
                    "elements": []
                },
                {
                    "row": 8,
                    "column": 4,
                    "elements": [
                        -0.9079747200012207,
                        -0.5297472830374765,
                        -0.2952442426585016,
                        0.3450155831143231,
                        0.8393006324768066,
                        -0.9416126653876582,
                        -0.19389917925051848,
                        -0.27311503887176516,
                        -0.1535429766945331,
                        0.7861940860748291,
                        0.4221222999096348,
                        0.8033132553100586,
                        0.32363006472587588,
                        0.3741841829299162,
                        0.44070836901664736,
                        2.1559393405914308,
                        -0.7300529356384402,
                        -0.30240588168606666,
                        -0.9391989435682635,
                        -0.7574249986924606,
                        -0.900431272017812,
                        0.20757335964606628,
                        0.9274938995646593,
                        -0.310029016002197,
                        -0.6308021914005906,
                        -0.5075247428093181,
                        0.3425013761748872,
                        0.020276131922450703,
                        0.908116716364944,
                        -0.49719805862900698,
                        0.634483814239502,
                        0.3577460902041807
                    ]
                }
            ],
            "biases": [
                {
                    "row": 1,
                    "column": 8,
                    "elements": [
                        -0.9130795001983643,
                        0.2571277517652508,
                        0.2137380838394165,
                        -0.4991379976272583,
                        0.04753485138719782,
                        -0.008562041502542806,
                        -0.08683407306671143,
                        -0.11290204524993897
                    ]
                },
                {
                    "row": 1,
                    "column": 4,
                    "elements": [
                        -0.6060028076171875,
                        0.7042669102228357,
                        0.000490106305505833,
                        -0.7754650791419024
                    ]
                }
            ]
        },
        {
            "inputSize": 0,
            "hiddenSize": 8,
            "hiddenLayers": 1,
            "outputSize": 4,
            "weights": [
                {
                    "row": 0,
                    "column": 8,
                    "elements": []
                },
                {
                    "row": 8,
                    "column": 4,
                    "elements": [
                        -0.9079747200012207,
                        -0.5297472830374765,
                        -0.2952442426585016,
                        0.3858401148612085,
                        0.8393006324768066,
                        -0.9416126653876582,
                        -0.22634940172089025,
                        -0.27311503887176516,
                        -0.1535429766945331,
                        0.7861940860748291,
                        0.4221222999096348,
                        0.8182844543445587,
                        0.32363006472587588,
                        0.3741841829299162,
                        0.44070836901664736,
                        0.38834901346345065,
                        -0.7008821680064816,
                        -0.29129320855791188,
                        -0.9355642634358077,
                        -0.7607875070187331,
                        -0.8600239739930267,
                        0.17237259788278126,
                        0.9119096601777734,
                        -0.310029016002197,
                        -0.6308021914005906,
                        -0.5075247428093181,
                        0.3425013761748872,
                        0.020276131922450703,
                        0.908116716364944,
                        -0.5918914346413868,
                        0.634483814239502,
                        0.3577460902041807
                    ]
                }
            ],
            "biases": [
                {
                    "row": 1,
                    "column": 8,
                    "elements": [
                        -0.9130795001983643,
                        0.2571277517652508,
                        0.2137380838394165,
                        -0.4991379976272583,
                        0.04753485138719782,
                        -0.008562041502542806,
                        -0.08683407306671143,
                        -0.11290204524993897
                    ]
                },
                {
                    "row": 1,
                    "column": 4,
                    "elements": [
                        -0.6060028076171875,
                        0.625097688536742,
                        0.031464457511901858,
                        -0.6956226501201936
                    ]
                }
            ]
        },
        {
            "inputSize": 0,
            "hiddenSize": 8,
            "hiddenLayers": 1,
            "outputSize": 4,
            "weights": [
                {
                    "row": 0,
                    "column": 8,
                    "elements": []
                },
                {
                    "row": 8,
                    "column": 4,
                    "elements": [
                        -0.9079747200012207,
                        -0.5297472830374765,
                        -0.2952442426585016,
                        0.3858401148612085,
                        0.8393006324768066,
                        -0.9416126653876582,
                        -0.18554924231422199,
                        -0.27311503887176516,
                        -0.1535429766945331,
                        0.7711367702461356,
                        0.3490401837396213,
                        0.8033132553100586,
                        0.32363006472587588,
                        0.3741841829299162,
                        0.4407962367974678,
                        0.4349637802445727,
                        -0.753584989805713,
                        -0.30896653703399626,
                        -0.9225906387504557,
                        -0.7065003796168199,
                        -0.900431272017812,
                        0.235305665678736,
                        0.9274938995646593,
                        -0.3777981336662606,
                        -0.6274733061302777,
                        -0.47743148657048986,
                        0.3425013761748872,
                        -0.044474055663307868,
                        0.908116716364944,
                        -0.49719805862900698,
                        0.634483814239502,
                        0.3577460902041807
                    ]
                }
            ],
            "biases": [
                {
                    "row": 1,
                    "column": 8,
                    "elements": [
                        -0.9130795001983643,
                        0.2571277517652508,
                        0.2137380838394165,
                        -0.4991379976272583,
                        0.04753485138719782,
                        -0.008562041502542806,
                        -0.08683407306671143,
                        -0.11290204524993897
                    ]
                },
                {
                    "row": 1,
                    "column": 4,
                    "elements": [
                        -0.6060028076171875,
                        0.7042669102228357,
                        0.031464457511901858,
                        -0.6956338882446289
                    ]
                }
            ]
        },
        {
            "inputSize": 0,
            "hiddenSize": 8,
            "hiddenLayers": 1,
            "outputSize": 4,
            "weights": [
                {
                    "row": 0,
                    "column": 8,
                    "elements": []
                },
                {
                    "row": 8,
                    "column": 4,
                    "elements": [
                        -0.9079747200012207,
                        -0.6043889786418681,
                        -0.3119300188399521,
                        0.3858401148612085,
                        0.8393006324768066,
                        -0.9757619904464889,
                        -0.14368051940378913,
                        -0.27311503887176516,
                        -0.24400503933429719,
                        0.7861940860748291,
                        0.4221222999096348,
                        0.8033132553100586,
                        0.32363006472587588,
                        0.3741841829299162,
                        0.4669136111420489,
                        0.4349637802445727,
                        -0.7300529356384402,
                        -0.30240588168606666,
                        -0.9355642634358077,
                        -0.7180863607309682,
                        -0.9151617669235419,
                        0.2897577849279256,
                        0.9274938995646593,
                        -0.3465984947750549,
                        -0.5019869454219474,
                        -0.5075247428093181,
                        0.3425013761748872,
                        0.020276131922450703,
                        0.908116716364944,
                        -0.49719805862900698,
                        0.4939298764644491,
                        0.3577460902041807
                    ]
                }
            ],
            "biases": [
                {
                    "row": 1,
                    "column": 8,
                    "elements": [
                        -0.9130795001983643,
                        0.2571277517652508,
                        0.21801845865569015,
                        -0.48954836062234099,
                        0.15302529213296624,
                        -0.05739512039688288,
                        -0.08683407306671143,
                        -0.187529206857171
                    ]
                },
                {
                    "row": 1,
                    "column": 4,
                    "elements": [
                        -0.6060028076171875,
                        0.7042669102228357,
                        0.031464457511901858,
                        -0.6956338882446289
                    ]
                }
            ]
        },
        {
            "inputSize": 0,
            "hiddenSize": 8,
            "hiddenLayers": 1,
            "outputSize": 4,
            "weights": [
                {
                    "row": 0,
                    "column": 8,
                    "elements": []
                },
                {
                    "row": 8,
                    "column": 4,
                    "elements": [
                        -0.9079747200012207,
                        -0.6559186432985733,
                        -0.27210674502927648,
                        0.33047945717479,
                        0.8393006324768066,
                        -0.9046641690082631,
                        -0.19052695909205198,
                        -0.27311503887176516,
                        -0.1535429766945331,
                        0.7306576909408413,
                        0.4221222999096348,
                        0.8033132553100586,
                        -0.7930241227149963,
                        0.3741841829299162,
                        0.44070836901664736,
                        2.1559393405914308,
                        -0.7300529356384402,
                        -0.30240588168606666,
                        -0.9391989435682635,
                        -0.8753748372493,
                        -0.900431272017812,
                        0.20757335964606628,
                        0.9274938995646593,
                        -0.310029016002197,
                        -0.6308021914005906,
                        -0.4623283425167468,
                        0.3425013761748872,
                        0.06926814780049284,
                        0.8505254736704373,
                        -0.5253890742774918,
                        0.6273273879426151,
                        0.28541808249308789
                    ]
                }
            ],
            "biases": [
                {
                    "row": 1,
                    "column": 8,
                    "elements": [
                        -0.9130795001983643,
                        0.2571277517652508,
                        0.2137380838394165,
                        -0.4991379976272583,
                        0.04753485138719782,
                        -0.008562041502542806,
                        -0.08683407306671143,
                        -0.11290204524993897
                    ]
                },
                {
                    "row": 1,
                    "column": 4,
                    "elements": [
                        -0.5146257936407324,
                        0.7042669102228357,
                        0.000490106305505833,
                        -0.7754650791419024
                    ]
                }
            ]
        },
        {
            "inputSize": 0,
            "hiddenSize": 8,
            "hiddenLayers": 1,
            "outputSize": 4,
            "weights": [
                {
                    "row": 0,
                    "column": 8,
                    "elements": []
                },
                {
                    "row": 8,
                    "column": 4,
                    "elements": [
                        -0.9079747200012207,
                        -0.5297472830374765,
                        -0.2952442426585016,
                        0.3858401148612085,
                        0.8393006324768066,
                        -0.9416126653876582,
                        -0.18554924231422199,
                        -0.27311503887176516,
                        -0.1535429766945331,
                        0.7861940860748291,
                        0.4221222999096348,
                        0.8033132553100586,
                        0.32363006472587588,
                        0.3741841829299162,
                        0.4171959057047978,
                        0.4349637802445727,
                        -0.7300529356384402,
                        -0.30240588168606666,
                        -0.9355642634358077,
                        -0.7574249986924606,
                        -0.900431272017812,
                        0.20757335964606628,
                        0.9315350861473513,
                        -0.310029016002197,
                        -0.6308021914005906,
                        -0.5075247428093181,
                        0.3425013761748872,
                        0.020276131922450703,
                        0.908116716364944,
                        -0.49719805862900698,
                        0.634483814239502,
                        0.3577460902041807
                    ]
                }
            ],
            "biases": [
                {
                    "row": 1,
                    "column": 8,
                    "elements": [
                        -0.8567674924408593,
                        0.2571277517652508,
                        0.2137380838394165,
                        -0.49163867458703827,
                        0.04753485138719782,
                        -0.07296268359559088,
                        -0.08683407306671143,
                        -0.11290204524993897
                    ]
                },
                {
                    "row": 1,
                    "column": 4,
                    "elements": [
                        -0.6060028076171875,
                        0.7042669102228357,
                        0.031464457511901858,
                        0.7875087261199951
                    ]
                }
            ]
        },
        {
            "inputSize": 0,
            "hiddenSize": 8,
            "hiddenLayers": 1,
            "outputSize": 4,
            "weights": [
                {
                    "row": 0,
                    "column": 8,
                    "elements": []
                },
                {
                    "row": 8,
                    "column": 4,
                    "elements": [
                        -0.9159274003089539,
                        -0.5052648023731248,
                        -0.2570267645335065,
                        -1.7710580825805665,
                        0.8393006324768066,
                        -0.9416126653876582,
                        -0.18554924231422199,
                        -0.27311503887176516,
                        -0.10858587237094319,
                        0.7711367702461356,
                        0.30452320132263469,
                        0.8033132553100586,
                        0.32363006472587588,
                        0.3741841829299162,
                        0.4407962367974678,
                        0.4349637802445727,
                        -0.753584989805713,
                        -0.30896653703399626,
                        -0.8969976090688911,
                        -0.7065003796168199,
                        -0.8479298573015122,
                        0.235305665678736,
                        0.9274938995646593,
                        -0.3777981336662606,
                        -0.6274733061302777,
                        -0.47743148657048986,
                        0.3425013761748872,
                        0.09781257489910189,
                        0.908116716364944,
                        -0.49719805862900698,
                        0.634483814239502,
                        0.3577460902041807
                    ]
                }
            ],
            "biases": [
                {
                    "row": 1,
                    "column": 8,
                    "elements": [
                        -0.9619888146284943,
                        0.23154263102431583,
                        0.23125820408344745,
                        -0.4991379976272583,
                        0.04753485138719782,
                        -0.008562041502542806,
                        -0.08683407306671143,
                        -0.10280748237790416
                    ]
                },
                {
                    "row": 1,
                    "column": 4,
                    "elements": [
                        -0.6060028076171875,
                        0.6868957688141085,
                        0.031464457511901858,
                        -0.6956338882446289
                    ]
                }
            ]
        },
        {
            "inputSize": 0,
            "hiddenSize": 8,
            "hiddenLayers": 1,
            "outputSize": 4,
            "weights": [
                {
                    "row": 0,
                    "column": 8,
                    "elements": []
                },
                {
                    "row": 8,
                    "column": 4,
                    "elements": [
                        -0.9079747200012207,
                        -0.5297472830374765,
                        -0.2613370495577634,
                        0.3858401148612085,
                        0.8393006324768066,
                        -0.9211787254763746,
                        -0.18554924231422199,
                        -0.27311503887176516,
                        -0.1535429766945331,
                        0.7861940860748291,
                        0.4221222999096348,
                        0.8033132553100586,
                        0.3680356675150236,
                        0.3741841829299162,
                        0.44070836901664736,
                        0.4349637802445727,
                        -0.7300529356384402,
                        -0.30675885943291006,
                        -0.9355642634358077,
                        -0.7574249986924606,
                        -0.900431272017812,
                        0.20757335964606628,
                        0.9323024831643294,
                        -0.310029016002197,
                        -0.6630492007672224,
                        -0.5075247428093181,
                        0.25670719094200225,
                        0.020276131922450703,
                        0.908116716364944,
                        -0.49719805862900698,
                        0.6918471013451928,
                        0.3577460902041807
                    ]
                }
            ],
            "biases": [
                {
                    "row": 1,
                    "column": 8,
                    "elements": [
                        -0.9130795001983643,
                        0.23423611436479709,
                        0.2137380838394165,
                        -0.4991379976272583,
                        0.04753485138719782,
                        -0.008562041502542806,
                        -0.08683407306671143,
                        -0.11290204524993897
                    ]
                },
                {
                    "row": 1,
                    "column": 4,
                    "elements": [
                        -0.6060028076171875,
                        0.7042669102228357,
                        -0.04085115481677093,
                        -0.6157283608156234
                    ]
                }
            ]
        },
        {
            "inputSize": 0,
            "hiddenSize": 8,
            "hiddenLayers": 1,
            "outputSize": 4,
            "weights": [
                {
                    "row": 0,
                    "column": 8,
                    "elements": []
                },
                {
                    "row": 8,
                    "column": 4,
                    "elements": [
                        -0.9234883493389141,
                        -0.5297472830374765,
                        -0.2952442426585016,
                        0.3858401148612085,
                        0.8393006324768066,
                        -0.9416126653876582,
                        -0.18554924231422199,
                        -0.27311503887176516,
                        -0.1535429766945331,
                        0.7711367702461356,
                        0.3490401837396213,
                        0.8227008046463151,
                        0.32363006472587588,
                        0.3741841829299162,
                        0.4407962367974678,
                        0.4349637802445727,
                        -0.753584989805713,
                        -0.30896653703399626,
                        -0.9225906387504557,
                        -0.7065003796168199,
                        -0.900431272017812,
                        0.235305665678736,
                        0.9274938995646593,
                        -0.3777981336662606,
                        -0.6814174847092973,
                        -0.5086226461045929,
                        0.4080837638440684,
                        -0.03780585132919967,
                        0.908116716364944,
                        -0.49719805862900698,
                        0.634483814239502,
                        0.3577460902041807
                    ]
                }
            ],
            "biases": [
                {
                    "row": 1,
                    "column": 8,
                    "elements": [
                        -0.9130795001983643,
                        0.2571277517652508,
                        0.2137380838394165,
                        -0.46818677779232589,
                        0.04753485138719782,
                        -0.008562041502542806,
                        -0.08683407306671143,
                        -0.11290204524993897
                    ]
                },
                {
                    "row": 1,
                    "column": 4,
                    "elements": [
                        -0.6060028076171875,
                        0.8082827153089637,
                        0.031464457511901858,
                        -0.6956338882446289
                    ]
                }
            ]
        },
        {
            "inputSize": 0,
            "hiddenSize": 8,
            "hiddenLayers": 1,
            "outputSize": 4,
            "weights": [
                {
                    "row": 0,
                    "column": 8,
                    "elements": []
                },
                {
                    "row": 8,
                    "column": 4,
                    "elements": [
                        -0.9079747200012207,
                        -0.5297472830374765,
                        -0.2952442426585016,
                        0.4233202644275469,
                        0.8351926065839122,
                        -0.9416126653876582,
                        -0.18554924231422199,
                        -0.27311503887176516,
                        -0.0786925909153755,
                        0.7861940860748291,
                        0.4221222999096348,
                        0.8033132553100586,
                        0.2387147500151272,
                        0.3741841829299162,
                        0.44070836901664736,
                        0.5012433563188381,
                        -0.7300529356384402,
                        -0.30240588168606666,
                        -0.9355642634358077,
                        -0.7574249986924606,
                        -0.900431272017812,
                        0.2108111941985067,
                        0.8934205453969852,
                        -0.310029016002197,
                        -0.6308021914005906,
                        -0.5075247428093181,
                        0.32999448269876288,
                        0.020276131922450703,
                        0.908116716364944,
                        -0.49719805862900698,
                        0.6736516813106483,
                        0.3577460902041807
                    ]
                }
            ],
            "biases": [
                {
                    "row": 1,
                    "column": 8,
                    "elements": [
                        -0.8858315403362926,
                        0.2571277517652508,
                        0.2137380838394165,
                        -0.4991379976272583,
                        0.018600266573500336,
                        -0.008562041502542806,
                        -0.08683407306671143,
                        -0.11290204524993897
                    ]
                },
                {
                    "row": 1,
                    "column": 4,
                    "elements": [
                        -0.6051142323595355,
                        0.7042669102228357,
                        0.031464457511901858,
                        -0.6956338882446289
                    ]
                }
            ]
        },
        {
            "inputSize": 0,
            "hiddenSize": 8,
            "hiddenLayers": 1,
            "outputSize": 4,
            "weights": [
                {
                    "row": 0,
                    "column": 8,
                    "elements": []
                },
                {
                    "row": 8,
                    "column": 4,
                    "elements": [
                        -0.9079747200012207,
                        -0.5297472830374765,
                        -0.33897883540359077,
                        0.3450155831143231,
                        0.8393006324768066,
                        -0.925331867020762,
                        -0.22247833380469296,
                        -0.27311503887176516,
                        -0.14269190568048363,
                        0.7111248677941475,
                        0.3740336377585898,
                        0.8033132553100586,
                        0.3387257182636123,
                        0.3741841829299162,
                        0.44070836901664736,
                        2.1559393405914308,
                        -0.6874146905073353,
                        -0.28666898883738059,
                        -0.9198250895917812,
                        -0.8524543017277715,
                        -0.900431272017812,
                        0.20757335964606628,
                        0.9274938995646593,
                        -0.2340280912559649,
                        -0.6308021914005906,
                        -0.49661818761738188,
                        0.3425013761748872,
                        0.06447362031772386,
                        1.00873851124922,
                        -0.49719805862900698,
                        0.634483814239502,
                        0.3577460902041807
                    ]
                }
            ],
            "biases": [
                {
                    "row": 1,
                    "column": 8,
                    "elements": [
                        -0.9130795001983643,
                        0.2571277517652508,
                        0.2137380838394165,
                        -0.4991379976272583,
                        0.04753485138719782,
                        -0.008562041502542806,
                        -0.06808770582094326,
                        -0.11290204524993897
                    ]
                },
                {
                    "row": 1,
                    "column": 4,
                    "elements": [
                        -0.6060028076171875,
                        0.7042669102228357,
                        0.000490106305505833,
                        -0.7034598305950937
                    ]
                }
            ]
        },
        {
            "inputSize": 0,
            "hiddenSize": 8,
            "hiddenLayers": 1,
            "outputSize": 4,
            "weights": [
                {
                    "row": 0,
                    "column": 8,
                    "elements": []
                },
                {
                    "row": 8,
                    "column": 4,
                    "elements": [
                        -0.9965191566365732,
                        -0.468871027967257,
                        -0.34381672169087809,
                        0.36773596325051019,
                        0.8476131186212097,
                        -0.9202666366883385,
                        -0.19389917925051848,
                        -0.3117477623078315,
                        -0.019985227361241088,
                        0.7861940860748291,
                        0.30299883392960327,
                        0.6860557557242117,
                        0.32363006472587588,
                        0.4009463464403247,
                        0.44070836901664736,
                        2.1559393405914308,
                        -0.7300529356384402,
                        -0.3323107878359668,
                        -0.9391989435682635,
                        -0.6542677866275106,
                        -0.900431272017812,
                        0.20757335964606628,
                        0.9274938995646593,
                        -0.310029016002197,
                        -0.6308021914005906,
                        -0.5579901176154589,
                        0.3425013761748872,
                        0.020276131922450703,
                        0.908116716364944,
                        -0.49719805862900698,
                        0.634483814239502,
                        0.3577460902041807
                    ]
                }
            ],
            "biases": [
                {
                    "row": 1,
                    "column": 8,
                    "elements": [
                        -0.9130795001983643,
                        0.2571277517652508,
                        0.2137380838394165,
                        -0.5529306349671934,
                        0.02677351745426826,
                        -0.14377841173609308,
                        -0.08683407306671143,
                        -0.11290204524993897
                    ]
                },
                {
                    "row": 1,
                    "column": 4,
                    "elements": [
                        -0.6060028076171875,
                        0.650271147397992,
                        -0.1129914364995912,
                        -0.7754650791419024
                    ]
                }
            ]
        },
        {
            "inputSize": 0,
            "hiddenSize": 8,
            "hiddenLayers": 1,
            "outputSize": 4,
            "weights": [
                {
                    "row": 0,
                    "column": 8,
                    "elements": []
                },
                {
                    "row": 8,
                    "column": 4,
                    "elements": [
                        -0.9079747200012207,
                        -0.5297472830374765,
                        -0.2952442426585016,
                        0.3858401148612085,
                        0.8010046729129172,
                        -0.9416126653876582,
                        -0.22634940172089025,
                        -0.27311503887176516,
                        -0.1535429766945331,
                        0.7861940860748291,
                        0.4221222999096348,
                        0.8182844543445587,
                        0.32363006472587588,
                        0.3741841829299162,
                        0.44070836901664736,
                        0.46635015811109428,
                        -0.7008821680064816,
                        -0.29129320855791188,
                        -0.9355642634358077,
                        -0.7607875070187331,
                        -0.8600239739930267,
                        0.17237259788278126,
                        0.9119096601777734,
                        -0.310029016002197,
                        -0.6291590835038212,
                        -0.5131328835603677,
                        0.3425013761748872,
                        0.001635458021183922,
                        0.8677104232745094,
                        -0.6624159750071041,
                        0.634483814239502,
                        0.3577460902041807
                    ]
                }
            ],
            "biases": [
                {
                    "row": 1,
                    "column": 8,
                    "elements": [
                        -0.9130795001983643,
                        0.2595841470418925,
                        0.2137380838394165,
                        -0.4991379976272583,
                        0.04753485138719782,
                        -0.008562041502542806,
                        -0.08683407306671143,
                        -0.11290204524993897
                    ]
                },
                {
                    "row": 1,
                    "column": 4,
                    "elements": [
                        -0.6060028076171875,
                        0.5165564030004018,
                        0.031464457511901858,
                        -0.6956226501201936
                    ]
                }
            ]
        },
        {
            "inputSize": 0,
            "hiddenSize": 8,
            "hiddenLayers": 1,
            "outputSize": 4,
            "weights": [
                {
                    "row": 0,
                    "column": 8,
                    "elements": []
                },
                {
                    "row": 8,
                    "column": 4,
                    "elements": [
                        -0.9079747200012207,
                        -0.5897101779525364,
                        -0.2952442426585016,
                        0.3450155831143231,
                        0.8393006324768066,
                        -0.9416126653876582,
                        -0.19389917925051848,
                        -0.27311503887176516,
                        -0.12081045529040502,
                        0.7861940860748291,
                        0.35910569918094029,
                        0.8033132553100586,
                        0.32363006472587588,
                        0.3741841829299162,
                        0.440955995759522,
                        2.1559393405914308,
                        -0.7300529356384402,
                        -0.30240588168606666,
                        -2.7210772037506105,
                        -0.7574249986924606,
                        -0.900431272017812,
                        1.2414523363113404,
                        0.9274938995646593,
                        -0.310029016002197,
                        -0.6308021914005906,
                        -0.5075247428093181,
                        0.3425013761748872,
                        0.02879689786362416,
                        0.8955356437133561,
                        -0.49719805862900698,
                        0.634483814239502,
                        0.3577460902041807
                    ]
                }
            ],
            "biases": [
                {
                    "row": 1,
                    "column": 8,
                    "elements": [
                        -0.9130795001983643,
                        0.24685459221072326,
                        0.2137380838394165,
                        -0.4991379976272583,
                        0.04753485138719782,
                        -0.008562041502542806,
                        -0.08683407306671143,
                        -0.11290204524993897
                    ]
                },
                {
                    "row": 1,
                    "column": 4,
                    "elements": [
                        -0.7046306339354445,
                        0.7042669102228357,
                        0.000490106305505833,
                        -0.7754650791419024
                    ]
                }
            ]
        },
        {
            "inputSize": 0,
            "hiddenSize": 8,
            "hiddenLayers": 1,
            "outputSize": 4,
            "weights": [
                {
                    "row": 0,
                    "column": 8,
                    "elements": []
                },
                {
                    "row": 8,
                    "column": 4,
                    "elements": [
                        -0.9079747200012207,
                        -0.5297472830374765,
                        -0.2952442426585016,
                        0.3858401148612085,
                        0.8793205622839899,
                        -1.0737713887483048,
                        -0.18554924231422199,
                        -0.27311503887176516,
                        0.005904628098681641,
                        0.7861940860748291,
                        0.3703819924299232,
                        0.8033132553100586,
                        0.32363006472587588,
                        0.41650918537470008,
                        0.44070836901664736,
                        0.4349637802445727,
                        -0.772267710017168,
                        -0.30240588168606666,
                        -0.9355642634358077,
                        -0.7574249986924606,
                        -0.9115441722396724,
                        0.11410872866618549,
                        0.9274938995646593,
                        -0.30966293519316687,
                        -0.6308021914005906,
                        -0.4953521044457725,
                        0.3425013761748872,
                        0.020276131922450703,
                        0.9590512560380553,
                        -0.49719805862900698,
                        0.6013935576641458,
                        0.3577460902041807
                    ]
                }
            ],
            "biases": [
                {
                    "row": 1,
                    "column": 8,
                    "elements": [
                        -0.9130795001983643,
                        0.2571277517652508,
                        0.2137380838394165,
                        -0.4991379976272583,
                        0.04753485138719782,
                        -0.008562041502542806,
                        -0.08683407306671143,
                        -0.11290204524993897
                    ]
                },
                {
                    "row": 1,
                    "column": 4,
                    "elements": [
                        -0.5892343067420125,
                        0.7042669102228357,
                        -0.005822773269304804,
                        -0.6956338882446289
                    ]
                }
            ]
        },
        {
            "inputSize": 0,
            "hiddenSize": 8,
            "hiddenLayers": 1,
            "outputSize": 4,
            "weights": [
                {
                    "row": 0,
                    "column": 8,
                    "elements": []
                },
                {
                    "row": 8,
                    "column": 4,
                    "elements": [
                        -0.8370233507573062,
                        -0.6138835912360996,
                        -0.2952442426585016,
                        0.3450155831143231,
                        0.8393006324768066,
                        -0.9416126653876582,
                        -0.22537863692611283,
                        -0.27311503887176516,
                        -0.1535429766945331,
                        0.8455287039015538,
                        0.4221222999096348,
                        0.8033132553100586,
                        0.3406940449104301,
                        0.3741841829299162,
                        0.389205065111188,
                        2.2465107977617366,
                        -0.7300529356384402,
                        -0.30240588168606666,
                        -0.9391989435682635,
                        -0.7213749815720192,
                        -0.900431272017812,
                        0.2984915298962503,
                        0.9274938995646593,
                        -0.310029016002197,
                        -0.6293314987001174,
                        -0.5075247428093181,
                        0.3425013761748872,
                        0.020276131922450703,
                        0.908116716364944,
                        -0.5236155833012579,
                        0.634483814239502,
                        0.3577460902041807
                    ]
                }
            ],
            "biases": [
                {
                    "row": 1,
                    "column": 8,
                    "elements": [
                        -0.9130795001983643,
                        0.3640352500815187,
                        0.2137380838394165,
                        -0.4991379976272583,
                        0.06994711006834642,
                        0.056980606556294669,
                        -0.08683407306671143,
                        -0.11290204524993897
                    ]
                },
                {
                    "row": 1,
                    "column": 4,
                    "elements": [
                        -0.6060028076171875,
                        -0.30995139479637148,
                        -0.7621520757675171,
                        -0.884784477120661
                    ]
                }
            ]
        },
        {
            "inputSize": 0,
            "hiddenSize": 8,
            "hiddenLayers": 1,
            "outputSize": 4,
            "weights": [
                {
                    "row": 0,
                    "column": 8,
                    "elements": []
                },
                {
                    "row": 8,
                    "column": 4,
                    "elements": [
                        -0.9079747200012207,
                        -0.5297472830374765,
                        -0.2952442426585016,
                        0.3858401148612085,
                        0.8393006324768066,
                        -0.9416126653876582,
                        -0.18554924231422199,
                        -0.23685990427910753,
                        -0.1535429766945331,
                        0.7861940860748291,
                        0.4604388159242312,
                        0.8033132553100586,
                        0.32363006472587588,
                        0.4368392576318243,
                        0.44070836901664736,
                        0.4349637802445727,
                        -0.7944420764187754,
                        -0.320383232754617,
                        -0.9355642634358077,
                        -0.7986289557416697,
                        -0.900431272017812,
                        0.20757335964606628,
                        0.9274938995646593,
                        -0.310029016002197,
                        -0.4429446705080693,
                        -0.5075247428093181,
                        0.32230305224167035,
                        0.020276131922450703,
                        0.8787144866027781,
                        -0.6174081054055418,
                        0.634483814239502,
                        0.3577460902041807
                    ]
                }
            ],
            "biases": [
                {
                    "row": 1,
                    "column": 8,
                    "elements": [
                        -0.9018590442848025,
                        0.2571277517652508,
                        0.18446288886566188,
                        -0.4991379976272583,
                        0.04753485138719782,
                        -0.008562041502542806,
                        -0.08683407306671143,
                        -0.11290204524993897
                    ]
                },
                {
                    "row": 1,
                    "column": 4,
                    "elements": [
                        -0.6590819558731376,
                        0.7042669102228357,
                        0.031464457511901858,
                        -0.6956338882446289
                    ]
                }
            ]
        },
        {
            "inputSize": 0,
            "hiddenSize": 8,
            "hiddenLayers": 1,
            "outputSize": 4,
            "weights": [
                {
                    "row": 0,
                    "column": 8,
                    "elements": []
                },
                {
                    "row": 8,
                    "column": 4,
                    "elements": [
                        -0.9079747200012207,
                        -0.5297472830374765,
                        -0.2952442426585016,
                        0.3858401148612085,
                        0.8393006324768066,
                        -0.9416126653876582,
                        -0.18554924231422199,
                        -0.27311503887176516,
                        -0.1535429766945331,
                        0.7861940860748291,
                        0.4221222999096348,
                        0.8033132553100586,
                        0.3708902854625471,
                        0.3741841829299162,
                        0.4998545419830549,
                        0.4349637802445727,
                        -0.6926543466870676,
                        -0.30240588168606666,
                        -0.9355642634358077,
                        -0.7827097871136459,
                        -0.900431272017812,
                        0.20757335964606628,
                        0.8783008217145927,
                        -0.31845125635571139,
                        -0.6308021914005906,
                        -0.5075247428093181,
                        0.3425013761748872,
                        0.020276131922450703,
                        0.908116716364944,
                        -0.49719805862900698,
                        0.634483814239502,
                        0.3553493447997089
                    ]
                }
            ],
            "biases": [
                {
                    "row": 1,
                    "column": 8,
                    "elements": [
                        -0.9130795001983643,
                        0.2571277517652508,
                        0.2137380838394165,
                        -0.4991379976272583,
                        0.04753485138719782,
                        -0.008562041502542806,
                        -0.08683407306671143,
                        0.8297414779663086
                    ]
                },
                {
                    "row": 1,
                    "column": 4,
                    "elements": [
                        -0.6060028076171875,
                        0.7042669102228357,
                        0.031464457511901858,
                        -0.6956338882446289
                    ]
                }
            ]
        },
        {
            "inputSize": 0,
            "hiddenSize": 8,
            "hiddenLayers": 1,
            "outputSize": 4,
            "weights": [
                {
                    "row": 0,
                    "column": 8,
                    "elements": []
                },
                {
                    "row": 8,
                    "column": 4,
                    "elements": [
                        -0.9289828994277389,
                        0.330296128988266,
                        -0.2952442426585016,
                        0.3450155831143231,
                        0.8393006324768066,
                        -0.9416126653876582,
                        -0.19389917925051848,
                        -0.28151002172211739,
                        -0.1535429766945331,
                        0.7861940860748291,
                        0.4221222999096348,
                        0.8033132553100586,
                        0.32363006472587588,
                        0.3227366296351164,
                        0.44070836901664736,
                        2.1559393405914308,
                        -0.7300529356384402,
                        -0.30240588168606666,
                        -0.9391989435682635,
                        -0.7574249986924606,
                        -0.900431272017812,
                        0.20757335964606628,
                        1.0378296616813998,
                        -0.310029016002197,
                        -0.5164754165520193,
                        -0.5075247428093181,
                        0.2954489801535054,
                        0.020276131922450703,
                        0.908116716364944,
                        -0.5281395295278526,
                        0.634483814239502,
                        0.3577460902041807
                    ]
                }
            ],
            "biases": [
                {
                    "row": 1,
                    "column": 8,
                    "elements": [
                        -0.9130795001983643,
                        0.2571277517652508,
                        0.28452215475972766,
                        -0.4991379976272583,
                        0.04753485138719782,
                        0.07941452497016888,
                        -0.0918930109365359,
                        -0.11290204524993897
                    ]
                },
                {
                    "row": 1,
                    "column": 4,
                    "elements": [
                        -0.6060028076171875,
                        0.7042669102228357,
                        0.000490106305505833,
                        -0.7754650791419024
                    ]
                }
            ]
        },
        {
            "inputSize": 0,
            "hiddenSize": 8,
            "hiddenLayers": 1,
            "outputSize": 4,
            "weights": [
                {
                    "row": 0,
                    "column": 8,
                    "elements": []
                },
                {
                    "row": 8,
                    "column": 4,
                    "elements": [
                        -0.9079747200012207,
                        -0.5297472830374765,
                        -0.3642728112850868,
                        0.3450155831143231,
                        0.8393006324768066,
                        -0.9416126653876582,
                        -0.19389917925051848,
                        -0.27311503887176516,
                        -0.16725889649576509,
                        0.7861940860748291,
                        0.4221222999096348,
                        0.8033132553100586,
                        0.32363006472587588,
                        0.4069989730522181,
                        0.4670640008193505,
                        2.1559393405914308,
                        -0.7300529356384402,
                        -0.28049323094541736,
                        -1.0375358968242726,
                        -0.7574249986924606,
                        -0.900431272017812,
                        0.2530214584425967,
                        0.8276538077067457,
                        -0.3519194254674467,
                        -0.6308021914005906,
                        -0.5075247428093181,
                        0.3425013761748872,
                        0.020276131922450703,
                        1.035077962178363,
                        -0.49719805862900698,
                        1.8505699634552003,
                        0.3577460902041807
                    ]
                }
            ],
            "biases": [
                {
                    "row": 1,
                    "column": 8,
                    "elements": [
                        -0.9082856374564226,
                        0.303625942585396,
                        0.2137380838394165,
                        -0.4991379976272583,
                        0.04753485138719782,
                        -0.07075143463305944,
                        -0.08683407306671143,
                        -0.142602917540108
                    ]
                },
                {
                    "row": 1,
                    "column": 4,
                    "elements": [
                        -0.7259257078140138,
                        0.7042669102228357,
                        0.000490106305505833,
                        -0.808494367315788
                    ]
                }
            ]
        },
        {
            "inputSize": 0,
            "hiddenSize": 8,
            "hiddenLayers": 1,
            "outputSize": 4,
            "weights": [
                {
                    "row": 0,
                    "column": 8,
                    "elements": []
                },
                {
                    "row": 8,
                    "column": 4,
                    "elements": [
                        -0.9079747200012207,
                        -0.5086158739832207,
                        -0.2952442426585016,
                        0.36340049407074206,
                        0.8175705883212867,
                        -0.9416126653876582,
                        -0.19553102723339589,
                        -0.27311503887176516,
                        -0.1535429766945331,
                        0.7861940860748291,
                        0.4221222999096348,
                        0.7928527336136293,
                        0.3086467018730099,
                        0.3741841829299162,
                        0.44070836901664736,
                        0.5047796809603966,
                        -0.7300529356384402,
                        -0.30240588168606666,
                        -0.9355642634358077,
                        -0.7574249986924606,
                        -0.900431272017812,
                        0.20757335964606628,
                        0.8841927196270909,
                        -0.310029016002197,
                        -0.6308021914005906,
                        -0.5075247428093181,
                        0.3425013761748872,
                        0.1253418180317425,
                        0.908116716364944,
                        -0.49719805862900698,
                        0.634483814239502,
                        0.3577460902041807
                    ]
                }
            ],
            "biases": [
                {
                    "row": 1,
                    "column": 8,
                    "elements": [
                        -0.9924303253233759,
                        0.2891856582362611,
                        0.23898906569683477,
                        -0.4991379976272583,
                        0.04753485138719782,
                        -0.060327179086161589,
                        -0.09445566684490814,
                        -0.06793029606454582
                    ]
                },
                {
                    "row": 1,
                    "column": 4,
                    "elements": [
                        -0.6060028076171875,
                        0.7042669102228357,
                        0.031464457511901858,
                        -0.6956338882446289
                    ]
                }
            ]
        },
        {
            "inputSize": 0,
            "hiddenSize": 8,
            "hiddenLayers": 1,
            "outputSize": 4,
            "weights": [
                {
                    "row": 0,
                    "column": 8,
                    "elements": []
                },
                {
                    "row": 8,
                    "column": 4,
                    "elements": [
                        -0.9079747200012207,
                        -0.5092713218499565,
                        -0.2952442426585016,
                        0.04101703315973282,
                        0.8393006324768066,
                        -0.9416126653876582,
                        -0.20322862319518898,
                        -0.27311503887176516,
                        -0.1535429766945331,
                        0.8600902205267005,
                        0.4221222999096348,
                        0.8033132553100586,
                        0.2972891010307883,
                        0.3741841829299162,
                        0.5223814507990312,
                        2.1559393405914308,
                        -0.7300529356384402,
                        -0.2868021390625888,
                        -0.8607867414320569,
                        -0.7574249986924606,
                        -0.900431272017812,
                        0.20757335964606628,
                        0.9274938995646593,
                        -0.23807565210863403,
                        -0.6308021914005906,
                        -0.45145400155042916,
                        0.20875621552585955,
                        0.020276131922450703,
                        0.8924727066299951,
                        -0.49719805862900698,
                        0.634483814239502,
                        0.3577460902041807
                    ]
                }
            ],
            "biases": [
                {
                    "row": 1,
                    "column": 8,
                    "elements": [
                        -0.9130795001983643,
                        0.21212530737867153,
                        0.1996288475748207,
                        -0.5356934502345503,
                        0.04753485138719782,
                        -0.008562041502542806,
                        -0.08683407306671143,
                        -0.11290204524993897
                    ]
                },
                {
                    "row": 1,
                    "column": 4,
                    "elements": [
                        -0.6060028076171875,
                        0.7042669102228357,
                        0.000490106305505833,
                        -0.7329003301170047
                    ]
                }
            ]
        },
        {
            "inputSize": 0,
            "hiddenSize": 8,
            "hiddenLayers": 1,
            "outputSize": 4,
            "weights": [
                {
                    "row": 0,
                    "column": 8,
                    "elements": []
                },
                {
                    "row": 8,
                    "column": 4,
                    "elements": [
                        -0.9079747200012207,
                        -0.5297472830374765,
                        -0.2952442426585016,
                        0.3858401148612085,
                        0.6985757771839758,
                        -1.0746572330141569,
                        -0.18554924231422199,
                        -0.27311503887176516,
                        -0.1535429766945331,
                        0.7711367702461356,
                        0.3250349735782052,
                        0.8033132553100586,
                        0.32363006472587588,
                        0.3741841829299162,
                        0.4502624143987328,
                        0.4349637802445727,
                        -0.753584989805713,
                        -0.30896653703399626,
                        -0.9225906387504557,
                        -0.7065003796168199,
                        -0.7905630225272233,
                        0.235305665678736,
                        0.9274938995646593,
                        -0.3777981336662606,
                        -0.6274733061302777,
                        -0.47743148657048986,
                        0.3425013761748872,
                        -0.044474055663307868,
                        0.9294638841090706,
                        -0.47105533343380875,
                        0.634483814239502,
                        0.3577460902041807
                    ]
                }
            ],
            "biases": [
                {
                    "row": 1,
                    "column": 8,
                    "elements": [
                        -0.9130795001983643,
                        0.2571277517652508,
                        0.25667092493903,
                        -0.4184746424093504,
                        0.11329963642919694,
                        -0.008562041502542806,
                        -0.08683407306671143,
                        -0.11290204524993897
                    ]
                },
                {
                    "row": 1,
                    "column": 4,
                    "elements": [
                        -0.6060028076171875,
                        0.7042669102228357,
                        0.031464457511901858,
                        -0.6956338882446289
                    ]
                }
            ]
        },
        {
            "inputSize": 0,
            "hiddenSize": 8,
            "hiddenLayers": 1,
            "outputSize": 4,
            "weights": [
                {
                    "row": 0,
                    "column": 8,
                    "elements": []
                },
                {
                    "row": 8,
                    "column": 4,
                    "elements": [
                        0.010731703601777554,
                        -0.5945203087398348,
                        -0.2952442426585016,
                        0.3858401148612085,
                        0.677610715163155,
                        -0.9251895382759401,
                        -0.11471729217295312,
                        -0.27311503887176516,
                        -0.16271284886600946,
                        0.7861940860748291,
                        0.4221222999096348,
                        0.8433629254519808,
                        0.32363006472587588,
                        0.3741841829299162,
                        0.44070836901664736,
                        0.4209672933226072,
                        -0.7300529356384402,
                        -0.3257048626095198,
                        -0.9355642634358077,
                        0.07034740597009659,
                        -0.900431272017812,
                        0.20757335964606628,
                        0.9274938995646593,
                        -0.35487692222803349,
                        -0.6308021914005906,
                        -0.5075247428093181,
                        0.3425013761748872,
                        0.020276131922450703,
                        0.908116716364944,
                        -0.49719805862900698,
                        0.634483814239502,
                        0.3322082961491244
                    ]
                }
            ],
            "biases": [
                {
                    "row": 1,
                    "column": 8,
                    "elements": [
                        -0.9369577274274121,
                        0.2571277517652508,
                        0.2983433423282804,
                        -0.4991379976272583,
                        0.04753485138719782,
                        -0.008562041502542806,
                        -0.11610637304275429,
                        -0.11290204524993897
                    ]
                },
                {
                    "row": 1,
                    "column": 4,
                    "elements": [
                        -0.6060028076171875,
                        0.708448430433798,
                        0.031464457511901858,
                        -0.6956338882446289
                    ]
                }
            ]
        },
        {
            "inputSize": 0,
            "hiddenSize": 8,
            "hiddenLayers": 1,
            "outputSize": 4,
            "weights": [
                {
                    "row": 0,
                    "column": 8,
                    "elements": []
                },
                {
                    "row": 8,
                    "column": 4,
                    "elements": [
                        -0.9079747200012207,
                        -0.5667116259083613,
                        -0.27583786779049115,
                        0.3450155831143231,
                        0.8562883145406914,
                        -0.9416126653876582,
                        -0.19389917925051848,
                        -0.21866231701959294,
                        -0.18777594018632905,
                        0.748098441040689,
                        0.4221222999096348,
                        0.8033132553100586,
                        0.32363006472587588,
                        0.3741841829299162,
                        0.44070836901664736,
                        2.1559393405914308,
                        -0.682790168591243,
                        -0.3370908045673886,
                        -0.9391989435682635,
                        -0.7574249986924606,
                        -0.900431272017812,
                        0.20757335964606628,
                        0.9274938995646593,
                        -0.2692580175730974,
                        -0.6308021914005906,
                        -0.43509986085731536,
                        0.3425013761748872,
                        0.029850151317723396,
                        0.908116716364944,
                        -0.5286175742951547,
                        0.6400617953371199,
                        0.3577460902041807
                    ]
                }
            ],
            "biases": [
                {
                    "row": 1,
                    "column": 8,
                    "elements": [
                        -0.9130795001983643,
                        0.2571277517652508,
                        0.33429103853515587,
                        -0.4508420472027481,
                        0.04753485138719782,
                        -0.008562041502542806,
                        -0.08683407306671143,
                        -0.11290204524993897
                    ]
                },
                {
                    "row": 1,
                    "column": 4,
                    "elements": [
                        -0.6060028076171875,
                        0.8226967140087081,
                        0.000490106305505833,
                        -0.7670498277312889
                    ]
                }
            ]
        },
        {
            "inputSize": 0,
            "hiddenSize": 8,
            "hiddenLayers": 1,
            "outputSize": 4,
            "weights": [
                {
                    "row": 0,
                    "column": 8,
                    "elements": []
                },
                {
                    "row": 8,
                    "column": 4,
                    "elements": [
                        0.1786811798810959,
                        -0.3966697135099473,
                        -0.3529211515360693,
                        0.3819011584440073,
                        0.8393006324768066,
                        -0.9416126653876582,
                        -0.19389917925051848,
                        -0.27311503887176516,
                        -0.1535429766945331,
                        0.7861940860748291,
                        0.4490315664971014,
                        0.8033132553100586,
                        0.32363006472587588,
                        0.3741841829299162,
                        0.4116510445254118,
                        2.1559393405914308,
                        -0.7300529356384402,
                        -0.3075570947022275,
                        -0.9361924077547914,
                        -0.6988945679570939,
                        -0.900431272017812,
                        0.20757335964606628,
                        0.9274938995646593,
                        -0.310029016002197,
                        -0.6308021914005906,
                        -0.5075247428093181,
                        0.40974654038032556,
                        0.020276131922450703,
                        0.908116716364944,
                        -0.40441444412134727,
                        0.634483814239502,
                        0.3577460902041807
                    ]
                }
            ],
            "biases": [
                {
                    "row": 1,
                    "column": 8,
                    "elements": [
                        -0.9562547379007036,
                        0.2857959985776042,
                        0.2137380838394165,
                        -0.4991379976272583,
                        0.04753485138719782,
                        -0.008562041502542806,
                        -0.08683407306671143,
                        -0.11290204524993897
                    ]
                },
                {
                    "row": 1,
                    "column": 4,
                    "elements": [
                        -0.6060028076171875,
                        0.7686314748150606,
                        0.018789571020011665,
                        -0.7155493839548228
                    ]
                }
            ]
        },
        {
            "inputSize": 0,
            "hiddenSize": 8,
            "hiddenLayers": 1,
            "outputSize": 4,
            "weights": [
                {
                    "row": 0,
                    "column": 8,
                    "elements": []
                },
                {
                    "row": 8,
                    "column": 4,
                    "elements": [
                        -0.9079747200012207,
                        -0.5297472830374765,
                        -0.2952442426585016,
                        0.3858401148612085,
                        0.8393006324768066,
                        -0.9416126653876582,
                        -0.23712986894423516,
                        -0.27311503887176516,
                        -0.1535429766945331,
                        0.7711367702461356,
                        0.2860266943735077,
                        0.7098026619946722,
                        0.2813720745937829,
                        0.3741841829299162,
                        0.4407962367974678,
                        0.5138676992620432,
                        -0.753584989805713,
                        -0.30896653703399626,
                        -0.9225906387504557,
                        -0.7065003796168199,
                        -0.9628186908596277,
                        0.13346824355270438,
                        0.9274938995646593,
                        -0.3777981336662606,
                        -0.5958721619912604,
                        -0.47743148657048986,
                        0.3425013761748872,
                        -0.044474055663307868,
                        0.908116716364944,
                        -0.49719805862900698,
                        0.5957445284231788,
                        0.3577460902041807
                    ]
                }
            ],
            "biases": [
                {
                    "row": 1,
                    "column": 8,
                    "elements": [
                        -0.9130795001983643,
                        0.2571277517652508,
                        0.22629083683303009,
                        -0.4991379976272583,
                        0.04753485138719782,
                        0.02512546078975253,
                        -0.08683407306671143,
                        -0.11290204524993897
                    ]
                },
                {
                    "row": 1,
                    "column": 4,
                    "elements": [
                        -0.6060028076171875,
                        0.7042669102228357,
                        0.031464457511901858,
                        -0.6956338882446289
                    ]
                }
            ]
        },
        {
            "inputSize": 0,
            "hiddenSize": 8,
            "hiddenLayers": 1,
            "outputSize": 4,
            "weights": [
                {
                    "row": 0,
                    "column": 8,
                    "elements": []
                },
                {
                    "row": 8,
                    "column": 4,
                    "elements": [
                        -0.9079747200012207,
                        -0.5297472830374765,
                        -0.3594696756991773,
                        0.3858401148612085,
                        0.8260798484793988,
                        -0.9416126653876582,
                        -0.18554924231422199,
                        -0.2533339468725089,
                        -0.08316126575267369,
                        0.7861940860748291,
                        0.2701819767181384,
                        0.7787713601373874,
                        0.32363006472587588,
                        0.3741841829299162,
                        0.44070836901664736,
                        0.4349637802445727,
                        0.6037115454673767,
                        -0.28605137978879116,
                        -0.9355642634358077,
                        -0.8153917149011853,
                        -0.900431272017812,
                        0.20757335964606628,
                        1.0030841602129997,
                        -0.310029016002197,
                        -0.6308021914005906,
                        -0.49474006634552838,
                        0.3425013761748872,
                        0.020276131922450703,
                        0.908116716364944,
                        -0.5058456572988379,
                        0.634483814239502,
                        0.3577460902041807
                    ]
                }
            ],
            "biases": [
                {
                    "row": 1,
                    "column": 8,
                    "elements": [
                        -0.9130795001983643,
                        0.2571277517652508,
                        0.1654738442792798,
                        -0.4991379976272583,
                        0.04753485138719782,
                        -0.008562041502542806,
                        -0.08683407306671143,
                        -0.0820757519870483
                    ]
                },
                {
                    "row": 1,
                    "column": 4,
                    "elements": [
                        -0.4959562305590879,
                        0.7042669102228357,
                        0.031464457511901858,
                        -0.6956338882446289
                    ]
                }
            ]
        },
        {
            "inputSize": 0,
            "hiddenSize": 8,
            "hiddenLayers": 1,
            "outputSize": 4,
            "weights": [
                {
                    "row": 0,
                    "column": 8,
                    "elements": []
                },
                {
                    "row": 8,
                    "column": 4,
                    "elements": [
                        -0.9079747200012207,
                        -0.5297472830374765,
                        -0.2952442426585016,
                        0.3450155831143231,
                        0.8393006324768066,
                        -0.9416126653876582,
                        -0.19389917925051848,
                        -0.2948474380068937,
                        -0.1535429766945331,
                        0.7861940860748291,
                        0.4221222999096348,
                        0.8033132553100586,
                        0.3177747677920144,
                        0.3684392575602988,
                        0.44070836901664736,
                        2.1559393405914308,
                        -0.7300529356384402,
                        -0.30240588168606666,
                        -0.9368501008540793,
                        -0.7574249986924606,
                        -0.8171763162788324,
                        0.20757335964606628,
                        0.9274938995646593,
                        -0.40477730219971166,
                        -0.6308021914005906,
                        -0.5075247428093181,
                        0.3425013761748872,
                        0.020276131922450703,
                        0.908116716364944,
                        -0.49719805862900698,
                        0.634483814239502,
                        0.2450761481164534
                    ]
                }
            ],
            "biases": [
                {
                    "row": 1,
                    "column": 8,
                    "elements": [
                        -0.9130795001983643,
                        0.33337796460351157,
                        0.2137380838394165,
                        -0.47691410155201377,
                        0.04753485138719782,
                        0.04390322061107843,
                        -0.08683407306671143,
                        -0.11290204524993897
                    ]
                },
                {
                    "row": 1,
                    "column": 4,
                    "elements": [
                        -0.6060028076171875,
                        0.7042669102228357,
                        0.000490106305505833,
                        -0.7754650791419024
                    ]
                }
            ]
        },
        {
            "inputSize": 0,
            "hiddenSize": 8,
            "hiddenLayers": 1,
            "outputSize": 4,
            "weights": [
                {
                    "row": 0,
                    "column": 8,
                    "elements": []
                },
                {
                    "row": 8,
                    "column": 4,
                    "elements": [
                        -0.9079747200012207,
                        -0.5297472830374765,
                        -0.2952442426585016,
                        0.3450155831143231,
                        0.7941711479373979,
                        -0.9416126653876582,
                        -0.19389917925051848,
                        -0.27311503887176516,
                        -0.19040091811770844,
                        0.7861940860748291,
                        0.3817750046910362,
                        0.8659887577166359,
                        0.32363006472587588,
                        0.3741841829299162,
                        0.44070836901664736,
                        2.1692046939637406,
                        -0.7300529356384402,
                        -0.30240588168606666,
                        -0.9311587803278243,
                        -0.7574249986924606,
                        -0.900431272017812,
                        0.20757335964606628,
                        0.9242145068640908,
                        -0.310029016002197,
                        -0.6308021914005906,
                        -0.46005247734833967,
                        0.3425013761748872,
                        0.0777041532512186,
                        0.908116716364944,
                        -0.4296459924796107,
                        0.634483814239502,
                        0.3577460902041807
                    ]
                }
            ],
            "biases": [
                {
                    "row": 1,
                    "column": 8,
                    "elements": [
                        -0.9130795001983643,
                        0.2571277517652508,
                        0.11624737113751138,
                        -0.4991379976272583,
                        0.04753485138719782,
                        -0.008562041502542806,
                        -0.08683407306671143,
                        -0.0948881714338512
                    ]
                },
                {
                    "row": 1,
                    "column": 4,
                    "elements": [
                        -0.6060028076171875,
                        0.6874725331821961,
                        0.000490106305505833,
                        -0.7754650791419024
                    ]
                }
            ]
        },
        {
            "inputSize": 0,
            "hiddenSize": 8,
            "hiddenLayers": 1,
            "outputSize": 4,
            "weights": [
                {
                    "row": 0,
                    "column": 8,
                    "elements": []
                },
                {
                    "row": 8,
                    "column": 4,
                    "elements": [
                        -0.9079747200012207,
                        -0.5297472830374765,
                        -0.2952442426585016,
                        0.3858401148612085,
                        0.8619611063663353,
                        -0.9416126653876582,
                        -0.18554924231422199,
                        -0.27311503887176516,
                        -0.1535429766945331,
                        0.85694664997866,
                        0.4221222999096348,
                        0.9741376042366028,
                        0.3328937391147484,
                        0.3979004387026759,
                        0.44070836901664736,
                        0.4349637802445727,
                        -0.7300529356384402,
                        -0.30240588168606666,
                        -0.9355642634358077,
                        -0.7574249986924606,
                        -0.9719564909625689,
                        0.21900669087469327,
                        0.9774738875030629,
                        -0.310029016002197,
                        -0.6308021914005906,
                        -0.5075247428093181,
                        0.3425013761748872,
                        0.020276131922450703,
                        0.908116716364944,
                        -0.49719805862900698,
                        0.623148932602609,
                        0.34674799747341647
                    ]
                }
            ],
            "biases": [
                {
                    "row": 1,
                    "column": 8,
                    "elements": [
                        -0.8994911382163222,
                        0.2571277517652508,
                        0.2652429470024451,
                        -0.4991379976272583,
                        0.04753485138719782,
                        -0.008562041502542806,
                        -0.10748842619476129,
                        -0.11290204524993897
                    ]
                },
                {
                    "row": 1,
                    "column": 4,
                    "elements": [
                        -0.6060028076171875,
                        0.7042669102228357,
                        0.031464457511901858,
                        -0.6956338882446289
                    ]
                }
            ]
        },
        {
            "inputSize": 0,
            "hiddenSize": 8,
            "hiddenLayers": 1,
            "outputSize": 4,
            "weights": [
                {
                    "row": 0,
                    "column": 8,
                    "elements": []
                },
                {
                    "row": 8,
                    "column": 4,
                    "elements": [
                        -0.9079747200012207,
                        -0.5297472830374765,
                        -0.2952442426585016,
                        0.3858401148612085,
                        0.8393006324768066,
                        -0.9416126653876582,
                        -0.165800136552809,
                        -0.27311503887176516,
                        -0.12997074839903889,
                        0.7861940860748291,
                        0.4221222999096348,
                        0.8033132553100586,
                        0.3360357870620776,
                        0.3741841829299162,
                        0.44070836901664736,
                        0.4349637802445727,
                        -0.7300529356384402,
                        -0.11873013223809537,
                        -0.9355642634358077,
                        -0.7574249986924606,
                        -0.900431272017812,
                        0.20757335964606628,
                        0.9274938995646593,
                        -0.310029016002197,
                        -0.6308021914005906,
                        -0.5075247428093181,
                        0.3425013761748872,
                        0.020276131922450703,
                        0.908116716364944,
                        -0.4196697481104121,
                        0.634483814239502,
                        0.3577460902041807
                    ]
                }
            ],
            "biases": [
                {
                    "row": 1,
                    "column": 8,
                    "elements": [
                        -0.9130795001983643,
                        0.2571277517652508,
                        0.2137380838394165,
                        -0.5394516615197524,
                        0.04753485138719782,
                        -0.008562041502542806,
                        -0.08683407306671143,
                        -0.20020491231691296
                    ]
                },
                {
                    "row": 1,
                    "column": 4,
                    "elements": [
                        -0.5886876528535225,
                        0.7042669102228357,
                        0.031464457511901858,
                        -0.7459184320880787
                    ]
                }
            ]
        },
        {
            "inputSize": 0,
            "hiddenSize": 8,
            "hiddenLayers": 1,
            "outputSize": 4,
            "weights": [
                {
                    "row": 0,
                    "column": 8,
                    "elements": []
                },
                {
                    "row": 8,
                    "column": 4,
                    "elements": [
                        -0.9079747200012207,
                        -0.5297472830374765,
                        -0.2952442426585016,
                        0.3450155831143231,
                        0.8690653932001098,
                        -0.9226555694881917,
                        -0.21292553336578025,
                        -0.27311503887176516,
                        -0.1535429766945331,
                        0.7861940860748291,
                        0.3536203741033539,
                        0.7673689601443492,
                        0.32363006472587588,
                        0.3741841829299162,
                        0.44070836901664736,
                        2.2200228883458594,
                        -0.7300529356384402,
                        -0.30240588168606666,
                        -0.9391989435682635,
                        -0.8147981563277185,
                        -0.8193730741595502,
                        0.10318261748754454,
                        0.9290303061650912,
                        -0.310029016002197,
                        -0.6721782747498217,
                        -0.5662749501838196,
                        0.3425013761748872,
                        0.020276131922450703,
                        0.8346732100667396,
                        -0.49719805862900698,
                        0.7041862110178627,
                        0.3577460902041807
                    ]
                }
            ],
            "biases": [
                {
                    "row": 1,
                    "column": 8,
                    "elements": [
                        -0.9130795001983643,
                        0.2571277517652508,
                        0.23188586247554533,
                        -0.4991379976272583,
                        0.04753485138719782,
                        -0.008562041502542806,
                        -0.08683407306671143,
                        -0.11290204524993897
                    ]
                },
                {
                    "row": 1,
                    "column": 4,
                    "elements": [
                        -0.6206431749320176,
                        0.7042669102228357,
                        0.000490106305505833,
                        -0.7881995652145415
                    ]
                }
            ]
        },
        {
            "inputSize": 0,
            "hiddenSize": 8,
            "hiddenLayers": 1,
            "outputSize": 4,
            "weights": [
                {
                    "row": 0,
                    "column": 8,
                    "elements": []
                },
                {
                    "row": 8,
                    "column": 4,
                    "elements": [
                        -0.9079747200012207,
                        -0.5297472830374765,
                        -0.2952442426585016,
                        0.3450155831143231,
                        0.8194349239323255,
                        -0.9416126653876582,
                        -0.22630714619839055,
                        -0.18956729318508537,
                        -0.1535429766945331,
                        0.7861940860748291,
                        0.43725783789700758,
                        0.8033132553100586,
                        0.3216254866816768,
                        0.28063304891772847,
                        0.44070836901664736,
                        2.1559393405914308,
                        -0.7300529356384402,
                        -0.21743796706630648,
                        -0.9391989435682635,
                        -0.7574249986924606,
                        -0.900431272017812,
                        0.20757335964606628,
                        0.9274938995646593,
                        -0.310029016002197,
                        -0.6415764582505164,
                        -0.5439271521404177,
                        0.25301162890932007,
                        0.020276131922450703,
                        0.908116716364944,
                        -0.49719805862900698,
                        0.634483814239502,
                        0.3577460902041807
                    ]
                }
            ],
            "biases": [
                {
                    "row": 1,
                    "column": 8,
                    "elements": [
                        -0.9130795001983643,
                        0.2571277517652508,
                        0.2137380838394165,
                        -0.4991379976272583,
                        0.04753485138719782,
                        -0.008562041502542806,
                        -0.14253583533373516,
                        -0.11290204524993897
                    ]
                },
                {
                    "row": 1,
                    "column": 4,
                    "elements": [
                        -0.6060028076171875,
                        0.7813733986535935,
                        0.017845129425552387,
                        -0.7754650791419024
                    ]
                }
            ]
        },
        {
            "inputSize": 0,
            "hiddenSize": 8,
            "hiddenLayers": 1,
            "outputSize": 4,
            "weights": [
                {
                    "row": 0,
                    "column": 8,
                    "elements": []
                },
                {
                    "row": 8,
                    "column": 4,
                    "elements": [
                        -0.9079747200012207,
                        -0.5205773733150725,
                        -0.2952442426585016,
                        0.3858401148612085,
                        0.8073840355111521,
                        -0.9416126653876582,
                        -0.18554924231422199,
                        -0.27311503887176516,
                        -0.2171656279386429,
                        0.7861940860748291,
                        0.4003227650801957,
                        0.8033132553100586,
                        0.32363006472587588,
                        0.3741841829299162,
                        0.44070836901664736,
                        0.4349637802445727,
                        -0.7300529356384402,
                        -0.30240588168606666,
                        -0.9355642634358077,
                        -0.7574249986924606,
                        -0.900431272017812,
                        0.20757335964606628,
                        0.8923667376196676,
                        -0.310029016002197,
                        -0.5754420066770472,
                        -0.5075247428093181,
                        0.3425013761748872,
                        -0.12854666318343534,
                        0.908116716364944,
                        -0.49719805862900698,
                        0.634483814239502,
                        0.3577460902041807
                    ]
                }
            ],
            "biases": [
                {
                    "row": 1,
                    "column": 8,
                    "elements": [
                        -0.9130795001983643,
                        0.2571277517652508,
                        0.263766029676912,
                        -0.4991379976272583,
                        0.04753485138719782,
                        -0.008562041502542806,
                        -0.08683407306671143,
                        -0.08679811195119491
                    ]
                },
                {
