{"weights":[{"row":15,"column":12,"elements":[-0.8818157480092144,-0.20833404674058593,1.0735046697622959,0.8027478146433442,0.43650539503162996,-0.7560635039401867,-0.34828935500816507,0.07634972693527144,-0.01860189576806958,-0.8940236909479071,2.8653593986693508,1.286194862123512,-0.15825997403927484,-1.1907476399906552,0.6681120037882494,0.9323144956401096,-0.4647972881864064,0.8644619029427034,0.984956853416422,0.29397628519898036,0.054536614238848677,-1.6957815668800403,1.001418648804045,0.8966083282083934,1.0787760813101915,0.43159253864823507,0.2583947542713038,0.7643424237846928,-1.153824692861621,1.0196691570866364,-1.7498664235882889,0.7637268755077822,0.15077294204495635,0.6863965936041443,0.44625574091704309,0.06086367725705166,-1.0008667694880449,-0.5602754613302865,0.02862433854225105,1.5182756185531617,-1.808556082590956,0.44185268767783955,0.959389652349404,0.3582562628855832,1.4033686771692274,0.9391589870243048,-0.5720204725944214,-0.498522805187785,0.6492201611671412,0.3348549267645198,-0.4147868648025891,0.7867060276745752,-0.443042173817925,0.5009915858365752,-0.8737329372580477,-0.17535747115017037,-0.09581950675741873,-1.6320319175720218,-0.3123668171413602,-0.07388975707928358,-0.5763131320423133,-0.2650445717015395,-0.6117418137982378,-0.41314822811736659,0.9147764831570362,0.673005689352155,-0.3868496133450182,-0.7063124413079296,-0.5176799341373685,0.9840257964310241,-0.24074170686700228,-0.019770292535883868,-0.39498702043655689,0.2703647048755403,-0.8217517141421454,-0.8054804066536512,-0.5630191726266927,-0.8024466791542656,0.17928971980870296,0.25431492409577319,-0.2768280384772154,0.42506108264552658,0.18962390932551269,-0.3419230078007152,-0.8419097257868541,0.39412158338823657,0.791494829895707,0.3733435006116582,-2.2348436968063769,1.7714585747546452,-0.08811433450023754,-0.6032271448686253,-0.8369213220062687,0.2391099396634715,-0.9406691549278988,0.366378604780459,0.6337323872859616,-0.13896018422914745,-0.3518220917940574,-0.6464800228515899,1.2423195612747403,1.8150790030006455,-1.2072815100030204,0.5758730339983039,0.17523911308420243,-1.0682830018205368,-1.0974140534792383,0.7808929475879917,-1.3699942468890965,1.1083212295361005,-0.5832885367934383,0.3720853480021992,0.5225733242734336,-0.3934428206422505,-1.6232528650118688,1.5416007497368585,2.6196811503360437,-0.09282577740044712,0.4851656603828109,0.22745062410831452,-0.4060333942859784,0.08803898078289209,-1.504460334777832,-1.0972805347975905,-0.4629704441281683,0.95050657255427,0.01790405801916656,0.42459789991018057,-0.8436777455010656,0.8341378148797486,1.4963393991495507,-0.5264258809044133,-0.18540305036962188,-0.7447905912118191,-1.000157203435116,-0.7078637049579163,1.066556061801735,-0.267880707806468,0.5127704876541634,0.7579207645824835,0.3831380839857072,0.09607064723968506,0.5757638115616555,-0.4218886968783795,0.04493193613577123,0.9458460586600894,0.4945998960267263,-0.10554248927519404,0.13664081050892228,0.7611935731378573,1.0427743643974608,-0.12752108676615868,-0.3926218747687898,-0.08327815595021079,-0.6032059349863537,0.7530995285725205,-0.5153849493914462,-1.1207457742114207,0.5135179965280635,-1.0607261666420347,-0.031898925803666298,0.010682900214624286,-0.6959405333059268,0.6132020097840003,-1.1084556579589844,1.8103813063552435,-0.5644450892130156,0.6074301265155455,-0.006371633910234792,0.7263023149805684,1.0804241162455062,1.1111455789383758,-1.4765374877305369,0.9222696372161343,1.0478466560602289,0.0707425210166448,-0.5610262638329306,2.090763262311921,0.36166187060298068,-0.699882692266937]},{"row":12,"column":4,"elements":[-1.6257516326611595,-0.5709152337232517,-1.1966803768340327,0.5785083438923274,0.9462330899596446,-0.7217470083727096,0.5454731744791905,0.9457310503306672,0.7579534822260584,1.75834927573968,-0.023631494030193685,0.8734100078157037,0.07144797633824221,0.7779414507958086,-0.5962498868600185,0.42027659735617059,0.052391814548841359,-0.2469521594807625,0.8092419975712233,1.0877505859881017,0.1342018099750945,0.2492336705127806,-1.3833682856913028,-0.7096202373504639,-0.3953573845129708,0.16594480735800427,-0.18365150690078736,0.3437974602914147,-0.02156641669654636,1.0812238816553608,-0.21581470084221333,0.005598454199526252,-0.29199265861806758,-0.08025538729843485,0.07074343608966868,0.2321857511997223,-1.207280947897845,-1.013866470182741,0.2971396018563943,-1.0343330679742196,-0.9009358287313134,-0.4776438795796012,-0.0657157790408034,-0.361361708062082,-0.08375392539138023,0.43782639464387787,-1.7808467370913977,-0.8733292977151711]}],"biases":[{"row":1,"column":12,"elements":[0.4591400445060215,-0.41673325473271796,-0.6559236486469566,0.06163768236621357,1.134278827001883,-1.3766572083234015,-0.5235430340198619,-0.6529681157930855,-1.133688095439352,-1.4901315621267242,0.14166144841781717,-0.47587815110645156]},{"row":1,"column":4,"elements":[0.7006131249235845,-0.3997845907624729,-0.4762756943264495,0.5395718351689174]}],"inputSize":15,"hiddenSize":12,"hiddenLayers":1,"outputSize":4}