{"weights":[{"row":21,"column":12,"elements":[-0.5413522124290466,0.7281009256799962,-0.49529923619300489,-0.2774739204101362,0.7127478411709554,0.5543515104770957,0.816679100550977,0.7249403022249208,-0.8751983412418696,-0.7559877247321039,0.8299657550637418,-0.92741075784636,0.2620728167243014,0.7779752381732159,-0.5468905585887249,2.382990890847557,-0.9470236301422119,-0.6716023749594724,0.37720119639784857,0.556809867387356,0.1607722043991089,-0.15726001711834848,0.6483734666090477,-0.7898606583249723,-0.2414744211989639,0.07811070110565943,0.5050215832120557,-0.899240327244577,0.4503438294122377,-0.12306880549910204,0.37606137231385619,0.06756239371538175,0.9775898555630533,0.6587920449190265,-0.04213901392664621,0.35218178311576056,-0.21434249381688276,0.2447153308016894,0.48715853500168296,0.29062373963352608,-0.3887404203414917,-0.25428763229751896,-0.2612723131453336,0.19027991534111789,0.7990974022623067,0.7049327743570011,-0.2798840044360227,1.0150442701561114,0.9098131405744958,-0.5406891527742452,-0.844228982925415,-0.47957397114646485,-0.18481456081476822,-0.42732187339266405,-0.7060075671860382,0.15413244327669418,-0.2720433137730396,0.3327908400260009,0.32558032870292666,0.5555989196571467,0.3962520942855894,0.14537013156879653,0.18502001084875276,-0.20037208967688437,0.8619651466802978,-0.557468559220375,0.4388549029827118,0.5167858602230009,-0.8564005592336486,0.9087605110853012,-0.7048698670481484,-0.051136430352926257,-1.5707160234451295,0.05225734332230125,0.12075938762534699,0.098621226155025,-0.5932810306549072,0.4063297578804339,0.2948153368266162,-0.5737745451633955,0.5869381197354606,-1.0726610830780406,-1.2791396379470826,0.16058569177279348,0.06073022967695607,-0.5264231669236104,-0.6263588148187473,-0.026325345039367677,0.9701619243789477,-0.48271465586058329,0.4092426176647317,0.12219579129031644,-0.9997621555095932,-0.3326930452004433,0.9432189464569092,0.40218632434012138,-0.5976875289795451,-0.3290506601333618,0.35588825212589905,-0.8008913617602289,0.7502005560804701,-0.4151455419997774,0.7150636127146717,-0.7830648967081628,-1.0165807297292862,0.8982248778578874,0.9730881294373575,-0.832547835941515,0.13553659788626505,-0.5170069534151729,0.002954081955060861,-0.08900153307013792,-0.929662288966151,0.6108727279464858,-0.9932669814737167,0.13518257601712947,0.15053403817849898,0.8665496827629582,0.21481335126150115,-0.15440879911862027,0.87721918772356,0.22208914494904787,-1.0594399349175144,-0.6729878353087031,-0.40280210971832278,0.30246664807158477,0.7763142795266855,-0.637174084936369,0.2823466956615448,0.49605652689933779,0.5850895423687241,-0.616272860915805,-0.39523019079992496,-0.10600672873127692,-0.20732346072590603,-0.2506621382029337,0.10669656972829245,-0.14981603728044647,-0.3996280788556703,0.008510857554264728,-0.4724792191248639,-0.9430817659095823,0.7030148506164551,-0.12831532955169679,-0.9461417198181152,-0.7112809904509305,-0.40791791315629846,0.7137770708711047,0.9056992237431825,0.0015053441736938567,-0.23120889661597489,0.8789537020181188,0.48214177661838067,0.4078402253564253,-0.2604071070847924,0.8095378875732422,-0.12254726886749268,0.9168927669525147,-0.408518606945508,0.8470938231209004,0.7297821044921875,-0.31354737488932296,-0.5911397760658073,0.22312651352891067,0.9291832447052002,-0.5685618041207405,-1.0796672105789185,0.5728524923324585,0.7210272550582886,-0.7259864807128906,-0.353397750961463,0.13183104991912843,0.19071970854818333,-0.552487850189209,-0.955453639070452,-0.2607498884869528,0.7986323735469814,-0.028559632023545946,0.6575060758526234,0.6442672296017245,-0.34889743504430728,1.1207606580832135,-0.05952995531499372,0.6335154766446536,-1.2710009813308716,0.48916284512430865,-0.9406776428222656,0.1122062708322602,-0.4945936685338026,0.6061092236200074,-0.7725494333496012,0.31662810461658,0.8977413697699981,-0.649923612895817,0.996071895193575,0.7191880845701135,-0.14817941188812257,-1.132307825010205,-0.9314820766448975,-0.03591358661651611,-0.7277169286776655,0.8959125586870709,-0.11474026090032652,-0.8871068638767383,-0.2282711400016879,0.5419838999176845,0.520798967379827,-0.41426408290863039,0.7534973070594724,0.40558242546107339,-1.041790246963501,0.010107077732526393,0.8926864273503608,1.059007172858923,-0.30906474590301516,-0.31410366306411677,0.43026533674493808,0.9920565696715791,0.1705803576255267,0.7169233674083984,0.23173138322512089,0.0023994393753077327,0.5210560815378855,-0.34529800297132509,0.3231628554061814,0.4496121435377347,0.4015819728374481,-1.0014725473675555,0.5216373801210992,-1.0496158614426712,-0.46041739358948066,0.0785096514258754,0.06869321752597557,0.06363609328108666,-0.14733663285282717,0.11134509536305792,-0.9455508662248882,0.46552556007728188,0.12623384996196786,0.29614012767201106,0.37770578265190127,-0.6497791809980242,0.47462204281256339,0.05633464696509627,-0.47848845940700449,-0.1221929764101759,0.10216240753483241,-0.4857308061558383,0.5405808421329716,0.9094066619873047,0.0022926442892270417,-0.7523554262035326]},{"row":12,"column":4,"elements":[0.40541794909418629,-0.05964535208003241,-0.8460180835844606,-0.08418875397383374,0.6686795198177347,-0.4830731087616176,0.10833592814132764,-0.5085102936039476,0.28362247347831728,0.8176487961060701,0.668870210647583,-0.9246417097621169,-0.045231930911540988,-0.8077188437809824,-0.5200162383047703,-0.7800755109222632,-0.5735520724828405,-0.20402320794721619,-1.1196354627609254,-0.42562833828154469,-0.9080228805541992,-0.8440129430462839,0.5701684674187035,-0.3300101103092654,0.7235066890716553,0.1639582355046194,0.3881230821513695,0.10750232979770669,0.26667474427144458,-0.3060987635548962,0.5964827888345496,0.6603292600287176,0.3927049455082887,0.38874578744823098,-0.51464431372988,-0.6353743576108109,-0.27288914634015529,1.0111281021280383,0.6103284358978272,0.4816490067660766,-0.28971149135288956,0.8059685284710358,0.294676689812583,-0.24371243958735179,-1.0273691696272938,0.8716316223144531,0.09426864962635584,-0.6503722307964281]}],"biases":[{"row":1,"column":12,"elements":[0.2851099669933319,-0.7348953953154176,0.7191104538420348,-0.21314679440336915,0.4358959117319188,0.9563541848700794,0.30444587637528999,0.057525321945926858,0.7244646549224854,0.8865953913289033,-0.4779693882346807,-0.5087542636867353]},{"row":1,"column":4,"elements":[0.5340386809811517,-0.4377420487027788,0.24285364712275737,-0.6380263604875367]}],"inputSize":21,"hiddenSize":12,"hiddenLayers":1,"outputSize":4}