{"weights":[{"row":15,"column":12,"elements":[-0.8835151675888823,-0.3008031754282106,1.1052590033234853,0.772468013385193,0.3789629014098297,-0.8589588301918278,-0.4484795723498663,0.08585285756113485,0.07195729283123698,-0.9417721385431062,2.8822909659300137,1.2699610509402489,-0.10476784340565536,-1.087992361666065,0.738878423166923,0.8702249736528842,0.09660026417676093,0.8451498098184351,1.0142382266799888,0.29837966048774897,-0.2921942603027161,-0.8429855490849427,0.5496149874324303,0.8435053372183282,1.0447753777816833,0.4434004187114139,0.33845792330967769,0.584513971685469,-1.1623091325218323,1.031807324435032,0.08270584670869291,1.0279995833261997,0.18529875547865233,0.7629664737789178,0.39232376154242529,0.02666221396454526,-1.0388382553865805,0.9955007388428792,0.07151375201326255,-0.41979581002270185,-1.7376503123242835,0.4647389601331532,0.9501691823654493,1.5167887779571812,1.3564605897422387,1.0243825961166087,0.4211507586323878,-0.45648854549671638,0.7271710450186943,0.377807405375561,-0.4698366920120805,0.6957574748708977,0.4327275259173619,0.5013150512958444,-1.0220654268752352,-0.18141338309223707,-0.14991593385317998,-0.36267837159127178,-0.29595552495523316,-0.14006300046394483,-0.5037683627880458,-0.340990724598432,-0.21583310568364925,-0.337679203238679,0.9139677552103538,0.7585938714381716,-0.4169527074600293,-0.6260257158528554,-0.5185540732628466,0.9706935896751222,-0.12778340927813906,-0.05251751130685234,-0.4146749813364472,-0.49110092832528609,-0.6960640954176119,-0.8075753951317384,-0.36871795626526907,-0.8855928628727192,0.25820187970805327,-0.3777506442860932,-0.34714361012102448,1.0557652935118128,0.5935234828908422,-0.36240843468984199,-0.7919642702195863,0.3145994165293735,0.8975775792755187,0.6854364838901247,-2.180892258564584,1.1254571274495014,0.8226793738465446,0.5840315891569082,0.19270306488872369,0.5254731915672734,1.5421086482196989,1.3453925112607333,0.7860041839981261,-1.9507141676539779,-0.3248415616284863,-0.7041850537912054,0.10515933172696379,-2.0465147192312105,-1.2295539739891684,0.6191241260615426,0.11222952875439435,-1.0321342217461663,-1.0652917559416649,0.7071370549332425,-1.436837709769571,1.162010675381374,-0.60832359551828,0.4759715571201285,0.4814303304315842,0.4281054266801036,0.28976628970859749,1.5639044055779779,2.6061734688509494,-0.25252364606409008,0.3589379980704448,-0.14845366994445309,0.8991709853636624,0.6647564508215871,-1.3257319750859236,1.069771317913395,-0.3934678446541838,0.9639027657889777,0.07738025256159997,0.36143571994455439,-1.921898919262867,-0.9862916469573975,0.12468005673754057,-0.536371500980497,-0.12050357743783763,-0.8372829980459057,-0.9444643935186677,-0.7518871712762375,-0.45789742631579735,-0.2834860384464264,0.45817345084387797,0.7399901370709813,0.2629385032015559,-0.583345741540117,0.5852102531797155,-0.40230251567553979,0.06704349455572395,-0.3487897339528803,0.5401858921124446,-0.08055813001792124,0.15997928014822797,0.7312221162369803,1.0064170523371039,-0.05273612693203816,-0.38636724750199449,0.48945854776736538,-0.6331529471288849,-0.18165140117410484,-0.582864554749996,-1.2717703580856324,0.5225043507974558,-1.1011186566625964,-0.08443154014208032,0.03564854316682109,-0.3659379797301291,0.028671434674540698,-0.19905352284017603,-0.9794704755029055,-0.5686727976966286,0.6395157635466171,-0.0817193096953365,0.6533598239470998,1.1063837138265438,1.0755822960216049,-1.443437068829848,0.8189996470536572,-0.5943490134266793,0.006392653263329884,-0.5899950839808439,2.0893455569269299,0.3529151687234801,-0.6667679139370903]},{"row":12,"column":4,"elements":[-1.6887028598727115,-0.6513729110326677,-0.2668850099733149,0.6211703489593032,0.96748548499529,-0.7528092017873784,0.5548801825592183,1.03851875421459,0.73113900597776,1.8427122374410663,0.13908938090398316,0.8816287469627692,0.15430456344594704,0.748173501432993,-0.6795921862373637,0.4631931662370733,0.06918692569551988,-0.24625533858159233,0.8986457434891153,-0.8626352195823045,0.12422171006564215,0.21954031919245468,-0.573072375330673,-0.06846033579464883,-0.28228842531562006,0.18853983424010824,0.248009574307767,-0.5139451098659141,-0.029516792493019918,1.0715974268615447,-0.29453171609189895,0.04964161854865384,-0.1968165482664495,-0.19868335386866388,0.019439119374614127,0.40418793589429516,-1.1075567988582518,-0.9711463750263115,0.22082881874533134,-0.9615188064963526,-0.8453427202470104,-0.39243354459040377,-0.009968134417009282,-0.33285769662114947,-0.1458456863525307,0.4422515098322727,-1.8232740128512597,-0.8264971665714849]}],"biases":[{"row":1,"column":12,"elements":[0.43018998395105659,-0.3382915713458933,-0.567493320279984,1.304042457794684,1.0634801803517618,-1.4224298435350636,-0.4719723741045934,-0.6674453313258082,-1.102734677551331,-1.4989888616142258,-0.6852521039855505,-0.45323799874088968]},{"row":1,"column":4,"elements":[0.6737319114421855,-0.367298094771865,-0.4257796481204657,0.5951344621365868]}],"inputSize":15,"hiddenSize":12,"hiddenLayers":1,"outputSize":4}