{"weights":[{"row":15,"column":12,"elements":[-0.8983442777606225,-0.20833404674058593,1.0769755101388179,0.8027478146433442,0.43650539503162996,-0.7560635039401867,-0.35735562271313767,0.09171707858570277,-0.01860189576806958,-0.9305995546838245,2.888934978262482,1.286194862123512,-0.16123576030107657,-1.1831405467072798,0.6854567513313292,0.9323144956401095,-0.4647972881864064,0.8644619029427034,0.9849568534164219,0.29397628519898036,0.05413594541812483,-1.6936302783889539,1.0012478898452307,0.8966083282083934,1.0806272805381086,0.43159253864823507,0.2580695972695065,0.7389175862868811,-1.16628504118922,1.0350775057794033,-1.7498664235882889,0.7637268755077822,0.1368597877538888,0.6863965936041443,0.4762756911127441,0.07063977248846337,-1.0319965104609419,-0.5602754613302865,0.0034944152834530119,-0.3396807003059387,-1.808556082590956,0.4495969324378705,0.9593896523494039,1.0571179459590097,1.4033686771692274,0.9391589870243049,-0.5518307443088195,-0.50647779706587,0.6492201611671412,0.3483034878938984,-0.44432520351880536,0.7718898964139447,-0.443042173817925,0.49903908792107989,-0.9046104964234607,-0.17535747115017037,-0.09581950675741871,-1.6320319175720215,-0.30750975753274559,-0.07388975707928358,-0.6166226604458295,-0.2650445717015395,-0.5926929732244093,-0.3474670903547263,0.9125017527043211,0.673005689352155,-0.41299409108171905,-0.7189822653865381,-0.5059715126546659,0.9485338741305346,-0.18566827517562616,-0.019770292535883868,-0.39498702043655689,0.2687709531528264,-0.8217517141421454,-0.8234244027416197,-0.5398173332214356,-0.817835279636567,0.19135730378536845,0.26937580319825185,-0.23804804747885767,0.42506108264552658,0.19200816643979813,-0.3419230078007152,-0.7921271968302291,0.39412158338823657,0.8073739646726166,0.37856462597846987,-2.248365364632813,1.7714585747546452,-0.060990399883879,-0.6081613886161968,-0.8287257353888791,0.2391099396634715,-0.9403700232505798,0.3901063097287717,0.6337323872859616,-0.11824776077147478,-0.3518220917940574,-0.6464800228515899,-0.5637970899691086,1.8412033558255339,-1.2072815100030204,0.5758730339983039,0.1822150027302582,-1.0682830018205368,-1.1201680069043636,0.7581658830096164,-1.3699942468890965,1.1107712289329759,-0.5821843625617937,0.4006175114612879,0.5275025743439776,-0.39344282064225047,-1.6205256247488067,1.54699197781536,2.6196811503360437,-0.09282577740044712,0.4889663582205653,1.757412869469583,-0.394363831491775,0.10674412548542023,-1.504460334777832,-1.1412861757512436,-0.4629704441281683,0.9505065725542701,0.017904058019166559,0.42459789991018057,-0.8319274923247546,0.7914859652519226,1.478214613535346,-0.5264258809044133,-0.18540305036962188,-0.7447905912118191,-1.0105630381157814,-0.7038412844030643,1.0522964497092016,-0.2758477165767176,0.4651051645084459,0.7579207645824835,0.3519116463997522,-0.5669093981183973,0.5644354725361656,-0.4218886968783795,0.04493193613577123,0.9458460586600894,0.49459989602672629,-0.11758187265591888,0.1384099585807221,0.7713276774016226,1.0427743643974608,-0.18138597905635835,-0.37070437953114496,-0.08327815595021079,-0.568937864100846,0.7767219448984231,-0.5153849493914462,-1.128834331154765,0.5135179965280635,-1.059968636401861,-0.03758894123091264,0.046122329897726268,-0.7237504720687866,0.628535229207893,-0.2178846320473493,1.8519124104684548,-0.5644450892130156,0.6221524823866934,-0.04828287498165476,0.7263023149805684,1.1082456349984942,1.123644877708372,-1.4765374877305369,0.9292265237097676,1.0472217656349839,0.06253122619152218,-0.5603530129194578,2.0553226536489714,0.3538919350495328,-0.6990581671525913]},{"row":12,"column":4,"elements":[-1.634431333557012,-0.5909893176756916,-0.15686481107723916,0.5978280220054971,0.9536321904555396,-0.7761891529802651,0.5454731744791905,0.9457310503306673,0.7579534822260584,1.7740236947924056,-0.004269050777446409,0.8734100078157037,0.09708811296072764,0.7779414507958086,-0.6190128715807183,0.43323189787454988,0.08206725467381261,-0.2481667091441002,0.832033509074275,1.0867296570916057,0.1342018099750945,0.22715532141596865,-1.3724113262117837,0.002909216172371054,-0.3953573845129708,0.21381137366137888,0.17085176450989465,0.3672798253747583,-0.021566416696546358,1.1141559049213479,-0.3011450157907294,0.017558984213254464,-0.299714991519076,-0.09865792578271304,0.07306325223974203,0.29702938938302989,-1.2050798926587277,-1.0138664701827407,0.2620642432959073,-1.012818402374635,-0.8793019067571742,-0.4383227988201597,-0.0657157790408034,-0.361361708062082,-0.05633589431171611,0.47224952581720988,-1.7808467370913977,-0.8718772791290426]}],"biases":[{"row":1,"column":12,"elements":[0.4327279109258465,-0.41673325473271796,-0.640678769265111,0.04785216903489374,1.134278827001883,-1.3692878988243458,-0.5235430340198619,-0.6929612722859485,-1.0889849180327842,-1.4966222091784163,0.15667672713684123,-0.47587815110645156]},{"row":1,"column":4,"elements":[0.6727060162867979,-0.3796247926505528,-0.4562861515141068,0.5225293608031423]}],"inputSize":15,"hiddenSize":12,"hiddenLayers":1,"outputSize":4}