{"weights":[{"row":15,"column":12,"elements":[-0.8983442777606225,-0.20833404674058593,1.1001349849477016,0.7894056287290256,0.403055585632006,-0.7255090103613913,-0.39501683306395188,0.08686086983337331,0.003965373529606138,-0.9845161880979296,2.7707040214301097,1.2888257407516122,-0.16123576030107657,-1.2576024772252379,0.6723585677537809,0.9434002786355024,-0.4786817635542697,0.836109403972206,0.984956853416422,0.3297365124375111,0.08536086785404351,-1.6511254164940679,0.9925632032072188,0.86311047150569,1.0788798762402368,-0.7181831002235413,0.7427102098023017,0.7548461279487871,-1.1639336636353855,-0.5410729923700489,2.1153439077511324,0.7474567664563931,0.12737029359011099,0.6863965936041443,0.4614009601429589,0.07063977248846337,-1.0308003220825229,-2.096915997511049,0.9427456259727478,-0.3396807003059387,-1.7948086089430815,0.9038964281717223,0.8953625654960284,0.9938048509104874,1.4033686771692274,0.85072193471093,-0.5409051666740732,-0.4353297534441224,0.6275537683713935,0.3742804555718872,-0.3767569732080128,0.7533480885510179,-0.4688457439885457,0.4990390879210799,-0.8871095717505499,-0.19232975627991973,-0.09908393535962777,-1.5800755333592683,-0.293203080272645,-0.05120675463752722,-0.6275849998404658,-0.1838808557093507,-0.6016355598041213,-0.26796437606729736,0.974484590128387,0.7071526471784648,-0.3868763227817915,-0.7147946273165725,-0.5286498888820215,0.9970593423490369,-0.1578620882270478,-0.019770292535883868,-0.35966800524623157,0.25573054882651577,-0.8457000936599008,-0.831558827246233,-0.5778178814500448,-0.8356244237549398,0.21203640288293849,0.2308906286872925,0.0659836009144783,0.23836315465186498,1.5299562424805884,-0.34220858776164456,-0.8123151849582657,0.4357991247855054,0.8073739646726166,0.37856462597846987,-2.2718565902444278,1.7851847409345816,-0.06135900818645863,-0.5576489125857386,-0.7992994855888433,0.28945745507482947,-0.9579600669982274,0.3901063097287717,0.6408952227238517,-0.13393138874161235,-0.3518220917940574,-0.6464800228515899,-0.5783703752230517,1.841203355825534,-1.2318200194492873,0.6463245042291633,0.17079888007206785,-1.0682830018205368,-1.100820139371124,0.7704085468347112,-1.392631597612899,1.1260419457356615,-0.5909049754888592,0.3873706154904419,0.5281966513433869,-0.3603260325183327,-1.6354680999721439,1.5561532091283823,2.6086886956953077,-0.1124025804086875,0.4878023701331791,1.7327979220308854,-0.3716840928233423,0.08745689032868823,-1.4686783107172406,-1.1360215199212325,-0.47249232667288218,0.9585818251451516,0.01790405801916656,-0.6151965260505676,-0.8461608451445843,0.7661386352482587,1.5062024340119118,-0.48896845555127579,-0.2043137512218066,-0.748737045946626,-0.9050606066970891,-0.6431867683466127,-0.06779740005731583,-0.28578622462674566,0.4571749556450581,0.7637436882318186,0.3691656326111567,-0.5669093981183973,0.5652494252023748,2.2719930194220638,-2.0717601776123049,0.8661502300962762,0.5686081338670119,-0.12561274422533917,2.676646912469539,0.8208963842366382,1.0249698101690779,-0.16526279068268516,-0.3355684698054769,-0.06798699713901022,-0.5631712841249112,0.8113110642749084,-0.19048604369163514,-1.3952125310897828,0.48636875258800618,-1.098068651369332,-0.06075811222516822,0.088134349308187,-0.7738415945300954,0.2835288345813751,-0.19570274730069094,1.8939827184518315,-0.5387331614797118,0.4372483193874359,-0.04828287498165476,0.7263023149805684,1.1042558280183717,1.1233602974989215,-1.4984904930305594,0.9810140849225256,1.0721118320599632,0.07294239071940412,-0.5606937711759061,2.055954476280513,0.27724234722421045,-0.6629548609508198]},{"row":12,"column":4,"elements":[-1.6269579907093373,-0.5805026444953799,-1.014817237854004,0.5930840645920016,0.924429517673059,-0.8081743043310952,-0.5697622703854581,0.9507062201165429,0.7322824596694336,1.714962077665232,-0.03183314422796077,0.8277198749673098,0.11223591068351882,0.8150993145358833,-0.6587694071758551,0.408485597253509,0.11528261844717276,-0.2822194362759573,0.8503762801944335,1.110787309504162,0.11971359962083067,0.21023926611475067,-1.3913151868350869,-0.026803731441085458,-0.41217240040680977,0.2081956381368378,0.1984719739440714,0.3541699190539608,-0.06377249779919886,1.1522032913728444,-0.2718280055068944,0.030212009319154959,-0.3115560726352513,-0.15547504363430299,0.11048845621670389,0.26227014643322918,-1.1875170316087223,0.22514072060585023,0.22781082323175795,-1.0048459111692814,-0.8779876832288388,-0.4383227988201597,-0.0657157790408034,-0.36123312117664288,-0.06665926179585276,0.514539881031157,-1.7728919451868913,-0.8534182670332413]}],"biases":[{"row":1,"column":12,"elements":[0.4346447682447949,-0.41673325473271796,-0.6357500407351971,0.04785216903489374,1.1237550228109153,-1.3692878988243458,-0.5017290160195129,-0.6640830794337687,-1.0889849180327842,-1.5126298596132164,0.15667672713684126,-0.5109626567445331]},{"row":1,"column":4,"elements":[0.657993253484989,-0.3782888564917155,-0.4247070624591741,0.5037526428447676]}],"inputSize":15,"hiddenSize":12,"hiddenLayers":1,"outputSize":4}