{
    "generation": 50,
    "totalPopulation": 100,
    "brainDataList": [
        {
            "inputSize": 15,
            "hiddenSize": 12,
            "hiddenLayers": 1,
            "outputSize": 4,
            "weights": [
                {
                    "row": 15,
                    "column": 12,
                    "elements": [
                        0.33639157825763457,
                        0.9858102798461914,
                        1.080361347245308,
                        0.7886774664364689,
                        0.08091180737754833,
                        0.6047479269378293,
                        -0.7146050400211443,
                        0.4861783463513667,
                        -0.8292691917773825,
                        0.029634550577775089,
                        1.044872159902587,
                        0.0015537539444281379,
                        -0.74904726131507,
                        0.352803106543206,
                        2.0158205032348635,
                        -0.777636813919294,
                        -0.028547710051800125,
                        0.2977945994726374,
                        -0.11339042301804625,
                        -0.40224034750406725,
                        -0.8688826323800756,
                        0.4970905335678446,
                        -0.6086199569626523,
                        0.6357860434548197,
                        0.8728752398998987,
                        0.5360732078552246,
                        1.0089632272720338,
                        0.9502196591774741,
                        -0.6790047182124201,
                        0.8567388924932038,
                        1.2155780792236329,
                        -0.2657319717255504,
                        0.07217720034700426,
                        0.8620928392615035,
                        -1.5370800495147706,
                        0.6128339580289719,
                        0.40650347479665069,
                        1.088956219650596,
                        -0.6948272211393003,
                        -0.5649074581342131,
                        0.27634162460126268,
                        -0.7752633112152527,
                        -0.06014413623159953,
                        0.22971265150324439,
                        0.06650172587332426,
                        -0.7082946300506592,
                        -0.8520286501077552,
                        -0.26855360928530216,
                        0.7017569741521728,
                        0.4729597169813482,
                        0.04989814646414459,
                        0.5346860821298236,
                        0.5263759297650417,
                        1.1908097760249854,
                        -0.5707522500722542,
                        1.036198620247113,
                        -0.05041429703521416,
                        0.8024269938468933,
                        -0.2411925799686423,
                        -0.4881979415424025,
                        -0.0583810659408357,
                        0.5915781407570036,
                        -0.9074459130565025,
                        0.6180888013821644,
                        -0.893545255699431,
                        -0.7514157436487148,
                        -0.7163565036504647,
                        -0.5689994650024923,
                        0.1369915812163569,
                        1.0149061307608328,
                        -0.281851295630382,
                        -0.5361755302985767,
                        -1.0242593254090329,
                        0.9885902367888821,
                        -0.7970593358447431,
                        0.540472863097599,
                        -1.0154031683409373,
                        -0.37484330657406686,
                        0.9267479461745634,
                        -0.07074113841651553,
                        1.0691406583377159,
                        -0.15449919478882635,
                        -0.9390200024530825,
                        -0.8723969553350637,
                        -0.26400013660696866,
                        -0.4787563346706185,
                        -0.11770168040877316,
                        -0.14053319125676468,
                        0.7969361800485973,
                        0.6284937576815519,
                        0.23095333553482468,
                        0.4874175017143423,
                        0.16761165120567779,
                        0.6033151193317823,
                        0.5535774827003479,
                        -0.04265356198797576,
                        0.9246659032431186,
                        -0.33737914915215586,
                        -0.15976836392950445,
                        -0.7837331947255209,
                        -0.0018623011419549585,
                        -0.3460466497531627,
                        -0.5207632456030868,
                        -0.5693890695782073,
                        0.5346786267285015,
                        0.4651606832126802,
                        0.9045182168678352,
                        -0.02353305990858834,
                        0.45830524659012469,
                        -0.39757615327835085,
                        -0.7458757062823569,
                        -0.36315908704937796,
                        -0.40631943962840558,
                        -0.06844902990221869,
                        0.46900823017041096,
                        -0.5759593165517467,
                        0.7682947221145945,
                        -0.4649421785021455,
                        0.3836705684661865,
                        0.582694264400466,
                        -0.4051277701613074,
                        -1.4572138154133008,
                        1.1181700222774378,
                        0.024832074902529034,
                        0.34806099757204125,
                        0.24666090431281607,
                        0.9142096940583242,
                        -0.9720616141982212,
                        0.4837631701156244,
                        -1.3052721055179433,
                        0.11242865445594674,
                        0.3138068306630537,
                        0.5559786654931926,
                        -0.29714091495972996,
                        0.8821554503074118,
                        -0.2579596423767647,
                        -0.6837006938534034,
                        0.36952283394100507,
                        0.04513315542585605,
                        0.20234800331894488,
                        0.9680415319531921,
                        0.3518609190896118,
                        0.34026930045271799,
                        -0.18476423036725365,
                        0.05668371651564286,
                        0.9255421161651611,
                        0.5235313542055611,
                        0.7103057827764374,
                        0.2976462888111451,
                        0.4524969056278074,
                        -1.6618416863336699,
                        -1.2373599685126156,
                        0.6045600116042138,
                        -0.4527899405141539,
                        -0.18286596639986997,
                        -0.08948079317733537,
                        -0.6000307982658795,
                        -0.7836957717196824,
                        0.8197803457176356,
                        0.22411171999809133,
                        0.0911387822005656,
                        -0.744590767920851,
                        0.6680492893414343,
                        -0.31713005951679787,
                        -0.4504783383966844,
                        -0.17070970792264363,
                        0.9366004197395907,
                        -0.9351045129036206,
                        -0.6086620078484735,
                        -0.25525631983539656,
                        1.0022668237319153,
                        -0.24137293304614539,
                        0.2830260404414211,
                        -0.20955605510980747,
                        0.32836649059023506,
                        0.9906222189082357,
                        0.7575295647642744,
                        0.5070130446002586,
                        0.05751178140400981,
                        1.0240563088793842
                    ]
                },
                {
                    "row": 12,
                    "column": 4,
                    "elements": [
                        -0.1275473500225459,
                        -0.7551330119710453,
                        -0.5825393313410774,
                        1.8171710753956863,
                        0.6956306010358802,
                        0.5573667349050098,
                        0.4832267757659352,
                        0.8239199392687073,
                        0.35266863941726,
                        1.0310551911191739,
                        -0.92287509347726,
                        0.40885985117312187,
                        0.3180276579703163,
                        0.08865317843455062,
                        -0.8122090621854294,
                        1.3669781265115014,
                        -0.8447184539804038,
                        -0.03234804694483984,
                        0.5781167153438958,
                        0.2784338624148126,
                        -0.2506691875973761,
                        -0.12661877494261376,
                        0.02853648855218438,
                        0.22887026695876146,
                        -1.019374031952971,
                        0.1441983961126745,
                        -0.6775649323820487,
                        -0.23438598366792008,
                        -0.6995557633728966,
                        -0.40872050605859658,
                        0.2617048750832822,
                        0.427690443905103,
                        -0.23648562937085239,
                        -0.3308609047458173,
                        0.30216312535504055,
                        -0.851698577898715,
                        0.11714884038846396,
                        0.6128215500457426,
                        -0.19263908317953416,
                        0.15958341013871903,
                        0.3545309656938258,
                        -0.23318703193868818,
                        0.22378323280400815,
                        -0.12400029136127255,
                        1.1343005499986819,
                        0.803864658280931,
                        -0.8140774861381925,
                        0.43255123560374378
                    ]
                }
            ],
            "biases": [
                {
                    "row": 1,
                    "column": 12,
                    "elements": [
                        0.07021484999332639,
                        -0.0213801082204661,
                        -0.10776870339625688,
                        -0.19733084212559594,
                        -0.5848339012900325,
                        -0.838929742825659,
                        -0.8245268583921745,
                        -0.26390810096618635,
                        -1.7473855062706996,
                        0.5456631333019564,
                        -0.3948472248603787,
                        -0.6658051476922635
                    ]
                },
                {
                    "row": 1,
                    "column": 4,
                    "elements": [
                        -0.18468209527949498,
                        0.8788947018051729,
                        -0.4551215241437667,
                        -0.4607718026187353
                    ]
                }
            ]
        },
        {
            "inputSize": 15,
            "hiddenSize": 12,
            "hiddenLayers": 1,
            "outputSize": 4,
            "weights": [
                {
                    "row": 15,
                    "column": 12,
                    "elements": [
                        0.33639157825763457,
                        0.9858102798461914,
                        1.080361347245308,
                        0.7886774664364689,
                        -0.01159840776622012,
                        0.6047479269378293,
                        -0.6776640645561258,
                        0.4861783463513667,
                        -0.8292691917773825,
                        0.019264562379892604,
                        1.044872159902587,
                        0.0015537539444281379,
                        -0.74904726131507,
                        0.352803106543206,
                        2.0158205032348635,
                        -0.777636813919294,
                        -0.028547710051800125,
                        0.40688514421659419,
                        -0.11339042301804625,
                        -0.4049658264701237,
                        -0.8383736551850918,
                        0.4970905335678446,
                        -0.5813320536423436,
                        0.6357860434548197,
                        0.8728752398998987,
                        0.4851540497573552,
                        1.0482201544148496,
                        1.098389111056715,
                        -0.6790047182124201,
                        0.8567388924932038,
                        1.2155780792236329,
                        -0.2657319717255504,
                        0.07217720034700426,
                        0.8620928392615035,
                        -1.5370800495147706,
                        0.6128339580289719,
                        0.40650347479665069,
                        1.1149883484230188,
                        -0.6948272211393003,
                        -0.5649074581342131,
                        0.27634162460126268,
                        -0.7752633112152527,
                        -0.06014413623159953,
                        0.22971265150324439,
                        0.06650172587332426,
                        -0.7082946300506592,
                        -0.8520286501077552,
                        -0.1705557659403817,
                        0.7937520334832344,
                        0.4729597169813482,
                        0.04989814646414459,
                        0.5563082371056414,
                        0.6188384516543515,
                        1.1908097760249854,
                        -0.5707522500722542,
                        1.036198620247113,
                        -0.10077757265707632,
                        0.8024269938468933,
                        -0.2657780520988404,
                        -0.4881979415424025,
                        -0.0583810659408357,
                        0.5915781407570036,
                        -0.9074459130565025,
                        0.6180888013821644,
                        -0.9198636316174369,
                        -0.7514157436487148,
                        -0.7163565036504647,
                        -0.5689994650024923,
                        0.1369915812163569,
                        1.0149061307608328,
                        -0.2942967057208845,
                        -0.5361755302985767,
                        -1.0811685431206888,
                        0.9815217820337963,
                        -0.7970593358447431,
                        0.5791017634915976,
                        -1.0154031683409373,
                        -0.37484330657406686,
                        0.9267479461745634,
                        -0.07074113841651553,
                        1.0691406583377159,
                        -0.15449919478882635,
                        -0.9390200024530825,
                        -0.8723969553350637,
                        -0.2880712575871964,
                        -0.4787563346706185,
                        -0.11770168040877316,
                        -0.14053319125676468,
                        0.7969361800485973,
                        0.6284937576815519,
                        0.23095333553482468,
                        0.4874175017143423,
                        0.16761165120567779,
                        0.6033151193317823,
                        0.5535774827003479,
                        -0.04265356198797576,
                        0.9246659032431186,
                        -0.33737914915215586,
                        -0.22052288246839736,
                        -0.7837331947255209,
                        -0.0018623011419549585,
                        0.5625227689743042,
                        -0.5886913503187561,
                        -0.5693890695782073,
                        0.6264722986461653,
                        0.4651606832126802,
                        0.9045182168678352,
                        -0.02353305990858834,
                        0.45830524659012469,
                        -0.39757615327835085,
                        -0.7986813514623297,
                        -0.36315908704937796,
                        -0.40631943962840558,
                        -0.06844902990221869,
                        0.46900823017041096,
                        -0.5759593165517467,
                        0.7682947221145945,
                        -0.4649421785021455,
                        0.3836705684661865,
                        0.582694264400466,
                        -0.434684019523786,
                        -1.4572138154133008,
                        1.1181700222774378,
                        0.024832074902529034,
                        0.34806099757204125,
                        0.20767606046328258,
                        0.9142096940583242,
                        -0.9720616141982212,
                        0.4837631701156244,
                        -1.3052721055179433,
                        0.002983249868940163,
                        0.3138068306630537,
                        0.6254292350215565,
                        -0.29714091495972996,
                        0.8821554503074118,
                        -0.2698303793282246,
                        -0.6837006938534034,
                        0.4494453558470042,
                        0.04513315542585605,
                        0.20234800331894488,
                        0.9338720152240949,
                        0.3518609190896118,
                        0.34026930045271799,
                        -0.21101053353802613,
                        0.05668371651564286,
                        0.9255421161651611,
                        0.600375787228872,
                        0.7103057827764374,
                        0.2976462888111451,
                        0.4524969056278074,
                        -1.6618416863336699,
                        -1.2373599685126156,
                        0.5664160617719354,
                        -0.4527899405141539,
                        -0.18286596639986997,
                        -0.08948079317733537,
                        -0.6000307982658795,
                        -0.7836957717196824,
                        0.9764746163560325,
                        0.22411171999809133,
                        0.0911387822005656,
                        -0.744590767920851,
                        0.7121336743424731,
                        -0.36977320573935526,
                        -0.4169026806484757,
                        -0.17070970792264363,
                        0.9145495404577966,
                        -0.9351045129036206,
                        -0.5963083561320166,
                        -0.25525631983539656,
                        1.0022668237319153,
                        -0.24137293304614539,
                        0.2830260404414211,
                        -0.20955605510980747,
                        0.32836649059023506,
                        1.0226031066383926,
                        0.7575295647642744,
                        0.5070130446002586,
                        0.05751178140400981,
                        1.0058153395695389
                    ]
                },
                {
                    "row": 12,
                    "column": 4,
                    "elements": [
                        -0.1275473500225459,
                        -0.7239498561489608,
                        -0.5825393313410774,
                        1.8171710753956863,
                        0.6956306010358802,
                        0.5023294202103941,
                        0.4832267757659352,
                        0.9313969099205313,
                        0.35266863941726,
                        1.0310551911191739,
                        -0.92287509347726,
                        0.40885985117312187,
                        0.3180276579703163,
                        0.148846457231751,
                        -0.8122090621854294,
                        1.4817285258924394,
                        -0.8795054653171679,
                        -0.03234804694483984,
                        0.5781167153438958,
                        -1.5938156843185425,
                        -0.2506691875973761,
                        -0.12661877494261376,
                        0.02853648855218438,
                        0.22887026695876146,
                        -1.0583965983915889,
                        0.1441983961126745,
                        -0.6775649323820487,
                        -0.20476808998727237,
                        -0.6995557633728966,
                        -0.3250796197661039,
                        0.2617048750832822,
                        0.427690443905103,
                        -0.23648562937085239,
                        -0.3308609047458173,
                        0.25159459278608789,
                        -0.851698577898715,
                        0.11714884038846396,
                        0.6128215500457426,
                        -0.19263908317953416,
                        0.15958341013871903,
                        0.3545309656938258,
                        -0.23318703193868818,
                        0.22378323280400815,
                        -0.12400029136127255,
                        1.0722354182523449,
                        0.803864658280931,
                        -0.8140774861381925,
                        0.43255123560374378
                    ]
                }
            ],
            "biases": [
                {
                    "row": 1,
                    "column": 12,
                    "elements": [
                        0.027294146784057284,
                        -0.0213801082204661,
                        -0.001306137081616754,
                        -0.19733084212559594,
                        -0.5848339012900325,
                        -0.8730914954534192,
                        -0.8245268583921745,
                        -0.26390810096618635,
                        -1.7473855062706996,
                        0.5456631333019564,
                        -0.3948472248603787,
                        -0.7850481615209786
                    ]
                },
                {
                    "row": 1,
                    "column": 4,
                    "elements": [
                        -0.18468209527949498,
                        0.8788947018051729,
                        -0.4551215241437667,
                        -0.4746128894967603
                    ]
                }
            ]
        },
        {
            "inputSize": 15,
            "hiddenSize": 12,
            "hiddenLayers": 1,
            "outputSize": 4,
            "weights": [
                {
                    "row": 15,
                    "column": 12,
                    "elements": [
                        0.3522495013225786,
                        0.9840034485635427,
                        1.080361347245308,
                        0.74276587475119,
                        -0.0743847032909084,
                        0.6047479269378293,
                        -0.7146050400211443,
                        0.4326689556590775,
                        -0.7881821897747061,
                        0.08488183933125626,
                        1.044872159902587,
                        0.0015537539444281379,
                        -0.8397034548359414,
                        0.352803106543206,
                        0.9328616186252745,
                        -0.777636813919294,
                        0.030447740643374745,
                        0.31215595713616386,
                        -0.11339042301804625,
                        -0.40224034750406725,
                        -0.8301305470618248,
                        0.440951667773549,
                        -0.5243840064833059,
                        0.6357860434548197,
                        0.8400726413121236,
                        0.5360732078552246,
                        -0.6947729587554932,
                        0.8723624025322216,
                        -0.6190963114815933,
                        0.8566358026796896,
                        1.1090396385773645,
                        -0.47210354076781826,
                        0.040016540232689749,
                        0.9519570014627554,
                        -1.5370800495147706,
                        0.5428958091504315,
                        0.46785890831456097,
                        1.088956219650596,
                        -0.6676274677276992,
                        -0.6128962348175744,
                        0.28760888327585479,
                        -0.9175364556301997,
                        -0.011239428048600786,
                        0.2392106629034676,
                        -0.04118450536973883,
                        0.6746944570634099,
                        -0.845716910918856,
                        -0.26855360928530216,
                        0.6701137524105274,
                        0.5241156318902307,
                        -0.055950549801421448,
                        0.38065578159087468,
                        0.4534926904606884,
                        1.1074366171181618,
                        -0.5113140363885611,
                        0.9769732304694769,
                        0.03587927262074331,
                        0.8422032288621359,
                        -0.2411925799686423,
                        -0.560606029289026,
                        0.028923117196747229,
                        0.6888304631825406,
                        -0.910979582981583,
                        0.7320320775468261,
                        -0.893545255699431,
                        -0.02335262857377529,
                        -0.7163565036504647,
                        -0.5689994650024923,
                        0.19810570889658409,
                        1.0149061307608328,
                        -0.281851295630382,
                        -0.5002098740194239,
                        -0.9826291224150756,
                        0.9885902367888821,
                        -0.7970593358447431,
                        0.4663185356194157,
                        -0.8761905353982358,
                        -0.32418371389950986,
                        0.9669907425257893,
                        -0.07074113841651553,
                        1.106967199118838,
                        -0.15449919478882635,
                        -0.8418411010318972,
                        -0.9278725537289647,
                        -0.23866221719936576,
                        -0.4787563346706185,
                        0.04816787688724666,
                        -0.2027023113566715,
                        0.7345045226376715,
                        0.7138394489390958,
                        0.07383574792404024,
                        0.3436704762345877,
                        0.3242284203055794,
                        0.5039737932007038,
                        0.5535774827003479,
                        -0.09459138377111387,
                        0.9181931412058906,
                        -0.21923448028915083,
                        -0.21480876495274926,
                        -0.8417058046417553,
                        -0.0018623011419549585,
                        -0.3460466497531627,
                        -0.5166092555865474,
                        -0.5046021929479458,
                        0.5346786267285015,
                        0.523952808151332,
                        0.996970842774531,
                        -0.056082751210160267,
                        0.45080794727668679,
                        -0.363889391275773,
                        0.36620327830314639,
                        -0.18757637075990897,
                        -0.41934012456686356,
                        -0.025867028908251656,
                        0.4685598862590823,
                        -0.5452576834281251,
                        0.6683074831962586,
                        -0.451089415073745,
                        0.3836705684661865,
                        0.582694264400466,
                        -0.29720923278623348,
                        -0.6282106637954712,
                        1.0419846013297503,
                        -0.11770568911178492,
                        0.33347502992854319,
                        0.3793768584728241,
                        0.8868078522826748,
                        -0.8645438855906571,
                        0.4998198949443733,
                        -1.289182509322341,
                        0.1266963270252086,
                        0.3138068306630537,
                        0.5929618088618796,
                        -0.29714091495972996,
                        0.9246354236426768,
                        -0.2579596423767647,
                        -0.7430463373477567,
                        0.5103159389390015,
                        0.08878036000962819,
                        0.20234800331894488,
                        0.9638517813835406,
                        0.39917788106617815,
                        0.4100694655416959,
                        -0.22264810247427747,
                        0.06909251981605547,
                        0.904340490452384,
                        0.7042518492197711,
                        0.739055747560025,
                        0.33185897122570387,
                        0.531495506627266,
                        -1.6618416863336699,
                        -1.0936343577904868,
                        0.558358111908742,
                        -0.2995460467022967,
                        -0.14669968803098855,
                        -0.2174611362998311,
                        -0.5444433910906801,
                        -0.7442825050891813,
                        0.8915347469148465,
                        0.19646254635493255,
                        0.0911387822005656,
                        -0.7772748557808029,
                        0.42921763579288987,
                        -0.20498882733853786,
                        -0.46700656876689719,
                        -0.09239827101871257,
                        0.9599339960198101,
                        -0.9351045129036206,
                        -0.5921361521274029,
                        -0.278053718712437,
                        1.0022668237319153,
                        -0.2752845035121698,
                        0.14429103384139875,
                        -0.19757898287179644,
                        0.32836649059023506,
                        0.8167051884578509,
                        0.8141208119489978,
                        0.5471768481047178,
                        0.13615969283680885,
                        1.0465776369122484
                    ]
                },
                {
                    "row": 12,
                    "column": 4,
                    "elements": [
                        -0.10783386399826611,
                        -0.7551330119710453,
                        -0.6245950310493682,
                        1.9377213764925348,
                        0.6724400846259857,
                        0.6114037644112571,
                        0.3872973912987554,
                        0.8239199392687073,
                        0.2608155011352338,
                        1.0887201534373146,
                        -0.8795598373062221,
                        0.43020126468461319,
                        0.31439677651652878,
                        -0.017815460401540529,
                        -0.7667081739371096,
                        1.241386538268987,
                        -0.8447184539804038,
                        -0.02882060935617048,
                        0.685498371012379,
                        0.4716102764148631,
                        -0.2506691875973761,
                        -0.12661877494261376,
                        0.026977134535131177,
                        0.16807080711196854,
                        -1.019374031952971,
                        0.1940375144280182,
                        -0.7951254125221179,
                        -0.23438598366792008,
                        -0.767181493713605,
                        -0.3484878452789353,
                        0.2744027919167591,
                        0.5167091487573146,
                        -0.019481895576809906,
                        -0.41446926120608476,
                        0.30425741278903387,
                        -0.8983479094147158,
                        0.23595803907829006,
                        0.6128215500457426,
                        -0.19263908317953416,
                        0.10715955775765451,
                        0.2811642993225334,
                        -0.11272269653825262,
                        0.20836280665700714,
                        -0.26381831678408487,
                        1.1410624599906579,
                        0.7820303620212776,
                        -0.7477715457364025,
                        0.3324955084375789
                    ]
                }
            ],
            "biases": [
                {
                    "row": 1,
                    "column": 12,
                    "elements": [
                        0.06605538111762144,
                        0.047993783207602728,
                        -0.10776870339625688,
                        -0.2035805985909418,
                        -0.5196929051064387,
                        -0.8527585818427657,
                        -0.8245268583921745,
                        -0.2554830281998397,
                        -1.7797043416213257,
                        0.5728958832501698,
                        -0.37438532738935229,
                        -0.6658051476922635
                    ]
                },
                {
                    "row": 1,
                    "column": 4,
                    "elements": [
                        -0.29539737210552988,
                        0.8788947018051729,
                        -0.4551215241437667,
                        -0.6218828205258387
                    ]
                }
            ]
        },
        {
            "inputSize": 15,
            "hiddenSize": 12,
            "hiddenLayers": 1,
            "outputSize": 4,
            "weights": [
                {
                    "row": 15,
                    "column": 12,
                    "elements": [
                        0.3522495013225786,
                        0.9840034485635427,
                        1.080361347245308,
                        0.7886774664364689,
                        -0.0743847032909084,
                        0.6047479269378293,
                        -0.7146050400211443,
                        0.4242979884151292,
                        -0.7881821897747061,
                        0.029634550577775089,
                        1.044872159902587,
                        0.0015537539444281379,
                        -0.8397034548359414,
                        0.352803106543206,
                        0.8295242050227074,
                        -0.777636813919294,
                        0.030447740643374745,
                        0.31215595713616386,
                        -0.11339042301804625,
                        -0.40224034750406725,
                        -0.8301305470618248,
                        0.440951667773549,
                        -0.5243840064833059,
                        0.6357860434548197,
                        0.8400726413121236,
                        0.5360732078552246,
                        -0.6947729587554932,
                        0.8723624025322216,
                        -0.6484775127242468,
                        0.8566358026796896,
                        1.2155780792236329,
                        -0.47210354076781826,
                        0.040016540232689749,
                        0.9519570014627554,
                        -1.5370800495147706,
                        0.6148188962674313,
                        0.46785890831456097,
                        1.088956219650596,
                        -0.6676274677276992,
                        -0.5660398796727417,
                        0.28760888327585479,
                        -0.9175364556301997,
                        -0.011239428048600786,
                        0.2392106629034676,
                        -0.04118450536973883,
                        0.6746944570634099,
                        -0.8520286501077552,
                        -0.26855360928530216,
                        0.6701137524105274,
                        0.5241156318902307,
                        -0.055950549801421448,
                        0.38065578159087468,
                        0.48867148314312916,
                        1.1074366171181618,
                        -0.5113140363885611,
                        0.9825264605883568,
                        0.03587927262074331,
                        0.8422032288621359,
                        -0.2411925799686423,
                        -0.560606029289026,
                        0.028923117196747229,
                        0.6812523310268785,
                        -0.910979582981583,
                        0.7320320775468261,
                        -0.893545255699431,
                        -0.02335262857377529,
                        -0.7163565036504647,
                        -0.5689994650024923,
                        0.19810570889658409,
                        1.0149061307608328,
                        -0.281851295630382,
                        -0.5002098740194239,
                        -0.9826291224150756,
                        0.9885902367888821,
                        -0.7970593358447431,
                        0.4663185356194157,
                        -0.8761905353982358,
                        -0.39867884644494647,
                        0.9669907425257893,
                        -0.07074113841651553,
                        1.106967199118838,
                        -0.15449919478882635,
                        -0.8850128804726093,
                        -0.9278725537289647,
                        -0.23866221719936576,
                        -0.4787563346706185,
                        0.04816787688724666,
                        -0.2027023113566715,
                        0.7969361800485973,
                        0.6284937576815519,
                        0.07383574792404024,
                        0.3436704762345877,
                        0.3242284203055794,
                        0.6412870358472882,
                        0.5535774827003479,
                        -0.09459138377111387,
                        0.9181931412058906,
                        -0.21923448028915083,
                        -0.15976836392950445,
                        -0.8417058046417553,
                        -0.0018623011419549585,
                        -0.3460466497531627,
                        -0.5166092555865474,
                        -0.4573451050315285,
                        0.5346786267285015,
                        0.523952808151332,
                        0.9972346402488626,
                        -0.02353305990858834,
                        0.45830524659012469,
                        -0.363889391275773,
                        -0.7458757062823569,
                        -0.18757637075990897,
                        -0.41934012456686356,
                        -0.025867028908251656,
                        0.46900823017041096,
                        -0.5452576834281251,
                        0.6683074831962586,
                        -0.4649421785021455,
                        0.3836705684661865,
                        0.582694264400466,
                        -0.32974719389324749,
                        -1.496753771050754,
                        1.0225663263939376,
                        -0.13773350143487085,
                        0.33347502992854319,
                        0.24895193469159605,
                        0.8868078522826748,
                        -0.8756726475031922,
                        0.4837631701156244,
                        -1.289182509322341,
                        0.1266963270252086,
                        0.3138068306630537,
                        0.5559786654931926,
                        -0.29714091495972996,
                        0.9246354236426768,
                        -0.2579596423767647,
                        -0.7430463373477567,
                        0.5103159389390015,
                        0.08878036000962819,
                        0.20234800331894488,
                        0.9638517813835406,
                        0.39917788106617815,
                        0.34026930045271799,
                        -0.22264810247427747,
                        0.06909251981605547,
                        0.8716727676443519,
                        0.6529808818446927,
                        0.739055747560025,
                        0.33185897122570387,
                        0.531495506627266,
                        -1.6618416863336699,
                        -1.0936343577904868,
                        0.6045600116042138,
                        -0.2995460467022967,
                        -0.14669968803098855,
                        -0.10047493322592427,
                        -0.5444433910906801,
                        -0.7442825050891813,
                        0.8197803457176356,
                        0.24309618515943333,
                        0.0911387822005656,
                        -0.7772748557808029,
                        0.42921763579288987,
                        -0.3069619620935584,
                        -0.46700656876689719,
                        -0.09239827101871257,
                        0.9599339960198101,
                        -0.9351045129036206,
                        -0.5921361521274029,
                        -0.278053718712437,
                        1.0022668237319153,
                        -0.24137293304614539,
                        0.14429103384139875,
                        -0.2171232179242324,
                        0.32836649059023506,
                        0.8288652177563165,
                        0.7363678896622918,
                        0.5471768481047178,
                        0.13615969283680885,
                        1.0465776369122484
                    ]
                },
                {
                    "row": 12,
                    "column": 4,
                    "elements": [
                        -0.1275473500225459,
                        -0.7551330119710453,
                        -0.6245950310493682,
                        1.8867334966206944,
                        0.6887153808879041,
                        0.6114037644112571,
                        0.3872973912987554,
                        0.8239199392687073,
                        0.2608155011352338,
                        1.0029127002099754,
                        -0.8795598373062221,
                        0.43020126468461319,
                        0.31439677651652878,
                        0.08865317843455062,
                        -0.8122090621854294,
                        1.241386538268987,
                        -0.8447184539804038,
                        -0.06487227871743073,
                        0.685498371012379,
                        0.48340039420675887,
                        -0.2506691875973761,
                        -0.12661877494261376,
                        0.02853648855218438,
                        0.1918058419248574,
                        -1.019374031952971,
                        0.23988806618624992,
                        -0.7951254125221179,
                        -0.23438598366792008,
                        -0.767181493713605,
                        -0.3484878452789353,
                        0.2744027919167591,
                        0.5167091487573146,
                        -0.09651268133732316,
                        -0.41446926120608476,
                        0.30425741278903387,
                        -0.8983479094147158,
                        0.217296470767967,
                        0.6128215500457426,
                        -0.19263908317953416,
                        0.10715955775765451,
                        0.2811642993225334,
                        -0.11272269653825262,
                        0.20836280665700714,
                        -0.23225261356825922,
                        1.1410624599906579,
                        0.7820303620212776,
                        -0.7477715457364025,
                        0.3324955084375789
                    ]
                }
            ],
            "biases": [
                {
                    "row": 1,
                    "column": 12,
                    "elements": [
                        0.06605538111762144,
                        0.0046858941709517769,
                        -0.10776870339625688,
                        -0.2035805985909418,
                        -0.5196929051064387,
                        -0.8527585818427657,
                        -0.8245268583921745,
                        -0.2554830281998397,
                        -1.7797043416213257,
                        0.5456631333019564,
                        -0.3152247670532171,
                        -0.6658051476922635
                    ]
                },
                {
                    "row": 1,
                    "column": 4,
                    "elements": [
                        -0.17908983231237486,
                        0.8788947018051729,
                        -0.4551215241437667,
                        -0.6218828205258387
                    ]
                }
            ]
        },
        {
            "inputSize": 15,
            "hiddenSize": 12,
            "hiddenLayers": 1,
            "outputSize": 4,
            "weights": [
                {
                    "row": 15,
                    "column": 12,
                    "elements": [
                        0.33639157825763457,
                        0.9858102798461914,
                        1.080361347245308,
                        0.7767530647389762,
                        0.08091180737754833,
                        0.6047479269378293,
                        -0.7146050400211443,
                        0.4861783463513667,
                        -0.882577972896919,
                        0.029634550577775089,
                        1.044872159902587,
                        0.0015537539444281379,
                        -0.74904726131507,
                        0.352803106543206,
                        1.855763514834365,
                        -0.777636813919294,
                        -0.026116205675805749,
                        0.33415052433152239,
                        -0.05628683097577536,
                        -0.40224034750406725,
                        -0.8688826323800756,
                        0.4970905335678446,
                        -0.6111698703660407,
                        0.6357860434548197,
                        0.8728752398998987,
                        0.44053201057349869,
                        1.0089632272720338,
                        0.9502196591774741,
                        -0.7097102941834503,
                        0.8732175323930393,
                        -1.7256020307540894,
                        -0.2657319717255504,
                        0.04178928376664848,
                        0.8620928392615035,
                        -1.5370800495147706,
                        0.6128339580289719,
                        0.40650347479665069,
                        1.088956219650596,
                        -0.6568758360405496,
                        -0.5305180181385492,
                        0.27634162460126268,
                        -0.7752633112152527,
                        -0.052279984918129688,
                        0.22971265150324439,
                        0.06650172587332426,
                        -0.7703450775961258,
                        -0.8520286501077552,
                        -0.26855360928530216,
                        0.7017569741521728,
                        0.4729597169813482,
                        0.04989814646414459,
                        0.5165482991930208,
                        0.5053531734260179,
                        1.1379172344220346,
                        -0.5707522500722542,
                        1.036198620247113,
                        -0.05041429703521416,
                        0.8024269938468933,
                        -0.2411925799686423,
                        -0.4881979415424025,
                        -0.0583810659408357,
                        0.6564326698538663,
                        -0.9154704005727661,
                        0.4787068101792542,
                        -0.893545255699431,
                        -0.7514157436487148,
                        -0.7163565036504647,
                        -0.5689994650024923,
                        0.1369915812163569,
                        0.9911306392936949,
                        -0.2937976208111639,
                        -0.5361755302985767,
                        -1.0242593254090329,
                        0.9885902367888821,
                        -0.7970593358447431,
                        0.540472863097599,
                        -1.0154031683409373,
                        -0.37484330657406686,
                        0.9267479461745634,
                        -0.10376515157912891,
                        0.9841513432654452,
                        -0.15449919478882635,
                        -0.9390200024530825,
                        -0.8723969553350637,
                        -0.26400013660696866,
                        -0.4787563346706185,
                        -0.11770168040877316,
                        -0.14053319125676468,
                        0.8055069370033768,
                        0.6385671507710606,
                        0.23095333553482468,
                        0.4874175017143423,
                        0.17817436417556554,
                        0.6033151193317823,
                        0.5535774827003479,
                        -0.08248115951975521,
                        0.9286616701906172,
                        -0.33737914915215586,
                        -0.15976836392950445,
                        -0.7688096612293186,
                        0.004007793092594802,
                        -0.3460466497531627,
                        -0.5321990265827115,
                        -0.584754147445917,
                        0.5346786267285015,
                        0.4651606832126802,
                        0.9835972948697744,
                        -0.04907109715060498,
                        0.45830524659012469,
                        -0.39757615327835085,
                        -0.7458757062823569,
                        -0.29969430705787927,
                        -0.40631943962840558,
                        -0.06897182475826214,
                        0.46900823017041096,
                        -0.6511169404450721,
                        0.7682947221145945,
                        -0.4649421785021455,
                        0.3992893636472541,
                        0.582694264400466,
                        -0.4051277701613074,
                        -1.4572138154133008,
                        1.1251648982248686,
                        -0.05631289778523074,
                        0.34806099757204125,
                        0.2409238141230774,
                        0.9522671372820168,
                        -0.9720616141982212,
                        0.4837631701156244,
                        -1.3052721055179433,
                        0.048811145900792499,
                        0.3138068306630537,
                        0.5559786654931926,
                        -0.23299361645890216,
                        0.8821554503074118,
                        -0.2579596423767647,
                        -0.6837006938534034,
                        0.36952283394100507,
                        0.04513315542585605,
                        0.12271865044620167,
                        0.9680415319531921,
                        0.3518609190896118,
                        0.42075369867804116,
                        -0.18476423036725365,
                        -0.9152767658233643,
                        0.9255421161651611,
                        0.5235313542055611,
                        0.6229161623376385,
                        0.4246573164258587,
                        0.4524969056278074,
                        -1.6940675348584727,
                        -1.2373599685126156,
                        0.5548250452571963,
                        -0.46894214125879077,
                        -0.18286596639986997,
                        -0.08948079317733537,
                        -0.5920165049324169,
                        -0.6951299703946077,
                        0.8197803457176356,
                        0.22411171999809133,
                        0.0911387822005656,
                        -0.744590767920851,
                        0.7511697626913421,
                        -0.31713005951679787,
                        -0.42779574164632186,
                        -0.17070970792264363,
                        0.9366004197395907,
                        -0.9739937735489013,
                        -0.7273256502018348,
                        -0.25525631983539656,
                        1.0022668237319153,
                        -0.24137293304614539,
                        0.2830260404414211,
                        -0.20955605510980747,
                        0.32836649059023506,
                        0.9906222189082357,
                        0.7201655977682417,
                        0.5070130446002586,
                        0.1601209859589332,
                        1.0240563088793842
                    ]
                },
                {
                    "row": 12,
                    "column": 4,
                    "elements": [
                        -0.1275473500225459,
                        -0.7551330119710453,
                        -0.6126010769871466,
                        1.8171710753956863,
                        0.6956306010358802,
                        0.5573667349050098,
                        0.4832267757659352,
                        0.8239199392687073,
                        0.4695909200833839,
                        1.0282476551059468,
                        -0.92287509347726,
                        0.4237084330176337,
                        0.3180276579703163,
                        0.11231219765279749,
                        -0.8621116272634719,
                        1.3669781265115014,
                        -0.8447184539804038,
                        -0.07656784774372483,
                        0.5781167153438958,
                        0.2784338624148126,
                        -0.2506691875973761,
                        -0.1851440308025154,
                        0.02853648855218438,
                        0.22887026695876146,
                        -1.019374031952971,
                        0.022005545912623604,
                        -0.6775649323820487,
                        -0.23438598366792008,
                        -0.7104916816021554,
                        -0.5067311167189352,
                        0.2946929752538985,
                        0.427690443905103,
                        -0.26834583914821588,
                        -0.3308609047458173,
                        0.30216312535504055,
                        -0.851698577898715,
                        0.17525639045746023,
                        0.6128215500457426,
                        -0.19263908317953416,
                        0.09716272475123944,
                        0.3545309656938258,
                        -0.18738472775813354,
                        0.22378323280400815,
                        -0.12400029136127255,
                        1.1677794872859702,
                        0.803864658280931,
                        -0.8140774861381925,
                        0.35958554161471759
                    ]
                }
            ],
            "biases": [
                {
                    "row": 1,
                    "column": 12,
                    "elements": [
                        0.12457792168782245,
                        -0.0213801082204661,
                        -0.10776870339625688,
                        -0.19733084212559594,
                        -0.5848339012900325,
                        -0.838929742825659,
                        -0.8245268583921745,
                        -0.27043711652828419,
                        -1.7473855062706996,
                        0.5456631333019564,
                        -0.3948472248603787,
                        -0.6658051476922635
                    ]
                },
                {
                    "row": 1,
                    "column": 4,
                    "elements": [
                        -0.18468209527949498,
                        0.8788947018051729,
                        -0.4551215241437667,
                        -0.4607718026187353
                    ]
                }
            ]
        },
        {
            "inputSize": 15,
            "hiddenSize": 12,
            "hiddenLayers": 1,
            "outputSize": 4,
            "weights": [
                {
                    "row": 15,
                    "column": 12,
                    "elements": [
                        0.33639157825763457,
                        0.9858102798461914,
                        1.080361347245308,
                        0.7886774664364689,
                        -0.01159840776622012,
                        0.6047479269378293,
                        -0.6776640645561258,
                        0.4861783463513667,
                        -0.6995539108584952,
                        0.019264562379892604,
                        0.9903503729536762,
                        0.0015537539444281379,
                        -0.8304508132672552,
                        0.352803106543206,
                        2.0158205032348635,
                        -0.777636813919294,
                        -0.09003823392618316,
                        0.3018655777990764,
                        -0.11339042301804625,
                        -0.4049658264701237,
                        -0.8383736551850918,
                        0.4970905335678446,
                        -0.45046345141145319,
                        0.6357860434548197,
                        0.8728752398998987,
                        0.4851540497573552,
                        1.0482201544148496,
                        1.098389111056715,
                        -0.6790047182124201,
                        0.8567388924932038,
                        1.2000272762556553,
                        -0.2657319717255504,
                        0.07217720034700426,
                        0.8620928392615035,
                        1.0859447717666627,
                        -1.747954249382019,
                        0.40650347479665069,
                        1.1149883484230188,
                        -0.6948272211393003,
                        -0.531696180283296,
                        0.27634162460126268,
                        -0.7752633112152527,
                        -0.0039946882282499989,
                        0.22971265150324439,
                        0.05366845672095044,
                        -0.7082946300506592,
                        -0.9227077930072343,
                        -0.1705557659403817,
                        0.7937520334832344,
                        0.4729597169813482,
                        0.04989814646414459,
                        0.5563082371056414,
                        0.6188384516543515,
                        1.1908097760249854,
                        -0.5319127783808257,
                        1.036198620247113,
                        -0.10077757265707632,
                        0.8024269938468933,
                        -0.2657780520988404,
                        -0.4881979415424025,
                        -0.01964861081707525,
                        0.5915781407570036,
                        -0.9122911803362572,
                        0.6180888013821644,
                        -0.963759918657205,
                        -0.7514157436487148,
                        -0.7726858742416827,
                        -0.5689994650024923,
                        0.1369915812163569,
                        1.0149061307608328,
                        -0.2942967057208845,
                        -0.46050627680346958,
                        -1.0811685431206888,
                        1.0102595052149535,
                        -0.7970593358447431,
                        -0.4965515434741974,
                        -0.9816610848811593,
                        -0.37484330657406686,
                        0.9267479461745634,
                        -0.07074113841651553,
                        1.0691406583377159,
                        -0.15449919478882635,
                        -0.9390200024530825,
                        -0.8857657194919124,
                        -0.2880712575871964,
                        -0.4584157749758293,
                        -0.11770168040877316,
                        -0.14053319125676468,
                        0.7969361800485973,
                        -1.5519261360168458,
                        -0.3525817096233368,
                        0.5159471355355767,
                        0.16761165120567779,
                        0.6033151193317823,
                        0.5535774827003479,
                        -0.04265356198797576,
                        0.9314506191651848,
                        -0.33737914915215586,
                        -0.22052288246839736,
                        -0.7837331947255209,
                        -0.0018623011419549585,
                        0.5625227689743042,
                        -0.5548254274757003,
                        -0.6206670571886264,
                        0.6264722986461653,
                        0.5970141211073994,
                        0.9045182168678352,
                        -0.1087818483149916,
                        0.45830524659012469,
                        -0.39757615327835085,
                        -0.8230401375826961,
                        -0.34486355981786245,
                        -0.40861431808320516,
                        -0.09886646508802599,
                        0.46900823017041096,
                        -0.5759593165517467,
                        0.7226829584937505,
                        -0.4649421785021455,
                        0.3836705684661865,
                        0.6580687752996326,
                        -0.434684019523786,
                        -1.4572138154133008,
                        1.1181700222774378,
                        0.024832074902529034,
                        0.39995267105317469,
                        0.20767606046328258,
                        0.9142096940583242,
                        -0.9720616141982212,
                        0.46410438148788915,
                        -1.3052721055179433,
                        0.002983249868940163,
                        0.38227666294312648,
                        0.6254292350215565,
                        -0.29714091495972996,
                        0.8821554503074118,
                        -0.2678371322764592,
                        -0.6837006938534034,
                        0.4494453558470042,
                        0.06418069899317747,
                        0.20234800331894488,
                        0.9338720152240949,
                        0.3518609190896118,
                        0.36987060198774027,
                        -0.0610180663733324,
                        0.05668371651564286,
                        0.9255421161651611,
                        0.600375787228872,
                        0.6756987262140513,
                        0.2976462888111451,
                        0.4524969056278074,
                        -1.6618416863336699,
                        -1.2373599685126156,
                        0.5664160617719354,
                        -0.44641417386428119,
                        -0.22118158119220156,
                        -0.08948079317733537,
                        -0.6000307982658795,
                        -0.7836957717196824,
                        0.9764746163560325,
                        0.22411171999809133,
                        0.06692214064666136,
                        -0.744590767920851,
                        0.7121336743424731,
                        -0.3572176945406951,
                        -0.4169026806484757,
                        -0.17070970792264363,
                        0.9145495404577966,
                        -0.9286613588788149,
                        -0.5963083561320166,
                        -0.25525631983539656,
                        1.0022668237319153,
                        -0.24137293304614539,
                        0.3617797700532044,
                        -0.20955605510980747,
                        0.32836649059023506,
                        0.87208379638178,
                        0.7575295647642744,
                        0.5070130446002586,
                        0.05751178140400981,
                        1.0058153395695389
                    ]
                },
                {
                    "row": 12,
                    "column": 4,
                    "elements": [
                        -0.17196048087862793,
                        -0.7239498561489608,
                        -0.5664901882234452,
                        1.8171710753956863,
                        0.6956306010358802,
                        0.5023294202103941,
                        0.44346530362969718,
                        0.9313969099205313,
                        0.35266863941726,
                        1.0310551911191739,
                        -0.92287509347726,
                        0.495982323583422,
                        0.3180276579703163,
                        0.148846457231751,
                        -0.7766935235122059,
                        1.471637838812585,
                        -0.8916626639909406,
                        -0.03234804694483984,
                        0.5781167153438958,
                        -1.6262243879798533,
                        -0.2506691875973761,
                        -0.12661877494261376,
                        0.02853648855218438,
                        0.22887026695876146,
                        -1.0583965983915889,
                        0.1441983961126745,
                        -0.6775649323820487,
                        -0.25526189621010078,
                        -0.6995557633728966,
                        -0.3057491317466976,
                        0.2617048750832822,
                        0.427690443905103,
                        -0.23648562937085239,
                        -0.3308609047458173,
                        0.25159459278608789,
                        -0.851698577898715,
                        0.11714884038846396,
                        0.6128215500457426,
                        -0.12020668388943357,
                        0.15958341013871903,
                        0.3545309656938258,
                        -0.23318703193868818,
                        0.22378323280400815,
                        -0.09155406538249178,
                        1.0722354182523449,
                        0.803864658280931,
                        -0.8481399433842758,
                        0.43255123560374378
                    ]
                }
            ],
            "biases": [
                {
                    "row": 1,
                    "column": 12,
                    "elements": [
                        0.027294146784057284,
                        -0.0213801082204661,
                        -0.001306137081616754,
                        -0.15698162286898754,
                        -0.5390530440536132,
                        -0.8730914954534192,
                        -0.8062020271319372,
                        -0.26390810096618635,
                        -1.7473855062706996,
                        0.5456631333019564,
                        -0.4412380736714825,
                        -0.7850481615209786
                    ]
                },
                {
                    "row": 1,
                    "column": 4,
                    "elements": [
                        -0.18468209527949498,
                        0.8788947018051729,
                        -0.461334172245917,
                        -0.4746128894967603
                    ]
                }
            ]
        },
        {
            "inputSize": 15,
            "hiddenSize": 12,
            "hiddenLayers": 1,
            "outputSize": 4,
            "weights": [
                {
                    "row": 15,
                    "column": 12,
                    "elements": [
                        0.33639157825763457,
                        0.9858102798461914,
                        1.080361347245308,
                        0.7596049731585817,
                        0.08091180737754833,
                        0.6313714327536335,
                        -0.7146050400211443,
                        0.4861783463513667,
                        -0.8292691917773825,
                        0.0028620408927153564,
                        1.044872159902587,
                        -0.07032074584840587,
                        -0.7614327517478685,
                        0.4896106919736525,
                        2.0158205032348635,
                        -0.777636813919294,
                        0.03282506126587137,
                        -0.2734985649585724,
                        -0.11339042301804625,
                        -0.40224034750406725,
                        -0.8496307062658373,
                        0.4970905335678446,
                        -0.6086199569626523,
                        0.6357860434548197,
                        0.8728752398998987,
                        0.5628912882732582,
                        1.0089632272720338,
                        0.9502196591774741,
                        -0.6790047182124201,
                        0.8567388924932038,
                        1.204037868220003,
                        -0.24040622060666196,
                        0.07217720034700426,
                        0.8620928392615035,
                        -1.5370800495147706,
                        0.6128339580289719,
                        0.40650347479665069,
                        1.088956219650596,
                        -0.6948272211393003,
                        -0.5649074581342131,
                        0.27634162460126268,
                        -0.876491950548844,
                        -0.06014413623159953,
                        -2.0981853008270265,
                        -0.022593135836542989,
                        -0.7082946300506592,
                        -0.8520286501077552,
                        -0.3593406373908402,
                        0.7017569741521728,
                        0.4729597169813482,
                        -0.013772262407442782,
                        0.5346860821298236,
                        0.4402392800715269,
                        1.1908097760249854,
                        -0.5874476679014267,
                        0.9734741371256988,
                        -0.06967933378763824,
                        0.8024269938468933,
                        -0.2411925799686423,
                        -0.4881979415424025,
                        -0.0583810659408357,
                        0.5915781407570036,
                        -0.9074459130565025,
                        0.6180888013821644,
                        -0.893545255699431,
                        -0.7514157436487148,
                        -0.7163565036504647,
                        -0.5689994650024923,
                        0.1369915812163569,
                        1.0149061307608328,
                        -0.281851295630382,
                        -0.5086095516298084,
                        -1.0441986695345956,
                        1.072509092929609,
                        -0.7970593358447431,
                        0.5399145971993906,
                        -1.0143031026263172,
                        -0.37484330657406686,
                        0.9267479461745634,
                        -0.07074113841651553,
                        1.1624642981010567,
                        -0.15449919478882635,
                        -0.9390200024530825,
                        -0.8723969553350637,
                        -0.26400013660696866,
                        -0.4787563346706185,
                        -0.11770168040877316,
                        -0.09070966551711379,
                        0.676714374467274,
                        0.6284937576815519,
                        0.23095333553482468,
                        0.4874175017143423,
                        0.16761165120567779,
                        0.6033151193317823,
                        0.5535774827003479,
                        -0.04265356198797576,
                        0.897777180589383,
                        -0.33737914915215586,
                        -0.15976836392950445,
                        -0.7837331947255209,
                        -0.09297105844347442,
                        -0.3460466497531627,
                        -0.5207632456030868,
                        -0.6598556917109306,
                        0.6164520660473745,
                        0.4651606832126802,
                        0.9045182168678352,
                        -0.02353305990858834,
                        0.45830524659012469,
                        -0.39903019281294108,
                        -0.7458757062823569,
                        -0.36315908704937796,
                        -0.43819602876280419,
                        -1.1098766326904297,
                        0.46900823017041096,
                        -0.5759593165517467,
                        0.7682947221145945,
                        -0.4649421785021455,
                        0.36770272668330508,
                        0.582694264400466,
                        -0.45855121750892638,
                        -1.5069333572697304,
                        1.1181700222774378,
                        -0.06466331573102968,
                        0.34806099757204125,
                        0.30626761973793839,
                        0.9142096940583242,
                        -1.0302710846375547,
                        0.4837631701156244,
                        -1.312518304907091,
                        0.11242865445594674,
                        0.3138068306630537,
                        0.5559786654931926,
                        -0.29714091495972996,
                        0.8821554503074118,
                        -0.2579596423767647,
                        -0.6837006938534034,
                        0.36952283394100507,
                        0.04513315542585605,
                        0.20234800331894488,
                        0.9680415319531921,
                        0.3518609190896118,
                        0.34026930045271799,
                        -0.18476423036725365,
                        0.06855980894464864,
                        0.9255421161651611,
                        0.5235313542055611,
                        0.7103057827764374,
                        0.2976462888111451,
                        0.4524969056278074,
                        -1.5964425042763218,
                        -1.0962827210091267,
                        0.6130335232791548,
                        -0.45695263429929258,
                        -0.18286596639986997,
                        -0.07038313879106717,
                        -0.6000307982658795,
                        -0.7836957717196824,
                        0.8197803457176356,
                        0.22411171999809133,
                        0.0911387822005656,
                        -0.7449965275714245,
                        -0.566523015499115,
                        -0.21541455988859194,
                        -0.4504783383966844,
                        -0.17070970792264363,
                        0.9366004197395907,
                        -0.9351045129036206,
                        -0.5507702146812086,
                        -0.25525631983539656,
                        1.0022668237319153,
                        -0.24137293304614539,
                        0.2660171492559431,
                        -0.20955605510980747,
                        0.4283416942622944,
                        -0.40908628702163699,
                        0.6826235249339856,
                        0.5070130446002586,
                        0.05751178140400981,
                        1.0240563088793842
                    ]
                },
                {
                    "row": 12,
                    "column": 4,
                    "elements": [
                        -0.1275473500225459,
                        -0.6863745167690407,
                        -0.5825393313410774,
                        1.8229252400816574,
                        0.7379863702074268,
                        0.5573667349050098,
                        0.4832267757659352,
                        0.8239199392687073,
                        0.40694790816996476,
                        1.0310551911191739,
                        -0.92287509347726,
                        0.40885985117312187,
                        0.3180276579703163,
                        0.08516103849440243,
                        -0.8122090621854294,
                        1.3669781265115014,
                        -0.8447184539804038,
                        -0.03234804694483984,
                        0.5781167153438958,
                        0.2784338624148126,
                        -0.2506691875973761,
                        -0.15824355470840957,
                        0.02853648855218438,
                        0.22887026695876146,
                        -1.0560886575783677,
                        0.05610438464323053,
                        -0.645020204955491,
                        -0.25867636272685248,
                        -0.6995557633728966,
                        -0.40872050605859658,
                        0.2617048750832822,
                        0.427690443905103,
                        -0.23648562937085239,
                        -0.3308609047458173,
                        0.30216312535504055,
                        -0.851698577898715,
                        0.013904932172150275,
                        0.6128215500457426,
                        -0.19263908317953416,
                        0.15958341013871903,
                        0.3545309656938258,
                        -0.23318703193868818,
                        0.22378323280400815,
                        -0.12400029136127255,
                        1.1343005499986819,
                        0.7643336093659006,
                        -0.8140774861381925,
                        0.43255123560374378
                    ]
                }
            ],
            "biases": [
                {
                    "row": 1,
                    "column": 12,
                    "elements": [
                        0.07021484999332639,
                        -0.0213801082204661,
                        -0.10776870339625688,
                        -0.19733084212559594,
                        -0.6135680696500341,
                        -0.8627135008613092,
                        -0.8263611696895837,
                        -0.26390810096618635,
                        -1.7473855062706996,
                        0.5669914647854926,
                        -0.3948472248603787,
                        -0.6658051476922635
                    ]
                },
                {
                    "row": 1,
                    "column": 4,
                    "elements": [
                        -0.27175478588850057,
                        0.864048223706682,
                        -0.4551215241437667,
                        -0.4607718026187353
                    ]
                }
            ]
        },
        {
            "inputSize": 15,
            "hiddenSize": 12,
            "hiddenLayers": 1,
            "outputSize": 4,
            "weights": [
                {
                    "row": 15,
                    "column": 12,
                    "elements": [
                        0.30125066015612847,
                        0.9840034485635427,
                        1.080361347245308,
                        0.6615309658034478,
                        -0.0743847032909084,
                        0.6047479269378293,
                        -0.7146050400211443,
                        0.4326689556590775,
                        -0.7881821897747061,
                        0.1787842569076652,
                        0.9807603738505275,
                        -0.03270032389757205,
                        -0.9131278852628739,
                        0.352803106543206,
                        0.9328616186252745,
                        -0.7904918223765973,
                        0.030447740643374745,
                        0.29225926013563266,
                        -0.052768927746463138,
                        -0.40224034750406725,
                        -0.8357432372865792,
                        0.440951667773549,
                        -0.5243840064833059,
                        0.6711792590869887,
                        0.814835304746576,
                        0.5360732078552246,
                        -0.6947729587554932,
                        0.8723624025322216,
                        -0.6190963114815933,
                        0.8566358026796896,
                        1.1241976373839205,
                        -0.47210354076781826,
                        0.040016540232689749,
                        0.9519570014627554,
                        -1.5042145656400728,
                        0.5428958091504315,
                        0.46785890831456097,
                        1.088956219650596,
                        -0.6676274677276992,
                        -0.6128962348175744,
                        0.28760888327585479,
                        -0.9175364556301997,
                        0.005718059493133865,
                        0.4682250162190731,
                        -0.04118450536973883,
                        0.6746944570634099,
                        -0.845716910918856,
                        -0.26855360928530216,
                        0.6701137524105274,
                        -1.5461170673370362,
                        -0.0255224429995895,
                        0.2589822642972024,
                        0.4534926904606884,
                        1.1074366171181618,
                        -0.5113140363885611,
                        0.9769732304694769,
                        -0.017817134208470976,
                        0.8422032288621359,
                        -0.26368759553002488,
                        -0.560606029289026,
                        0.0455925390551144,
                        0.6888304631825406,
                        -0.910979582981583,
                        0.7320320775468261,
                        -0.893545255699431,
                        -0.013704012472485872,
                        -0.7163565036504647,
                        -0.5689994650024923,
                        0.19810570889658409,
                        1.0149061307608328,
                        -0.27588913590884225,
                        -0.5002098740194239,
                        -1.0350220042214842,
                        0.9786628667402253,
                        -0.7970593358447431,
                        0.4663185356194157,
                        -0.8761905353982358,
                        -0.32418371389950986,
                        1.2713879346847535,
                        -0.07074113841651553,
                        1.106967199118838,
                        -0.15449919478882635,
                        -0.8875426507090128,
                        -0.9278725537289647,
                        -0.3070997699867313,
                        -0.4787563346706185,
                        0.04816787688724666,
                        -0.2027023113566715,
                        0.7345045226376715,
                        0.7138394489390958,
                        0.07383574792404024,
                        0.3436704762345877,
                        0.6787501573562622,
                        0.5039737932007038,
                        0.5535774827003479,
                        -0.09459138377111387,
                        0.9181931412058906,
                        -0.21923448028915083,
                        -0.2917008697728458,
                        -0.8417058046417553,
                        -0.0018623011419549585,
                        -0.2988153289257056,
                        -0.42857460319310106,
                        -0.6088260087158623,
                        0.5346786267285015,
                        0.4957961247796021,
                        0.996970842774531,
                        -0.10638117790222168,
                        0.44173889219352899,
                        -0.3464538571785969,
                        0.36620327830314639,
                        -0.12702093651084835,
                        -0.4967146622483849,
                        -0.025867028908251656,
                        0.4472300169756498,
                        -0.6388952060316973,
                        0.6216463320787291,
                        -0.4753420357808047,
                        0.3764107447958063,
                        0.582694264400466,
                        -0.29088298642226598,
                        -0.6282106637954712,
                        1.0419846013297503,
                        -0.2222273874484535,
                        0.2913265347253464,
                        0.4782169583972333,
                        -0.06358098238706589,
                        -0.8645438855906571,
                        0.4998198949443733,
                        -1.289182509322341,
                        0.10572682505422204,
                        0.27673070404482238,
                        0.6140657431540344,
                        -0.29714091495972996,
                        0.9246354236426768,
                        -0.2579596423767647,
                        -0.7430463373477567,
                        0.5103159389390015,
                        0.08878036000962819,
                        0.20234800331894488,
                        0.9638517813835406,
                        0.39917788106617815,
                        0.506818972998694,
                        -0.20538734827601425,
                        0.04223063892306822,
                        0.867197365826577,
                        0.764158378404213,
                        0.739055747560025,
                        0.33185897122570387,
                        0.5157098601574486,
                        -1.5639908065909332,
                        -1.0936343577904868,
                        0.558358111908742,
                        -0.2995460467022967,
                        -0.2992303404161696,
                        -0.2174611362998311,
                        -0.5444433910906801,
                        -0.6751357475998674,
                        0.8915347469148465,
                        0.19646254635493255,
                        0.0911387822005656,
                        -0.7772748557808029,
                        0.42921763579288987,
                        -0.20498882733853786,
                        -0.46700656876689719,
                        -0.09239827101871257,
                        0.9599339960198101,
                        -0.9351045129036206,
                        -0.5921361521274029,
                        -0.278053718712437,
                        1.0022668237319153,
                        -0.23778390835976816,
                        0.14429103384139875,
                        -0.1485838091395486,
                        0.32836649059023506,
                        0.8167051884578509,
                        0.8583622599636325,
                        0.4941149589703947,
                        0.13615969283680885,
                        1.155043763372726
                    ]
                },
                {
                    "row": 12,
                    "column": 4,
                    "elements": [
                        -0.1504050324436612,
                        -0.7551330119710453,
                        -0.6245950310493682,
                        1.9377213764925348,
                        0.6724400846259857,
                        0.5202354978300292,
                        0.3872973912987554,
                        0.7860064734543766,
                        0.2608155011352338,
                        1.0887201534373146,
                        -0.8795598373062221,
                        0.43020126468461319,
                        0.31439677651652878,
                        -0.017815460401540529,
                        -0.7667081739371096,
                        1.241386538268987,
                        -0.8447184539804038,
                        -0.02882060935617048,
                        0.685498371012379,
                        0.4716102764148631,
                        -0.2506691875973761,
                        -0.12661877494261376,
                        0.026977134535131177,
                        0.16807080711196854,
                        -1.019374031952971,
                        0.09585059322142797,
                        -0.7951254125221179,
                        -0.23438598366792008,
                        -0.767181493713605,
                        -0.35298153529257006,
                        0.2744027919167591,
                        0.5689359338698061,
                        -0.019481895576809906,
                        -0.29469674353400246,
                        0.30425741278903387,
                        -0.8983479094147158,
                        0.23595803907829006,
                        0.6128215500457426,
                        -0.19263908317953416,
                        0.08363315411093098,
                        0.2811642993225334,
                        -0.11272269653825262,
                        0.20836280665700714,
                        -0.26381831678408487,
                        1.1410624599906579,
                        0.7820303620212776,
                        -0.7477715457364025,
                        0.3597268278742609
                    ]
                }
            ],
            "biases": [
                {
                    "row": 1,
                    "column": 12,
                    "elements": [
                        0.032146110198883807,
                        0.08251511279018775,
                        -0.10776870339625688,
                        -0.2035805985909418,
                        -0.4536350797772215,
                        -0.8527585818427657,
                        -0.8245268583921745,
                        -0.2849241678756611,
                        -1.7797043416213257,
                        0.5728958832501698,
                        -0.3894974926064405,
                        -0.6815340851086953
                    ]
                },
                {
                    "row": 1,
                    "column": 4,
                    "elements": [
                        -0.29539737210552988,
                        0.8788947018051729,
                        -0.4551215241437667,
                        -0.6218828205258387
                    ]
                }
            ]
        },
        {
            "inputSize": 15,
            "hiddenSize": 12,
            "hiddenLayers": 1,
            "outputSize": 4,
            "weights": [
                {
                    "row": 15,
                    "column": 12,
                    "elements": [
                        0.33639157825763457,
                        0.9858102798461914,
                        1.080361347245308,
                        0.7886774664364689,
                        0.08091180737754833,
                        0.6047479269378293,
                        -0.7837001631967304,
                        0.4861783463513667,
                        -0.8292691917773825,
                        0.029634550577775089,
                        0.9986828952002167,
                        0.0015537539444281379,
                        -0.7336352358470375,
                        0.352803106543206,
                        2.0158205032348635,
                        -0.777636813919294,
                        -0.028547710051800125,
                        0.36318739429599758,
                        -0.11339042301804625,
                        -0.40224034750406725,
                        -0.8688826323800756,
                        0.5399431515807742,
                        -0.5560239210611044,
                        0.6357860434548197,
                        0.8728752398998987,
                        0.4674365564729115,
                        1.005592672988949,
                        0.916362362318953,
                        -0.6790047182124201,
                        0.8567388924932038,
                        1.2155780792236329,
                        -0.2657319717255504,
                        0.07217720034700426,
                        0.8620928392615035,
                        -1.5215808111230836,
                        0.6128339580289719,
                        0.40650347479665069,
                        1.088956219650596,
                        -0.6948272211393003,
                        -0.6675029583886651,
                        0.24309823534274334,
                        -0.7752633112152527,
                        -0.06014413623159953,
                        0.22971265150324439,
                        0.06650172587332426,
                        -0.7082946300506592,
                        -0.8520286501077552,
                        -0.2809280972962843,
                        0.7017569741521728,
                        0.4729597169813482,
                        0.058506850419504988,
                        0.4735378796649172,
                        0.5263759297650417,
                        1.1908097760249854,
                        -0.6081447057054357,
                        1.0284382185706012,
                        0.03970777924260105,
                        0.8024269938468933,
                        -0.278685160680189,
                        -0.4881979415424025,
                        -0.0583810659408357,
                        0.5466365574835299,
                        -0.9074459130565025,
                        0.6180888013821644,
                        -0.893545255699431,
                        -0.7514157436487148,
                        -0.7163565036504647,
                        -0.500820183919573,
                        0.18161856639383346,
                        1.0149061307608328,
                        -0.281851295630382,
                        -0.5047648265834628,
                        -1.032691156448296,
                        0.9061056973402817,
                        -0.7970593358447431,
                        0.5386258854028898,
                        -1.0154031683409373,
                        -0.4115286353232994,
                        1.0508792682457707,
                        -0.07074113841651553,
                        1.0691406583377159,
                        -0.11539064387833165,
                        -0.9390200024530825,
                        -0.8723969553350637,
                        -0.26400013660696866,
                        -0.4787563346706185,
                        -0.11770168040877316,
                        -0.12586708993355345,
                        0.9235316726736546,
                        0.6284937576815519,
                        0.23095333553482468,
                        0.4874175017143423,
                        0.13850548189820079,
                        0.6033151193317823,
                        0.5486891588116358,
                        -0.04265356198797576,
                        0.9246659032431186,
                        -0.33737914915215586,
                        -0.15976836392950445,
                        -0.7837331947255209,
                        -0.0018623011419549585,
                        -0.3460466497531627,
                        -0.5207632456030868,
                        -0.5693890695782073,
                        0.5377944873741081,
                        0.4651606832126802,
                        0.9045182168678352,
                        -0.013744521898128692,
                        0.45830524659012469,
                        -0.39757615327835085,
                        -0.7458757062823569,
                        -0.3069936137405973,
                        1.7878775596618653,
                        -0.06356137522468242,
                        0.4698346280208309,
                        -0.5759593165517467,
                        0.7682947221145945,
                        -0.4649421785021455,
                        0.3836705684661865,
                        0.582694264400466,
                        -0.4051277701613074,
                        -1.4572138154133008,
                        1.1181700222774378,
                        0.024832074902529034,
