{
    "generation": 150,
    "totalPopulation": 100,
    "brainDataList": [
        {
            "inputSize": 15,
            "hiddenSize": 12,
            "hiddenLayers": 1,
            "outputSize": 4,
            "weights": [
                {
                    "row": 15,
                    "column": 12,
                    "elements": [
                        -0.8483866694026032,
                        -0.3378151641050271,
                        1.091426015489709,
                        0.7331405160368733,
                        0.36062037973510399,
                        -0.7597116126986339,
                        -0.3924711059274977,
                        0.08370229766230897,
                        0.07217501846094532,
                        -0.8595082597117765,
                        0.8757720863226346,
                        1.2402189680555367,
                        -0.10476784340565537,
                        -1.0388547120361514,
                        -0.09014160732665497,
                        0.8718103549465077,
                        0.05686039046365221,
                        0.7512469748792869,
                        1.0626425740906898,
                        0.23005652276461165,
                        -0.3722067290725837,
                        -0.8366063089232982,
                        0.5774768144215932,
                        0.8018020996632246,
                        0.9452584500219672,
                        -0.7982732860619866,
                        0.2830218307415504,
                        0.5252261304985249,
                        -1.12575244538785,
                        0.9815284565855973,
                        0.0847262593470201,
                        1.0032747524467388,
                        0.15223837189937695,
                        0.9237282527105739,
                        0.38941621991515698,
                        -0.03914402381189275,
                        -0.962161697652193,
                        0.9326239018026226,
                        0.12709018490646946,
                        -0.39958948393006357,
                        -1.688657912868134,
                        0.452123761177063,
                        0.9206671217174417,
                        1.4928205307216503,
                        1.3533869228770164,
                        1.0773562092676159,
                        0.7424008124979572,
                        -0.429705356582578,
                        0.736882687066942,
                        0.33270009894970589,
                        -0.44474923706173566,
                        0.7062563750497422,
                        0.4077824783811314,
                        0.558566699813133,
                        -1.0884985785428044,
                        -0.2185305006510192,
                        -0.1443583727586626,
                        -0.32392395456122977,
                        -0.2561797562827617,
                        -0.12853814239582563,
                        -0.4552373032069536,
                        -0.28407058041867386,
                        -0.22432977919692743,
                        -0.33926071678698957,
                        0.9391159618955047,
                        0.7888203322401353,
                        -0.3144016184388627,
                        -0.5301126702061517,
                        -0.4734584669677291,
                        0.9205510535894841,
                        -0.13330171002336622,
                        -0.06361114065750795,
                        -0.49018284042847728,
                        -0.6122437195113477,
                        -0.6626148159032682,
                        -0.7651606593320399,
                        -0.3668970928206322,
                        -0.8459116463872461,
                        0.28209935417809919,
                        -0.33018889016882238,
                        -0.41908555168163688,
                        0.9807838235896307,
                        0.629744334962913,
                        -0.31972858883549656,
                        -0.768266029187632,
                        0.3279112910983155,
                        0.7957956495839791,
                        0.6569902831418794,
                        -2.1222824112561087,
                        1.0880166292190552,
                        0.8322536677228134,
                        0.5145206707745971,
                        0.13250812030275095,
                        0.5291032264096892,
                        1.5683392594345463,
                        1.3208887681599056,
                        0.7434601295169786,
                        -1.9373568296432496,
                        -0.36365955118308548,
                        -0.71178368396027,
                        0.07243473083201946,
                        -2.044438362121582,
                        -1.1983436007486908,
                        0.6380595226076218,
                        0.08357502035713946,
                        -1.0424899542536693,
                        -1.1318320035934449,
                        0.6828122477659988,
                        -1.4567872829001135,
                        1.0959827470743458,
                        -0.6401507847292196,
                        0.5198175681959676,
                        0.44724246355429356,
                        0.29729138185021455,
                        0.30626210783563759,
                        1.5231119058150365,
                        2.587910662407738,
                        -0.2533513967582215,
                        0.41150678229463946,
                        -0.5789690599357193,
                        0.9245568646704732,
                        0.6519398252745496,
                        -1.30274656490938,
                        1.0738709266677705,
                        -0.4189011191892748,
                        -1.124951459184978,
                        0.10311124633022506,
                        0.4077272073934071,
                        -2.2765813727518999,
                        0.2563992171974937,
                        0.05964219255251724,
                        -0.4565454982595898,
                        -0.14092400400577,
                        -0.8387491243060792,
                        -0.8809157192846353,
                        -0.7450870521474169,
                        -0.4369472286105478,
                        -0.7767939231380037,
                        0.4473896416614682,
                        0.7275199471226801,
                        0.13729834422732924,
                        -0.5480358077132667,
                        0.5578452368541155,
                        -0.40230251567553979,
                        0.1313052261148724,
                        -0.3670994924452214,
                        0.5514407633484961,
                        -0.027467443922207126,
                        0.18065218617433266,
                        0.7078977134425388,
                        0.9898994436464904,
                        -0.024080898659702089,
                        -0.45402831249198447,
                        0.49305577561798366,
                        -0.015824269606220799,
                        0.07476319097966955,
                        -0.5567946302032907,
                        1.6714117453119176,
                        0.49155155872559466,
                        -1.0532504208331588,
                        -0.08275581877259897,
                        0.07417830582537771,
                        -0.41631262538704308,
                        0.27607950454930116,
                        -0.19716856443628229,
                        -0.9747433876936205,
                        0.298016011009973,
                        0.6107309291494389,
                        -0.07915139264419816,
                        -1.0106698404121489,
                        1.1139604397361778,
                        1.1152446816865807,
                        -1.383440288523675,
                        0.8302290015418508,
                        -0.6505081339381116,
                        0.0017528284401848727,
                        -0.6731739818382365,
                        -0.10500533789761235,
                        0.3828775916465736,
                        -0.6469511950864342
                    ]
                },
                {
                    "row": 12,
                    "column": 4,
                    "elements": [
                        -1.6423223076638534,
                        -0.5528040028755182,
                        -0.2882359761880544,
                        0.6304789974567212,
                        0.990760525906241,
                        -0.7590517990489877,
                        0.5029413072104763,
                        -2.645116020024099,
                        0.6820261894304441,
                        1.8531107757683159,
                        0.1692346766846129,
                        0.8921397378224643,
                        0.1415463099183263,
                        0.7537998558972925,
                        -0.7447749166504782,
                        0.47054646488581888,
                        0.03689815216529235,
                        -0.18634632641091276,
                        0.8682714427940753,
                        -0.8723651757532966,
                        0.1177797680542696,
                        0.14908832444073295,
                        -0.5513262637085059,
                        -0.0837436524229116,
                        0.7693717110250208,
                        0.08331930670787038,
                        0.17600102366403726,
                        -0.5276082375788986,
                        -0.04990140844216004,
                        0.9348037723778464,
                        -0.3122133075054805,
                        0.017222596057504759,
                        -1.126155401216837,
                        0.3757654140059043,
                        0.019910299147426703,
                        0.3444621051283139,
                        -0.21288664247067769,
                        -0.9123754823787522,
                        0.2447899915057321,
                        -0.210187979798364,
                        -0.8477558628145896,
                        0.26394463590632979,
                        -0.021140984299265143,
                        -0.2653258848965123,
                        1.177235062918128,
                        0.44481461619263876,
                        -1.8262958240305889,
                        -0.6912552042408895
                    ]
                }
            ],
            "biases": [
                {
                    "row": 1,
                    "column": 12,
                    "elements": [
                        0.4413413674444938,
                        -0.33533866939287196,
                        -0.5105056577296463,
                        1.2598430210600547,
                        1.0524742504422478,
                        -1.3798951569667144,
                        -0.4571706208250659,
                        -0.7696794783619856,
                        -1.1229919418188215,
                        -0.4155791864448841,
                        -0.6958395611673441,
                        -0.48532283423851849
                    ]
                },
                {
                    "row": 1,
                    "column": 4,
                    "elements": [
                        0.6828236193030493,
                        -0.44203298356237799,
                        -0.383049041089119,
                        0.7350930423077999
                    ]
                }
            ]
        },
        {
            "inputSize": 15,
            "hiddenSize": 12,
            "hiddenLayers": 1,
            "outputSize": 4,
            "weights": [
                {
                    "row": 15,
                    "column": 12,
                    "elements": [
                        -0.8483866694026032,
                        -0.35281937901013529,
                        1.080143246300294,
                        0.7331405160368733,
                        0.36062037973510399,
                        -0.7597116126986339,
                        -0.3924711059274977,
                        0.08370229766230897,
                        0.08292577567647297,
                        -0.8595082597117765,
                        0.8757720863226346,
                        1.2402189680555367,
                        -0.10476784340565537,
                        -1.0388547120361514,
                        -0.09014160732665497,
                        0.8718103549465077,
                        0.05686039046365221,
                        0.7512469748792869,
                        1.0626425740906898,
                        0.23005652276461165,
                        -0.3722067290725837,
                        -0.8366063089232982,
                        0.5774768144215932,
                        0.8018020996632246,
                        0.9452584500219672,
                        -0.7982732860619866,
                        0.29820734032224807,
                        0.5252261304985249,
                        -1.12575244538785,
                        0.9815284565855973,
                        0.0847262593470201,
                        1.0032747524467388,
                        0.15892518438915149,
                        0.9026460664828839,
                        0.38941621991515698,
                        -0.039464733748495687,
                        -0.962161697652193,
                        0.9326239018026226,
                        0.12709018490646946,
                        -0.39958948393006357,
                        -1.6885338095277938,
                        0.452123761177063,
                        0.9513020607032602,
                        1.4928205307216503,
                        1.3533869228770164,
                        1.0773562092676159,
                        0.7424008124979572,
                        -0.429705356582578,
                        0.736882687066942,
                        0.33270009894970589,
                        -0.44474923706173566,
                        0.7062563750497422,
                        0.4077824783811314,
                        0.558566699813133,
                        -1.0884985785428044,
                        -0.2185305006510192,
                        -0.1443583727586626,
                        -0.32392395456122977,
                        -0.2561797562827617,
                        -0.12853814239582563,
                        -0.4552373032069536,
                        -0.28407058041867386,
                        -0.22432977919692743,
                        -0.33926071678698957,
                        0.9391159618955047,
                        0.7888203322401353,
                        -0.3144016184388627,
                        -0.5301126702061517,
                        -0.4734584669677291,
                        0.9205510535894841,
                        -0.13330171002336622,
                        -0.06361114065750795,
                        -0.49018284042847728,
                        -0.6122437195113477,
                        -0.6626148159032682,
                        -0.7651606593320399,
                        -0.3668970928206322,
                        -0.8459116463872461,
                        0.28209935417809919,
                        -0.35592360743952336,
                        -0.41908555168163688,
                        0.9666293503628407,
                        0.629744334962913,
                        -0.31972858883549656,
                        -0.768266029187632,
                        0.3279112910983155,
                        0.7957956495839791,
                        0.6569902831418794,
                        -2.1222824112561087,
                        1.0880166292190552,
                        0.8322536677228134,
                        0.4949915479048326,
                        0.15095934803211853,
                        0.5291032264096892,
                        1.5683392594345463,
                        1.3208887681599056,
                        0.7434601295169786,
                        -1.9373568296432496,
                        -0.36365955118308548,
                        -0.71178368396027,
                        0.07243473083201946,
                        -2.044438362121582,
                        -1.1983436007486908,
                        0.6380595226076218,
                        0.08357502035713946,
                        -1.0424899542536693,
                        -1.1318320035934449,
                        0.6828122477659988,
                        -1.4567872829001135,
                        1.0959827470743458,
                        -0.6401507847292196,
                        0.5331274531619115,
                        0.44724246355429356,
                        0.3192170548449398,
                        0.30626210783563759,
                        1.5231119058150365,
                        2.587910662407738,
                        -0.2533513967582215,
                        0.41150678229463946,
                        -0.5789690599357193,
                        0.9245568646704732,
                        0.6519398252745496,
                        -1.30274656490938,
                        1.0738709266677705,
                        -0.4189011191892748,
                        -1.1350207469752776,
                        0.10311124633022506,
                        0.39912111525197466,
                        -2.2765813727518999,
                        0.2563992171974937,
                        0.05964219255251724,
                        -0.48427816317850427,
                        -0.14092400400577,
                        -0.8387491243060792,
                        -0.8809157192846353,
                        -0.7450870521474169,
                        -0.4369472286105478,
                        -0.7767939231380037,
                        0.4473896416614682,
                        0.7214953159955155,
                        0.13729834422732924,
                        -0.5480358077132667,
                        0.5578452368541155,
                        -0.40230251567553979,
                        0.1313052261148724,
                        -0.3670994924452214,
                        0.5514407633484961,
                        -0.027467443922207126,
                        0.18065218617433266,
                        0.7078977134425388,
                        0.9817182658556067,
                        -0.024080898659702089,
                        -0.45248399998978608,
                        0.49305577561798366,
                        -0.02033347442953881,
                        0.07476319097966955,
                        -0.5567946302032907,
                        1.6714117453119176,
                        0.49155155872559466,
                        -1.0532504208331588,
                        -0.08275581877259897,
                        0.07417830582537771,
                        -0.4328411074547365,
                        0.27607950454930116,
                        -0.19716856443628229,
                        -0.9747433876936205,
                        0.298016011009973,
                        0.6107309291494389,
                        -0.07915139264419816,
                        -1.0106698404121489,
                        1.1139604397361778,
                        1.1152446816865807,
                        -1.383440288523675,
                        0.8302290015418508,
                        -0.6505081339381116,
                        0.0017528284401848727,
                        -0.6731739818382365,
                        -0.10500533789761235,
                        0.3712090933913021,
                        -0.6469511950864342
                    ]
                },
                {
                    "row": 12,
                    "column": 4,
                    "elements": [
                        -1.6647097378313325,
                        -0.5528040028755182,
                        -0.2882359761880544,
                        0.6304789974567212,
                        0.9930689972065045,
                        -0.7590517990489877,
                        0.5029413072104763,
                        -2.6531283855438234,
                        0.6820261894304441,
                        1.8531107757683159,
                        0.1692346766846129,
                        0.8921397378224643,
                        0.1415463099183263,
                        0.7537998558972925,
                        -0.7447749166504782,
                        0.47054646488581888,
                        0.03689815216529235,
                        -0.18634632641091276,
                        0.8779962944234029,
                        -0.8723651757532966,
                        0.1177797680542696,
                        0.14908832444073295,
                        -0.5513262637085059,
                        -0.0837436524229116,
                        0.7693717110250208,
                        0.08331930670787038,
                        0.17600102366403726,
                        -0.5276082375788986,
                        -0.05783570797222734,
                        0.9348037723778464,
                        -0.3122133075054805,
                        0.017222596057504759,
                        -1.126155401216837,
                        0.3757654140059043,
                        0.019910299147426703,
                        0.3444621051283139,
                        -0.21288664247067769,
                        -0.9123754823787522,
                        0.2447899915057321,
                        -0.210187979798364,
                        -0.8477558628145896,
                        0.26394463590632979,
                        -0.021140984299265143,
                        -0.2653258848965123,
                        1.177235062918128,
                        0.44481461619263876,
                        -1.8262958240305889,
                        -0.6912552042408895
                    ]
                }
            ],
            "biases": [
                {
                    "row": 1,
                    "column": 12,
                    "elements": [
                        0.4413413674444938,
                        -0.33533866939287196,
                        -0.5323913574662929,
                        1.2598430210600547,
                        1.0524742504422478,
                        -1.40519645549634,
                        -0.4571706208250659,
                        -0.7696794783619856,
                        -1.1229919418188215,
                        -0.4155791864448841,
                        -0.6958395611673441,
                        -0.48532283423851849
                    ]
                },
                {
                    "row": 1,
                    "column": 4,
                    "elements": [
                        0.6828236193030493,
                        -0.44203298356237799,
                        -0.383049041089119,
                        0.7350930423077999
                    ]
                }
            ]
        },
        {
            "inputSize": 15,
            "hiddenSize": 12,
            "hiddenLayers": 1,
            "outputSize": 4,
            "weights": [
                {
                    "row": 15,
                    "column": 12,
                    "elements": [
                        -0.8483866694026032,
                        -0.35281937901013529,
                        1.0968318920053835,
                        0.7331405160368733,
                        0.36062037973510399,
                        -0.7597116126986339,
                        -0.3883578264383667,
                        0.08370229766230897,
                        0.08292577567647297,
                        -0.8595082597117765,
                        0.8757720863226346,
                        1.2402189680555367,
                        -0.10476784340565537,
                        -1.0388547120361514,
                        -0.09014160732665497,
                        0.8533680774503996,
                        0.05686039046365221,
                        0.7512469748792869,
                        1.0626425740906898,
                        0.23005652276461165,
                        -0.3722067290725837,
                        -0.8366063089232982,
                        0.5774768144215932,
                        0.8018020996632246,
                        0.9452584500219672,
                        -0.7982732860619866,
                        0.29820734032224807,
                        0.5252261304985249,
                        -1.12575244538785,
                        0.9815284565855973,
                        0.0847262593470201,
                        1.0032747524467388,
                        0.15892518438915149,
                        0.9026460664828839,
                        0.38941621991515698,
                        -0.039464733748495687,
                        -0.962161697652193,
                        0.9326239018026226,
                        0.12709018490646946,
                        -0.39958948393006357,
                        -1.6885338095277938,
                        0.452123761177063,
                        0.9513020607032602,
                        1.500334316511994,
                        1.3533869228770164,
                        1.0773562092676159,
                        0.7424008124979572,
                        -0.429705356582578,
                        0.736882687066942,
                        0.33270009894970589,
                        -0.44474923706173566,
                        0.7062563750497422,
                        0.4077824783811314,
                        0.558566699813133,
                        -1.0884985785428044,
                        -0.19773933767121888,
                        -0.1443583727586626,
                        -0.32392395456122977,
                        -0.2561797562827617,
                        -0.12853814239582563,
                        -0.4552373032069536,
                        -0.28407058041867386,
                        -0.22432977919692743,
                        -0.33926071678698957,
                        0.9391159618955047,
                        0.7888203322401353,
                        -0.3144016184388627,
                        -0.5301126702061517,
                        -0.4734584669677291,
                        0.9205510535894841,
                        -0.13330171002336622,
                        -0.06361114065750795,
                        -0.49018284042847728,
                        -0.6122437195113477,
                        -0.6626148159032682,
                        -0.7651606593320399,
                        -0.3668970928206322,
                        -0.8459116463872461,
                        0.28209935417809919,
                        -0.3747840127014779,
                        -0.41908555168163688,
                        0.9666293503628407,
                        0.629744334962913,
                        -0.31972858883549656,
                        -0.768266029187632,
                        0.3279112910983155,
                        0.8242076143191004,
                        0.6569902831418794,
                        -2.1222824112561087,
                        1.0880166292190552,
                        0.8322536677228134,
                        0.4949915479048326,
                        0.15095934803211853,
                        0.5291032264096892,
                        1.5683392594345463,
                        1.3208887681599056,
                        0.7434601295169786,
                        -1.9373568296432496,
                        -0.33176925972822549,
                        -0.71178368396027,
                        0.07243473083201946,
                        -2.044438362121582,
                        -1.1983436007486908,
                        0.6380595226076218,
                        0.08357502035713946,
                        -1.0424899542536693,
                        -1.1318320035934449,
                        0.6828122477659988,
                        -1.4567872829001135,
                        1.0959827470743458,
                        -0.6401507847292196,
                        0.5331274531619115,
                        0.44724246355429356,
                        0.3192170548449398,
                        0.30626210783563759,
                        1.5231119058150365,
                        2.587910662407738,
                        -0.2533513967582215,
                        0.41150678229463946,
                        -0.5789690599357193,
                        0.9245568646704732,
                        0.6519398252745496,
                        -1.30274656490938,
                        1.0738709266677705,
                        -0.4189011191892748,
                        -1.1350207469752776,
                        0.10311124633022506,
                        0.39912111525197466,
                        -2.2765813727518999,
                        0.2563992171974937,
                        0.05964219255251724,
                        -0.48427816317850427,
                        -0.14092400400577,
                        -0.8387491243060792,
                        -0.8809157192846353,
                        -0.7450870521474169,
                        -0.4369472286105478,
                        -0.7767939231380037,
                        0.4473896416614682,
                        0.7214953159955155,
                        0.13729834422732924,
                        -0.5480358077132667,
                        0.5578452368541155,
                        -0.40230251567553979,
                        0.1313052261148724,
                        -0.3670994924452214,
                        0.5514407633484961,
                        -0.027467443922207126,
                        0.18065218617433266,
                        0.7078977134425388,
                        0.9817182658556067,
                        -0.024080898659702089,
                        -0.45248399998978608,
                        0.49305577561798366,
                        -0.02033347442953881,
                        0.07476319097966955,
                        -0.5567946302032907,
                        1.6714117453119176,
                        0.49155155872559466,
                        -1.0736729910820926,
                        -0.08275581877259897,
                        0.07417830582537771,
                        -0.4328411074547365,
                        0.27607950454930116,
                        -0.19716856443628229,
                        -0.9708208195196733,
                        0.298016011009973,
                        0.6157469418251412,
                        -0.07915139264419816,
                        -1.0106698404121489,
                        1.1139604397361778,
                        1.1152446816865807,
                        -1.383440288523675,
                        0.8302290015418508,
                        -0.6586309975260827,
                        0.009065844333740692,
                        -0.6731739818382365,
                        -0.10500533789761235,
                        0.3712090933913021,
                        -0.6469511950864342
                    ]
                },
                {
                    "row": 12,
                    "column": 4,
                    "elements": [
                        -1.6694473527147192,
                        -0.5528040028755182,
                        -0.2882359761880544,
                        0.6304789974567212,
                        0.9930689972065045,
                        -0.7590517990489877,
                        0.5029413072104763,
                        -2.6531283855438234,
                        0.6820261894304441,
                        1.8531107757683159,
                        0.1692346766846129,
                        0.8921397378224643,
                        0.1415463099183263,
                        0.7537998558972925,
                        -0.7447749166504782,
                        0.47054646488581888,
                        0.03689815216529235,
                        -0.18634632641091276,
                        0.8779962944234029,
                        -0.9007240041408813,
                        0.1177797680542696,
                        0.14908832444073295,
                        -0.5513262637085059,
                        -0.0837436524229116,
                        0.7693717110250208,
                        0.08331930670787038,
                        0.17600102366403726,
                        -0.5276082375788986,
                        -0.05783570797222734,
                        0.9500188852007565,
                        -0.3122133075054805,
                        0.017222596057504759,
                        -1.126155401216837,
                        0.3757654140059043,
                        0.019910299147426703,
                        0.3444621051283139,
                        -0.21288664247067769,
                        -0.9106060453734433,
                        0.2447899915057321,
                        -0.210187979798364,
                        -0.8477558628145896,
                        0.26394463590632979,
                        -0.021140984299265143,
                        -0.2653258848965123,
                        1.177235062918128,
                        0.44481461619263876,
                        -1.8262958240305889,
                        -0.6912552042408895
                    ]
                }
            ],
            "biases": [
                {
                    "row": 1,
                    "column": 12,
                    "elements": [
                        0.4413413674444938,
                        -0.33533866939287196,
                        -0.5323913574662929,
                        1.2598430210600547,
                        1.0524742504422478,
                        -1.40519645549634,
                        -0.4571706208250659,
                        -0.7696794783619856,
                        -1.1229919418188215,
                        -0.4155791864448841,
                        -0.6958395611673441,
                        -0.4730308058477241
                    ]
                },
                {
                    "row": 1,
                    "column": 4,
                    "elements": [
                        0.6828236193030493,
                        -0.44203298356237799,
                        -0.383049041089119,
                        0.7350930423077999
                    ]
                }
            ]
        },
        {
            "inputSize": 15,
            "hiddenSize": 12,
            "hiddenLayers": 1,
            "outputSize": 4,
            "weights": [
                {
                    "row": 15,
                    "column": 12,
                    "elements": [
                        -0.8574653619935247,
                        -0.35281937901013529,
                        1.080143246300294,
                        0.742688343663314,
                        0.35204930949401938,
                        -0.7597116126986339,
                        -0.3583813363723858,
                        0.0874195719470307,
                        0.06386485085723282,
                        -0.8595082597117765,
                        0.8757720863226346,
                        1.2402189680555367,
                        -0.10476784340565537,
                        -1.0322723823140075,
                        -0.1392376564917239,
                        0.8718103549465077,
                        0.041712224384164556,
                        0.7512469748792869,
                        1.0626425740906898,
                        0.2335944377365165,
                        -0.3722067290725837,
                        -0.8366063089232982,
                        0.5604698727679602,
                        0.811349557740876,
                        0.9452584500219672,
                        -0.7982732860619866,
                        0.29820734032224807,
                        0.5195141304945909,
                        -1.1656343939211627,
                        0.9815284565855973,
                        0.0847262593470201,
                        1.0125264636085077,
                        0.15892518438915149,
                        0.8949071611068126,
                        0.3976355041466867,
                        -0.0500890683231876,
                        -0.9330839037502829,
                        0.9117638763861595,
                        0.12709018490646946,
                        -0.39958948393006357,
                        -1.7077165376280029,
                        0.452123761177063,
                        0.969722751781699,
                        1.4928205307216503,
                        1.3533869228770164,
                        1.0812991756406654,
                        0.7424008124979572,
                        -0.3898670013953636,
                        0.736882687066942,
                        0.33270009894970589,
                        -0.44474923706173566,
                        0.7062563750497422,
                        0.40394666714990148,
                        0.524875304448984,
                        -1.1021261276480712,
                        -0.22392172336510308,
                        -0.10807070581844292,
                        -0.32392395456122977,
                        -0.2561797562827617,
                        -0.12853814239582563,
                        -0.4552373032069536,
                        -0.31897398435119897,
                        -0.22432977919692743,
                        -0.30785410747692756,
                        0.9391159618955047,
                        0.7982726821684767,
                        -0.3144016184388627,
                        -0.527080660076283,
                        -0.4549757155345373,
                        0.9205510535894841,
                        -0.13330171002336622,
                        -0.06361114065750795,
                        -0.5012761717559157,
                        -0.6122437195113477,
                        -0.6749549583543427,
                        -0.7582179360937816,
                        -0.3310747402582871,
                        -0.8431896787509433,
                        0.28209935417809919,
                        -0.35592360743952336,
                        -0.41908555168163688,
                        0.9666293503628407,
                        0.6629420518875122,
                        -0.3254106280438631,
                        -0.7847569007253128,
                        0.3279112910983155,
                        0.8187414941982052,
                        0.6569902831418794,
                        -2.151584862807759,
                        0.4005752163248637,
                        0.8322536677228134,
                        0.4949915479048326,
                        0.1841870794709699,
                        0.5470989876403719,
                        1.5683392594345463,
                        1.3208887681599056,
                        0.7585740718022941,
                        -0.6430865526199341,
                        -0.36365955118308548,
                        -0.7120353836406945,
                        0.0797967155164424,
                        -0.6838501526634478,
                        -1.1983436007486908,
                        0.6157793998718262,
                        0.1169907336655398,
                        -1.0368657495053413,
                        0.479098754512182,
                        0.6828122477659988,
                        -1.4567872829001135,
                        1.0959827470743458,
                        -0.6401507847292196,
                        0.5331274531619115,
                        0.46376234228775239,
                        0.33750972349391286,
                        0.27467517123334919,
                        1.5231119058150365,
                        2.5914134818675604,
                        -0.24769089397412959,
                        0.42588875810080176,
                        -0.5789690599357193,
                        0.9245568646704732,
                        0.6519398252745496,
                        -1.30274656490938,
                        1.0479790891727677,
                        -0.45975293063883657,
                        -1.1355559743589084,
                        0.10311124633022506,
                        0.3915786941988278,
                        -2.2765813727518999,
                        0.2563992171974937,
                        0.05964219255251724,
                        -0.48427816317850427,
                        -0.14461066385550326,
                        -0.8412948007785863,
                        -0.8716898836906779,
                        -0.7450870521474169,
                        -0.4723512209489371,
                        -0.7696122997204539,
                        0.4473896416614682,
                        0.7214953159955155,
                        0.13646837102505539,
                        -0.5480358077132667,
                        0.5627893746744754,
                        -0.40230251567553979,
                        0.1313052261148724,
                        -0.3670994924452214,
                        0.5514407633484961,
                        -0.012368029672684467,
                        0.18065218617433266,
                        0.7345995708893764,
                        0.9817182658556067,
                        -0.024080898659702089,
                        -0.45248399998978608,
                        0.49305577561798366,
                        -0.02033347442953881,
                        0.1151724069572515,
                        -0.5687518628881436,
                        1.6714117453119176,
                        0.49155155872559466,
                        -1.0532504208331588,
                        -0.056865449936010618,
                        0.08439263436293881,
                        -0.4328411074547365,
                        0.27607950454930116,
                        -0.18460395924265106,
                        -0.9747433876936205,
                        0.3366963585417011,
                        0.6064946098810109,
                        -0.07915139264419816,
                        -1.0028038883346249,
                        1.085095913632693,
                        1.1152446816865807,
                        -1.383440288523675,
                        0.8422986581209804,
                        -0.6505081339381116,
                        0.0017528284401848727,
                        -0.6755840963409172,
                        -0.10500533789761235,
                        0.3712090933913021,
                        -0.6469511950864342
                    ]
                },
                {
                    "row": 12,
                    "column": 4,
                    "elements": [
                        -1.678824553704654,
                        -0.5528040028755182,
                        -0.3003993467638839,
                        0.6248358116096888,
                        0.9930689972065045,
                        -0.7590517990489877,
                        0.5029413072104763,
                        -2.6531283855438234,
                        0.6820261894304441,
                        1.8531107757683159,
                        0.1692346766846129,
                        0.8921397378224643,
                        0.1415463099183263,
                        0.7537998558972925,
                        -0.7447749166504782,
                        0.4478560428580467,
                        0.053689845954244867,
                        -0.18634632641091276,
                        0.8542229323182128,
                        -0.867005535751634,
                        0.1177797680542696,
                        0.14908832444073295,
                        -0.5631509618923845,
                        -0.09066974656169569,
                        0.7693717110250208,
                        0.08331930670787038,
                        0.17600102366403726,
                        -0.5177913170410302,
                        -0.07016393664717044,
                        0.9278947483477054,
                        -0.3122133075054805,
                        0.0006000566703652233,
                        -1.1277333456390984,
                        0.38489430562753365,
                        0.019910299147426703,
                        0.3444621051283139,
                        -0.19855727849118977,
                        -0.9088110734408601,
                        0.2447899915057321,
                        -0.210187979798364,
                        -0.8477558628145896,
                        0.26394463590632979,
                        -0.03592685905079107,
                        -0.2653258848965123,
                        1.1711824533713314,
                        0.46160430726557158,
                        -1.8269428443560927,
                        -0.6990067314962564
                    ]
                }
            ],
            "biases": [
                {
                    "row": 1,
                    "column": 12,
                    "elements": [
                        0.46664737712513729,
                        -0.33533866939287196,
                        -0.5323913574662929,
                        1.2377886997871075,
                        1.0491426342938569,
                        -1.40519645549634,
                        -0.43587784423953415,
                        -0.7696794783619856,
                        -1.1515867139953829,
                        -0.3821355526823673,
                        -0.6958395611673441,
                        -0.463096963947208
                    ]
                },
                {
                    "row": 1,
                    "column": 4,
                    "elements": [
                        0.6828236193030493,
                        -0.42996036820874786,
                        -0.383049041089119,
                        0.7350930423077999
                    ]
                }
            ]
        },
        {
            "inputSize": 15,
            "hiddenSize": 12,
            "hiddenLayers": 1,
            "outputSize": 4,
            "weights": [
                {
                    "row": 15,
                    "column": 12,
                    "elements": [
                        -0.8483866694026032,
                        -0.33678297022894379,
                        1.080143246300294,
                        0.7331405160368733,
                        0.36062037973510399,
                        -0.7597116126986339,
                        -0.3924711059274977,
                        0.08370229766230897,
                        0.08292577567647297,
                        -0.8833029841211766,
                        0.8757720863226346,
                        1.2402189680555367,
                        -0.10476784340565537,
                        -1.0388547120361514,
                        -0.09014160732665497,
                        0.8718103549465077,
                        0.07419087208235875,
                        0.7512469748792869,
                        1.084019269245818,
                        0.23005652276461165,
                        -0.36999020732256246,
                        -0.8366063089232982,
                        0.5774768144215932,
                        0.7778505053690251,
                        0.9452584500219672,
                        -0.7982732860619866,
                        0.29820734032224807,
                        0.5252261304985249,
                        -1.12575244538785,
                        0.9815284565855973,
                        0.0970679682081243,
                        1.0032747524467388,
                        0.15892518438915149,
                        0.9026460664828839,
                        0.38941621991515698,
                        -0.039464733748495687,
                        -0.962161697652193,
                        0.9326239018026226,
                        0.12709018490646946,
                        -0.39958948393006357,
                        -1.6885338095277938,
                        0.452123761177063,
                        0.9513020607032602,
                        1.4928205307216503,
                        1.3533869228770164,
                        1.0773562092676159,
                        1.0576326847076417,
                        -0.429705356582578,
                        0.736882687066942,
                        0.33270009894970589,
                        -0.44474923706173566,
                        0.7100552090502961,
                        0.4077824783811314,
                        0.558566699813133,
                        -1.0884985785428044,
                        -0.2185305006510192,
                        -0.1443583727586626,
                        -0.32392395456122977,
                        -0.2561797562827617,
                        -0.12853814239582563,
                        -0.4552373032069536,
                        -0.28407058041867386,
                        -0.22432977919692743,
                        -0.33926071678698957,
                        0.911845819472966,
                        0.7888203322401353,
                        -0.3144016184388627,
                        -0.5301126702061517,
                        -0.4734584669677291,
                        0.9205510535894841,
                        -0.13330171002336622,
                        -0.06361114065750795,
                        -0.49018284042847728,
                        -0.6122437195113477,
                        -0.6626148159032682,
                        -0.7651606593320399,
                        -0.3668970928206322,
                        -0.8459116463872461,
                        0.28209935417809919,
                        -0.35592360743952336,
                        -0.41908555168163688,
                        0.9666293503628407,
                        0.629744334962913,
                        -0.31972858883549656,
                        -0.768266029187632,
                        0.3279112910983155,
                        0.7957956495839791,
                        0.6569902831418794,
                        -2.1222824112561087,
                        1.0880166292190552,
                        0.8322536677228134,
                        0.4949915479048326,
                        0.15095934803211853,
                        0.5291032264096892,
                        1.5683392594345463,
                        1.3208887681599056,
                        0.7434601295169786,
                        -1.9373568296432496,
                        -0.36365955118308548,
                        -0.71178368396027,
                        0.07559342139280684,
                        -2.044438362121582,
                        -1.1983436007486908,
                        0.6380595226076218,
                        0.08357502035713946,
                        -1.0424899542536693,
                        -1.1219043149782946,
                        0.6828122477659988,
                        -1.4567872829001135,
                        1.0959827470743458,
                        -0.6401507847292196,
                        0.5331274531619115,
                        0.4617526608694307,
                        0.3192170548449398,
                        0.30626210783563759,
                        1.5231119058150365,
                        2.587910662407738,
                        -0.2533513967582215,
                        0.41150678229463946,
                        -0.5789690599357193,
                        0.9245568646704732,
                        0.6519398252745496,
                        -1.30274656490938,
                        1.0738709266677705,
                        -0.4189011191892748,
                        -1.1350207469752776,
                        0.10311124633022506,
                        0.40757285103642179,
                        -2.2765813727518999,
                        0.2563992171974937,
                        0.05964219255251724,
                        -0.48427816317850427,
                        -0.14092400400577,
                        -0.8387491243060792,
                        -0.8809157192846353,
                        -0.7450870521474169,
                        -0.4369472286105478,
                        -0.7767939231380037,
                        0.4473896416614682,
                        0.7214953159955155,
                        0.13729834422732924,
                        -0.5480358077132667,
                        0.5578452368541155,
                        -0.3724690564882436,
                        0.1313052261148724,
                        -0.3670994924452214,
                        0.5514407633484961,
                        -0.027467443922207126,
                        0.18065218617433266,
                        0.7078977134425388,
                        0.9817182658556067,
                        -0.024080898659702089,
                        -0.45248399998978608,
                        0.49305577561798366,
                        -0.02033347442953881,
                        0.07476319097966955,
                        -0.5567946302032907,
                        1.6714117453119176,
                        0.49155155872559466,
                        -1.0532504208331588,
                        -0.08275581877259897,
                        0.08606652467777359,
                        -0.4328411074547365,
                        0.27607950454930116,
                        -0.19716856443628229,
                        -0.9747433876936205,
                        0.298016011009973,
                        0.6107309291494389,
                        -0.07915139264419816,
                        -1.0106698404121489,
                        1.1139604397361778,
                        1.1152446816865807,
                        -1.383440288523675,
                        0.8302290015418508,
                        -0.6505081339381116,
                        0.0017528284401848727,
                        -0.6731739818382365,
                        -0.10500533789761235,
                        0.3712090933913021,
                        -0.6469511950864342
                    ]
                },
                {
                    "row": 12,
                    "column": 4,
                    "elements": [
                        -1.6647097378313325,
                        -0.5528040028755182,
                        -0.2882359761880544,
                        0.6304789974567212,
                        1.0273037109493557,
                        -0.7590517990489877,
                        0.5029413072104763,
                        -2.6531283855438234,
                        0.6820261894304441,
                        1.8531107757683159,
                        0.1280883086238982,
                        0.8921397378224643,
                        0.1415463099183263,
                        0.7537998558972925,
                        -0.7447749166504782,
                        0.4967956274498917,
                        0.03689815216529235,
                        -0.18634632641091276,
                        0.8779962944234029,
                        -0.8723651757532966,
                        0.1177797680542696,
                        0.1627885995556505,
                        -0.5513262637085059,
                        -0.0837436524229116,
                        0.7693717110250208,
                        0.08331930670787038,
                        0.17600102366403726,
                        -0.5276082375788986,
                        -0.05783570797222734,
                        0.9348037723778464,
                        -0.3122133075054805,
                        0.017222596057504759,
                        -1.126155401216837,
                        0.3757654140059043,
                        0.019910299147426703,
                        0.3444621051283139,
                        -0.21288664247067769,
                        -0.9123754823787522,
                        0.2447899915057321,
                        -0.210187979798364,
                        -0.8477558628145896,
                        0.26394463590632979,
                        -0.021140984299265143,
                        -0.2653258848965123,
                        1.177235062918128,
                        0.44481461619263876,
                        -1.8262958240305889,
                        -0.6912552042408895
                    ]
                }
            ],
            "biases": [
                {
                    "row": 1,
                    "column": 12,
                    "elements": [
                        0.4413413674444938,
                        -0.9444935321807861,
                        -0.5323913574662929,
                        1.2598430210600547,
                        1.04936214359252,
                        -1.40519645549634,
                        -0.4571706208250659,
                        -0.7684635817827177,
                        -1.1229919418188215,
                        -0.4155791864448841,
                        -0.6958395611673441,
                        -0.48532283423851849
                    ]
                },
                {
                    "row": 1,
                    "column": 4,
                    "elements": [
                        0.6828236193030493,
                        -0.44203298356237799,
                        -0.383049041089119,
                        0.7350930423077999
                    ]
                }
            ]
        },
        {
            "inputSize": 15,
            "hiddenSize": 12,
            "hiddenLayers": 1,
            "outputSize": 4,
            "weights": [
                {
                    "row": 15,
                    "column": 12,
                    "elements": [
                        -0.8483866694026032,
                        -0.35281937901013529,
                        1.0968318920053835,
                        0.7331405160368733,
                        0.36062037973510399,
                        -0.7597116126986339,
                        -0.3883578264383667,
                        0.08370229766230897,
                        0.08292577567647297,
                        -0.8595082597117765,
                        0.8757720863226346,
                        1.2402189680555367,
                        -0.10476784340565537,
                        -1.0388547120361514,
                        -0.09014160732665497,
                        0.8533680774503996,
                        0.05686039046365221,
                        0.7512469748792869,
                        1.0801397651287353,
                        0.25361295496208338,
                        -0.3722067290725837,
                        -0.8366063089232982,
                        0.5774768144215932,
                        0.8018020996632246,
                        0.9452584500219672,
                        -0.7824600549472391,
                        0.29820734032224807,
                        0.5252261304985249,
                        -1.12575244538785,
                        0.9815284565855973,
                        0.0847262593470201,
                        1.0032747524467388,
                        0.15892518438915149,
                        0.9026460664828839,
                        0.38941621991515698,
                        -0.039464733748495687,
                        -0.962161697652193,
                        0.9326239018026226,
                        0.12709018490646946,
                        -0.39958948393006357,
                        -1.6885338095277938,
                        0.452123761177063,
                        0.9513020607032602,
                        1.500334316511994,
                        1.3533869228770164,
                        1.0773562092676159,
                        0.7424008124979572,
                        -0.429705356582578,
                        0.736882687066942,
                        0.33270009894970589,
                        -0.44474923706173566,
                        0.7062563750497422,
                        0.4077824783811314,
                        0.558566699813133,
                        -1.0884985785428044,
                        -0.19773933767121888,
                        -0.1443583727586626,
                        -0.32392395456122977,
                        -0.2561797562827617,
                        -0.12853814239582563,
                        -0.4552373032069536,
                        -0.28407058041867386,
                        -0.22432977919692743,
                        -0.33926071678698957,
                        0.9391159618955047,
                        0.7888203322401353,
                        -0.3144016184388627,
                        -0.5301126702061517,
                        -0.4734584669677291,
                        0.9205510535894841,
                        -0.13330171002336622,
                        -0.06361114065750795,
                        -0.49018284042847728,
                        -0.6122437195113477,
                        -0.6626148159032682,
                        -0.7651606593320399,
                        -0.3668970928206322,
                        -0.6482216715812683,
                        0.28209935417809919,
                        -0.3747840127014779,
                        -0.41908555168163688,
                        0.9544400756089708,
                        0.629744334962913,
                        -0.31972858883549656,
                        -0.768266029187632,
                        0.3279112910983155,
                        0.8242076143191004,
                        0.6569902831418794,
                        -2.1222824112561087,
                        1.0880166292190552,
                        0.8322536677228134,
                        0.4949915479048326,
                        0.15095934803211853,
                        0.5291032264096892,
                        1.5683392594345463,
                        1.3208887681599056,
                        0.7434601295169786,
                        -1.9373568296432496,
                        -0.33176925972822549,
                        -0.71178368396027,
                        0.07243473083201946,
                        -2.044438362121582,
                        -1.1983436007486908,
                        0.6380595226076218,
                        0.08357502035713946,
                        -1.0424899542536693,
                        -1.1318320035934449,
                        0.6828122477659988,
                        -1.4567872829001135,
                        1.0959827470743458,
                        -0.6401507847292196,
                        0.5331274531619115,
                        0.44724246355429356,
                        0.36145138884660757,
                        0.30626210783563759,
                        1.5231119058150365,
                        2.587910662407738,
                        -0.2533513967582215,
                        0.41150678229463946,
                        -0.5789690599357193,
                        0.9245568646704732,
                        0.6519398252745496,
                        -1.3434827195088047,
                        1.0738709266677705,
                        -0.4189011191892748,
                        -1.1350207469752776,
                        0.10311124633022506,
                        0.430675513083361,
                        -2.2765813727518999,
                        0.2563992171974937,
                        0.05964219255251724,
                        -0.48427816317850427,
                        -0.14092400400577,
                        -0.8387491243060792,
                        -0.8809157192846353,
                        -0.7450870521474169,
                        -0.4369472286105478,
                        -0.7767939231380037,
                        0.4473896416614682,
                        0.7214953159955155,
                        0.13729834422732924,
                        -0.5480358077132667,
                        0.5578452368541155,
                        -0.36369646413977066,
                        0.1313052261148724,
                        -0.3670994924452214,
                        0.5514407633484961,
                        -0.027467443922207126,
                        0.18065218617433266,
                        0.7078977134425388,
                        0.9817182658556067,
                        -0.024080898659702089,
                        -0.45039323301057079,
                        0.49305577561798366,
                        -0.02033347442953881,
                        0.07476319097966955,
                        -0.5567946302032907,
                        1.6714117453119176,
                        0.49155155872559466,
                        -1.0736729910820926,
                        -0.08275581877259897,
                        0.07417830582537771,
                        -0.4316387514113311,
                        0.27607950454930116,
                        -0.19716856443628229,
                        -0.9708208195196733,
                        0.298016011009973,
                        0.6157469418251412,
                        -0.07915139264419816,
                        -1.0106698404121489,
                        1.1139604397361778,
                        1.1152446816865807,
                        -1.383440288523675,
                        0.8302290015418508,
                        -0.6586309975260827,
                        0.009065844333740692,
                        -0.6731739818382365,
                        -0.10500533789761235,
                        0.3712090933913021,
                        -0.6469511950864342
                    ]
                },
                {
                    "row": 12,
                    "column": 4,
                    "elements": [
                        -1.6694473527147192,
                        -0.5528040028755182,
                        -0.2882359761880544,
                        0.6467740033676764,
                        0.9930689972065045,
                        -0.7422408017002097,
                        0.5029413072104763,
                        -2.6531283855438234,
                        0.6820261894304441,
                        1.88412322433966,
                        0.1446059641041566,
                        0.8921397378224643,
                        0.1415463099183263,
                        0.7537998558972925,
                        -0.7447749166504782,
                        0.47054646488581888,
                        0.03689815216529235,
                        -0.18634632641091276,
                        0.8779962944234029,
                        -0.9007240041408813,
                        0.1177797680542696,
                        0.14908832444073295,
                        -0.5513262637085059,
                        -0.07238280353477178,
                        0.7942478710906383,
                        0.08331930670787038,
                        0.17600102366403726,
                        -0.5276082375788986,
                        -0.05783570797222734,
                        0.9587108920712943,
                        -0.3122133075054805,
                        0.017222596057504759,
                        -1.126155401216837,
                        0.3757654140059043,
                        0.019910299147426703,
                        0.3444621051283139,
                        -0.21811012937346253,
                        -0.9106060453734433,
                        0.2447899915057321,
                        -0.210187979798364,
                        -0.8477558628145896,
                        0.26394463590632979,
                        -0.021140984299265143,
                        -0.2653258848965123,
                        1.1911321287238375,
                        0.44481461619263876,
                        -1.8262958240305889,
                        -0.6912552042408895
                    ]
                }
            ],
            "biases": [
                {
                    "row": 1,
                    "column": 12,
                    "elements": [
                        0.4413413674444938,
                        -0.33533866939287196,
                        -0.5323913574662929,
                        1.2598430210600547,
                        1.0524742504422478,
                        -1.40519645549634,
                        -0.43748942386011349,
                        2.0934436321258547,
                        -1.115476747570753,
                        -0.4155791864448841,
                        -0.6958395611673441,
                        -0.4730308058477241
                    ]
                },
                {
                    "row": 1,
                    "column": 4,
                    "elements": [
                        0.6828236193030493,
                        -0.44203298356237799,
                        -0.383049041089119,
                        0.7350930423077999
                    ]
                }
            ]
        },
        {
            "inputSize": 15,
            "hiddenSize": 12,
            "hiddenLayers": 1,
            "outputSize": 4,
            "weights": [
                {
                    "row": 15,
                    "column": 12,
                    "elements": [
                        -0.8483866694026032,
                        -0.3378151641050271,
                        1.091426015489709,
                        0.7331405160368733,
                        0.36062037973510399,
                        -0.7597116126986339,
                        -0.3924711059274977,
                        0.08370229766230897,
                        0.07217501846094532,
                        -0.9044438046287144,
                        0.8757720863226346,
                        1.2402189680555367,
                        -0.10476784340565537,
                        -1.0388547120361514,
                        -0.09014160732665497,
                        0.8811025567346604,
                        0.05686039046365221,
                        0.7512469748792869,
                        1.0626425740906898,
                        0.23005652276461165,
                        -0.3722067290725837,
                        -0.8366063089232982,
                        0.5774768144215932,
                        0.8018020996632246,
                        0.9452584500219672,
                        -0.8243616639082787,
                        0.2830218307415504,
                        0.5252261304985249,
                        -1.12575244538785,
                        0.9815284565855973,
                        0.0847262593470201,
                        1.0032747524467388,
                        0.15223837189937695,
                        0.9237282527105739,
                        0.43003356577089937,
                        0.06137819215655327,
                        -0.962161697652193,
                        0.9326239018026226,
                        0.12709018490646946,
                        -0.39958948393006357,
                        -1.688657912868134,
                        0.452123761177063,
                        0.9206671217174417,
                        1.4928205307216503,
                        1.3533869228770164,
                        1.0773562092676159,
                        0.7424008124979572,
                        -0.429705356582578,
                        0.736882687066942,
                        0.33270009894970589,
                        -0.44474923706173566,
                        0.7227625435231162,
                        0.4077824783811314,
                        0.5400099647123139,
                        -1.0884985785428044,
                        -0.2493365145002624,
                        -0.1443583727586626,
                        -0.33240927875434997,
                        -0.2561797562827617,
                        -0.12853814239582563,
                        -0.4552373032069536,
                        -0.28407058041867386,
                        -0.22432977919692743,
                        -0.33926071678698957,
                        0.9391159618955047,
                        0.7888203322401353,
                        -0.3144016184388627,
                        -0.5301126702061517,
                        -0.4734584669677291,
                        0.9205510535894841,
                        -0.13330171002336622,
                        -0.06361114065750795,
                        -0.4799483679056181,
                        -0.6122437195113477,
                        -0.6626148159032682,
                        -0.7651606593320399,
                        -0.3668970928206322,
                        -0.8459116463872461,
                        0.28209935417809919,
                        -0.33018889016882238,
                        -0.41908555168163688,
                        0.9807838235896307,
                        0.629744334962913,
                        -0.31972858883549656,
                        -0.768266029187632,
                        0.3279112910983155,
                        0.7957956495839791,
                        0.6569902831418794,
                        -2.1222824112561087,
                        1.0533444245458888,
                        0.8322536677228134,
                        0.5145206707745971,
                        0.13250812030275095,
                        0.5346258082211788,
                        1.5683392594345463,
                        1.3208887681599056,
                        0.7434601295169786,
                        -1.9373568296432496,
                        -0.36365955118308548,
                        -0.71178368396027,
                        0.07243473083201946,
                        -2.044438362121582,
                        -1.1983436007486908,
                        0.6380595226076218,
                        0.06756583063242269,
                        -1.0424899542536693,
                        -1.139622412745869,
                        0.6828122477659988,
                        -1.4567872829001135,
                        1.0959827470743458,
                        -0.6401507847292196,
                        0.5198175681959676,
                        0.44724246355429356,
                        0.29729138185021455,
                        0.30626210783563759,
                        1.5231119058150365,
                        2.587910662407738,
                        -0.2533513967582215,
                        0.41150678229463946,
                        -0.5789690599357193,
                        0.9245568646704732,
                        0.6519398252745496,
                        -1.30274656490938,
                        1.0738709266677705,
                        -0.4189011191892748,
                        -1.124951459184978,
                        0.10311124633022506,
                        0.4077272073934071,
                        -2.2765813727518999,
                        0.2563992171974937,
                        0.05964219255251724,
                        -0.4565454982595898,
                        -0.14092400400577,
                        -0.8387491243060792,
                        -0.8809157192846353,
                        -0.7450870521474169,
                        -0.4369472286105478,
                        -0.7767939231380037,
                        0.4473896416614682,
                        0.7275199471226801,
                        0.13729834422732924,
                        -0.5480358077132667,
                        0.5578452368541155,
                        -0.40230251567553979,
                        0.1313052261148724,
                        -0.3670994924452214,
                        0.5514407633484961,
                        -0.027467443922207126,
                        0.18065218617433266,
                        0.7078977134425388,
                        0.9898994436464904,
                        -0.024080898659702089,
                        -0.45402831249198447,
                        0.49305577561798366,
                        -0.015824269606220799,
                        0.07476319097966955,
                        -0.5567946302032907,
                        1.6714117453119176,
                        0.49155155872559466,
                        -1.0370024227203015,
                        -0.08275581877259897,
                        0.07417830582537771,
                        -0.41631262538704308,
                        0.27607950454930116,
                        -0.19716856443628229,
                        -0.9747433876936205,
                        0.298016011009973,
                        0.6107309291494389,
                        -0.07057412113600972,
                        -0.9956549252814497,
                        1.1139604397361778,
                        1.1392171852897,
                        -1.383440288523675,
                        0.8302290015418508,
                        -0.6505081339381116,
                        -0.000008312939861254698,
                        -0.6731739818382365,
                        -0.10500533789761235,
                        0.3828775916465736,
                        -0.6469511950864342
                    ]
                },
                {
                    "row": 12,
                    "column": 4,
                    "elements": [
                        -1.6423223076638534,
                        -0.5528040028755182,
                        -0.2882359761880544,
                        0.6304789974567212,
                        0.990760525906241,
                        -0.7590517990489877,
                        0.5029413072104763,
                        -2.645116020024099,
                        0.6820261894304441,
                        1.8200078636053916,
                        0.1692346766846129,
                        0.8921397378224643,
                        0.1415463099183263,
                        0.7537998558972925,
                        -0.7447749166504782,
                        0.47054646488581888,
                        0.03689815216529235,
                        -0.18634632641091276,
                        0.8682714427940753,
                        -0.8723651757532966,
                        0.1177797680542696,
                        0.15667709883299264,
                        -0.5513262637085059,
                        -0.0837436524229116,
                        0.7693717110250208,
                        0.08331930670787038,
                        0.17600102366403726,
                        -0.5276082375788986,
                        -0.04990140844216004,
                        0.9685983535125848,
                        -0.3122133075054805,
                        0.017222596057504759,
                        -1.126155401216837,
                        0.3757654140059043,
                        0.019910299147426703,
                        0.3444621051283139,
                        -0.21288664247067769,
                        -0.9123754823787522,
                        0.2447899915057321,
                        -0.210187979798364,
                        -0.10599854588508606,
                        0.26394463590632979,
                        -0.021140984299265143,
                        -0.2653258848965123,
                        1.177235062918128,
                        0.44481461619263876,
                        -1.8262958240305889,
                        -0.6912552042408895
                    ]
                }
            ],
            "biases": [
                {
                    "row": 1,
                    "column": 12,
                    "elements": [
                        1.1841386556625367,
                        -0.33533866939287196,
                        -0.5105056577296463,
                        1.2598430210600547,
                        1.0524742504422478,
                        -1.3755712179783553,
                        -0.4571706208250659,
                        0.25916099548339846,
                        -1.1229919418188215,
                        -0.4155791864448841,
                        -0.6958395611673441,
                        -0.48532283423851849
                    ]
                },
                {
                    "row": 1,
                    "column": 4,
                    "elements": [
                        0.7118246996446622,
                        -0.44203298356237799,
                        -0.383049041089119,
                        0.7350930423077999
                    ]
                }
            ]
        },
        {
            "inputSize": 15,
            "hiddenSize": 12,
            "hiddenLayers": 1,
            "outputSize": 4,
            "weights": [
                {
                    "row": 15,
                    "column": 12,
                    "elements": [
                        -0.8483866694026032,
                        -0.35281937901013529,
                        1.080143246300294,
                        0.7331405160368733,
                        0.36062037973510399,
                        -0.7597116126986339,
                        -0.3924711059274977,
                        0.06893801528891674,
                        0.08292577567647297,
                        -0.8595082597117765,
                        0.8757720863226346,
                        1.2402189680555367,
                        -0.10476784340565537,
                        -1.0388547120361514,
                        -0.09014160732665497,
                        0.8718103549465077,
                        0.05686039046365221,
                        0.7512469748792869,
                        1.0626425740906898,
                        0.23005652276461165,
                        -0.3722067290725837,
                        -0.8366063089232982,
                        0.5774768144215932,
                        0.8010296923275648,
                        0.0733632817864418,
                        -0.7982732860619866,
                        0.29820734032224807,
                        0.5252261304985249,
                        -1.12575244538785,
                        1.004678330278515,
                        0.0847262593470201,
                        1.0032747524467388,
                        0.15892518438915149,
                        0.9026460664828839,
                        0.38941621991515698,
                        -0.039464733748495687,
                        -0.962161697652193,
                        0.9326239018026226,
                        0.12709018490646946,
                        -0.39958948393006357,
                        -1.6854168726157848,
                        0.4191628058171486,
                        0.9513020607032602,
                        1.4928205307216503,
                        1.3533869228770164,
                        1.0773562092676159,
                        0.7424008124979572,
                        -0.429705356582578,
                        0.7153692755490555,
                        0.33270009894970589,
                        -0.44474923706173566,
                        0.7062563750497422,
                        0.41986804940006036,
                        0.558566699813133,
                        -1.0766187687135054,
                        -0.2185305006510192,
                        -0.1443583727586626,
                        -0.32392395456122977,
                        -0.2561797562827617,
                        -0.12853814239582563,
                        -0.4552373032069536,
                        -0.28407058041867386,
                        -0.22432977919692743,
                        -0.33926071678698957,
                        0.9391159618955047,
                        0.7888203322401353,
                        -0.3144016184388627,
                        -0.5301126702061517,
                        -0.4734584669677291,
                        0.9205510535894841,
                        -0.13330171002336622,
                        -0.06361114065750795,
                        -0.49018284042847728,
                        -0.6122437195113477,
                        -0.6626148159032682,
                        -0.7651606593320399,
                        -0.3668970928206322,
                        -0.8713293790115594,
                        0.28209935417809919,
                        -0.35592360743952336,
                        -0.41908555168163688,
                        0.9666293503628407,
                        0.2558584213256836,
                        -0.31972858883549656,
                        -0.768266029187632,
                        0.34259492242866487,
                        0.8111643719176922,
                        0.6569902831418794,
                        -2.1222824112561087,
                        1.0880166292190552,
                        0.8322536677228134,
                        0.4949915479048326,
                        0.15095934803211853,
                        0.5291032264096892,
                        1.5683392594345463,
                        1.3208887681599056,
                        0.7434601295169786,
                        -1.9345295501387257,
                        -0.36365955118308548,
                        -0.7061235680103141,
                        0.07243473083201946,
                        -2.044438362121582,
                        -1.1983436007486908,
                        0.6380595226076218,
                        0.08357502035713946,
                        -1.0424899542536693,
                        -1.1318320035934449,
                        0.6828122477659988,
                        -1.4567872829001135,
                        1.0959827470743458,
                        -0.6401507847292196,
                        0.5331274531619115,
                        0.44724246355429356,
                        0.3192170548449398,
                        0.30626210783563759,
                        1.5231119058150365,
                        2.587910662407738,
                        -0.2533513967582215,
                        0.41150678229463946,
                        -0.5789690599357193,
                        0.9288701776410224,
                        0.6519398252745496,
                        -1.30274656490938,
                        1.0738709266677705,
                        -0.4189011191892748,
                        -1.1350207469752776,
                        0.07556451690443855,
                        0.39912111525197466,
                        -2.2765813727518999,
                        0.2563992171974937,
                        0.05964219255251724,
                        -0.48427816317850427,
                        -0.14092400400577,
                        -0.8387491243060792,
                        -0.917710812475415,
                        -0.7450870521474169,
                        -0.4311869267917069,
                        -0.7767939231380037,
                        0.4473896416614682,
                        0.7214953159955155,
                        0.13729834422732924,
                        -0.5480358077132667,
                        0.5578452368541155,
                        -0.40230251567553979,
                        0.1313052261148724,
                        -0.3670994924452214,
                        0.5514407633484961,
                        -0.027467443922207126,
                        0.18065218617433266,
                        0.7078977134425388,
                        0.9817182658556067,
                        -0.024080898659702089,
                        -0.45248399998978608,
                        0.49305577561798366,
                        -0.02033347442953881,
                        0.07476319097966955,
                        -0.5349015943271291,
                        1.6714117453119176,
                        0.49155155872559466,
                        -1.0464226272683877,
                        -0.08275581877259897,
                        0.07417830582537771,
                        -0.4328411074547365,
                        0.27607950454930116,
                        -0.19716856443628229,
                        -0.9747433876936205,
                        0.298016011009973,
                        0.6107309291494389,
                        -0.07915139264419816,
                        -1.0178696265566485,
                        1.1139604397361778,
                        1.1152446816865807,
                        -1.383440288523675,
                        0.8302290015418508,
                        -0.6505081339381116,
                        0.0017528284401848727,
                        -0.6731739818382365,
                        -0.10500533789761235,
                        0.3712090933913021,
                        -0.6469511950864342
                    ]
                },
                {
                    "row": 12,
                    "column": 4,
                    "elements": [
                        -1.6396669613296198,
                        -0.5571400043535941,
                        -0.2882359761880544,
                        0.6304789974567212,
                        0.9930689972065045,
                        -0.7590517990489877,
                        0.5029413072104763,
                        -2.6531283855438234,
                        0.6820261894304441,
                        1.8531107757683159,
                        0.1692346766846129,
                        0.9007629388807507,
                        0.1415463099183263,
                        0.7505532419309158,
                        -0.7447749166504782,
                        0.4810038695039911,
                        0.03689815216529235,
                        -0.18634632641091276,
                        0.8779962944234029,
                        -0.8723651757532966,
                        0.1177797680542696,
                        0.14908832444073295,
                        -0.5513262637085059,
                        -0.0837436524229116,
                        0.7693717110250208,
                        0.08331930670787038,
                        0.17600102366403726,
                        -0.5276082375788986,
                        -0.05783570797222734,
                        0.9348037723778464,
                        -0.3122133075054805,
                        0.017222596057504759,
                        -1.126155401216837,
                        0.3757654140059043,
                        0.019910299147426703,
                        0.3628066274328967,
                        -0.21288664247067769,
                        -0.9123754823787522,
                        0.2447899915057321,
                        -0.210187979798364,
                        -0.8477558628145896,
                        0.26394463590632979,
                        -0.021140984299265143,
                        -0.2653258848965123,
                        1.177235062918128,
                        0.43038219936091628,
                        -1.8262958240305889,
                        -0.6912552042408895
                    ]
                }
            ],
            "biases": [
                {
                    "row": 1,
                    "column": 12,
                    "elements": [
                        0.4413413674444938,
                        -0.33533866939287196,
                        -0.5298304338279697,
                        1.2598430210600547,
                        1.0524742504422478,
                        -1.40519645549634,
                        -0.4571706208250659,
                        -0.7696794783619856,
                        -1.1229919418188215,
                        -0.4155791864448841,
                        -0.6958395611673441,
                        -0.48532283423851849
                    ]
                },
                {
                    "row": 1,
                    "column": 4,
                    "elements": [
                        0.6828236193030493,
                        -0.44203298356237799,
                        -0.383049041089119,
                        0.7350930423077999
                    ]
                }
            ]
        },
        {
            "inputSize": 15,
            "hiddenSize": 12,
            "hiddenLayers": 1,
            "outputSize": 4,
            "weights": [
                {
                    "row": 15,
                    "column": 12,
                    "elements": [
                        -0.8483866694026032,
                        -0.3378151641050271,
                        1.091426015489709,
                        0.7331405160368733,
                        0.36062037973510399,
                        -0.7597116126986339,
                        -0.3924711059274977,
                        0.04943988921792841,
                        0.07217501846094532,
                        -0.8595082597117765,
                        0.8757720863226346,
                        1.2402189680555367,
                        -0.10476784340565537,
                        -1.0388547120361514,
                        -0.09014160732665497,
                        0.8718103549465077,
                        0.05686039046365221,
                        0.7512469748792869,
                        1.0626425740906898,
                        0.21963690391410374,
                        -0.3699895919046189,
                        -0.8366063089232982,
                        0.5774768144215932,
                        0.8018020996632246,
                        0.9205775166212975,
                        -0.7982732860619866,
                        0.2830218307415504,
                        0.5252261304985249,
                        -1.120096870715678,
                        0.9815284565855973,
                        0.0847262593470201,
                        1.0032747524467388,
                        0.15223837189937695,
                        0.9237282527105739,
                        0.38941621991515698,
                        -0.03914402381189275,
                        -0.962161697652193,
                        0.9326239018026226,
                        0.12709018490646946,
                        -0.39958948393006357,
                        -1.688657912868134,
                        0.452123761177063,
                        0.9206671217174417,
                        1.4928205307216503,
                        1.3027900097165637,
                        1.0773562092676159,
                        0.7424008124979572,
                        -0.429705356582578,
                        0.736882687066942,
                        0.33270009894970589,
                        -0.44474923706173566,
                        0.7062563750497422,
                        0.4077824783811314,
                        0.558566699813133,
                        -1.0884985785428044,
                        -0.2185305006510192,
                        -0.1443583727586626,
                        -0.32392395456122977,
                        -0.2561797562827617,
                        -0.12853814239582563,
                        -0.4552373032069536,
                        -0.29785201679238218,
                        -0.22432977919692743,
                        -0.33926071678698957,
                        0.9391159618955047,
                        0.7888203322401353,
                        -0.3144016184388627,
                        -0.5301126702061517,
                        -0.4734584669677291,
                        0.9205510535894841,
                        -0.13330171002336622,
                        -0.10130015568041873,
                        -0.49018284042847728,
                        -0.6122437195113477,
                        -0.6626148159032682,
                        -0.7651606593320399,
                        -0.3668970928206322,
                        -0.8459116463872461,
                        0.28209935417809919,
                        -0.33018889016882238,
                        -0.41908555168163688,
                        0.9807838235896307,
                        0.629744334962913,
                        -0.31972858883549656,
                        -0.768266029187632,
                        0.3279112910983155,
                        0.7957956495839791,
                        0.6569902831418794,
                        -2.1222824112561087,
                        1.0880166292190552,
                        0.8322536677228134,
                        0.5145206707745971,
                        0.13250812030275095,
                        0.5291032264096892,
                        1.5683392594345463,
                        1.3208887681599056,
                        0.7434601295169786,
                        -1.9373568296432496,
                        -0.36365955118308548,
                        -0.71178368396027,
                        0.07243473083201946,
                        -2.044438362121582,
                        -1.1983436007486908,
                        0.6380595226076218,
                        0.08357502035713946,
                        -1.0424899542536693,
                        -1.1318320035934449,
                        0.6828122477659988,
                        -1.4567872829001135,
                        1.0959827470743458,
                        -0.6401507847292196,
                        0.5453825219053996,
                        0.44724246355429356,
                        0.29729138185021455,
                        0.30626210783563759,
                        1.5231119058150365,
                        2.587910662407738,
                        -0.2533513967582215,
                        0.41150678229463946,
                        -0.5789690599357193,
                        0.9245568646704732,
                        0.6655520989017949,
                        -1.30274656490938,
                        1.0738709266677705,
                        -0.4189011191892748,
                        -1.124951459184978,
                        0.10311124633022506,
