{
    "generation": 360,
    "totalPopulation": 100,
    "brainDataList": [
        {
            "inputSize": 15,
            "hiddenSize": 12,
            "hiddenLayers": 1,
            "outputSize": 4,
            "weights": [
                {
                    "row": 15,
                    "column": 12,
                    "elements": [
                        -0.8818157480092144,
                        -0.20833404674058593,
                        1.0735046697622959,
                        0.8027478146433442,
                        0.43650539503162996,
                        -0.7560635039401867,
                        -0.34828935500816507,
                        0.07634972693527144,
                        -0.01860189576806958,
                        -0.8940236909479071,
                        2.8653593986693508,
                        1.286194862123512,
                        -0.15825997403927484,
                        -1.1907476399906552,
                        0.6681120037882494,
                        0.9323144956401096,
                        -0.4647972881864064,
                        0.8644619029427034,
                        0.984956853416422,
                        0.29397628519898036,
                        0.054536614238848677,
                        -1.6957815668800403,
                        1.001418648804045,
                        0.8966083282083934,
                        1.0787760813101915,
                        0.43159253864823507,
                        0.2583947542713038,
                        0.7643424237846928,
                        -1.153824692861621,
                        1.0196691570866364,
                        -1.7498664235882889,
                        0.7637268755077822,
                        0.15077294204495635,
                        0.6863965936041443,
                        0.44625574091704309,
                        0.06086367725705166,
                        -1.0008667694880449,
                        -0.5602754613302865,
                        0.02862433854225105,
                        1.5182756185531617,
                        -1.808556082590956,
                        0.44185268767783955,
                        0.959389652349404,
                        0.3582562628855832,
                        1.4033686771692274,
                        0.9391589870243048,
                        -0.5720204725944214,
                        -0.498522805187785,
                        0.6492201611671412,
                        0.3348549267645198,
                        -0.4147868648025891,
                        0.7867060276745752,
                        -0.443042173817925,
                        0.5009915858365752,
                        -0.8737329372580477,
                        -0.17535747115017037,
                        -0.09581950675741873,
                        -1.6320319175720218,
                        -0.3123668171413602,
                        -0.07388975707928358,
                        -0.5763131320423133,
                        -0.2650445717015395,
                        -0.6117418137982378,
                        -0.41314822811736659,
                        0.9147764831570362,
                        0.673005689352155,
                        -0.3868496133450182,
                        -0.7063124413079296,
                        -0.5176799341373685,
                        0.9840257964310241,
                        -0.24074170686700228,
                        -0.019770292535883868,
                        -0.39498702043655689,
                        0.2703647048755403,
                        -0.8217517141421454,
                        -0.8054804066536512,
                        -0.5630191726266927,
                        -0.8024466791542656,
                        0.17928971980870296,
                        0.25431492409577319,
                        -0.2768280384772154,
                        0.42506108264552658,
                        0.18962390932551269,
                        -0.3419230078007152,
                        -0.8419097257868541,
                        0.39412158338823657,
                        0.791494829895707,
                        0.3733435006116582,
                        -2.2348436968063769,
                        1.7714585747546452,
                        -0.08811433450023754,
                        -0.6032271448686253,
                        -0.8369213220062687,
                        0.2391099396634715,
                        -0.9406691549278988,
                        0.366378604780459,
                        0.6337323872859616,
                        -0.13896018422914745,
                        -0.3518220917940574,
                        -0.6464800228515899,
                        1.2423195612747403,
                        1.8150790030006455,
                        -1.2072815100030204,
                        0.5758730339983039,
                        0.17523911308420243,
                        -1.0682830018205368,
                        -1.0974140534792383,
                        0.7808929475879917,
                        -1.3699942468890965,
                        1.1083212295361005,
                        -0.5832885367934383,
                        0.3720853480021992,
                        0.5225733242734336,
                        -0.3934428206422505,
                        -1.6232528650118688,
                        1.5416007497368585,
                        2.6196811503360437,
                        -0.09282577740044712,
                        0.4851656603828109,
                        0.22745062410831452,
                        -0.4060333942859784,
                        0.08803898078289209,
                        -1.504460334777832,
                        -1.0972805347975905,
                        -0.4629704441281683,
                        0.95050657255427,
                        0.01790405801916656,
                        0.42459789991018057,
                        -0.8436777455010656,
                        0.8341378148797486,
                        1.4963393991495507,
                        -0.5264258809044133,
                        -0.18540305036962188,
                        -0.7447905912118191,
                        -1.000157203435116,
                        -0.7078637049579163,
                        1.066556061801735,
                        -0.267880707806468,
                        0.5127704876541634,
                        0.7579207645824835,
                        0.3831380839857072,
                        0.09607064723968506,
                        0.5757638115616555,
                        -0.4218886968783795,
                        0.04493193613577123,
                        0.9458460586600894,
                        0.4945998960267263,
                        -0.10554248927519404,
                        0.13664081050892228,
                        0.7611935731378573,
                        1.0427743643974608,
                        -0.12752108676615868,
                        -0.3926218747687898,
                        -0.08327815595021079,
                        -0.6032059349863537,
                        0.7530995285725205,
                        -0.5153849493914462,
                        -1.1207457742114207,
                        0.5135179965280635,
                        -1.0607261666420347,
                        -0.031898925803666298,
                        0.010682900214624286,
                        -0.6959405333059268,
                        0.6132020097840003,
                        -1.1084556579589844,
                        1.8103813063552435,
                        -0.5644450892130156,
                        0.6074301265155455,
                        -0.006371633910234792,
                        0.7263023149805684,
                        1.0804241162455062,
                        1.1111455789383758,
                        -1.4765374877305369,
                        0.9222696372161343,
                        1.0478466560602289,
                        0.0707425210166448,
                        -0.5610262638329306,
                        2.090763262311921,
                        0.36166187060298068,
                        -0.699882692266937
                    ]
                },
                {
                    "row": 12,
                    "column": 4,
                    "elements": [
                        -1.6257516326611595,
                        -0.5709152337232517,
                        -1.1966803768340327,
                        0.5785083438923274,
                        0.9462330899596446,
                        -0.7217470083727096,
                        0.5454731744791905,
                        0.9457310503306672,
                        0.7579534822260584,
                        1.75834927573968,
                        -0.023631494030193685,
                        0.8734100078157037,
                        0.07144797633824221,
                        0.7779414507958086,
                        -0.5962498868600185,
                        0.42027659735617059,
                        0.052391814548841359,
                        -0.2469521594807625,
                        0.8092419975712233,
                        1.0877505859881017,
                        0.1342018099750945,
                        0.2492336705127806,
                        -1.3833682856913028,
                        -0.7096202373504639,
                        -0.3953573845129708,
                        0.16594480735800427,
                        -0.18365150690078736,
                        0.3437974602914147,
                        -0.02156641669654636,
                        1.0812238816553608,
                        -0.21581470084221333,
                        0.005598454199526252,
                        -0.29199265861806758,
                        -0.08025538729843485,
                        0.07074343608966868,
                        0.2321857511997223,
                        -1.207280947897845,
                        -1.013866470182741,
                        0.2971396018563943,
                        -1.0343330679742196,
                        -0.9009358287313134,
                        -0.4776438795796012,
                        -0.0657157790408034,
                        -0.361361708062082,
                        -0.08375392539138023,
                        0.43782639464387787,
                        -1.7808467370913977,
                        -0.8733292977151711
                    ]
                }
            ],
            "biases": [
                {
                    "row": 1,
                    "column": 12,
                    "elements": [
                        0.4591400445060215,
                        -0.41673325473271796,
                        -0.6559236486469566,
                        0.06163768236621357,
                        1.134278827001883,
                        -1.3766572083234015,
                        -0.5235430340198619,
                        -0.6529681157930855,
                        -1.133688095439352,
                        -1.4901315621267242,
                        0.14166144841781717,
                        -0.47587815110645156
                    ]
                },
                {
                    "row": 1,
                    "column": 4,
                    "elements": [
                        0.7006131249235845,
                        -0.3997845907624729,
                        -0.4762756943264495,
                        0.5395718351689174
                    ]
                }
            ]
        },
        {
            "inputSize": 15,
            "hiddenSize": 12,
            "hiddenLayers": 1,
            "outputSize": 4,
            "weights": [
                {
                    "row": 15,
                    "column": 12,
                    "elements": [
                        -0.8818157480092144,
                        -0.20833404674058593,
                        1.1023342413186799,
                        0.8148570427452557,
                        0.43650539503162996,
                        -0.765621872051774,
                        -0.3333293393303557,
                        0.10562044199452094,
                        -0.01860189576806958,
                        -0.9197216345377894,
                        2.8653593986693508,
                        1.286194862123512,
                        -0.15825997403927484,
                        -1.2100409215914297,
                        0.6861902196984856,
                        0.8953948692756913,
                        -0.4647972881864064,
                        0.8490631267556734,
                        0.9937068562010765,
                        0.29397628519898036,
                        0.054536614238848677,
                        -1.6957815668800403,
                        1.001418648804045,
                        0.8779486582725338,
                        1.0806272805381086,
                        0.43159253864823507,
                        0.2580695972695065,
                        0.7643424237846928,
                        -1.1575158781939077,
                        1.0196691570866364,
                        -1.7498664235882889,
                        0.7637268755077822,
                        0.1368597877538888,
                        0.6863965936041443,
                        0.4762756911127441,
                        0.0773710330549231,
                        -1.031996510460942,
                        -0.5602754613302865,
                        0.02862433854225105,
                        1.5182756185531617,
                        -1.8263313126013634,
                        0.4495969324378705,
                        0.959389652349404,
                        0.36162090805306859,
                        1.4033686771692274,
                        0.9391589870243048,
                        -0.5282740260090593,
                        -0.4832533889584196,
                        0.6492201611671412,
                        0.3348549267645198,
                        -0.4053172825757818,
                        0.7601815453019742,
                        -0.443042173817925,
                        0.49472096992219946,
                        -0.8737329372580477,
                        -0.17535747115017037,
                        -0.07779250554101462,
                        -1.6320319175720218,
                        -0.3123668171413602,
                        -0.07388975707928358,
                        -0.6956857559171722,
                        -0.2650445717015395,
                        -0.6138581672627439,
                        -0.39300417606212809,
                        0.9347802723732315,
                        0.6944886142870133,
                        -0.3868496133450182,
                        -0.7065989074455519,
                        -0.514806559344585,
                        0.9618965068217399,
                        -0.18566827517562616,
                        -0.019770292535883868,
                        -0.39498702043655689,
                        0.2642014857998133,
                        -0.8217517141421454,
                        -0.8054804066536512,
                        -0.5630191726266927,
                        -0.8024466791542656,
                        0.17895971914731494,
                        0.2561918664201819,
                        -0.2575093156774685,
                        0.4321446993399557,
                        0.19200816643979813,
                        -0.3419230078007152,
                        -0.811615727745716,
                        0.39412158338823657,
                        0.791494829895707,
                        0.3733435006116582,
                        -2.2348436968063769,
                        1.7910557208276928,
                        -0.0750319664187804,
                        -0.5856441943715706,
                        -0.8486194580744458,
                        0.2391099396634715,
                        -0.9344210540715373,
                        0.33274915473410118,
                        0.6337323872859616,
                        -0.11824776077147478,
                        -0.3518220917940574,
                        -0.6343374113809788,
                        1.2140314549886938,
                        1.841203355825534,
                        -1.22064720279662,
                        0.5758730339983039,
                        0.1822150027302582,
                        -1.0682830018205368,
                        -1.1201680069043636,
                        0.776683143147176,
                        -1.3752478162554272,
                        1.132868727213587,
                        -0.5330221748922674,
                        0.3720853480021992,
                        0.5275025743439776,
                        -0.3934428206422505,
                        -1.620525624748807,
                        1.527957284776182,
                        2.6196811503360437,
                        -0.09282577740044712,
                        0.5058304138347971,
                        1.757412869469583,
                        -0.4060333942859784,
                        0.09738527557310874,
                        -1.504460334777832,
                        -1.1412861757512436,
                        -0.4629704441281683,
                        0.95050657255427,
                        0.01790405801916656,
                        0.4279410656503315,
                        -0.8436777455010656,
                        0.82890580808923,
                        1.4987548791132226,
                        -0.5264258809044133,
                        -0.18540305036962188,
                        -0.7447905912118191,
                        -0.9993414847578275,
                        -0.6357556667136995,
                        1.066556061801735,
                        -0.25565269480273158,
                        0.4869619583772083,
                        0.7579207645824835,
                        0.3831380839857072,
                        0.08107318315649326,
                        0.5413123553676895,
                        -0.4118672501590932,
                        0.04493193613577123,
                        0.9458460586600894,
                        0.47247133359409218,
                        -0.10554248927519404,
                        0.13344534984359483,
                        0.7713276774016226,
                        1.0427743643974608,
                        -0.12921633777401546,
                        -0.3926218747687898,
                        -0.08327815595021079,
                        -0.579109813736919,
                        0.7530995285725205,
                        -0.5153849493914462,
                        -1.1207457742114207,
                        0.589763042869966,
                        -1.059968636401861,
                        -0.03758894123091264,
                        0.03620027988184574,
                        -0.6959405333059268,
                        0.6132020097840003,
                        -0.2178846320473493,
                        1.8519124104684548,
                        -0.5644450892130156,
                        0.6221524823866934,
                        -0.03591978474285465,
                        0.7263023149805684,
                        1.0459039701703204,
                        1.123644877708372,
                        -1.4765374877305369,
                        0.9292265237097676,
                        1.047221765634984,
                        0.0707425210166448,
                        -0.5997886614776948,
                        2.090763262311921,
                        0.37918644639840967,
                        -0.6808149998619746
                    ]
                },
                {
                    "row": 12,
                    "column": 4,
                    "elements": [
                        -1.634431333557012,
                        -0.5507159472370273,
                        -1.2102962732315064,
                        0.5785083438923274,
                        0.9473833654027603,
                        -0.7347727615796387,
                        0.5454731744791905,
                        0.9457310503306672,
                        0.7579534822260584,
                        1.7492518523895564,
                        -0.004269050777446409,
                        0.8257342705466837,
                        0.11095263939948855,
                        0.7779414507958086,
                        -0.5962498868600185,
                        0.42027659735617059,
                        0.036661933375391936,
                        -0.23613507064173273,
                        0.8092419975712233,
                        1.046507819039523,
                        0.1342018099750945,
                        0.2492336705127806,
                        -1.3724113262117837,
                        0.008398813370225633,
                        -0.3545748896874548,
                        0.15304700982334025,
                        0.17085176450989465,
                        0.3672798253747583,
                        -0.02156641669654636,
                        1.098030186926607,
                        -0.21581470084221333,
                        0.005598454199526252,
                        -0.29199265861806758,
                        -0.11350446912056755,
                        0.07074343608966868,
                        0.2321857511997223,
                        -1.207280947897845,
                        -1.013866470182741,
                        0.2620642432959073,
                        -1.0343330679742196,
                        -0.8800289439323147,
                        -0.5116895965348371,
                        -0.0657157790408034,
                        -0.38380376230899818,
                        -0.05633589431171611,
                        0.43782639464387787,
                        -1.7808467370913977,
                        -0.841815485877598
                    ]
                }
            ],
            "biases": [
                {
                    "row": 1,
                    "column": 12,
                    "elements": [
                        0.4923123483948423,
                        -0.41953854280602029,
                        -0.640678769265111,
                        0.06163768236621357,
                        1.134278827001883,
                        -1.3766572083234015,
                        -0.5235430340198619,
                        -0.6654500839169543,
                        -1.0889849180327842,
                        -1.4966222091784165,
                        0.15667672713684126,
                        -0.4482131803731883
                    ]
                },
                {
                    "row": 1,
                    "column": 4,
                    "elements": [
                        0.6921607647804973,
                        -0.3823124396351379,
                        -0.47220716451349956,
                        0.5395718351689174
                    ]
                }
            ]
        },
        {
            "inputSize": 15,
            "hiddenSize": 12,
            "hiddenLayers": 1,
            "outputSize": 4,
            "weights": [
                {
                    "row": 15,
                    "column": 12,
                    "elements": [
                        -0.8818157480092144,
                        -0.20833404674058593,
                        1.1023342413186799,
                        0.8148570427452557,
                        0.43650539503162996,
                        -0.765621872051774,
                        -0.3645668264251122,
                        0.10562044199452094,
                        -0.01860189576806958,
                        -0.9197216345377894,
                        2.837749838796818,
                        1.276404047823425,
                        -0.15825997403927484,
                        -1.2100409215914297,
                        0.6861902196984856,
                        0.8953948692756913,
                        -0.4647972881864064,
                        0.8490631267556734,
                        0.9937068562010765,
                        -0.86574786901474,
                        0.054536614238848677,
                        -1.6957815668800403,
                        0.5894777774810791,
                        0.8779486582725338,
                        1.0806272805381086,
                        0.43159253864823507,
                        0.2580695972695065,
                        0.7733305882471064,
                        -1.1575158781939077,
                        1.0196691570866364,
                        -1.7498664235882889,
                        0.7637268755077822,
                        0.1368597877538888,
                        0.6863965936041443,
                        0.48864657048634937,
                        0.0773710330549231,
                        -1.031996510460942,
                        -0.5602754613302865,
                        0.033093057507556759,
                        1.5182756185531617,
                        -1.8263313126013634,
                        0.43476526701506587,
                        0.959389652349404,
                        0.36162090805306859,
                        1.4033686771692274,
                        0.9391589870243048,
                        -0.5282740260090593,
                        -0.4832533889584196,
                        0.6902091634324231,
                        0.3348549267645198,
                        -0.4053172825757818,
                        0.7601815453019742,
                        -0.443042173817925,
                        0.49472096992219946,
                        -0.8737329372580477,
                        -0.17535747115017037,
                        -0.09581950675741873,
                        -1.6320319175720218,
                        -0.3123668171413602,
                        -0.07388975707928358,
                        -0.6565753549225376,
                        -0.2650445717015395,
                        -0.6138581672627439,
                        -0.39300417606212809,
                        0.8977189252401914,
                        0.6980027565429272,
                        -0.3868496133450182,
                        -0.7065989074455519,
                        -0.514806559344585,
                        0.9618965068217399,
                        -0.18089901946529084,
                        -0.019770292535883868,
                        -0.39498702043655689,
                        0.2642014857998133,
                        -0.8217517141421454,
                        -0.8054804066536512,
                        -0.5630191726266927,
                        -0.8024466791542656,
                        0.17895971914731494,
                        0.2561918664201819,
                        -0.2575093156774685,
                        0.4321446993399557,
                        0.19200816643979813,
                        -0.3419230078007152,
                        -0.811615727745716,
                        0.39412158338823657,
                        0.791494829895707,
                        0.3733435006116582,
                        -2.2348436968063769,
                        1.7910557208276928,
                        -0.10725530001097172,
                        -0.6081613886161968,
                        -0.8486194580744458,
                        0.2391099396634715,
                        -0.9491745611174879,
                        0.33274915473410118,
                        0.6337323872859616,
                        -0.11824776077147478,
                        -0.3518220917940574,
                        -0.6212112660730984,
                        1.2140314549886938,
                        1.841203355825534,
                        -1.22064720279662,
                        0.5758730339983039,
                        0.1822150027302582,
                        -1.0682830018205368,
                        -1.1201680069043636,
                        0.7808929475879917,
                        -1.3752478162554272,
                        1.1083212295361005,
                        -0.5330221748922674,
                        0.3720853480021992,
                        0.5275025743439776,
                        -0.3934428206422505,
                        -1.620525624748807,
                        1.527957284776182,
                        2.6196811503360437,
                        -0.09282577740044712,
                        0.5058304138347971,
                        1.757412869469583,
                        -0.4060333942859784,
                        0.11595708290011532,
                        -1.504460334777832,
                        -1.1412861757512436,
                        -0.4629704441281683,
                        0.95050657255427,
                        0.01790405801916656,
                        0.42459789991018057,
                        -0.8436777455010656,
                        0.82890580808923,
                        1.4987548791132226,
                        -0.5264258809044133,
                        -0.18540305036962188,
                        -0.7447905912118191,
                        -0.9993414847578275,
                        -0.6469249999219923,
                        1.0022501760167935,
                        -0.26091487465585397,
                        0.4869619583772083,
                        0.7579207645824835,
                        0.3831380839857072,
                        0.08107318315649326,
                        0.5413123553676895,
                        -0.4118672501590932,
                        0.04493193613577123,
                        0.9458460586600894,
                        0.47247133359409218,
                        -0.10554248927519404,
                        0.13344534984359483,
                        0.7713276774016226,
                        1.0427743643974608,
                        -0.12209865523771926,
                        -0.3926218747687898,
                        -0.08327815595021079,
                        -0.579109813736919,
                        0.7530995285725205,
                        -0.5153849493914462,
                        -1.112394788751832,
                        0.5368047701660413,
                        -1.059968636401861,
                        -0.03758894123091264,
                        0.03620027988184574,
                        -0.6959405333059268,
                        0.6132020097840003,
                        -0.2178846320473493,
                        1.8519124104684548,
                        -0.5644450892130156,
                        0.6221524823866934,
                        -0.03591978474285465,
                        0.7220122510992173,
                        1.0459039701703204,
                        1.123644877708372,
                        -1.4765374877305369,
                        0.9292265237097676,
                        1.047221765634984,
                        0.0707425210166448,
                        -0.5997886614776948,
                        2.090763262311921,
                        0.37918644639840967,
                        -0.6808149998619746
                    ]
                },
                {
                    "row": 12,
                    "column": 4,
                    "elements": [
                        -1.634431333557012,
                        -0.5507159472370273,
                        -1.1993071737361499,
                        0.5785083438923274,
                        0.9473833654027603,
                        -0.7558641722219479,
                        0.5454731744791905,
                        0.9457310503306672,
                        0.7579534822260584,
                        1.7492518523895564,
                        -0.02141674641238453,
                        0.8734100078157037,
                        0.11095263939948855,
                        0.7779414507958086,
                        -0.5962498868600185,
                        0.42027659735617059,
                        0.036661933375391936,
                        -0.23613507064173273,
                        0.8092419975712233,
                        1.0995587698114445,
                        0.13828454327655377,
                        0.2492336705127806,
                        -1.3724113262117837,
                        0.008398813370225633,
                        -0.3545748896874548,
                        0.1359429137929879,
                        0.17085176450989465,
                        0.3672798253747583,
                        -0.02156641669654636,
                        1.0812238816553608,
                        -0.21581470084221333,
                        0.005598454199526252,
                        -0.29199265861806758,
                        -0.11350446912056755,
                        0.08067809725600891,
                        0.2321857511997223,
                        -1.207280947897845,
                        -1.013866470182741,
                        0.2620642432959073,
                        -1.0343330679742196,
                        -0.8727277863825719,
                        -0.5116895965348371,
                        -0.0657157790408034,
                        -0.38380376230899818,
                        -0.05633589431171611,
                        0.43782639464387787,
                        -1.7808467370913977,
                        -0.841815485877598
                    ]
                }
            ],
            "biases": [
                {
                    "row": 1,
                    "column": 12,
                    "elements": [
                        0.4923123483948423,
                        -0.41953854280602029,
                        -0.640678769265111,
                        0.06163768236621357,
                        1.1291961602415577,
                        -1.385201621579799,
                        -0.5235430340198619,
                        -0.6654500839169543,
                        -1.0889849180327842,
                        -1.4966222091784165,
                        0.15667672713684126,
                        -0.4482131803731883
                    ]
                },
                {
                    "row": 1,
                    "column": 4,
                    "elements": [
                        0.6915642054481093,
                        -0.3823124396351379,
                        -0.47220716451349956,
                        0.5395718351689174
                    ]
                }
            ]
        },
        {
            "inputSize": 15,
            "hiddenSize": 12,
            "hiddenLayers": 1,
            "outputSize": 4,
            "weights": [
                {
                    "row": 15,
                    "column": 12,
                    "elements": [
                        -0.8818157480092144,
                        -0.20833404674058593,
                        1.1023342413186799,
                        0.8148570427452557,
                        0.43650539503162996,
                        -0.765621872051774,
                        -0.3645668264251122,
                        0.10562044199452094,
                        -0.01860189576806958,
                        -0.9197216345377894,
                        2.8653593986693508,
                        1.2864620787925228,
                        -0.15825997403927484,
                        -1.2100409215914297,
                        0.6861902196984856,
                        0.8953948692756913,
                        -0.47638123367867526,
                        0.8490631267556734,
                        1.0134635007236992,
                        0.26672859703771947,
                        0.054536614238848677,
                        -1.6957815668800403,
                        1.001418648804045,
                        0.8779486582725338,
                        1.0806272805381086,
                        0.43159253864823507,
                        0.2580695972695065,
                        0.7643424237846928,
                        -1.1575158781939077,
                        1.0196691570866364,
                        -1.7498664235882889,
                        0.7637268755077822,
                        0.1368597877538888,
                        0.6863965936041443,
                        0.4762756911127441,
                        0.0773710330549231,
                        -0.9980773127060643,
                        -0.5602754613302865,
                        0.02862433854225105,
                        1.5182756185531617,
                        -1.8263313126013634,
                        0.4495969324378705,
                        0.959389652349404,
                        0.36162090805306859,
                        1.4033686771692274,
                        0.9391589870243048,
                        -0.5282740260090593,
                        -0.4832533889584196,
                        0.6492201611671412,
                        0.3348549267645198,
                        -0.4053172825757818,
                        0.7601815453019742,
                        -0.443042173817925,
                        0.49472096992219946,
                        -0.8737329372580477,
                        -0.17535747115017037,
                        -0.09581950675741873,
                        -1.6320319175720218,
                        -0.3123668171413602,
                        -0.07388975707928358,
                        -0.6842071115642886,
                        -0.2650445717015395,
                        -0.6138581672627439,
                        -0.39300417606212809,
                        0.8977189252401914,
                        0.6944886142870133,
                        -0.3868496133450182,
                        -0.7065989074455519,
                        -0.514806559344585,
                        0.9618965068217399,
                        -0.18566827517562616,
                        -0.019770292535883868,
                        -0.39498702043655689,
                        0.2642014857998133,
                        -0.8217517141421454,
                        -0.8054804066536512,
                        -0.5630191726266927,
                        -0.8024466791542656,
                        0.17895971914731494,
                        0.2561918664201819,
                        -0.2575093156774685,
                        0.4321446993399557,
                        0.19200816643979813,
                        -0.3419230078007152,
                        -0.811615727745716,
                        0.39412158338823657,
                        0.791494829895707,
                        0.3733435006116582,
                        -2.2348436968063769,
                        1.7910557208276928,
                        -0.0750319664187804,
                        -0.6081613886161968,
                        -0.8486194580744458,
                        0.2391099396634715,
                        -0.9404821004693489,
                        0.33274915473410118,
                        0.6337323872859616,
                        -0.11824776077147478,
                        -0.3518220917940574,
                        -0.6343374113809788,
                        1.2140314549886938,
                        1.841203355825534,
                        -1.273267254911791,
                        0.5758730339983039,
                        0.1822150027302582,
                        -1.0682830018205368,
                        -1.1201680069043636,
                        0.7808929475879917,
                        -1.3752478162554272,
                        1.1083212295361005,
                        -0.5330221748922674,
                        0.3720853480021992,
                        0.5275025743439776,
                        -0.3934428206422505,
                        -1.620525624748807,
                        1.527957284776182,
                        2.6196811503360437,
                        -0.09282577740044712,
                        0.5058304138347971,
                        1.757412869469583,
                        -0.4060333942859784,
                        0.08803898078289209,
                        -1.504460334777832,
                        -1.1412861757512436,
                        -0.4629704441281683,
                        0.9516102023720025,
                        0.01790405801916656,
                        0.42459789991018057,
                        -0.8436777455010656,
                        0.8220345859851996,
                        1.5072917648991998,
                        -0.5264258809044133,
                        -0.19396984278544658,
                        -0.7447905912118191,
                        -0.9895103729504017,
                        -0.6469249999219923,
                        1.066556061801735,
                        -0.25565269480273158,
                        0.4869619583772083,
                        0.7579207645824835,
                        0.3831380839857072,
                        0.08107318315649326,
                        0.5413123553676895,
                        -0.4118672501590932,
                        0.04493193613577123,
                        0.9458460586600894,
                        0.47247133359409218,
                        -0.10554248927519404,
                        0.13344534984359483,
                        0.7713276774016226,
                        1.0427743643974608,
                        -0.14674020189000173,
                        -0.3926218747687898,
                        -0.08327815595021079,
                        -0.579109813736919,
                        0.7530995285725205,
                        -0.5153849493914462,
                        -1.1207457742114207,
                        0.5368047701660413,
                        -1.059968636401861,
                        -0.03758894123091264,
                        0.03620027988184574,
                        -0.6959405333059268,
                        0.6132020097840003,
                        -0.2178846320473493,
                        1.8519124104684548,
                        -0.5644450892130156,
                        0.6357385895754671,
                        -0.03591978474285465,
                        0.7301465847067494,
                        1.0459039701703204,
                        1.123644877708372,
                        -1.4765374877305369,
                        0.9422603938770408,
                        1.047221765634984,
                        0.0707425210166448,
                        -0.5997886614776948,
                        2.090763262311921,
                        0.37918644639840967,
                        -0.6808149998619746
                    ]
                },
                {
                    "row": 12,
                    "column": 4,
                    "elements": [
                        -1.634431333557012,
                        -0.5507159472370273,
                        -1.2102962732315064,
                        0.5785083438923274,
                        0.9473833654027603,
                        -0.7558641722219479,
                        0.5454731744791905,
                        0.9457310503306672,
                        0.7579534822260584,
                        1.7492518523895564,
                        -0.004269050777446409,
                        0.8734100078157037,
                        0.11095263939948855,
                        0.7779414507958086,
                        -0.5962498868600185,
                        0.42027659735617059,
                        0.036661933375391936,
                        -0.23613507064173273,
                        0.8092419975712233,
                        1.0995587698114445,
                        0.1342018099750945,
                        0.2492336705127806,
                        -1.3724113262117837,
                        0.008398813370225633,
                        -0.3545748896874548,
                        0.15304700982334025,
                        0.17085176450989465,
                        0.3672798253747583,
                        -0.02156641669654636,
                        1.0812238816553608,
                        -0.21639081622893523,
                        0.005598454199526252,
                        -0.29199265861806758,
                        -0.11350446912056755,
                        0.07074343608966868,
                        0.2321857511997223,
                        -1.207280947897845,
                        -1.0165168964516816,
                        0.2620642432959073,
                        -1.0343330679742196,
                        -0.8930273207265104,
                        -0.5116895965348371,
                        -0.0657157790408034,
                        -0.38380376230899818,
                        -0.05633589431171611,
                        0.43782639464387787,
                        -1.7808467370913977,
                        -0.841815485877598
                    ]
                }
            ],
            "biases": [
                {
                    "row": 1,
                    "column": 12,
                    "elements": [
                        0.4923123483948423,
                        -0.41953854280602029,
                        -0.640678769265111,
                        0.06163768236621357,
                        1.128766944819938,
                        -1.3766572083234015,
                        -0.5235430340198619,
                        -0.6654500839169543,
                        -1.0889849180327842,
                        -1.4966222091784165,
                        0.15667672713684126,
                        -0.42176997608447927
                    ]
                },
                {
                    "row": 1,
                    "column": 4,
                    "elements": [
                        0.6915642054481093,
                        -0.3823124396351379,
                        -0.47220716451349956,
                        0.5395718351689174
                    ]
                }
            ]
        },
        {
            "inputSize": 15,
            "hiddenSize": 12,
            "hiddenLayers": 1,
            "outputSize": 4,
            "weights": [
                {
                    "row": 15,
                    "column": 12,
                    "elements": [
                        -0.8818157480092144,
                        -0.20833404674058593,
                        1.1023342413186799,
                        0.8220774830908014,
                        0.4413077658897694,
                        -0.765621872051774,
                        -0.3267526440351566,
                        0.1255935729663148,
                        -0.01860189576806958,
                        -0.923898398038582,
                        2.8653593986693508,
                        1.286194862123512,
                        -0.15825997403927484,
                        -1.2100409215914297,
                        0.6861902196984856,
                        0.8953948692756913,
                        -0.4647972881864064,
                        0.8490631267556734,
                        0.9937068562010765,
                        0.29397628519898036,
                        0.05679295725510783,
                        -1.6957815668800403,
                        1.001418648804045,
                        0.8823727893882654,
                        1.0806272805381086,
                        0.43159253864823507,
                        0.2580695972695065,
                        0.7643424237846928,
                        -1.1575158781939077,
                        1.0196691570866364,
                        -1.7498664235882889,
                        0.7637268755077822,
                        0.1368597877538888,
                        0.6863965936041443,
                        0.4762756911127441,
                        0.0773710330549231,
                        -1.031996510460942,
                        -0.5602754613302865,
                        0.02862433854225105,
                        0.07879442721605301,
                        -1.8092091778217195,
                        0.4495969324378705,
                        0.959389652349404,
                        0.36162090805306859,
                        1.4033686771692274,
                        0.9391589870243048,
                        -0.5282740260090593,
                        -0.4832533889584196,
                        0.6492201611671412,
                        0.3348549267645198,
                        -0.4053172825757818,
                        0.7601815453019742,
                        -0.443042173817925,
                        0.49472096992219946,
                        -0.8737329372580477,
                        -0.14095643184188406,
                        -0.07779250554101462,
                        -1.6320319175720218,
                        -0.3123668171413602,
                        -0.07388975707928358,
                        -0.6956857559171722,
                        -0.2650445717015395,
                        -0.6138581672627439,
                        -0.3994440316129569,
                        0.937743630768852,
                        0.6944886142870133,
                        -0.3868496133450182,
                        -0.7065989074455519,
                        -0.514806559344585,
                        0.9618965068217399,
                        -0.18566827517562616,
                        -0.019770292535883868,
                        -0.39498702043655689,
                        0.2642014857998133,
                        -0.8217517141421454,
                        -0.8054804066536512,
                        -0.5630191726266927,
                        -0.8024466791542656,
                        0.17895971914731494,
                        0.2561918664201819,
                        -0.2575093156774685,
                        0.4321446993399557,
                        0.19200816643979813,
                        -0.3419230078007152,
                        -0.811615727745716,
                        0.39412158338823657,
                        0.791494829895707,
                        0.3733435006116582,
                        -2.228252885343471,
                        1.7910557208276928,
                        -0.0750319664187804,
                        -0.5856441943715706,
                        -0.8486194580744458,
                        0.21928004580242867,
                        -0.9344210540715373,
                        0.33274915473410118,
                        0.6337323872859616,
                        -0.11824776077147478,
                        -0.3518220917940574,
                        -0.6343374113809788,
                        1.2052067163258116,
                        1.841203355825534,
                        -1.22064720279662,
                        0.5758730339983039,
                        0.1822150027302582,
                        -1.0682830018205368,
                        -1.1201680069043636,
                        0.776683143147176,
                        -1.3752478162554272,
                        1.132868727213587,
                        -0.5330221748922674,
                        0.3720853480021992,
                        0.5275025743439776,
                        -0.3934428206422505,
                        -1.620525624748807,
                        1.527957284776182,
                        2.6196811503360437,
                        -0.09282577740044712,
                        0.5058304138347971,
                        1.757412869469583,
                        -0.4060333942859784,
                        0.09738527557310874,
                        -1.504460334777832,
                        -1.1412861757512436,
                        -0.4629704441281683,
                        0.95050657255427,
                        0.01790405801916656,
                        0.43172806902323165,
                        -0.8436777455010656,
                        0.82890580808923,
                        1.4987548791132226,
                        -0.5264258809044133,
                        -0.18540305036962188,
                        -0.7447905912118191,
                        -0.9993414847578275,
                        -0.6357556667136995,
                        1.066556061801735,
                        -0.25565269480273158,
                        0.4869619583772083,
                        0.7579207645824835,
                        0.3831380839857072,
                        0.08107318315649326,
                        0.5413123553676895,
                        -0.4112882538564363,
                        0.04493193613577123,
                        0.9458460586600894,
                        0.47247133359409218,
                        -0.10554248927519404,
                        0.14778211314351978,
                        0.7713276774016226,
                        1.0556625822738306,
                        -0.12921633777401546,
                        -0.417493829130766,
                        -0.08327815595021079,
                        -0.579109813736919,
                        0.7530995285725205,
                        -0.5153849493914462,
                        -1.1207457742114207,
                        0.5897700754303427,
                        -1.059968636401861,
                        -0.03758894123091264,
                        0.03620027988184574,
                        -0.6882822068512797,
                        0.6132020097840003,
                        -0.2178846320473493,
                        1.8519124104684548,
                        -0.5644450892130156,
                        0.6221524823866934,
                        -0.03591978474285465,
                        0.7263023149805684,
                        1.0459039701703204,
                        1.123644877708372,
                        -1.479932975320772,
                        0.9292265237097676,
                        1.047221765634984,
                        0.0707425210166448,
                        -0.5997886614776948,
                        2.090763262311921,
                        0.37918644639840967,
                        -0.6808149998619746
                    ]
                },
                {
                    "row": 12,
                    "column": 4,
                    "elements": [
                        -1.634431333557012,
                        -0.5507159472370273,
                        -1.2102962732315064,
                        0.5785083438923274,
                        0.9473833654027603,
                        -0.7347727615796387,
                        0.5454731744791905,
                        0.9457310503306672,
                        0.7579534822260584,
                        1.7492518523895564,
                        -0.004269050777446409,
                        0.8257342705466837,
                        0.11095263939948855,
                        0.7779414507958086,
                        -0.5962498868600185,
                        0.4372036354089894,
                        0.05063615619994556,
                        -0.23613507064173273,
                        0.8092419975712233,
                        1.046507819039523,
                        0.1342018099750945,
                        0.2492336705127806,
                        -1.3724113262117837,
                        0.04010614479575836,
                        -0.3545748896874548,
                        0.15304700982334025,
                        0.17085176450989465,
                        0.3672798253747583,
                        -0.02156641669654636,
                        1.098030186926607,
                        -0.21581470084221333,
                        0.005598454199526252,
                        -0.29199265861806758,
                        -0.11350446912056755,
                        0.07074343608966868,
                        0.2321857511997223,
                        -1.207280947897845,
                        -1.013866470182741,
                        0.2620642432959073,
                        -1.0343330679742196,
                        -0.8618782285100729,
                        -0.5116895965348371,
                        -0.0657157790408034,
                        -0.38380376230899818,
                        -0.05633589431171611,
                        0.43782639464387787,
                        -1.7808467370913977,
                        -0.841815485877598
                    ]
                }
            ],
            "biases": [
                {
                    "row": 1,
                    "column": 12,
                    "elements": [
                        0.4923123483948423,
                        -0.41953854280602029,
                        -0.640678769265111,
                        0.06163768236621357,
                        1.134278827001883,
                        -1.3766572083234015,
                        -0.5235430340198619,
                        -0.6654500839169543,
                        -1.0889849180327842,
                        -1.4966222091784165,
                        0.15667672713684126,
                        -0.4563782661024352
                    ]
                },
                {
                    "row": 1,
                    "column": 4,
                    "elements": [
                        0.6921607647804973,
                        -0.3823124396351379,
                        -0.47220716451349956,
                        0.5395718351689174
                    ]
                }
            ]
        },
        {
            "inputSize": 15,
            "hiddenSize": 12,
            "hiddenLayers": 1,
            "outputSize": 4,
            "weights": [
                {
                    "row": 15,
                    "column": 12,
                    "elements": [
                        -0.8818157480092144,
                        -0.20833404674058593,
                        1.1023342413186799,
                        0.8148570427452557,
                        0.45439179604670895,
                        -0.765621872051774,
                        -0.3645668264251122,
                        0.10562044199452094,
                        -0.01860189576806958,
                        -0.9197216345377894,
                        2.837749838796818,
                        1.276404047823425,
                        -0.15825997403927484,
                        -1.2100409215914297,
                        0.6861902196984856,
                        -0.2672661542892456,
                        -0.4647972881864064,
                        0.8490631267556734,
                        0.9937068562010765,
                        -0.86574786901474,
                        0.054536614238848677,
                        -1.6957815668800403,
                        0.5894777774810791,
                        0.8779486582725338,
                        1.0806272805381086,
                        0.43159253864823507,
                        0.2723452872675739,
                        0.7733305882471064,
                        -1.1575158781939077,
                        1.0196691570866364,
                        -1.7498664235882889,
                        0.7637268755077822,
                        0.1368597877538888,
                        0.6863965936041443,
                        0.48864657048634937,
                        0.0773710330549231,
                        -1.031996510460942,
                        -0.5602754613302865,
                        0.0381448967462934,
                        1.5182756185531617,
                        -1.8637523666050256,
                        0.43476526701506587,
                        0.959389652349404,
                        0.36162090805306859,
                        1.4033686771692274,
                        0.9391589870243048,
                        -0.5282740260090593,
                        -0.4832533889584196,
                        0.6902091634324231,
                        0.3348549267645198,
                        -0.4053172825757818,
                        0.7601815453019742,
                        -0.443042173817925,
                        0.49472096992219946,
                        -0.8737329372580477,
                        -0.17535747115017037,
                        -0.09581950675741873,
                        -1.6320319175720218,
                        -0.3123668171413602,
                        -0.07388975707928358,
                        -0.6565753549225376,
                        -0.2650445717015395,
                        -0.6138581672627439,
                        -0.39300417606212809,
                        0.8977189252401914,
                        0.6980027565429272,
                        -0.3868496133450182,
                        -0.7065989074455519,
                        -0.514806559344585,
                        0.9618965068217399,
                        -0.16743729643854708,
                        -0.019770292535883868,
                        -0.37663339411873456,
                        0.2642014857998133,
                        -0.8217517141421454,
                        -0.8054804066536512,
                        -0.5720298241329381,
                        -0.8024466791542656,
                        0.17895971914731494,
                        0.2561918664201819,
                        -0.25102627537037228,
                        0.4321446993399557,
                        0.19200816643979813,
                        -0.3419230078007152,
                        -0.811615727745716,
                        0.39412158338823657,
                        0.791494829895707,
                        0.3733435006116582,
                        -2.2348436968063769,
                        1.8063758641849069,
                        -0.10725530001097172,
                        -0.6081613886161968,
                        -0.8486194580744458,
                        0.2391099396634715,
                        -0.9491745611174879,
                        0.33274915473410118,
                        0.6337323872859616,
                        -0.11824776077147478,
                        -0.3518220917940574,
                        -0.6212112660730984,
                        1.2140314549886938,
                        1.841203355825534,
                        -1.22064720279662,
                        0.5758730339983039,
                        0.1822150027302582,
                        -1.0682830018205368,
                        -1.1201680069043636,
                        0.7808929475879917,
                        -1.384781273202334,
                        1.1083212295361005,
                        -0.5330221748922674,
                        0.3720853480021992,
                        0.5275025743439776,
                        -0.4080280733165041,
                        -1.620525624748807,
                        1.527957284776182,
                        2.6196811503360437,
                        -0.09282577740044712,
                        0.5058304138347971,
                        1.757412869469583,
                        -0.4060333942859784,
                        0.11595708290011532,
                        -1.504460334777832,
                        -1.1412861757512436,
                        -0.4629704441281683,
                        0.95050657255427,
                        0.01790405801916656,
                        0.42459789991018057,
                        -0.8436777455010656,
                        0.827538783936512,
                        1.4987548791132226,
                        -0.5264258809044133,
                        -0.18540305036962188,
                        -0.7447905912118191,
                        -0.9993414847578275,
                        -0.6469249999219923,
                        1.0022501760167935,
                        -0.26091487465585397,
                        0.4869619583772083,
                        0.7579207645824835,
                        0.3831380839857072,
                        0.08107318315649326,
                        0.5413123553676895,
                        -0.4118672501590932,
                        0.04493193613577123,
                        0.9458460586600894,
                        0.47247133359409218,
                        -0.10554248927519404,
                        0.13344534984359483,
                        0.7713276774016226,
                        1.0427743643974608,
                        -0.12209865523771926,
                        -0.3926218747687898,
                        -0.08327815595021079,
                        -0.579109813736919,
                        0.7530995285725205,
                        -0.5153849493914462,
                        -1.112394788751832,
                        0.5368047701660413,
                        -1.059968636401861,
                        -0.03758894123091264,
                        0.03620027988184574,
                        -0.6959405333059268,
                        0.6132020097840003,
                        -0.2178846320473493,
                        1.8721032855473965,
                        -0.5644450892130156,
                        0.6221524823866934,
                        -0.03591978474285465,
                        0.7220122510992173,
                        1.0459039701703204,
                        1.123644877708372,
                        -1.4765374877305369,
                        0.9292265237097676,
                        1.047221765634984,
                        0.06683764797121983,
                        -0.5997886614776948,
                        2.090763262311921,
                        0.37918644639840967,
                        -0.6808149998619746
                    ]
                },
                {
                    "row": 12,
                    "column": 4,
                    "elements": [
                        -1.634431333557012,
                        -0.5507159472370273,
                        -1.1993071737361499,
                        0.5926254402393071,
                        0.9473833654027603,
                        -0.7558641722219479,
                        0.5286355398152578,
                        0.9457310503306672,
                        0.7579534822260584,
                        1.7492518523895564,
                        -0.05011570035312726,
                        0.8734100078157037,
                        0.11095263939948855,
                        0.7779414507958086,
                        -0.5962498868600185,
                        0.41610128105612079,
                        0.036661933375391936,
                        -0.23613507064173273,
                        0.8092419975712233,
                        1.0995587698114445,
                        0.13834041762392297,
                        0.2492336705127806,
                        -1.3724113262117837,
                        0.008398813370225633,
                        -0.3545748896874548,
                        0.1359429137929879,
                        0.17085176450989465,
                        0.3672798253747583,
                        -0.02156641669654636,
                        1.0812238816553608,
                        -0.21581470084221333,
                        0.005598454199526252,
                        -0.29199265861806758,
                        -0.11350446912056755,
                        0.08067809725600891,
                        0.2321857511997223,
                        -1.207280947897845,
                        -1.013866470182741,
                        0.24741266376652305,
                        -1.0343330679742196,
                        -0.8727277863825719,
                        -0.5116895965348371,
                        -0.0657157790408034,
                        -0.38380376230899818,
                        -0.07065586340730452,
                        0.43782639464387787,
                        -1.7808467370913977,
                        -0.841815485877598
                    ]
                }
            ],
            "biases": [
                {
                    "row": 1,
                    "column": 12,
                    "elements": [
                        0.4923123483948423,
                        -0.41953854280602029,
                        -0.640678769265111,
                        0.06163768236621357,
                        1.16794988347355,
                        -1.385201621579799,
                        -0.5235430340198619,
                        -0.6654500839169543,
                        -1.0889849180327842,
                        -1.4966222091784165,
                        0.15496829011967845,
                        -0.480161216806616
                    ]
                },
                {
                    "row": 1,
                    "column": 4,
                    "elements": [
                        0.6868113797577391,
                        -0.3823124396351379,
                        -0.47220716451349956,
                        0.5395718351689174
                    ]
                }
            ]
        },
        {
            "inputSize": 15,
            "hiddenSize": 12,
            "hiddenLayers": 1,
            "outputSize": 4,
            "weights": [
                {
                    "row": 15,
                    "column": 12,
                    "elements": [
                        -0.8818157480092144,
                        -0.20833404674058593,
                        1.073463735640112,
                        0.8027478146433442,
                        0.43650539503162996,
                        -0.7560635039401867,
                        -0.34828935500816507,
                        0.07634972693527144,
                        -0.01860189576806958,
                        -0.8940236909479071,
                        2.8653593986693508,
                        1.286194862123512,
                        -0.13158281198830858,
                        -1.1907476399906552,
                        0.6693935370008769,
                        0.9323144956401096,
                        -0.4647972881864064,
                        0.8644619029427034,
                        0.984956853416422,
                        0.29397628519898036,
                        0.054536614238848677,
                        -1.6957815668800403,
                        1.001418648804045,
                        0.8966083282083934,
                        1.0787760813101915,
                        0.43159253864823507,
                        0.2583947542713038,
                        0.7643424237846928,
                        -1.153824692861621,
                        1.0196691570866364,
                        -1.7498664235882889,
                        0.7764396554608273,
                        0.10141657317592817,
                        0.6863965936041443,
                        0.44625574091704309,
                        0.06701900169775466,
                        -1.0008667694880449,
                        -0.5602754613302865,
                        0.02862433854225105,
                        1.5367654069105584,
                        -1.808556082590956,
                        0.44185268767783955,
                        0.959389652349404,
                        0.3582562628855832,
                        1.4033686771692274,
                        0.9391589870243048,
                        -0.5720204725944214,
                        -0.498522805187785,
                        0.6492201611671412,
                        0.3348549267645198,
                        -0.4147868648025891,
                        0.7810619108030122,
                        -0.443042173817925,
                        0.5009915858365752,
                        -0.8737329372580477,
                        -0.17535747115017037,
                        -0.09581950675741873,
                        -1.6320319175720218,
                        -0.34906593255108206,
                        -0.07388975707928358,
                        -0.5763131320423133,
                        -0.2650445717015395,
                        -0.6117418137982378,
                        -0.41314822811736659,
                        0.9147764831570362,
                        0.673005689352155,
                        -0.3868496133450182,
                        -0.7063124413079296,
                        -0.5176799341373685,
                        0.9840257964310241,
                        -0.24074170686700228,
                        -0.019770292535883868,
                        -0.39498702043655689,
                        0.2703647048755403,
                        -0.8073034651250316,
                        -0.8054804066536512,
                        -0.5630191726266927,
                        -0.8024466791542656,
                        0.17928971980870296,
                        0.2421934436633555,
                        -0.2768280384772154,
                        0.42506108264552658,
                        0.18962390932551269,
                        -0.3419230078007152,
                        -0.8419097257868541,
                        0.39412158338823657,
                        0.8157164093828464,
                        0.3733435006116582,
                        -2.2348436968063769,
                        1.7714585747546452,
                        -0.08811433450023754,
                        -0.6375994404336576,
                        -0.8300247208411067,
                        0.2391099396634715,
                        -0.9406691549278988,
                        0.366378604780459,
                        0.6337323872859616,
                        -0.13896018422914745,
                        -0.3518220917940574,
                        -0.6464800228515899,
                        1.2423195612747403,
                        1.8150790030006455,
                        -1.2072815100030204,
                        0.5758730339983039,
                        0.17523911308420243,
                        -1.0682830018205368,
                        -1.0974140534792383,
                        0.7808929475879917,
                        -1.3699942468890965,
                        1.1083212295361005,
                        -0.5832885367934383,
                        0.3720853480021992,
                        0.5225733242734336,
                        -0.3934428206422505,
                        -1.6232528650118688,
                        1.5416007497368585,
                        2.6196811503360437,
                        -0.09282577740044712,
                        0.4851656603828109,
                        0.22745062410831452,
                        -0.4060333942859784,
                        0.08803898078289209,
                        -1.504460334777832,
                        -1.0972805347975905,
                        -0.4629704441281683,
                        0.9260779599144094,
                        0.01790405801916656,
                        0.42459789991018057,
                        -0.8436777455010656,
                        0.8341378148797486,
                        1.4963393991495507,
                        -0.5264258809044133,
                        -0.18540305036962188,
                        -0.7447905912118191,
                        -1.000157203435116,
                        -0.7078637049579163,
                        1.066556061801735,
                        -0.267880707806468,
                        0.5127704876541634,
                        0.7579207645824835,
                        0.3831380839857072,
                        0.07550683782764845,
                        0.5757638115616555,
                        -0.4218886968783795,
                        0.04493193613577123,
                        0.9458460586600894,
                        0.4945998960267263,
                        -0.10554248927519404,
                        0.13664081050892228,
                        0.7611935731378573,
                        1.0427743643974608,
                        -0.12752108676615868,
                        -0.3926218747687898,
                        -0.08327815595021079,
                        -0.6032059349863537,
                        0.7530995285725205,
                        -0.5153849493914462,
                        -1.1207457742114207,
                        0.5135179965280635,
                        -1.0607261666420347,
                        -0.031898925803666298,
                        0.010682900214624286,
                        -0.6959405333059268,
                        0.6132020097840003,
                        -1.1084556579589844,
                        1.8103813063552435,
                        -0.5644450892130156,
                        0.6074301265155455,
                        -0.006371633910234792,
                        0.7263023149805684,
                        1.0804241162455062,
                        1.1111455789383758,
                        -1.4765374877305369,
                        0.9222696372161343,
                        1.0478466560602289,
                        0.0707425210166448,
                        -0.5610262638329306,
                        2.090763262311921,
                        0.36166187060298068,
                        -0.7228448900111382
                    ]
                },
                {
                    "row": 12,
                    "column": 4,
                    "elements": [
                        -1.6257516326611595,
                        -0.5709152337232517,
                        -1.1966803768340327,
                        0.5785083438923274,
                        0.9462330899596446,
                        -0.7217470083727096,
                        0.5454731744791905,
                        0.9457310503306672,
                        0.7579534822260584,
                        1.75834927573968,
                        -0.023631494030193685,
                        0.8734100078157037,
                        0.07144797633824221,
                        0.749493399025361,
                        -0.5962498868600185,
                        0.42027659735617059,
                        0.052391814548841359,
                        -0.2469521594807625,
                        0.8092419975712233,
                        1.0877505859881017,
                        0.1342018099750945,
                        0.2492336705127806,
                        -1.3833682856913028,
                        -0.7096202373504639,
                        -0.3953573845129708,
                        0.16594480735800427,
                        -0.18365150690078736,
                        0.3437974602914147,
                        -0.02156641669654636,
                        1.0812238816553608,
                        -0.21581470084221333,
                        0.005598454199526252,
                        -0.29199265861806758,
                        -0.06675446945025576,
                        0.07074343608966868,
                        0.2321857511997223,
                        -1.207280947897845,
                        -1.013866470182741,
                        0.2971396018563943,
                        -1.0343330679742196,
                        -0.9009358287313134,
                        -0.4776438795796012,
                        -0.030357539226721035,
                        -0.361361708062082,
                        -0.08375392539138023,
                        0.43782639464387787,
                        -1.7808467370913977,
                        -0.8733292977151711
                    ]
                }
            ],
            "biases": [
                {
                    "row": 1,
                    "column": 12,
                    "elements": [
                        0.4591400445060215,
                        -0.41673325473271796,
                        -0.6559236486469566,
                        0.06163768236621357,
                        1.134278827001883,
                        -1.3766572083234015,
                        -0.5235430340198619,
                        -0.6529681157930855,
                        -1.133688095439352,
                        -1.4901315621267242,
                        0.14166144841781717,
                        -0.47587815110645156
                    ]
                },
                {
                    "row": 1,
                    "column": 4,
                    "elements": [
                        0.7006131249235845,
                        -0.3997845907624729,
                        -0.4762756943264495,
                        0.5395718351689174
                    ]
                }
            ]
        },
        {
            "inputSize": 15,
            "hiddenSize": 12,
            "hiddenLayers": 1,
            "outputSize": 4,
            "weights": [
                {
                    "row": 15,
                    "column": 12,
                    "elements": [
                        -0.8818157480092144,
                        -0.20833404674058593,
                        1.1023342413186799,
                        0.8148570427452557,
                        0.43650539503162996,
                        -0.765621872051774,
                        -0.3645668264251122,
                        0.10562044199452094,
                        -0.01860189576806958,
                        -0.9197216345377894,
                        2.842139033842888,
                        1.276404047823425,
                        -0.15825997403927484,
                        -1.2100409215914297,
                        0.6861902196984856,
                        0.877923647980794,
                        -0.4647972881864064,
                        0.8490631267556734,
                        1.027597503331745,
                        -0.86574786901474,
                        0.04224285969758021,
                        -1.6957815668800403,
                        0.564857290341418,
                        0.8779486582725338,
                        1.0806272805381086,
                        0.43159253864823507,
                        0.2580695972695065,
                        0.7733305882471064,
                        -1.1575158781939077,
                        1.0196691570866364,
                        -1.7498664235882889,
                        0.7617548669063254,
                        0.1368597877538888,
                        0.6863965936041443,
                        0.48864657048634937,
                        0.0773710330549231,
                        -1.031996510460942,
                        -0.6011670409979535,
                        0.033093057507556759,
                        1.5182756185531617,
                        -1.8263313126013634,
                        0.43476526701506587,
                        0.959389652349404,
                        0.36162090805306859,
                        1.4040529658940904,
                        0.8830872109338567,
                        -0.5282740260090593,
                        -0.4832533889584196,
                        0.6902091634324231,
                        0.3348549267645198,
                        -0.416294767510317,
                        0.7601815453019742,
                        -0.443042173817925,
                        0.49472096992219946,
                        -0.8737329372580477,
                        -0.17535747115017037,
                        -0.09581950675741873,
                        -1.6320319175720218,
                        -0.3123668171413602,
                        -0.07388975707928358,
                        -0.6565753549225376,
                        -0.2650445717015395,
                        -0.6138581672627439,
                        -0.39300417606212809,
                        0.8977189252401914,
                        0.6980027565429272,
                        -0.404967694032882,
                        -0.7065989074455519,
                        -0.514806559344585,
                        0.9618965068217399,
                        -0.18089901946529084,
                        -0.041307502995804389,
                        -0.39498702043655689,
                        0.2642014857998133,
                        -0.8212991152601095,
                        -0.8054804066536512,
                        -0.5630191726266927,
                        -0.7847835022972526,
                        0.17895971914731494,
                        0.2561918664201819,
                        -0.2575093156774685,
                        0.4321446993399557,
                        0.19200816643979813,
                        -0.3419230078007152,
                        -0.811615727745716,
                        0.39412158338823657,
                        0.7991717679002691,
                        0.3733435006116582,
                        -2.2348436968063769,
                        1.7580824034647283,
                        -0.24791403114795686,
                        -0.6081613886161968,
                        -0.8486194580744458,
                        0.2391099396634715,
                        -0.9491745611174879,
                        0.33274915473410118,
                        0.6337323872859616,
                        -0.10557595305033249,
                        -0.3518220917940574,
                        -0.6212112660730984,
                        1.2140314549886938,
                        1.841203355825534,
                        -1.22064720279662,
                        0.5758730339983039,
                        0.1822150027302582,
                        -1.0682830018205368,
                        -1.1201680069043636,
                        0.7808929475879917,
                        -1.3752478162554272,
                        1.1083212295361005,
                        -0.5330221748922674,
                        0.3720853480021992,
                        0.5275025743439776,
                        -0.3934428206422505,
                        -1.620525624748807,
                        1.527957284776182,
                        2.6196811503360437,
                        -0.09282577740044712,
                        0.5058304138347971,
                        1.757412869469583,
                        -0.4060333942859784,
                        0.11595708290011532,
                        -1.504460334777832,
                        -1.1412861757512436,
                        -0.4629704441281683,
                        0.95050657255427,
                        0.01790405801916656,
                        0.42459789991018057,
                        -0.8436777455010656,
                        0.82890580808923,
                        1.4860211540884716,
                        -0.5264258809044133,
                        -0.18540305036962188,
                        -0.7330881171176922,
                        -1.0180923390693193,
                        -0.6469249999219923,
                        1.0022501760167935,
                        -0.21159827400493104,
                        0.4869619583772083,
                        0.7579207645824835,
                        0.3831380839857072,
                        0.08107318315649326,
                        0.5413123553676895,
                        -0.4118672501590932,
                        0.04493193613577123,
                        0.9458460586600894,
                        0.47247133359409218,
                        -0.10554248927519404,
                        0.13344534984359483,
                        0.7713276774016226,
                        1.0419746661817309,
                        -0.16879615633017923,
                        -0.3926218747687898,
                        -0.08327815595021079,
                        -0.579109813736919,
                        0.7530995285725205,
                        -0.5153849493914462,
                        -1.112394788751832,
                        0.5368047701660413,
                        -1.059968636401861,
                        -0.05799925914934026,
                        0.03620027988184574,
                        -0.6959405333059268,
                        0.6132020097840003,
                        -0.2178846320473493,
                        1.8478761672987652,
                        -0.5644450892130156,
                        0.6221524823866934,
                        -0.03591978474285465,
                        0.7220122510992173,
                        1.0459039701703204,
                        1.133555103951133,
                        -1.4765374877305369,
                        0.9292265237097676,
                        1.047221765634984,
                        0.053076930171572337,
                        -0.5997886614776948,
                        2.090763262311921,
                        0.37918644639840967,
                        -0.6808149998619746
                    ]
                },
                {
                    "row": 12,
                    "column": 4,
                    "elements": [
                        -1.634431333557012,
                        -0.5507159472370273,
                        -1.1993071737361499,
                        0.5785083438923274,
                        0.9473833654027603,
                        -0.7558641722219479,
                        0.5454731744791905,
                        0.9457310503306672,
                        0.7579534822260584,
                        1.7492518523895564,
                        -0.02141674641238453,
                        0.8734100078157037,
                        0.11095263939948855,
                        0.7779414507958086,
                        -0.5962498868600185,
                        0.42027659735617059,
                        0.036661933375391936,
                        -0.23613507064173273,
                        0.8092419975712233,
                        1.0995587698114445,
                        0.13828454327655377,
                        0.2492336705127806,
                        -1.3724113262117837,
                        0.008398813370225633,
                        -0.3545748896874548,
                        0.1359429137929879,
                        0.14899163278109946,
                        0.38521635389497296,
                        0.00041893723556562373,
                        1.1072462509353183,
                        -0.21581470084221333,
                        0.005598454199526252,
                        -0.29199265861806758,
                        -0.11350446912056755,
                        0.0762428701398539,
                        0.2321857511997223,
                        -1.207280947897845,
                        -0.9988272411258885,
                        0.2620642432959073,
                        -1.0343330679742196,
                        -0.8727277863825719,
                        -0.5116895965348371,
                        -0.0657157790408034,
                        -0.38380376230899818,
                        -0.05633589431171611,
                        0.43782639464387787,
                        -1.7808467370913977,
                        -0.841815485877598
                    ]
                }
            ],
            "biases": [
                {
                    "row": 1,
                    "column": 12,
                    "elements": [
                        0.4923123483948423,
                        -0.41953854280602029,
                        -0.640678769265111,
                        0.06163768236621357,
                        1.1291961602415577,
                        1.4411695003509522,
                        -0.5235430340198619,
                        -0.682970207245518,
                        -1.0889849180327842,
                        -1.4966222091784165,
                        0.15667672713684126,
                        -0.4482131803731883
                    ]
                },
                {
                    "row": 1,
                    "column": 4,
                    "elements": [
                        0.6915642054481093,
                        -0.3823124396351379,
                        -0.47220716451349956,
                        0.5486528290951223
                    ]
                }
            ]
        },
        {
            "inputSize": 15,
            "hiddenSize": 12,
            "hiddenLayers": 1,
            "outputSize": 4,
            "weights": [
                {
                    "row": 15,
                    "column": 12,
                    "elements": [
                        -0.8818157480092144,
                        -0.20833404674058593,
                        1.053013022499983,
                        0.8027478146433442,
                        0.43650539503162996,
                        -0.7560635039401867,
                        -0.34828935500816507,
                        0.07634972693527144,
                        -0.01860189576806958,
                        -0.8940236909479071,
                        2.8653593986693508,
                        1.312540307644417,
                        -0.15825997403927484,
                        -1.1907476399906552,
                        0.6681120037882494,
                        0.9323144956401096,
                        -0.4647972881864064,
                        0.8644619029427034,
                        0.984956853416422,
                        0.29397628519898036,
                        0.054536614238848677,
                        -1.6912641390001129,
                        1.001418648804045,
                        0.8966083282083934,
                        1.0787760813101915,
                        0.43159253864823507,
                        0.2583947542713038,
                        0.7368711490691338,
                        -1.153824692861621,
                        1.0196691570866364,
                        -1.7498664235882889,
                        0.7637268755077822,
                        0.15077294204495635,
                        0.6863965936041443,
                        0.44625574091704309,
                        0.06086367725705166,
                        -1.0008667694880449,
                        -0.5602754613302865,
                        0.02862433854225105,
                        1.5182756185531617,
                        -1.808556082590956,
                        0.44185268767783955,
                        0.959389652349404,
                        0.3582562628855832,
                        1.4033686771692274,
                        0.9391589870243048,
                        -0.5720204725944214,
                        -0.498522805187785,
                        0.6492201611671412,
                        0.3348549267645198,
                        -0.4147868648025891,
                        0.7867060276745752,
                        -0.443042173817925,
                        0.5009915858365752,
                        -0.8737329372580477,
                        -0.17535747115017037,
                        -0.09581950675741873,
                        -1.6320319175720218,
                        -0.3123668171413602,
                        -0.07388975707928358,
                        -0.5763131320423133,
                        -0.2650445717015395,
                        -0.6117418137982378,
                        -0.41314822811736659,
                        0.9147764831570362,
                        0.673005689352155,
                        -0.3868496133450182,
                        -0.7063124413079296,
                        -0.5176799341373685,
                        0.9840257964310241,
                        -0.24074170686700228,
                        -0.019770292535883868,
                        -0.4597698625783302,
                        0.2703647048755403,
                        -0.8217517141421454,
                        -0.8054804066536512,
                        -0.5630191726266927,
                        -0.8024466791542656,
                        0.17928971980870296,
                        0.27709710628003317,
                        -0.2768280384772154,
                        0.4128849006476354,
                        0.18962390932551269,
                        -0.3419230078007152,
                        -0.8419097257868541,
                        0.39412158338823657,
                        0.791494829895707,
                        0.3733435006116582,
                        -2.2348436968063769,
                        1.7714585747546452,
                        -0.08106563897430885,
                        -0.6032271448686253,
                        -0.8369213220062687,
                        0.2391099396634715,
                        -0.9406691549278988,
                        0.366378604780459,
                        0.6337323872859616,
                        -0.13896018422914745,
                        -0.3518220917940574,
                        -0.6464800228515899,
                        1.2423195612747403,
                        1.8150790030006455,
                        -1.2072815100030204,
                        0.5758730339983039,
                        0.17523911308420243,
                        -1.0682830018205368,
                        -1.0974140534792383,
                        0.7808929475879917,
                        -1.3699942468890965,
                        1.1083212295361005,
                        -0.5832885367934383,
                        0.3720853480021992,
                        0.5225733242734336,
                        -0.3934428206422505,
                        -1.6232528650118688,
                        1.5416007497368585,
                        2.6196811503360437,
                        -0.09282577740044712,
                        0.4851656603828109,
                        0.22745062410831452,
                        -0.4060333942859784,
                        0.08803898078289209,
                        -1.504460334777832,
                        -1.0972805347975905,
                        -0.4629704441281683,
                        0.95050657255427,
                        0.01790405801916656,
                        0.42459789991018057,
                        -0.8436777455010656,
