{
    "generation": 300,
    "totalPopulation": 100,
    "brainDataList": [
        {
            "inputSize": 15,
            "hiddenSize": 12,
            "hiddenLayers": 1,
            "outputSize": 4,
            "weights": [
                {
                    "row": 15,
                    "column": 12,
                    "elements": [
                        -0.8668023361076229,
                        -0.29524202255787937,
                        1.1052590033234853,
                        0.7782867889983793,
                        0.44213925684978269,
                        -0.8195846469104847,
                        -0.4226551465145048,
                        0.12493971174137725,
                        0.0016694030739589639,
                        -0.9663297260946346,
                        2.79523998471502,
                        1.2862479148569098,
                        -0.17558474434104666,
                        -1.1612886408290615,
                        0.7254015249469702,
                        0.900514390183104,
                        0.15348608159532538,
                        0.8417180119734842,
                        1.0011246850719878,
                        0.27544339672390996,
                        -0.26498959119681389,
                        -0.8043140711711938,
                        1.0462534064412457,
                        0.8788805244206808,
                        1.0646438340588949,
                        0.4234395627198907,
                        0.36122698561784619,
                        0.690273745779698,
                        -1.16628504118922,
                        1.0253762665295754,
                        -0.0016398235366191228,
                        0.9723137329969314,
                        0.18150586152785237,
                        0.7697897856705486,
                        0.46634198183255967,
                        0.04286090413611431,
                        -1.0288728310716664,
                        1.0041684063062784,
                        0.04735207221255128,
                        -0.3923846202522534,
                        -1.7899092753371513,
                        0.463530135942853,
                        0.926682015084995,
                        1.075442827341485,
                        1.4063943122844563,
                        0.9433145214372656,
                        0.4334112132514575,
                        -0.5143719057809101,
                        0.6882222837704506,
                        0.30552460512467619,
                        -0.4880274069184441,
                        0.67901074324868,
                        -0.4653636252213912,
                        0.47405238091140769,
                        -0.9426091773876023,
                        -0.2007378167618839,
                        -0.1271994356879711,
                        -0.8126862858498793,
                        -0.31911716758499866,
                        -0.12041998682962854,
                        -0.5762277187372709,
                        -0.29774644415384607,
                        -0.23244627253863058,
                        -0.29978258405056298,
                        0.9508318389132737,
                        0.7390701564977067,
                        -0.4004652202129364,
                        -0.6819067132748726,
                        -0.5150769820356078,
                        0.9550260203880211,
                        -0.1543740218105473,
                        -0.051690493898846837,
                        -0.36475341680038755,
                        -0.4624550415906936,
                        -0.7351999920004562,
                        -0.7785256380620111,
                        -0.28503174268667716,
                        -0.8030792301545503,
                        0.22445431508859182,
                        0.5539159774780273,
                        -0.29141184156654045,
                        1.0401856649156476,
                        -0.14514867741043203,
                        -0.3860973586219565,
                        -0.8125502597115409,
                        0.37632890709869329,
                        0.8494521336143937,
                        0.7115726718130154,
                        -2.20243947306786,
                        1.7458617564028285,
                        1.2338820107070557,
                        -0.6215990009686214,
                        0.20262847563791898,
                        0.534337858188705,
                        1.5819196851087072,
                        1.3387747441938769,
                        0.6987685009198599,
                        -0.12463694715997065,
                        -0.31515615679922429,
                        -0.6803764933559229,
                        0.2485357558150747,
                        -2.0471093446909425,
                        -1.2237428164454605,
                        0.6528131479687896,
                        0.1212428958481951,
                        -1.0136825004903512,
                        -1.137798477724944,
                        0.7609832860247218,
                        -1.376743509547992,
                        1.1213679951679825,
                        -0.5781402581356804,
                        0.4504892642478105,
                        0.43606071976516638,
                        0.49321072651563727,
                        -1.598402924973022,
                        1.5469100345436473,
                        2.588914632609708,
                        -0.15576623405292917,
                        0.41537926572978259,
                        -1.0505824310137478,
                        0.8912309009421788,
                        0.7292929612771244,
                        -1.3757206127272497,
                        -0.5640604022122338,
                        -0.4228373776557512,
                        0.9456337421530469,
                        0.0340919666048064,
                        0.38624255265729037,
                        -0.8541052750798512,
                        -0.9485918423019307,
                        0.12860914029506249,
                        -0.5506588281891502,
                        -0.15141679023831329,
                        -0.7699110094671389,
                        -0.9376094673241546,
                        -0.7520933175118642,
                        -0.4571551985992522,
                        -0.30267501974428487,
                        0.4350788437684537,
                        0.7074863575219141,
                        0.3145348786461683,
                        -0.5807069366865317,
                        0.5515740040316801,
                        -0.41048118500500416,
                        0.041845806777795428,
                        -0.324369451061941,
                        0.4813865801199032,
                        -0.06934949067652156,
                        0.14005658006920489,
                        0.7628473851815134,
                        1.0403996748715292,
                        -0.005204141161842146,
                        -0.36605101223498645,
                        -0.1525213122367859,
                        -0.625232102154982,
                        -0.24950520090791196,
                        -0.580751663123181,
                        -1.1197144708287104,
                        0.5695896015531849,
                        -1.0592904687013503,
                        -0.07306589904060768,
                        0.043773133873841758,
                        -0.40615891685802615,
                        0.6134218519745973,
                        -0.2554442845048923,
                        -0.40527196652934069,
                        -0.5937793195763645,
                        0.6017773207770847,
                        -0.053711198010003378,
                        0.6528920312081509,
                        1.1051373485456407,
                        1.074191808053961,
                        -1.4765374877305369,
                        0.8439430149310355,
                        1.0383843013807269,
                        -0.006638201505031527,
                        -0.564816507835789,
                        2.113952976344562,
                        0.3309845121845166,
                        -0.7061577751768098
                    ]
                },
                {
                    "row": 12,
                    "column": 4,
                    "elements": [
                        -1.6358657693693713,
                        -0.6474022039880075,
                        -0.20362675015367905,
                        0.5635108136479814,
                        0.9972008626155539,
                        -0.7662666392402586,
                        0.5454731744791905,
                        0.9458151000304793,
                        0.7555679994912922,
                        1.8177285780168136,
                        0.05534530226209347,
                        0.845570448823308,
                        0.13158326621287134,
                        0.7956253253652572,
                        -0.6642201017547256,
                        0.41320889569758709,
                        0.053068544212822938,
                        -0.2338834247694001,
                        0.9010714975051775,
                        -0.20907908338027998,
                        0.10668008231304666,
                        0.2228704574437115,
                        -0.5664569334409574,
                        -0.029210035400284413,
                        -0.31679554799973105,
                        0.18592646119776408,
                        0.23643363669934476,
                        0.36863679213796488,
                        -0.005714202356847834,
                        1.0860614189551084,
                        -0.3011450157907294,
                        0.03657107315998236,
                        -0.23344381785424923,
                        -0.15678770716010793,
                        0.017733303620658344,
                        0.3462954856039531,
                        -1.1782819668317739,
                        -0.9710460961741829,
                        0.2657358434364282,
                        -0.9782756020645924,
                        -0.8466081137142864,
                        -0.4196277690256238,
                        -0.069601412824912,
                        -0.39475038872753,
                        -0.0886466059270093,
                        0.4583548093285218,
                        -1.8040955330347593,
                        -0.8445231063782008
                    ]
                }
            ],
            "biases": [
                {
                    "row": 1,
                    "column": 12,
                    "elements": [
                        0.46830237612076178,
                        -0.3822026090015664,
                        -0.5946364344785097,
                        0.0562376864446613,
                        1.0905457586787415,
                        -1.4220585992916335,
                        -0.5174975591488853,
                        -0.6803621118963276,
                        -1.095662473656005,
                        -1.4960276594165818,
                        0.11996013922194049,
                        -0.4507101327318897
                    ]
                },
                {
                    "row": 1,
                    "column": 4,
                    "elements": [
                        0.6519412954169451,
                        -0.321539664240805,
                        -0.42764854431152346,
                        0.5225293608031423
                    ]
                }
            ]
        },
        {
            "inputSize": 15,
            "hiddenSize": 12,
            "hiddenLayers": 1,
            "outputSize": 4,
            "weights": [
                {
                    "row": 15,
                    "column": 12,
                    "elements": [
                        -0.8668023361076229,
                        -0.29524202255787937,
                        1.1052590033234853,
                        0.7782867889983793,
                        0.44213925684978269,
                        -0.8022384713891596,
                        -0.4226551465145048,
                        0.13364624426352218,
                        0.0016694030739589639,
                        -0.9663297260946346,
                        2.79523998471502,
                        1.2862479148569098,
                        -0.17558474434104666,
                        -1.1612886408290615,
                        0.7254015249469702,
                        0.900514390183104,
                        0.15348608159532538,
                        0.8417180119734842,
                        1.0011246850719878,
                        0.27544339672390996,
                        -0.26498959119681389,
                        -0.8043140711711938,
                        1.0462534064412457,
                        0.8788805244206808,
                        1.0646438340588949,
                        0.4234395627198907,
                        0.3497437266734672,
                        0.690273745779698,
                        -1.16628504118922,
                        1.0326825506747009,
                        -0.0016398235366191228,
                        0.9723137329969314,
                        0.18150586152785237,
                        0.7697897856705486,
                        0.4614745000540158,
                        0.04286090413611431,
                        -1.0288728310716664,
                        1.0041684063062784,
                        0.04735207221255128,
                        -0.3923846202522534,
                        -1.7899092753371513,
                        0.463530135942853,
                        0.926682015084995,
                        1.075442827341485,
                        1.4063943122844563,
                        0.9433145214372656,
                        0.4334112132514575,
                        -0.5143719057809101,
                        0.7025077989979431,
                        0.30552460512467619,
                        -0.4880274069184441,
                        0.67901074324868,
                        -0.4456600312156186,
                        0.47405238091140769,
                        -0.9426091773876023,
                        -0.2007378167618839,
                        -0.1271994356879711,
                        -0.8126862858498793,
                        -0.31911716758499866,
                        -0.12041998682962854,
                        -0.5762277187372709,
                        -0.29774644415384607,
                        -0.23244627253863058,
                        -0.29978258405056298,
                        0.9508318389132737,
                        0.7390701564977067,
                        -0.4004652202129364,
                        -0.6819067132748726,
                        -0.5150769820356078,
                        0.9550260203880211,
                        -0.1543740218105473,
                        -0.051690493898846837,
                        -0.36475341680038755,
                        -0.4624550415906936,
                        -0.7351999920004562,
                        -0.7785256380620111,
                        -0.28503174268667716,
                        -0.8030792301545503,
                        0.22445431508859182,
                        0.5539159774780273,
                        -0.29141184156654045,
                        1.0401856649156476,
                        -0.14514867741043203,
                        -0.35354531257373358,
                        -0.8125502597115409,
                        0.37632890709869329,
                        0.844460225354523,
                        0.7115726718130154,
                        -2.20243947306786,
                        1.7458617564028285,
                        1.2338820107070557,
                        -0.6215990009686214,
                        0.20262847563791898,
                        0.534337858188705,
                        1.5669732247189097,
                        1.3387747441938769,
                        0.6772795749894998,
                        -0.12463694715997065,
                        -0.31515615679922429,
                        -0.6803764933559229,
                        0.2485357558150747,
                        -2.0471093446909425,
                        -1.2237428164454605,
                        0.6528131479687896,
                        0.1212428958481951,
                        -1.0136825004903512,
                        -1.137798477724944,
                        0.7609832860247218,
                        -1.376743509547992,
                        1.1213679951679825,
                        -0.5781402581356804,
                        0.4504892642478105,
                        0.43606071976516638,
                        0.49321072651563727,
                        -1.598402924973022,
                        1.5469100345436473,
                        2.5835889976531765,
                        -0.15726764730510224,
                        0.4197259754800763,
                        -1.0505824310137478,
                        0.925257007969722,
                        0.7292929612771244,
                        -1.3757206127272497,
                        -0.5640604022122338,
                        -0.4300147619910593,
                        0.9456337421530469,
                        0.0340919666048064,
                        0.38624255265729037,
                        -0.8541052750798512,
                        -0.9485918423019307,
                        0.12860914029506249,
                        -0.5506588281891502,
                        -0.15141679023831329,
                        -0.7699110094671389,
                        -0.9376094673241546,
                        -0.7569317196749882,
                        -0.4571551985992522,
                        -0.30267501974428487,
                        0.4350788437684537,
                        0.7074863575219141,
                        0.3145348786461683,
                        -0.5807069366865317,
                        0.5515740040316801,
                        -0.41048118500500416,
                        0.05376146999221826,
                        -0.324369451061941,
                        0.5007259265733163,
                        -0.08751963840461867,
                        0.14005658006920489,
                        0.7434176149077185,
                        1.0403996748715292,
                        -0.005204141161842146,
                        -0.3945127492315685,
                        -0.1525213122367859,
                        -0.625232102154982,
                        -0.24950520090791196,
                        -0.580751663123181,
                        -1.1197144708287104,
                        0.5695896015531849,
                        -1.0592904687013503,
                        -0.07306589904060768,
                        0.043773133873841758,
                        -0.40615891685802615,
                        0.6134218519745973,
                        -0.2644950684136145,
                        -0.40527196652934069,
                        -0.5937793195763645,
                        0.6017773207770847,
                        -0.053711198010003378,
                        0.6528920312081509,
                        1.1051373485456407,
                        1.074191808053961,
                        -1.4765374877305369,
                        0.8439430149310355,
                        1.0383843013807269,
                        -0.006638201505031527,
                        -0.564816507835789,
                        2.113952976344562,
                        0.3309845121845166,
                        -0.7061577751768098
                    ]
                },
                {
                    "row": 12,
                    "column": 4,
                    "elements": [
                        -1.6358657693693713,
                        -0.6474022039880075,
                        -0.20362675015367905,
                        0.5635108136479814,
                        0.9972008626155539,
                        -0.7662666392402586,
                        0.5454731744791905,
                        0.9458151000304793,
                        0.7555679994912922,
                        1.8177285780168136,
                        0.05534530226209347,
                        0.845570448823308,
                        0.13158326621287134,
                        0.7956253253652572,
                        -0.6642201017547256,
                        0.41320889569758709,
                        0.053068544212822938,
                        -0.2338834247694001,
                        0.9010714975051775,
                        -0.20907908338027998,
                        0.10668008231304666,
                        0.2228704574437115,
                        -0.5664569334409574,
                        -0.029210035400284413,
                        -0.31679554799973105,
                        0.18592646119776408,
                        0.23643363669934476,
                        0.36863679213796488,
                        -0.005714202356847834,
                        1.0860614189551084,
                        -0.3011450157907294,
                        0.01549753437396311,
                        -0.23344381785424923,
                        -0.15678770716010793,
                        0.017733303620658344,
                        0.3462954856039531,
                        -1.1782819668317739,
                        -0.9710460961741829,
                        0.2657358434364282,
                        -0.9699625376752086,
                        -0.8466081137142864,
                        -0.4196277690256238,
                        -0.069601412824912,
                        -0.39475038872753,
                        -0.0886466059270093,
                        0.4583548093285218,
                        -1.8040955330347593,
                        -0.8445231063782008
                    ]
                }
            ],
            "biases": [
                {
                    "row": 1,
                    "column": 12,
                    "elements": [
                        0.46830237612076178,
                        -0.3822026090015664,
                        -0.5946364344785097,
                        0.0562376864446613,
                        1.0905457586787415,
                        -1.4220585992916335,
                        -0.5174975591488853,
                        -0.6803621118963276,
                        -1.095662473656005,
                        -1.4960276594165818,
                        0.11996013922194049,
                        -0.4507101327318897
                    ]
                },
                {
                    "row": 1,
                    "column": 4,
                    "elements": [
                        0.6519412954169451,
                        -0.321539664240805,
                        -0.42764854431152346,
                        0.5225293608031423
                    ]
                }
            ]
        },
        {
            "inputSize": 15,
            "hiddenSize": 12,
            "hiddenLayers": 1,
            "outputSize": 4,
            "weights": [
                {
                    "row": 15,
                    "column": 12,
                    "elements": [
                        -0.8668023361076229,
                        -0.29524202255787937,
                        1.073016279148689,
                        0.7782867889983793,
                        0.44213925684978269,
                        -0.8022384713891596,
                        -0.4226551465145048,
                        0.13364624426352218,
                        0.0016694030739589639,
                        -0.9663297260946346,
                        2.79523998471502,
                        1.2862479148569098,
                        -0.17558474434104666,
                        -1.1612886408290615,
                        0.7254015249469702,
                        0.900514390183104,
                        0.15348608159532538,
                        0.8417180119734842,
                        1.0011246850719878,
                        0.27544339672390996,
                        -0.264425463980269,
                        -0.8043140711711938,
                        1.0462534064412457,
                        0.8788805244206808,
                        1.0646438340588949,
                        0.4234395627198907,
                        0.3497437266734672,
                        0.690273745779698,
                        -1.16628504118922,
                        1.0326825506747009,
                        -0.0016398235366191228,
                        0.9723137329969314,
                        0.18150586152785237,
                        0.7697897856705486,
                        0.4614745000540158,
                        0.04286090413611431,
                        -1.0288728310716664,
                        1.0041684063062784,
                        0.04735207221255128,
                        -0.3923846202522534,
                        -1.7899092753371513,
                        0.463530135942853,
                        0.926682015084995,
                        1.075442827341485,
                        1.4063943122844563,
                        0.9433145214372656,
                        0.4334112132514575,
                        -0.5143719057809101,
                        0.7025077989979431,
                        0.30552460512467619,
                        -0.4880274069184441,
                        0.66135440304427,
                        -0.4456600312156186,
                        0.47405238091140769,
                        -0.9426091773876023,
                        -0.2007378167618839,
                        -0.1271994356879711,
                        -0.8126862858498793,
                        -0.31911716758499866,
                        -0.12041998682962854,
                        -0.5762277187372709,
                        -0.29774644415384607,
                        -0.23244627253863058,
                        -0.29978258405056298,
                        0.9508318389132737,
                        0.7390701564977067,
                        -0.4004652202129364,
                        -0.6819067132748726,
                        -0.5150769820356078,
                        0.9550260203880211,
                        -0.1543740218105473,
                        -0.051690493898846837,
                        -0.36475341680038755,
                        -0.4624550415906936,
                        -0.7304786906099565,
                        -0.7785256380620111,
                        -0.28503174268667716,
                        -0.8030792301545503,
                        0.22445431508859182,
                        0.5539159774780273,
                        -0.29141184156654045,
                        1.0401856649156476,
                        -0.14514867741043203,
                        -0.33689340359458389,
                        -0.8125502597115409,
                        0.37632890709869329,
                        0.844460225354523,
                        0.6999471330084591,
                        -2.209095986729233,
                        1.7458617564028285,
                        1.2338820107070557,
                        -0.6215990009686214,
                        0.20262847563791898,
                        0.534337858188705,
                        1.590627944973419,
                        1.3387747441938769,
                        0.6772795749894998,
                        -0.12463694715997065,
                        -0.31515615679922429,
                        -0.6803764933559229,
                        0.2485357558150747,
                        -2.051382208460335,
                        -1.2237428164454605,
                        0.6528131479687896,
                        0.1212428958481951,
                        -1.0136825004903512,
                        -1.137798477724944,
                        0.7609832860247218,
                        -1.376743509547992,
                        1.1213679951679825,
                        -0.5781402581356804,
                        0.4504892642478105,
                        0.43606071976516638,
                        0.49321072651563727,
                        -1.620729024346584,
                        1.5469100345436473,
                        2.5835889976531765,
                        -0.15726764730510224,
                        0.4197259754800763,
                        -1.0505824310137478,
                        0.925257007969722,
                        0.7292929612771244,
                        -1.3757206127272497,
                        -0.5640604022122338,
                        -0.4300147619910593,
                        0.9456337421530469,
                        0.04461492917820886,
                        0.36135003230914056,
                        -0.8541052750798512,
                        -0.9485918423019307,
                        0.12860914029506249,
                        -0.5506588281891502,
                        -0.15141679023831329,
                        -0.7699110094671389,
                        -0.9376094673241546,
                        -0.7569317196749882,
                        -0.4571551985992522,
                        -0.30267501974428487,
                        0.4350788437684537,
                        0.7074863575219141,
                        0.3145348786461683,
                        -0.5807069366865317,
                        0.5515740040316801,
                        -0.41048118500500416,
                        0.05376146999221826,
                        -0.324369451061941,
                        0.5007259265733163,
                        -0.08751963840461867,
                        0.14005658006920489,
                        0.7434176149077185,
                        1.0556036034791437,
                        -0.005204141161842146,
                        -0.3945127492315685,
                        -0.1525213122367859,
                        -0.625232102154982,
                        -0.24950520090791196,
                        -0.580751663123181,
                        -1.1197144708287104,
                        0.5695896015531849,
                        -1.0443725923143624,
                        -0.07306589904060768,
                        0.043773133873841758,
                        -0.40615891685802615,
                        0.6192519013590561,
                        -0.2644950684136145,
                        -0.40527196652934069,
                        -0.5937793195763645,
                        0.6017773207770847,
                        -0.053711198010003378,
                        0.6528920312081509,
                        1.1051373485456407,
                        1.074191808053961,
                        -1.4765374877305369,
                        0.8439430149310355,
                        1.076405066312299,
                        -0.006638201505031527,
                        -0.564816507835789,
                        2.113952976344562,
                        0.3309845121845166,
                        -0.7061577751768098
                    ]
                },
                {
                    "row": 12,
                    "column": 4,
                    "elements": [
                        -1.6358657693693713,
                        -0.6474022039880075,
                        -0.20362675015367905,
                        0.5635108136479814,
                        0.9972008626155539,
                        -0.7662666392402586,
                        0.5454731744791905,
                        0.9458151000304793,
                        0.7555679994912922,
                        1.8177285780168136,
                        0.05534530226209347,
                        0.845570448823308,
                        0.13158326621287134,
                        0.7956253253652572,
                        -0.6642201017547256,
                        0.41320889569758709,
                        0.028902952559362498,
                        -0.2338834247694001,
                        0.9010714975051775,
                        -0.20907908338027998,
                        0.10668008231304666,
                        0.2228704574437115,
                        -0.5664569334409574,
                        -0.029210035400284413,
                        -0.3503389766246718,
                        0.18592646119776408,
                        0.23643363669934476,
                        0.36863679213796488,
                        -0.005714202356847834,
                        1.0860614189551084,
                        -0.3011450157907294,
                        0.01549753437396311,
                        -0.23344381785424923,
                        -0.15678770716010793,
                        0.017733303620658344,
                        0.3462954856039531,
                        -1.1782819668317739,
                        -0.9710460961741829,
                        0.2657358434364282,
                        -0.9699625376752086,
                        -0.8466081137142864,
                        -0.4196277690256238,
                        -0.069601412824912,
                        -0.39475038872753,
                        -0.0886466059270093,
                        0.4583548093285218,
                        -1.8040955330347593,
                        -0.8445231063782008
                    ]
                }
            ],
            "biases": [
                {
                    "row": 1,
                    "column": 12,
                    "elements": [
                        0.46830237612076178,
                        -0.3822026090015664,
                        -0.5946364344785097,
                        0.0562376864446613,
                        1.0905457586787415,
                        -1.4220585992916335,
                        -0.510577648395812,
                        -0.6803621118963276,
                        -1.095662473656005,
                        -1.4960276594165818,
                        0.11996013922194049,
                        -0.4507101327318897
                    ]
                },
                {
                    "row": 1,
                    "column": 4,
                    "elements": [
                        0.6519412954169451,
                        -0.321539664240805,
                        -0.42764854431152346,
                        0.5225293608031423
                    ]
                }
            ]
        },
        {
            "inputSize": 15,
            "hiddenSize": 12,
            "hiddenLayers": 1,
            "outputSize": 4,
            "weights": [
                {
                    "row": 15,
                    "column": 12,
                    "elements": [
                        -0.8668023361076229,
                        -0.2802193838574829,
                        1.1052590033234853,
                        0.7782867889983793,
                        0.44213925684978269,
                        -0.8195846469104847,
                        -0.4226551465145048,
                        0.12493971174137725,
                        0.0016694030739589639,
                        -0.9663297260946346,
                        2.79523998471502,
                        1.2862479148569098,
                        -0.17558474434104666,
                        -1.1612886408290615,
                        0.7254015249469702,
                        0.900514390183104,
                        0.15348608159532538,
                        0.8417180119734842,
                        1.0011246850719878,
                        0.27544339672390996,
                        -0.26498959119681389,
                        -0.8043140711711938,
                        1.0462534064412457,
                        0.8788805244206808,
                        1.0646438340588949,
                        0.4234395627198907,
                        0.36122698561784619,
                        0.690273745779698,
                        -1.16628504118922,
                        1.0253762665295754,
                        -0.0016398235366191228,
                        0.9723137329969314,
                        0.18150586152785237,
                        0.7697897856705486,
                        0.46634198183255967,
                        0.04286090413611431,
                        -1.0288728310716664,
                        1.0041684063062784,
                        0.04735207221255128,
                        -0.3923846202522534,
                        -1.7899092753371513,
                        0.43474653625586387,
                        0.926682015084995,
                        1.075442827341485,
                        1.4063943122844563,
                        0.9433145214372656,
                        0.4334112132514575,
                        -0.5143719057809101,
                        0.6882222837704506,
                        0.30552460512467619,
                        -0.4880274069184441,
                        0.67901074324868,
                        -0.4653636252213912,
                        0.47405238091140769,
                        -0.9426091773876023,
                        -0.2007378167618839,
                        -0.1271994356879711,
                        -0.8126862858498793,
                        -0.31911716758499866,
                        -0.12653668030882318,
                        -0.5762277187372709,
                        -0.29774644415384607,
                        -0.23244627253863058,
                        -0.29978258405056298,
                        0.9508318389132737,
                        0.7390701564977067,
                        -0.4004652202129364,
                        -0.6819067132748726,
                        -0.5196766607472081,
                        0.9550260203880211,
                        -0.1543740218105473,
                        -0.051690493898846837,
                        -0.36475341680038755,
                        -0.4624550415906936,
                        -0.7351999920004562,
                        -0.7785256380620111,
                        -0.28503174268667716,
                        -0.8030792301545503,
                        0.22445431508859182,
                        0.5539159774780273,
                        -0.29141184156654045,
                        1.0401856649156476,
                        -0.14514867741043203,
                        -0.3860973586219565,
                        -0.8125502597115409,
                        0.37632890709869329,
                        0.8494521336143937,
                        0.7115726718130154,
                        -2.20243947306786,
                        1.7458617564028285,
                        1.2338820107070557,
                        -0.6215990009686214,
                        0.20262847563791898,
                        0.534337858188705,
                        1.5819196851087072,
                        1.3387747441938769,
                        0.6987685009198599,
                        -0.12463694715997065,
                        -0.31515615679922429,
                        -0.6803764933559229,
                        0.2485357558150747,
                        -2.0471093446909425,
                        -1.2237428164454605,
                        0.6528131479687896,
                        0.1212428958481951,
                        -1.0136825004903512,
                        -1.109481203310582,
                        0.7609832860247218,
                        -1.376743509547992,
                        1.1213679951679825,
                        -0.5781402581356804,
                        0.4504892642478105,
                        0.43606071976516638,
                        0.49321072651563727,
                        -1.598402924973022,
                        1.5469100345436473,
                        2.588914632609708,
                        -0.15576623405292917,
                        0.41537926572978259,
                        -1.0505824310137478,
                        0.8912309009421788,
                        0.7292929612771244,
                        -1.3978463022160699,
                        -0.5472095543909425,
                        -0.4228373776557512,
                        0.9456337421530469,
                        0.0340919666048064,
                        0.38624255265729037,
                        -0.8541052750798512,
                        -0.9485918423019307,
                        0.12860914029506249,
                        -0.5506588281891502,
                        -0.15141679023831329,
                        -0.7699110094671389,
                        -0.9376094673241546,
                        -0.7520933175118642,
                        -0.4571551985992522,
                        -0.30267501974428487,
                        0.4350788437684537,
                        0.7074863575219141,
                        0.3145348786461683,
                        -0.5807069366865317,
                        0.5515740040316801,
                        -0.41048118500500416,
                        0.041845806777795428,
                        -0.324369451061941,
                        0.4813865801199032,
                        -0.07465310052520839,
                        0.14005658006920489,
                        0.7628473851815134,
                        1.0403996748715292,
                        -0.005204141161842146,
                        -0.36605101223498645,
                        -0.15828855382426289,
                        -0.625232102154982,
                        -0.24950520090791196,
                        -0.5776377344575265,
                        -1.138852005496168,
                        0.5695896015531849,
                        -1.0592904687013503,
                        -0.07306589904060768,
                        0.043773133873841758,
                        -0.40615891685802615,
                        0.6134218519745973,
                        -0.2554442845048923,
                        -0.40527196652934069,
                        -0.5937793195763645,
                        0.6017773207770847,
                        -0.04247541754520026,
                        0.6528920312081509,
                        1.1051373485456407,
                        1.074191808053961,
                        -1.4765374877305369,
                        0.8570424990819038,
                        1.0383843013807269,
                        -0.006638201505031527,
                        -0.564816507835789,
                        2.113952976344562,
                        0.3309845121845166,
                        -0.7061577751768098
                    ]
                },
                {
                    "row": 12,
                    "column": 4,
                    "elements": [
                        -1.6358657693693713,
                        -0.6474022039880075,
                        -0.20362675015367905,
                        0.5635108136479814,
                        1.0028294381723855,
                        -0.7662666392402586,
                        0.5454731744791905,
                        0.9458151000304793,
                        0.7555679994912922,
                        1.8177285780168136,
                        0.05534530226209347,
                        0.845570448823308,
                        0.13158326621287134,
                        0.7956253253652572,
                        -0.6642201017547256,
                        0.41320889569758709,
                        0.053068544212822938,
                        -0.2338834247694001,
                        0.9010714975051775,
                        -0.22180727232574799,
                        0.10668008231304666,
                        0.2228704574437115,
                        -0.5664569334409574,
                        -0.029210035400284413,
                        -0.31679554799973105,
                        0.18592646119776408,
                        0.23150748934851524,
                        0.36863679213796488,
                        -0.005714202356847834,
                        1.0860614189551084,
                        -0.3011450157907294,
                        0.03657107315998236,
                        -0.23344381785424923,
                        -0.15678770716010793,
                        0.017733303620658344,
                        0.3462954856039531,
                        -1.1782819668317739,
                        -0.9710460961741829,
                        0.2657358434364282,
                        -0.9782756020645924,
                        -0.8466081137142864,
                        -0.4211358760282672,
                        -0.069601412824912,
                        -0.39475038872753,
                        -0.0886466059270093,
                        0.4583548093285218,
                        -1.8040955330347593,
                        -0.8445231063782008
                    ]
                }
            ],
            "biases": [
                {
                    "row": 1,
                    "column": 12,
                    "elements": [
                        0.46830237612076178,
                        -0.3822026090015664,
                        -0.5946364344785097,
                        0.0562376864446613,
                        1.0905457586787415,
                        -1.4220585992916335,
                        -0.5174975591488853,
                        -0.6803621118963276,
                        -1.095662473656005,
                        -1.4860892664035155,
                        0.11996013922194049,
                        -0.4507101327318897
                    ]
                },
                {
                    "row": 1,
                    "column": 4,
                    "elements": [
                        0.6519412954169451,
                        -0.321539664240805,
                        -0.42764854431152346,
                        0.5225293608031423
                    ]
                }
            ]
        },
        {
            "inputSize": 15,
            "hiddenSize": 12,
            "hiddenLayers": 1,
            "outputSize": 4,
            "weights": [
                {
                    "row": 15,
                    "column": 12,
                    "elements": [
                        -0.8668023361076229,
                        -0.29524202255787937,
                        1.1052590033234853,
                        0.7782867889983793,
                        0.44213925684978269,
                        -0.8226528856367079,
                        -0.4226551465145048,
                        0.12493971174137725,
                        0.0016694030739589639,
                        -0.9663297260946346,
                        2.8007534541686205,
                        1.2862479148569098,
                        -0.17558474434104666,
                        -1.1612886408290615,
                        0.7254015249469702,
                        0.900514390183104,
                        0.15348608159532538,
                        0.8418461430603522,
                        1.0011246850719878,
                        0.27544339672390996,
                        -0.25890431651727099,
                        -0.8043140711711938,
                        1.0462534064412457,
                        0.8788805244206808,
                        1.0646438340588949,
                        0.4234395627198907,
                        0.36122698561784619,
                        0.690273745779698,
                        -1.16628504118922,
                        1.0253762665295754,
                        -0.0016398235366191228,
                        0.9723137329969314,
                        0.18150586152785237,
                        0.7697897856705486,
                        0.46634198183255967,
                        0.023523791664737498,
                        -1.0288728310716664,
                        1.0041684063062784,
                        0.04735207221255128,
                        -0.39822507362722517,
                        -1.7656205404903374,
                        0.463530135942853,
                        0.926682015084995,
                        1.075442827341485,
                        1.4063943122844563,
                        0.9433145214372656,
                        0.4334112132514575,
                        -0.5143719057809101,
                        0.6882222837704506,
                        0.30552460512467619,
                        -0.4880274069184441,
                        0.6814053231421517,
                        -0.4653636252213912,
                        0.47405238091140769,
                        -0.9426091773876023,
                        -0.2007378167618839,
                        -0.1271994356879711,
                        -0.8126862858498793,
                        -0.31911716758499866,
                        -0.12041998682962854,
                        -0.5762277187372709,
                        -0.29774644415384607,
                        -0.2182296364371009,
                        -0.2828885192864969,
                        0.9508318389132737,
                        0.7390701564977067,
                        -0.4004652202129364,
                        -0.6819067132748726,
                        -0.5150769820356078,
                        0.9550260203880211,
                        -0.1543740218105473,
                        -0.051690493898846837,
                        -0.36475341680038755,
                        -0.46032674290860667,
                        -0.7351999920004562,
                        -0.7785256380620111,
                        -0.28503174268667716,
                        -0.8030792301545503,
                        0.22445431508859182,
                        0.5539159774780273,
                        -0.29141184156654045,
                        1.0401856649156476,
                        -0.14514867741043203,
                        -0.3860973586219565,
                        -0.8125502597115409,
                        0.36236406723711048,
                        0.8494521336143937,
                        0.7115726718130154,
                        -2.20243947306786,
                        1.7458617564028285,
                        1.2338820107070557,
                        -0.6215990009686214,
                        0.20262847563791898,
                        0.534337858188705,
                        1.5819196851087072,
                        1.3578290767395523,
                        0.6608059077361024,
                        -0.12463694715997065,
                        -0.31515615679922429,
                        -0.6803764933559229,
                        0.2485357558150747,
                        -2.0471093446909425,
                        -1.2237428164454605,
                        0.6528131479687896,
                        0.1212428958481951,
                        -1.0136825004903512,
                        -1.137798477724944,
                        0.7609832860247218,
                        -1.3455896263103147,
                        1.1015952275893085,
                        -0.584008275081966,
                        0.4504892642478105,
                        0.47007382105951026,
                        0.5232179999957708,
                        -1.598402924973022,
                        1.5469100345436473,
                        2.588914632609708,
                        -0.15576623405292917,
                        0.41537926572978259,
                        -1.0505824310137478,
                        0.8912309009421788,
                        0.7292929612771244,
                        -1.3757206127272497,
                        -0.5640604022122338,
                        -0.4228373776557512,
                        0.9456337421530469,
                        0.0340919666048064,
                        0.38624255265729037,
                        -0.8541052750798512,
                        -0.9485918423019307,
                        0.12860914029506249,
                        -0.5506588281891502,
                        -0.15141679023831329,
                        -0.7699110094671389,
                        -0.9376094673241546,
                        -0.7520933175118642,
                        -0.4571551985992522,
                        -0.2816131610841947,
                        0.41366570395013865,
                        0.7074863575219141,
                        0.3145348786461683,
                        -0.5807069366865317,
                        0.5515740040316801,
                        -0.41048118500500416,
                        0.041845806777795428,
                        -0.324369451061941,
                        0.4813865801199032,
                        -0.06934949067652156,
                        0.14005658006920489,
                        0.7628473851815134,
                        1.0403996748715292,
                        -0.005204141161842146,
                        -0.36605101223498645,
                        -0.1525213122367859,
                        -0.625232102154982,
                        -0.24950520090791196,
                        -0.580751663123181,
                        -1.1197144708287104,
                        0.5695896015531849,
                        -1.0592904687013503,
                        -0.09576897632627568,
                        0.043773133873841758,
                        -0.40615891685802615,
                        0.6040485282667185,
                        -0.2554442845048923,
                        -0.40527196652934069,
                        -0.5937793195763645,
                        0.6017773207770847,
                        -0.053711198010003378,
                        0.6528920312081509,
                        1.1051373485456407,
                        1.074191808053961,
                        -1.4765374877305369,
                        0.8439430149310355,
                        1.0383843013807269,
                        -0.006638201505031527,
                        -0.564816507835789,
                        2.113952976344562,
                        0.3309845121845166,
                        -0.7061577751768098
                    ]
                },
                {
                    "row": 12,
                    "column": 4,
                    "elements": [
                        -1.6358657693693713,
                        -0.6474022039880075,
                        -0.20362675015367905,
                        0.5635108136479814,
                        0.9972008626155539,
                        -0.7607611091251653,
                        0.5454731744791905,
                        0.9458151000304793,
                        0.7555679994912922,
                        1.8177285780168136,
                        0.05534530226209347,
                        0.8273117285950544,
                        0.13158326621287134,
                        0.7956253253652572,
                        -0.6642201017547256,
                        0.41320889569758709,
                        0.053068544212822938,
                        -0.2338834247694001,
                        0.9023473033076165,
                        -0.20907908338027998,
                        0.10668008231304666,
                        0.2228704574437115,
                        -0.5664569334409574,
                        -0.029210035400284413,
                        -0.31679554799973105,
                        0.18592646119776408,
                        0.23643363669934476,
                        0.36863679213796488,
                        -0.005714202356847834,
                        1.0860614189551084,
                        -0.30541186783578447,
                        0.03657107315998236,
                        -0.23344381785424923,
                        -0.15678770716010793,
                        0.017733303620658344,
                        0.3462954856039531,
                        -1.174313857730004,
                        -0.9710460961741829,
                        0.2657358434364282,
                        -0.9782756020645924,
                        -0.8466081137142864,
                        -0.4137967039780408,
                        -0.069601412824912,
                        -0.39475038872753,
                        -0.0886466059270093,
                        0.4583548093285218,
                        -1.8040955330347593,
                        -0.8445231063782008
                    ]
                }
            ],
            "biases": [
                {
                    "row": 1,
                    "column": 12,
                    "elements": [
                        0.4707765305974158,
                        -0.3822026090015664,
                        -0.5946364344785097,
                        0.0562376864446613,
                        1.0905457586787415,
                        -1.4220585992916335,
                        -0.5174975591488853,
                        -0.6803621118963276,
                        -1.095662473656005,
                        -1.4960276594165818,
                        0.11996013922194049,
                        -0.4507101327318897
                    ]
                },
                {
                    "row": 1,
                    "column": 4,
                    "elements": [
                        0.6405528448105197,
                        -0.321539664240805,
                        -0.42764854431152346,
                        0.5225293608031423
                    ]
                }
            ]
        },
        {
            "inputSize": 15,
            "hiddenSize": 12,
            "hiddenLayers": 1,
            "outputSize": 4,
            "weights": [
                {
                    "row": 15,
                    "column": 12,
                    "elements": [
                        -0.8668023361076229,
                        -0.29524202255787937,
                        1.1052590033234853,
                        0.7754225584892225,
                        0.44213925684978269,
                        -0.8022384713891596,
                        -0.4226551465145048,
                        0.13364624426352218,
                        0.0016694030739589639,
                        -0.9663297260946346,
                        2.79523998471502,
                        1.2862479148569098,
                        -0.17558474434104666,
                        -1.1365808090448988,
                        0.7254015249469702,
                        0.900514390183104,
                        0.15348608159532538,
                        0.8417180119734842,
                        1.0011246850719878,
                        0.27544339672390996,
                        -0.27270019450003915,
                        -0.8043140711711938,
                        1.0462534064412457,
                        0.9018898122173877,
                        1.0646438340588949,
                        0.4234395627198907,
                        0.3497437266734672,
                        0.6827565935190925,
                        -1.16628504118922,
                        1.0326825506747009,
                        -0.0016398235366191228,
                        0.9723137329969314,
                        0.18150586152785237,
                        0.7697897856705486,
                        0.4614745000540158,
                        0.04286090413611431,
                        -1.0288728310716664,
                        1.0041684063062784,
                        0.04735207221255128,
                        -0.3923846202522534,
                        -1.7899092753371513,
                        0.463530135942853,
                        0.926682015084995,
                        1.075442827341485,
                        1.4063943122844563,
                        0.9433145214372656,
                        0.4334112132514575,
                        -0.5143719057809101,
                        0.7025077989979431,
                        0.30552460512467619,
                        -0.49093968085637859,
                        0.67901074324868,
                        -0.4456600312156186,
                        0.47405238091140769,
                        -0.9426091773876023,
                        -0.2007378167618839,
                        -0.1346237572926926,
                        -0.8126862858498793,
                        -0.31911716758499866,
                        -0.12041998682962854,
                        -0.5762277187372709,
                        -0.29774644415384607,
                        -0.23244627253863058,
                        -0.29978258405056298,
                        0.9508318389132737,
                        0.7390701564977067,
                        -0.4004652202129364,
                        -0.6819067132748726,
                        -0.5150769820356078,
                        0.9550260203880211,
                        -0.1543740218105473,
                        -0.07396766024432766,
                        -0.39517045313070667,
                        -0.4529209224361983,
                        -0.7351999920004562,
                        -0.7785256380620111,
                        -0.28503174268667716,
                        -0.8030792301545503,
                        0.22445431508859182,
                        0.5539159774780273,
                        -0.28934521133867588,
                        1.0401856649156476,
                        -0.14514867741043203,
                        -0.35354531257373358,
                        -0.8126661766055614,
                        0.37632890709869329,
                        0.845172391692665,
                        0.7115726718130154,
                        -2.20243947306786,
                        1.7458617564028285,
                        1.2338820107070557,
                        -0.6215990009686214,
                        0.20262847563791898,
                        0.534337858188705,
                        1.5669732247189097,
                        1.3387747441938769,
                        0.6772795749894998,
                        0.3206266164779663,
                        -0.31515615679922429,
                        -0.6803764933559229,
                        0.2485357558150747,
                        -2.0471093446909425,
                        -1.2237428164454605,
                        0.6528131479687896,
                        0.1212428958481951,
                        -1.0136825004903512,
                        -1.137798477724944,
                        0.7454048852842116,
                        -1.376743509547992,
                        1.1213679951679825,
                        -0.5781402581356804,
                        0.4504892642478105,
                        0.43606071976516638,
                        0.49321072651563727,
                        -1.598402924973022,
                        1.5469100345436473,
                        2.5835889976531765,
                        -0.16086837484236034,
                        0.4197259754800763,
                        -1.0505824310137478,
                        0.925257007969722,
                        0.7292929612771244,
                        -1.3757206127272497,
                        -0.5203410018298804,
                        -0.4314412821577577,
                        0.9456337421530469,
                        0.0340919666048064,
                        0.38624255265729037,
                        -0.8678055656919761,
                        -0.9485918423019307,
                        0.12860914029506249,
                        -0.5506588281891502,
                        -0.15141679023831329,
                        -0.7699110094671389,
                        -0.9376094673241546,
                        -0.7569317196749882,
                        -0.4571551985992522,
                        -0.3124967950803617,
                        0.4350788437684537,
                        0.7074863575219141,
                        0.3058465458058523,
                        -0.5807069366865317,
                        0.5515740040316801,
                        -0.41048118500500416,
                        0.05376146999221826,
                        -0.324369451061941,
                        2.255868673324585,
                        -0.08751963840461867,
                        0.14860410528403659,
                        0.7434176149077185,
                        1.0403996748715292,
                        -0.005204141161842146,
                        -0.3945127492315685,
                        -0.1525213122367859,
                        -0.625232102154982,
                        -0.24950520090791196,
                        -0.580751663123181,
                        -1.1197144708287104,
                        0.5695896015531849,
                        -1.0592904687013503,
                        -0.07306589904060768,
                        0.02139136853167546,
                        -0.40615891685802615,
                        0.6134218519745973,
                        -0.2644950684136145,
                        -0.40527196652934069,
                        -0.5937793195763645,
                        0.6017773207770847,
                        -0.053711198010003378,
                        0.6528920312081509,
                        1.1051373485456407,
                        1.074191808053961,
                        -1.4765374877305369,
                        0.8439430149310355,
                        1.0383843013807269,
                        -0.006638201505031527,
                        -0.564816507835789,
                        2.1364079552623624,
                        0.3309845121845166,
                        -0.7305859753525377
                    ]
                },
                {
                    "row": 12,
                    "column": 4,
                    "elements": [
                        -1.6358657693693713,
                        -0.6474022039880075,
                        -0.20362675015367905,
                        0.5635108136479814,
                        0.9972008626155539,
                        -0.7662666392402586,
                        0.5429557461373271,
                        0.9458151000304793,
                        0.7555679994912922,
                        1.8177285780168136,
                        0.05534530226209347,
                        0.845570448823308,
                        0.13158326621287134,
                        0.7956253253652572,
                        -0.6615460389664044,
                        0.41320889569758709,
                        0.053068544212822938,
                        -0.19562078419473567,
                        0.9010714975051775,
                        -0.20907908338027998,
                        0.10668008231304666,
                        0.2228704574437115,
                        -0.5664569334409574,
                        -1.1858422756195069,
                        -0.31679554799973105,
                        0.18592646119776408,
                        0.19608320997368362,
                        0.36863679213796488,
                        -0.005714202356847834,
                        1.0860614189551084,
                        -0.3011450157907294,
                        0.01549753437396311,
                        -0.21373516699052692,
                        -0.15678770716010793,
                        0.017733303620658344,
                        0.3462954856039531,
                        -1.1782819668317739,
                        -0.9609913399959549,
                        0.2657358434364282,
                        -0.9699625376752086,
                        -0.8466081137142864,
                        -0.4196277690256238,
                        -0.069601412824912,
                        -0.39475038872753,
                        -0.0886466059270093,
                        0.4583548093285218,
                        -1.8040955330347593,
                        -0.8445231063782008
                    ]
                }
            ],
            "biases": [
                {
                    "row": 1,
                    "column": 12,
                    "elements": [
                        0.46830237612076178,
                        -0.3822026090015664,
                        -0.5946364344785097,
                        0.0562376864446613,
                        1.0905457586787415,
                        -1.4220585992916335,
                        -0.5174975591488853,
                        -0.6803621118963276,
                        -1.095662473656005,
                        -1.4960276594165818,
                        0.11996013922194049,
                        -0.4507101327318897
                    ]
                },
                {
                    "row": 1,
                    "column": 4,
                    "elements": [
                        0.6519412954169451,
                        -0.321539664240805,
                        -0.42764854431152346,
                        0.5225293608031423
                    ]
                }
            ]
        },
        {
            "inputSize": 15,
            "hiddenSize": 12,
            "hiddenLayers": 1,
            "outputSize": 4,
            "weights": [
                {
                    "row": 15,
                    "column": 12,
                    "elements": [
                        -0.8668023361076229,
                        -0.29524202255787937,
                        1.1052590033234853,
                        0.7580221615178269,
                        0.44213925684978269,
                        -0.8195846469104847,
                        -0.4226551465145048,
                        0.12493971174137725,
                        0.0016694030739589639,
                        -0.9663297260946346,
                        2.79523998471502,
                        1.2862479148569098,
                        -0.17558474434104666,
                        -1.1612886408290615,
                        0.7254015249469702,
                        0.900514390183104,
                        0.15348608159532538,
                        0.8339508975078105,
                        1.0011246850719878,
                        0.27544339672390996,
                        -0.26498959119681389,
                        -0.8043140711711938,
                        1.0462534064412457,
                        0.8788805244206808,
                        1.0646438340588949,
                        0.4234395627198907,
                        0.3555899849446639,
                        0.690273745779698,
                        -1.16628504118922,
                        1.0253762665295754,
                        -0.015877045889901188,
                        0.9723137329969314,
                        0.18150586152785237,
                        0.7697897856705486,
                        0.46634198183255967,
                        0.060503169300021749,
                        -1.0288728310716664,
                        1.0041684063062784,
                        0.04735207221255128,
                        -0.3923846202522534,
                        -1.7899092753371513,
                        0.463530135942853,
                        0.94774886623002,
                        1.075442827341485,
                        1.4063943122844563,
                        0.9433145214372656,
                        0.4334112132514575,
                        -0.5143719057809101,
                        0.6882222837704506,
                        0.30552460512467619,
                        -0.4880274069184441,
                        0.67901074324868,
                        -0.4653636252213912,
                        0.47405238091140769,
                        -0.9426091773876023,
                        -0.2007378167618839,
                        -0.1271994356879711,
                        -0.8126862858498793,
                        -0.3302581111016194,
                        -0.10592417926751144,
                        -0.5762277187372709,
                        -0.29774644415384607,
                        -0.23244627253863058,
                        -0.29978258405056298,
                        0.9508318389132737,
                        0.7390701564977067,
                        -0.4004652202129364,
                        -0.6819067132748726,
                        -0.5150769820356078,
                        0.9465021558324506,
                        -0.1543740218105473,
                        -0.051690493898846837,
                        -0.34358076741325108,
                        -0.4624550415906936,
                        -0.7351999920004562,
                        -0.7785256380620111,
                        -0.28503174268667716,
                        -0.8030792301545503,
                        0.22445431508859182,
                        0.5539159774780273,
                        -0.29141184156654045,
                        1.0401856649156476,
                        -0.14514867741043203,
                        -0.40213431576586769,
                        -0.8125502597115409,
                        0.37632890709869329,
                        0.8494521336143937,
                        0.7115726718130154,
                        -2.20243947306786,
                        1.7458617564028285,
                        1.2338820107070557,
                        -0.6215990009686214,
                        0.20262847563791898,
                        0.534337858188705,
                        1.5819196851087072,
                        1.3387747441938769,
                        0.6987685009198599,
                        -0.12463694715997065,
                        -0.31515615679922429,
                        -0.6803764933559229,
                        0.2485357558150747,
                        -2.0471093446909425,
                        -1.2137794169002843,
                        0.6342697321215943,
                        0.1212428958481951,
                        -1.0136825004903512,
                        -1.137798477724944,
                        0.7609832860247218,
                        -1.376743509547992,
                        1.1213679951679825,
                        -0.5781402581356804,
                        0.4504892642478105,
                        0.43606071976516638,
                        0.4927640138156587,
                        -1.598402924973022,
                        1.5485010122662553,
                        2.588914632609708,
                        -0.15576623405292917,
                        0.41537926572978259,
                        -1.0505824310137478,
                        0.8912309009421788,
                        0.7292929612771244,
                        -1.3757206127272497,
                        -0.5640604022122338,
                        -0.4228373776557512,
                        0.9456337421530469,
                        0.0340919666048064,
                        0.38624255265729037,
                        -0.8541052750798512,
                        -0.9485918423019307,
                        0.12860914029506249,
                        -0.5506588281891502,
                        -0.15141679023831329,
                        -0.7699110094671389,
                        -0.9376094673241546,
                        -0.7520933175118642,
                        -0.4571551985992522,
                        -0.30267501974428487,
                        0.4350788437684537,
                        0.7074863575219141,
                        0.3145348786461683,
                        -0.5807069366865317,
                        0.5515740040316801,
                        -0.41048118500500416,
                        0.041845806777795428,
                        -0.324369451061941,
                        0.4569902302814456,
                        -0.06934949067652156,
                        0.14005658006920489,
                        0.7628473851815134,
                        1.0403996748715292,
                        -0.005204141161842146,
                        -0.3664183675734551,
                        -0.1525213122367859,
                        -0.625232102154982,
                        -0.24950520090791196,
                        -0.580751663123181,
                        -1.1197144708287104,
                        0.5695896015531849,
                        -1.1125038969629262,
                        -0.07306589904060768,
                        0.043773133873841758,
                        -0.4289001768782838,
                        0.6134218519745973,
                        -0.2554442845048923,
                        -0.40527196652934069,
                        -0.5937793195763645,
                        0.6017773207770847,
                        -0.053711198010003378,
                        0.650253956809471,
                        1.1051373485456407,
                        1.074191808053961,
                        -1.4765374877305369,
                        0.8453735765905825,
                        1.0383843013807269,
                        -0.006638201505031527,
                        -0.564816507835789,
                        2.113952976344562,
                        0.3309845121845166,
                        -0.7061577751768098
                    ]
                },
                {
                    "row": 12,
                    "column": 4,
                    "elements": [
                        -1.6358657693693713,
                        -0.6474022039880075,
                        -0.20362675015367905,
                        0.5635108136479814,
                        0.983130956456881,
                        -0.7662666392402586,
                        0.5454731744791905,
                        0.9458151000304793,
                        0.7555679994912922,
                        1.8177285780168136,
                        0.05534530226209347,
                        0.845570448823308,
                        0.13158326621287134,
                        0.7956253253652572,
                        -0.6642201017547256,
                        0.41320889569758709,
                        0.053068544212822938,
                        -0.2338834247694001,
                        0.9010714975051775,
                        -0.20907908338027998,
                        0.10668008231304666,
                        0.2228704574437115,
                        -0.5664569334409574,
                        -0.029210035400284413,
                        -0.31679554799973105,
                        0.18592646119776408,
                        0.23643363669934476,
                        0.36863679213796488,
                        -0.005714202356847834,
                        1.0860614189551084,
                        -0.3011450157907294,
                        0.014700718042743803,
                        -0.23344381785424923,
                        -0.15678770716010793,
                        0.017733303620658344,
                        0.3462954856039531,
                        -1.1782819668317739,
                        -0.9710460961741829,
                        0.2657358434364282,
                        -0.9782756020645924,
                        -0.8405293091187892,
                        -0.4196277690256238,
                        -0.15595635771751405,
                        -0.39475038872753,
                        -0.0886466059270093,
                        0.4583548093285218,
                        -1.8040955330347593,
                        -0.8445231063782008
                    ]
                }
            ],
            "biases": [
                {
                    "row": 1,
                    "column": 12,
                    "elements": [
                        0.46830237612076178,
                        -0.3822026090015664,
                        -0.5946364344785097,
                        0.0562376864446613,
                        1.0905457586787415,
                        -1.4193883184179388,
                        -0.5174975591488853,
                        -0.6803621118963276,
                        -1.095662473656005,
                        -1.4960276594165818,
                        0.11996013922194049,
                        -0.4507101327318897
                    ]
                },
                {
                    "row": 1,
                    "column": 4,
                    "elements": [
                        0.6519412954169451,
                        -0.3157815910395824,
                        -0.42764854431152346,
                        0.5225293608031423
                    ]
                }
            ]
        },
        {
            "inputSize": 15,
            "hiddenSize": 12,
            "hiddenLayers": 1,
            "outputSize": 4,
            "weights": [
                {
                    "row": 15,
                    "column": 12,
                    "elements": [
                        -0.8668023361076229,
                        -0.29524202255787937,
                        1.1052590033234853,
                        0.7782867889983793,
                        0.44213925684978269,
                        -0.8022384713891596,
                        -0.4226551465145048,
                        0.13364624426352218,
                        0.0016694030739589639,
                        -0.9663297260946346,
                        2.79523998471502,
                        1.2862479148569098,
                        -0.17558474434104666,
                        -1.1612886408290615,
                        0.7254015249469702,
                        0.900514390183104,
                        0.15348608159532538,
                        0.8417180119734842,
                        1.0011246850719878,
                        0.27544339672390996,
                        -0.26498959119681389,
                        -0.8043140711711938,
                        1.0462534064412457,
                        0.8788805244206808,
                        1.0646438340588949,
                        0.4234395627198907,
                        0.3497437266734672,
                        0.690273745779698,
                        -1.16628504118922,
                        1.0326825506747009,
                        -0.0016398235366191228,
                        0.9723137329969314,
                        0.2148278708233306,
                        0.7697897856705486,
                        0.4614745000540158,
                        0.04286090413611431,
                        -1.0288728310716664,
                        1.0041684063062784,
                        0.04735207221255128,
                        -0.3923846202522534,
                        -1.7899092753371513,
                        0.463530135942853,
                        0.926682015084995,
                        1.0725514615203778,
                        1.4063943122844563,
                        0.9955527700483973,
                        0.4334112132514575,
                        -0.5143719057809101,
                        0.6998096782854122,
                        0.30552460512467619,
                        -0.4880274069184441,
                        0.67901074324868,
                        -0.4456600312156186,
                        0.47405238091140769,
                        -0.9426091773876023,
                        -0.2007378167618839,
                        -0.1271994356879711,
                        -0.8126862858498793,
                        -0.31911716758499866,
                        -0.12041998682962854,
                        -0.5762277187372709,
                        -0.29774644415384607,
                        -0.23244627253863058,
                        -0.29978258405056298,
                        0.9508318389132737,
                        0.7371507340929278,
                        -0.4004652202129364,
                        -0.6819067132748726,
                        -0.5150769820356078,
                        0.9550260203880211,
                        -0.1543740218105473,
                        -0.051690493898846837,
                        -0.36475341680038755,
                        -0.4624550415906936,
                        -0.7351999920004562,
                        -0.7785256380620111,
                        -0.28503174268667716,
                        -0.8030792301545503,
                        0.22445431508859182,
                        0.5539159774780273,
                        -0.29141184156654045,
                        1.0497476110939808,
                        -0.13286006198152124,
                        -0.35354531257373358,
                        -0.8009804095253535,
                        0.37632890709869329,
                        0.844460225354523,
                        0.6858377804967556,
                        -2.20243947306786,
                        1.7458617564028285,
                        1.2338820107070557,
                        -0.6215990009686214,
                        0.20262847563791898,
                        0.534337858188705,
                        1.5669732247189097,
                        1.3387747441938769,
                        0.6772795749894998,
                        -0.12463694715997065,
                        -0.31515615679922429,
                        -0.6803764933559229,
                        0.2485357558150747,
                        -2.0471093446909425,
                        -1.2237428164454605,
                        0.6629522268360967,
                        0.1212428958481951,
                        -1.0136825004903512,
                        -1.137798477724944,
                        0.7609832860247218,
                        -1.376743509547992,
                        1.1213679951679825,
                        -0.5781402581356804,
                        0.4504892642478105,
                        0.43606071976516638,
                        0.49291255797485036,
                        -1.598402924973022,
                        1.5469100345436473,
                        2.5835889976531765,
                        -0.15726764730510224,
                        0.4197259754800763,
                        -1.0505824310137478,
                        0.925257007969722,
                        0.7292929612771244,
                        -1.3757206127272497,
                        -0.5640604022122338,
                        -0.4300147619910593,
                        0.9456337421530469,
                        0.0340919666048064,
                        0.38624255265729037,
                        -0.8541052750798512,
                        -0.9485918423019307,
                        0.12860914029506249,
                        -0.5506588281891502,
                        -0.15236736620953129,
                        -0.7699110094671389,
                        -0.9376094673241546,
                        -0.7569317196749882,
                        -0.4571551985992522,
                        -0.30267501974428487,
                        0.4350788437684537,
                        0.6862516740060678,
                        0.3145348786461683,
                        -0.5807069366865317,
                        0.5515740040316801,
                        -0.41048118500500416,
                        0.05376146999221826,
                        -0.324369451061941,
                        0.5007259265733163,
                        -0.09392254205674493,
                        0.140467564069523,
                        0.7434176149077185,
                        1.0403996748715292,
                        -0.005204141161842146,
                        -0.40778636715616298,
                        -0.1525213122367859,
                        -0.625232102154982,
                        -0.24950520090791196,
                        -0.580751663123181,
                        -1.1197144708287104,
                        0.5695896015531849,
                        -1.0592904687013503,
                        -0.07306589904060768,
                        0.043773133873841758,
                        -0.40615891685802615,
                        0.6134218519745973,
                        -0.2644950684136145,
                        -0.40527196652934069,
                        -0.5937793195763645,
                        0.6017773207770847,
                        -0.053711198010003378,
                        0.6533639724302834,
                        1.1051373485456407,
                        1.074191808053961,
                        -1.4765374877305369,
                        0.8439430149310355,
                        1.0383843013807269,
                        -0.006638201505031527,
                        -0.564816507835789,
                        2.113952976344562,
                        0.34248218830005158,
                        -0.7061577751768098
                    ]
                },
                {
                    "row": 12,
                    "column": 4,
                    "elements": [
                        -1.6358657693693713,
                        -0.6474022039880075,
                        -0.1839215110597474,
                        0.5635108136479814,
                        0.9972008626155539,
                        -0.7662666392402586,
                        0.5454731744791905,
                        0.9458151000304793,
                        0.7555679994912922,
                        1.8177285780168136,
                        0.05534530226209347,
                        0.845570448823308,
                        0.13158326621287134,
                        0.7956253253652572,
                        -0.6642201017547256,
                        0.4264173621706196,
                        0.053068544212822938,
                        -0.2338834247694001,
                        0.9010714975051775,
                        -0.1960932485951576,
                        0.10668008231304666,
                        0.2228704574437115,
                        -0.5664569334409574,
                        -0.029210035400284413,
                        -0.31679554799973105,
                        0.18592646119776408,
                        0.23643363669934476,
                        0.36863679213796488,
                        -0.02890558472345928,
                        1.0860614189551084,
                        -0.3011450157907294,
                        0.01549753437396311,
                        -0.23344381785424923,
                        -0.15678770716010793,
                        0.017733303620658344,
                        0.3462954856039531,
                        -1.1782819668317739,
                        -0.9710460961741829,
                        0.2657358434364282,
                        -0.9699625376752086,
                        -0.8466081137142864,
                        -0.4196277690256238,
                        -0.069601412824912,
                        -0.39475038872753,
                        -0.0886466059270093,
                        0.4583548093285218,
                        -1.8040955330347593,
                        -0.8445231063782008
                    ]
                }
            ],
            "biases": [
                {
                    "row": 1,
                    "column": 12,
                    "elements": [
                        0.46830237612076178,
                        -0.3822026090015664,
                        -0.5946364344785097,
                        0.0562376864446613,
                        1.0905457586787415,
                        -1.4220585992916335,
                        -0.5174975591488853,
                        -0.6803621118963276,
                        -1.095662473656005,
                        -1.4960276594165818,
                        0.11996013922194049,
                        -0.4507101327318897
                    ]
                },
                {
                    "row": 1,
                    "column": 4,
                    "elements": [
                        0.6519412954169451,
                        -0.321539664240805,
                        -0.42764854431152346,
                        0.5225293608031423
                    ]
                }
            ]
        },
        {
            "inputSize": 15,
            "hiddenSize": 12,
            "hiddenLayers": 1,
            "outputSize": 4,
            "weights": [
                {
                    "row": 15,
                    "column": 12,
                    "elements": [
                        -0.8668023361076229,
                        -0.2861116485687676,
                        1.1052590033234853,
                        0.7782867889983793,
                        0.44213925684978269,
                        -0.8022384713891596,
                        -0.4226551465145048,
                        0.13364624426352218,
                        0.0016694030739589639,
                        -0.9663297260946346,
                        2.79523998471502,
                        1.2862479148569098,
                        -0.15128683514751396,
                        -1.1612886408290615,
                        0.7254015249469702,
                        0.900514390183104,
                        0.15348608159532538,
                        0.8417180119734842,
                        0.9953652367916409,
                        0.28241486370542226,
                        -0.26498959119681389,
                        -0.8043140711711938,
                        1.0462534064412457,
                        0.8788805244206808,
                        1.0646438340588949,
                        0.4234395627198907,
                        0.33758758971716598,
                        0.690273745779698,
                        -1.16628504118922,
                        1.022512680048591,
                        -0.0016398235366191228,
                        0.9723137329969314,
                        0.18150586152785237,
                        0.7697897856705486,
                        0.4614745000540158,
                        0.04286090413611431,
                        -1.0288728310716664,
                        1.0041684063062784,
                        0.04735207221255128,
                        -0.3923846202522534,
                        -1.7899092753371513,
                        0.463530135942853,
                        0.926682015084995,
                        1.075442827341485,
                        1.4063943122844563,
                        0.9433145214372656,
                        0.4334112132514575,
                        -0.5143719057809101,
                        0.7025077989979431,
                        0.30552460512467619,
                        -0.4880274069184441,
                        0.67901074324868,
                        -0.4456600312156186,
                        0.4931417562190561,
                        -0.9426091773876023,
                        -0.16968204753568534,
                        -0.12866178569595924,
                        -0.8126862858498793,
                        -0.2991992030948971,
                        -0.12041998682962854,
                        -0.5762277187372709,
                        -0.29774644415384607,
                        -0.25008284069071776,
                        -0.29978258405056298,
                        0.9508318389132737,
                        0.7390701564977067,
                        -0.4004652202129364,
                        -0.6819067132748726,
                        -0.5150769820356078,
                        0.9678885033635379,
                        -0.1543740218105473,
                        -0.051690493898846837,
                        -0.36475341680038755,
                        -0.4624550415906936,
                        -0.7351999920004562,
                        -0.7936405113718572,
                        -0.28503174268667716,
                        -0.8030792301545503,
                        0.22445431508859182,
                        0.5539159774780273,
                        -0.29141184156654045,
                        1.0401856649156476,
                        -0.14514867741043203,
                        -0.35354531257373358,
                        -0.8125502597115409,
                        0.37632890709869329,
                        0.844460225354523,
                        0.7115726718130154,
                        -2.20243947306786,
                        1.7458617564028285,
                        1.2338820107070557,
                        -0.6215990009686214,
                        0.20262847563791898,
                        0.534337858188705,
                        1.5669732247189097,
                        1.3387747441938769,
                        0.6772795749894998,
                        -0.12463694715997065,
                        -0.31515615679922429,
                        -0.6936152628296819,
                        0.2485357558150747,
                        -2.0471093446909425,
                        -1.2237428164454605,
                        0.6528131479687896,
                        0.1212428958481951,
                        -1.0136825004903512,
                        -1.137798477724944,
                        0.7609832860247218,
                        -1.376743509547992,
                        1.1213679951679825,
                        -0.5781402581356804,
                        0.4504892642478105,
                        0.43606071976516638,
                        0.49321072651563727,
                        -1.598402924973022,
                        1.5469100345436473,
                        2.5835889976531765,
                        -0.15726764730510224,
                        0.4197259754800763,
                        -1.0505824310137478,
                        0.925257007969722,
                        0.7292929612771244,
                        -1.3757206127272497,
                        -0.5640604022122338,
                        -0.4300147619910593,
                        0.9456337421530469,
