{
    "generation": 225,
    "totalPopulation": 100,
    "brainDataList": [
        {
            "inputSize": 15,
            "hiddenSize": 12,
            "hiddenLayers": 1,
            "outputSize": 4,
            "weights": [
                {
                    "row": 15,
                    "column": 12,
                    "elements": [
                        -0.8835151675888823,
                        -0.3008031754282106,
                        1.1052590033234853,
                        0.772468013385193,
                        0.3789629014098297,
                        -0.8589588301918278,
                        -0.4484795723498663,
                        0.08585285756113485,
                        0.07195729283123698,
                        -0.9417721385431062,
                        2.8822909659300137,
                        1.2699610509402489,
                        -0.10476784340565536,
                        -1.087992361666065,
                        0.738878423166923,
                        0.8702249736528842,
                        0.09660026417676093,
                        0.8451498098184351,
                        1.0142382266799888,
                        0.29837966048774897,
                        -0.2921942603027161,
                        -0.8429855490849427,
                        0.5496149874324303,
                        0.8435053372183282,
                        1.0447753777816833,
                        0.4434004187114139,
                        0.33845792330967769,
                        0.584513971685469,
                        -1.1623091325218323,
                        1.031807324435032,
                        0.08270584670869291,
                        1.0279995833261997,
                        0.18529875547865233,
                        0.7629664737789178,
                        0.39232376154242529,
                        0.02666221396454526,
                        -1.0388382553865805,
                        0.9955007388428792,
                        0.07151375201326255,
                        -0.41979581002270185,
                        -1.7376503123242835,
                        0.4647389601331532,
                        0.9501691823654493,
                        1.5167887779571812,
                        1.3564605897422387,
                        1.0243825961166087,
                        0.4211507586323878,
                        -0.45648854549671638,
                        0.7271710450186943,
                        0.377807405375561,
                        -0.4698366920120805,
                        0.6957574748708977,
                        0.4327275259173619,
                        0.5013150512958444,
                        -1.0220654268752352,
                        -0.18141338309223707,
                        -0.14991593385317998,
                        -0.36267837159127178,
                        -0.29595552495523316,
                        -0.14006300046394483,
                        -0.5037683627880458,
                        -0.340990724598432,
                        -0.21583310568364925,
                        -0.337679203238679,
                        0.9139677552103538,
                        0.7585938714381716,
                        -0.4169527074600293,
                        -0.6260257158528554,
                        -0.5185540732628466,
                        0.9706935896751222,
                        -0.12778340927813906,
                        -0.05251751130685234,
                        -0.4146749813364472,
                        -0.49110092832528609,
                        -0.6960640954176119,
                        -0.8075753951317384,
                        -0.36871795626526907,
                        -0.8855928628727192,
                        0.25820187970805327,
                        -0.3777506442860932,
                        -0.34714361012102448,
                        1.0557652935118128,
                        0.5935234828908422,
                        -0.36240843468984199,
                        -0.7919642702195863,
                        0.3145994165293735,
                        0.8975775792755187,
                        0.6854364838901247,
                        -2.180892258564584,
                        1.1254571274495014,
                        0.8226793738465446,
                        0.5840315891569082,
                        0.19270306488872369,
                        0.5254731915672734,
                        1.5421086482196989,
                        1.3453925112607333,
                        0.7860041839981261,
                        -1.9507141676539779,
                        -0.3248415616284863,
                        -0.7041850537912054,
                        0.10515933172696379,
                        -2.0465147192312105,
                        -1.2295539739891684,
                        0.6191241260615426,
                        0.11222952875439435,
                        -1.0321342217461663,
                        -1.0652917559416649,
                        0.7071370549332425,
                        -1.436837709769571,
                        1.162010675381374,
                        -0.60832359551828,
                        0.4759715571201285,
                        0.4814303304315842,
                        0.4281054266801036,
                        0.28976628970859749,
                        1.5639044055779779,
                        2.6061734688509494,
                        -0.25252364606409008,
                        0.3589379980704448,
                        -0.14845366994445309,
                        0.8991709853636624,
                        0.6647564508215871,
                        -1.3257319750859236,
                        1.069771317913395,
                        -0.3934678446541838,
                        0.9639027657889777,
                        0.07738025256159997,
                        0.36143571994455439,
                        -1.921898919262867,
                        -0.9862916469573975,
                        0.12468005673754057,
                        -0.536371500980497,
                        -0.12050357743783763,
                        -0.8372829980459057,
                        -0.9444643935186677,
                        -0.7518871712762375,
                        -0.45789742631579735,
                        -0.2834860384464264,
                        0.45817345084387797,
                        0.7399901370709813,
                        0.2629385032015559,
                        -0.583345741540117,
                        0.5852102531797155,
                        -0.40230251567553979,
                        0.06704349455572395,
                        -0.3487897339528803,
                        0.5401858921124446,
                        -0.08055813001792124,
                        0.15997928014822797,
                        0.7312221162369803,
                        1.0064170523371039,
                        -0.05273612693203816,
                        -0.38636724750199449,
                        0.48945854776736538,
                        -0.6331529471288849,
                        -0.18165140117410484,
                        -0.582864554749996,
                        -1.2717703580856324,
                        0.5225043507974558,
                        -1.1011186566625964,
                        -0.08443154014208032,
                        0.03564854316682109,
                        -0.3659379797301291,
                        0.028671434674540698,
                        -0.19905352284017603,
                        -0.9794704755029055,
                        -0.5686727976966286,
                        0.6395157635466171,
                        -0.0817193096953365,
                        0.6533598239470998,
                        1.1063837138265438,
                        1.0755822960216049,
                        -1.443437068829848,
                        0.8189996470536572,
                        -0.5943490134266793,
                        0.006392653263329884,
                        -0.5899950839808439,
                        2.0893455569269299,
                        0.3529151687234801,
                        -0.6667679139370903
                    ]
                },
                {
                    "row": 12,
                    "column": 4,
                    "elements": [
                        -1.6887028598727115,
                        -0.6513729110326677,
                        -0.2668850099733149,
                        0.6211703489593032,
                        0.96748548499529,
                        -0.7528092017873784,
                        0.5548801825592183,
                        1.03851875421459,
                        0.73113900597776,
                        1.8427122374410663,
                        0.13908938090398316,
                        0.8816287469627692,
                        0.15430456344594704,
                        0.748173501432993,
                        -0.6795921862373637,
                        0.4631931662370733,
                        0.06918692569551988,
                        -0.24625533858159233,
                        0.8986457434891153,
                        -0.8626352195823045,
                        0.12422171006564215,
                        0.21954031919245468,
                        -0.573072375330673,
                        -0.06846033579464883,
                        -0.28228842531562006,
                        0.18853983424010824,
                        0.248009574307767,
                        -0.5139451098659141,
                        -0.029516792493019918,
                        1.0715974268615447,
                        -0.29453171609189895,
                        0.04964161854865384,
                        -0.1968165482664495,
                        -0.19868335386866388,
                        0.019439119374614127,
                        0.40418793589429516,
                        -1.1075567988582518,
                        -0.9711463750263115,
                        0.22082881874533134,
                        -0.9615188064963526,
                        -0.8453427202470104,
                        -0.39243354459040377,
                        -0.009968134417009282,
                        -0.33285769662114947,
                        -0.1458456863525307,
                        0.4422515098322727,
                        -1.8232740128512597,
                        -0.8264971665714849
                    ]
                }
            ],
            "biases": [
                {
                    "row": 1,
                    "column": 12,
                    "elements": [
                        0.43018998395105659,
                        -0.3382915713458933,
                        -0.567493320279984,
                        1.304042457794684,
                        1.0634801803517618,
                        -1.4224298435350636,
                        -0.4719723741045934,
                        -0.6674453313258082,
                        -1.102734677551331,
                        -1.4989888616142258,
                        -0.6852521039855505,
                        -0.45323799874088968
                    ]
                },
                {
                    "row": 1,
                    "column": 4,
                    "elements": [
                        0.6737319114421855,
                        -0.367298094771865,
                        -0.4257796481204657,
                        0.5951344621365868
                    ]
                }
            ]
        },
        {
            "inputSize": 15,
            "hiddenSize": 12,
            "hiddenLayers": 1,
            "outputSize": 4,
            "weights": [
                {
                    "row": 15,
                    "column": 12,
                    "elements": [
                        -0.8835151675888823,
                        -0.3008031754282106,
                        1.1052590033234853,
                        0.772468013385193,
                        0.39606634178910418,
                        -0.8589588301918278,
                        -0.4484795723498663,
                        0.08585285756113485,
                        0.07195729283123698,
                        -0.9417721385431062,
                        2.8785484094417059,
                        1.2699610509402489,
                        -0.10476784340565536,
                        -1.087992361666065,
                        0.738878423166923,
                        0.8702249736528842,
                        0.09660026417676093,
                        0.8451498098184351,
                        1.0186317379963142,
                        0.27632962836494398,
                        -0.2921942603027161,
                        -0.8429855490849427,
                        0.5496149874324303,
                        0.8435053372183282,
                        1.0348119031346564,
                        0.4434004187114139,
                        0.33845792330967769,
                        0.584513971685469,
                        -1.1623091325218323,
                        1.04953347240575,
                        0.08270584670869291,
                        1.0556818537111759,
                        0.16847224065700035,
                        0.7629664737789178,
                        0.39232376154242529,
                        0.02666221396454526,
                        -1.0388382553865805,
                        1.0119924412692896,
                        0.07151375201326255,
                        -0.41979581002270185,
                        -1.7376503123242835,
                        0.4647389601331532,
                        0.9501691823654493,
                        1.5167887779571812,
                        1.3564605897422387,
                        1.0243825961166087,
                        0.4211507586323878,
                        -0.45648854549671638,
                        0.7271710450186943,
                        0.38828362002711105,
                        -0.4698366920120805,
                        0.6986922236337121,
                        0.4327275259173619,
                        0.5013150512958444,
                        -1.0281353313053734,
                        -0.18141338309223707,
                        -0.14991593385317998,
                        -0.36267837159127178,
                        -0.29595552495523316,
                        -0.14006300046394483,
                        -0.5037683627880458,
                        -0.340990724598432,
                        -0.20332014910565436,
                        -0.337679203238679,
                        0.9292454326433004,
                        0.7585938714381716,
                        -0.4169527074600293,
                        -0.6260257158528554,
                        -0.5185540732628466,
                        0.9706935896751222,
                        -0.1257946078134503,
                        -0.05251751130685234,
                        -0.4146749813364472,
                        -0.49110092832528609,
                        -0.6960640954176119,
                        -0.8075753951317384,
                        -0.3529863751673886,
                        -0.8855928628727192,
                        0.25820187970805327,
                        -0.3777506442860932,
                        -0.34714361012102448,
                        1.0557652935118128,
                        0.5935234828908422,
                        -0.36240843468984199,
                        -0.7919642702195863,
                        0.33800097440550838,
                        0.8870415644772951,
                        0.6854364838901247,
                        -2.180892258564584,
                        1.1254571274495014,
                        0.8226793738465446,
                        0.6084522886843052,
                        0.19270306488872369,
                        0.5254731915672734,
                        1.5421086482196989,
                        1.3401837383602287,
                        0.7860041839981261,
                        -1.9507141676539779,
                        -0.3248415616284863,
                        -0.7027065546501344,
                        0.10515933172696379,
                        -2.0053633253069607,
                        -1.2295539739891684,
                        0.6191241260615426,
                        0.11222952875439435,
                        -1.0321342217461663,
                        -1.0652917559416649,
                        0.7071370549332425,
                        -1.436837709769571,
                        1.131518513358459,
                        -0.6453336135165726,
                        0.5176531415003621,
                        0.4814303304315842,
                        0.4281054266801036,
                        0.28976628970859749,
                        1.5639044055779779,
                        2.6061734688509494,
                        -0.25252364606409008,
                        0.3589379980704448,
                        -0.14845366994445309,
                        0.9346250706364941,
                        0.6647564508215871,
                        -1.3257319750859236,
                        1.069771317913395,
                        -0.3934678446541838,
                        0.9200533462216033,
                        0.07738025256159997,
                        0.3337864514585598,
                        -1.921898919262867,
                        -0.9862916469573975,
                        0.12468005673754057,
                        -0.536371500980497,
                        -0.12050357743783763,
                        -0.8372829980459057,
                        -0.9444643935186677,
                        -0.7518871712762375,
                        -0.4339184067330568,
                        -0.2834860384464264,
                        0.45817345084387797,
                        0.7399901370709813,
                        0.2629385032015559,
                        -0.583345741540117,
                        0.5852102531797155,
                        -0.40230251567553979,
                        0.09191890121864838,
                        -0.3487897339528803,
                        0.5401858921124446,
                        -0.08055813001792124,
                        0.15997928014822797,
                        0.7312221162369803,
                        1.0064170523371039,
                        -0.05273612693203816,
                        -0.38636724750199449,
                        0.48945854776736538,
                        -0.6331529471288849,
                        -0.18165140117410484,
                        -0.582864554749996,
                        -1.2717703580856324,
                        0.5225043507974558,
                        -1.1011186566625964,
                        -0.08443154014208032,
                        0.03564854316682109,
                        -0.3659379797301291,
                        0.028671434674540698,
                        -0.19905352284017603,
                        -0.9794704755029055,
                        -0.5686727976966286,
                        0.6395157635466171,
                        -0.06362862330159916,
                        0.6599620377782962,
                        1.1063837138265438,
                        1.0755822960216049,
                        -1.443437068829848,
                        0.8189996470536572,
                        -0.5943490134266793,
                        0.006392653263329884,
                        -0.5899950839808439,
                        2.0873319523309767,
                        0.3529151687234801,
                        -0.6667679139370903
                    ]
                },
                {
                    "row": 12,
                    "column": 4,
                    "elements": [
                        -1.6887028598727115,
                        -0.6768372568723392,
                        -0.2668850099733149,
                        0.6211703489593032,
                        0.96748548499529,
                        -0.7528092017873784,
                        0.5305968550456576,
                        1.0250775530665837,
                        0.73113900597776,
                        1.8427122374410663,
                        0.13908938090398316,
                        0.8816287469627692,
                        0.15430456344594704,
                        0.748173501432993,
                        -0.6795921862373637,
                        0.46520205431759079,
                        0.06918692569551988,
                        -0.24625533858159233,
                        0.8986457434891153,
                        -0.8626352195823045,
                        0.12422171006564215,
                        0.21954031919245468,
                        -0.573072375330673,
                        -0.06846033579464883,
                        -0.2831294950398579,
                        0.18853983424010824,
                        0.248009574307767,
                        -0.5139451098659141,
                        -0.04662398200436696,
                        1.0715974268615447,
                        -0.29453171609189895,
                        0.04964161854865384,
                        -0.1968165482664495,
                        -0.19868335386866388,
                        0.019439119374614127,
                        0.3849355561919442,
                        -1.1075567988582518,
                        -0.9711463750263115,
                        0.22082881874533134,
                        -0.9433326596898625,
                        -0.8453427202470104,
                        -0.39243354459040377,
                        -0.009968134417009282,
                        -0.311878399928971,
                        -0.1458456863525307,
                        0.4422515098322727,
                        -1.8232740128512597,
                        -0.8264971665714849
                    ]
                }
            ],
            "biases": [
                {
                    "row": 1,
                    "column": 12,
                    "elements": [
                        0.43018998395105659,
                        -0.3382915713458933,
                        -0.5777805810592621,
                        1.304042457794684,
                        1.0634801803517618,
                        -1.4224298435350636,
                        -0.4719723741045934,
                        -0.6674453313258082,
                        -1.102734677551331,
                        -1.4989888616142258,
                        -0.6852521039855505,
                        -0.45323799874088968
                    ]
                },
                {
                    "row": 1,
                    "column": 4,
                    "elements": [
                        0.699013721637591,
                        -0.3621326383538899,
                        -0.4257796481204657,
                        0.5951344621365868
                    ]
                }
            ]
        },
        {
            "inputSize": 15,
            "hiddenSize": 12,
            "hiddenLayers": 1,
            "outputSize": 4,
            "weights": [
                {
                    "row": 15,
                    "column": 12,
                    "elements": [
                        -0.8835151675888823,
                        -0.3008031754282106,
                        1.1052590033234853,
                        0.772468013385193,
                        0.3789629014098297,
                        -0.8589588301918278,
                        -0.4484795723498663,
                        0.08585285756113485,
                        0.07195729283123698,
                        -0.9417721385431062,
                        2.8822909659300137,
                        1.2699610509402489,
                        -0.10476784340565536,
                        -1.087992361666065,
                        0.7236692100116209,
                        0.8702249736528842,
                        0.09660026417676093,
                        0.8451498098184351,
                        1.0131339662451287,
                        0.29837966048774897,
                        -0.2921942603027161,
                        -0.8429855490849427,
                        0.5496149874324303,
                        0.8181507116063068,
                        1.0447753777816833,
                        0.4434004187114139,
                        0.33845792330967769,
                        0.584513971685469,
                        -1.1623091325218323,
                        1.031807324435032,
                        0.08270584670869291,
                        1.0279995833261997,
                        0.18529875547865233,
                        0.7629664737789178,
                        0.39232376154242529,
                        0.039774011242656,
                        -1.0388382553865805,
                        0.9955007388428792,
                        0.07151375201326255,
                        -0.41979581002270185,
                        -1.7290583494635792,
                        0.4647389601331532,
                        0.9501691823654493,
                        1.5167887779571812,
                        1.3564605897422387,
                        1.0243825961166087,
                        0.4211507586323878,
                        -0.45648854549671638,
                        0.7271710450186943,
                        0.4026000617199005,
                        -0.4698366920120805,
                        0.6957574748708977,
                        0.4327275259173619,
                        0.5013150512958444,
                        -1.0220654268752352,
                        -0.18141338309223707,
                        -0.14991593385317998,
                        -0.36267837159127178,
                        -0.29595552495523316,
                        -0.14006300046394483,
                        -0.5037683627880458,
                        -0.340990724598432,
                        -0.21583310568364925,
                        -0.337679203238679,
                        0.9139677552103538,
                        0.7585938714381716,
                        -0.4169527074600293,
                        -0.6260257158528554,
                        -0.5185540732628466,
                        0.9408046552540806,
                        -0.12778340927813906,
                        -0.05251751130685234,
                        -0.36783718998680806,
                        -0.49110092832528609,
                        -0.6960640954176119,
                        -0.8075753951317384,
                        -0.36871795626526907,
                        -0.8855928628727192,
                        0.25820187970805327,
                        -0.3622724174935392,
                        -0.34714361012102448,
                        1.0527070549546434,
                        0.5935234828908422,
                        -0.36240843468984199,
                        -0.7919642702195863,
                        0.3145994165293735,
                        0.8975775792755187,
                        0.6758212982482217,
                        -2.180892258564584,
                        1.1254571274495014,
                        0.8236342733150806,
                        0.5878457621144291,
                        0.19270306488872369,
                        0.5254731915672734,
                        1.5421086482196989,
                        1.3453925112607333,
                        0.7860041839981261,
                        -1.9507141676539779,
                        -0.3248415616284863,
                        -0.7041850537912054,
                        0.10515933172696379,
                        -2.0465147192312105,
                        -1.2295539739891684,
                        0.6191241260615426,
                        0.11222952875439435,
                        -1.0321342217461663,
                        -1.0652917559416649,
                        0.7071370549332425,
                        -1.436837709769571,
                        1.162010675381374,
                        -0.60832359551828,
                        0.4759715571201285,
                        0.4814303304315842,
                        0.4281054266801036,
                        0.28976628970859749,
                        1.5639044055779779,
                        2.6061734688509494,
                        -0.288014818538165,
                        0.3589379980704448,
                        -0.14845366994445309,
                        0.8991709853636624,
                        0.6647564508215871,
                        -1.3257319750859236,
                        1.069771317913395,
                        -0.3934678446541838,
                        0.9639027657889777,
                        0.06311863760403525,
                        0.36143571994455439,
                        -1.921898919262867,
                        -0.9862916469573975,
                        0.12468005673754057,
                        -0.523783258969462,
                        -0.12050357743783763,
                        -0.8372829980459057,
                        -0.9444643935186677,
                        -0.7518871712762375,
                        -0.45789742631579735,
                        -0.2834860384464264,
                        0.45817345084387797,
                        0.7399901370709813,
                        0.2629385032015559,
                        -0.583345741540117,
                        0.5852102531797155,
                        -0.40230251567553979,
                        0.06704349455572395,
                        -0.3487897339528803,
                        0.5401858921124446,
                        -0.08055813001792124,
                        0.15997928014822797,
                        0.7312221162369803,
                        1.0064170523371039,
                        -0.0386185406348894,
                        -0.38636724750199449,
                        0.48945854776736538,
                        -0.6331529471288849,
                        -0.18165140117410484,
                        -0.582864554749996,
                        -1.2717703580856324,
                        0.5225043507974558,
                        -1.1011186566625964,
                        -0.08443154014208032,
                        0.039595958728480377,
                        -0.3659379797301291,
                        0.028671434674540698,
                        -0.19905352284017603,
                        -0.9794704755029055,
                        -0.5686727976966286,
                        0.6231684724424336,
                        -0.0817193096953365,
                        0.6533598239470998,
                        1.1063837138265438,
                        1.0755822960216049,
                        -1.443437068829848,
                        0.8189996470536572,
                        -0.5943490134266793,
                        0.006392653263329884,
                        -0.5899950839808439,
                        2.0893455569269299,
                        0.3634153670914588,
                        -0.6667679139370903
                    ]
                },
                {
                    "row": 12,
                    "column": 4,
                    "elements": [
                        -1.6943921290498219,
                        -0.6513729110326677,
                        -0.2668850099733149,
                        0.6211703489593032,
                        0.96748548499529,
                        -0.7528092017873784,
                        0.5548801825592183,
                        1.03851875421459,
                        0.73113900597776,
                        1.8427122374410663,
                        0.13908938090398316,
                        0.8816287469627692,
                        0.15430456344594704,
                        0.748173501432993,
                        -0.6795921862373637,
                        0.4631931662370733,
                        0.06918692569551988,
                        -0.24625533858159233,
                        0.9226625571841702,
                        -0.8626352195823045,
                        0.12422171006564215,
                        0.21954031919245468,
                        -0.573072375330673,
                        -0.06846033579464883,
                        -0.28228842531562006,
                        0.18853983424010824,
                        0.248009574307767,
                        -0.5139451098659141,
                        -0.029516792493019918,
                        1.0715974268615447,
                        -0.29453171609189895,
                        0.04964161854865384,
                        -0.1968165482664495,
                        -0.19868335386866388,
                        0.019439119374614127,
                        0.40418793589429516,
                        -1.1075567988582518,
                        -0.9711463750263115,
                        0.22082881874533134,
                        -0.9637032052178598,
                        -0.8453427202470104,
                        -0.39243354459040377,
                        -0.009968134417009282,
                        -0.33285769662114947,
                        -0.1458456863525307,
                        0.4422515098322727,
                        -1.8232740128512597,
                        -0.8264971665714849
                    ]
                }
            ],
            "biases": [
                {
                    "row": 1,
                    "column": 12,
                    "elements": [
                        0.43018998395105659,
                        -0.3382915713458933,
                        -0.567493320279984,
                        1.304042457794684,
                        1.0634801803517618,
                        -1.4224298435350636,
                        -0.4719723741045934,
                        -0.6674453313258082,
                        -1.102734677551331,
                        -1.4989888616142258,
                        -0.6950356489033229,
                        -0.45323799874088968
                    ]
                },
                {
                    "row": 1,
                    "column": 4,
                    "elements": [
                        0.6737319114421855,
                        -0.367298094771865,
                        -0.4268221123236491,
                        0.5951344621365868
                    ]
                }
            ]
        },
        {
            "inputSize": 15,
            "hiddenSize": 12,
            "hiddenLayers": 1,
            "outputSize": 4,
            "weights": [
                {
                    "row": 15,
                    "column": 12,
                    "elements": [
                        -0.8835151675888823,
                        -0.3008031754282106,
                        1.1052590033234853,
                        0.772468013385193,
                        0.39606634178910418,
                        -0.8589588301918278,
                        -0.4484795723498663,
                        0.08585285756113485,
                        0.07195729283123698,
                        -0.9417721385431062,
                        2.8785484094417059,
                        1.2699610509402489,
                        -0.10476784340565536,
                        -1.087992361666065,
                        0.738878423166923,
                        0.8702249736528842,
                        0.09660026417676093,
                        0.8451498098184351,
                        1.0186317379963142,
                        0.27632962836494398,
                        -0.2921942603027161,
                        -0.8429855490849427,
                        0.5496149874324303,
                        0.8435053372183282,
                        1.0348119031346564,
                        0.4434004187114139,
                        0.33845792330967769,
                        0.584513971685469,
                        -1.1623091325218323,
                        1.04953347240575,
                        0.08270584670869291,
                        1.0279995833261997,
                        0.16847224065700035,
                        0.7629664737789178,
                        0.39232376154242529,
                        0.02666221396454526,
                        -1.0388382553865805,
                        0.9955007388428792,
                        0.07151375201326255,
                        -0.41979581002270185,
                        -1.7376503123242835,
                        0.4647389601331532,
                        0.9501691823654493,
                        1.5167887779571812,
                        1.3564605897422387,
                        1.0243825961166087,
                        0.4211507586323878,
                        -0.45648854549671638,
                        0.7271710450186943,
                        0.377807405375561,
                        -0.4698366920120805,
                        0.6957574748708977,
                        0.4327275259173619,
                        0.5013150512958444,
                        -1.0220654268752352,
                        -0.18141338309223707,
                        -0.14991593385317998,
                        -0.36267837159127178,
                        -0.29595552495523316,
                        -0.14006300046394483,
                        -0.5037683627880458,
                        -0.340990724598432,
                        -0.20332014910565436,
                        -0.337679203238679,
                        0.9292454326433004,
                        0.7585938714381716,
                        -0.4169527074600293,
                        -0.6260257158528554,
                        -0.5185540732628466,
                        0.9706935896751222,
                        -0.12778340927813906,
                        -0.05251751130685234,
                        -0.4146749813364472,
                        -0.49110092832528609,
                        -0.6960640954176119,
                        -0.8075753951317384,
                        -0.3529863751673886,
                        -0.8855928628727192,
                        0.25820187970805327,
                        -0.3777506442860932,
                        -0.34714361012102448,
                        1.0557652935118128,
                        0.5935234828908422,
                        -0.36240843468984199,
                        -0.7919642702195863,
                        0.3145994165293735,
                        0.8870415644772951,
                        0.6854364838901247,
                        -2.180892258564584,
                        1.1254571274495014,
                        0.8226793738465446,
                        0.6084522886843052,
                        0.19270306488872369,
                        0.5254731915672734,
                        1.5421086482196989,
                        1.3453925112607333,
                        0.7860041839981261,
                        -1.9507141676539779,
                        -0.3248415616284863,
                        -0.7041850537912054,
                        0.10515933172696379,
                        -2.0053633253069607,
                        -1.2295539739891684,
                        0.6191241260615426,
                        0.11222952875439435,
                        -1.0321342217461663,
                        -1.0652917559416649,
                        0.7071370549332425,
                        -1.436837709769571,
                        1.131518513358459,
                        -0.6453336135165726,
                        0.4759715571201285,
                        0.4814303304315842,
                        0.4281054266801036,
                        0.28976628970859749,
                        1.5639044055779779,
                        2.6061734688509494,
                        -0.25252364606409008,
                        0.3589379980704448,
                        -0.14845366994445309,
                        0.9155051825197743,
                        0.6647564508215871,
                        -1.3257319750859236,
                        1.069771317913395,
                        -0.3934678446541838,
                        0.9200533462216033,
                        0.07738025256159997,
                        0.3337864514585598,
                        -1.921898919262867,
                        -0.9862916469573975,
                        0.12468005673754057,
                        -0.536371500980497,
                        -0.12050357743783763,
                        -0.8372829980459057,
                        -0.9444643935186677,
                        -0.7518871712762375,
                        -0.4339184067330568,
                        -0.2834860384464264,
                        0.45817345084387797,
                        0.7399901370709813,
                        0.2629385032015559,
                        -0.583345741540117,
                        0.5852102531797155,
                        -0.40230251567553979,
                        0.09191890121864838,
                        -0.3487897339528803,
                        0.5401858921124446,
                        -0.08055813001792124,
                        0.15997928014822797,
                        0.7312221162369803,
                        1.0064170523371039,
                        -0.05273612693203816,
                        -0.38636724750199449,
                        0.48945854776736538,
                        -0.6331529471288849,
                        -0.18165140117410484,
                        -0.582864554749996,
                        -1.2717703580856324,
                        0.5225043507974558,
                        -1.1011186566625964,
                        -0.08443154014208032,
                        0.03564854316682109,
                        -0.3659379797301291,
                        0.028671434674540698,
                        -0.19905352284017603,
                        -0.9794704755029055,
                        -0.5686727976966286,
                        0.6395157635466171,
                        -0.0817193096953365,
                        0.6533598239470998,
                        1.1063837138265438,
                        1.0755822960216049,
                        -1.443437068829848,
                        0.8189996470536572,
                        -0.5943490134266793,
                        0.006392653263329884,
                        -0.5899950839808439,
                        2.0685018512618416,
                        0.3529151687234801,
                        -0.6667679139370903
                    ]
                },
                {
                    "row": 12,
                    "column": 4,
                    "elements": [
                        -1.6887028598727115,
                        -0.6513729110326677,
                        -0.2668850099733149,
                        0.6211703489593032,
                        0.96748548499529,
                        -0.7528092017873784,
                        0.5305968550456576,
                        1.0250775530665837,
                        0.73113900597776,
                        1.8427122374410663,
                        0.13908938090398316,
                        0.8816287469627692,
                        0.15430456344594704,
                        0.748173501432993,
                        -0.6795921862373637,
                        0.46520205431759079,
                        0.06918692569551988,
                        -0.24625533858159233,
                        0.8986457434891153,
                        -0.8626352195823045,
                        0.12422171006564215,
                        0.21954031919245468,
                        -0.573072375330673,
                        -0.06846033579464883,
                        -0.28228842531562006,
                        0.18853983424010824,
                        0.248009574307767,
                        -0.5139451098659141,
                        -0.029516792493019918,
                        1.0715974268615447,
                        -0.29453171609189895,
                        0.04964161854865384,
                        -0.1968165482664495,
                        -0.19868335386866388,
                        0.019439119374614127,
                        0.3849355561919442,
                        -1.1075567988582518,
                        -0.9711463750263115,
                        0.22082881874533134,
                        -0.9615188064963526,
                        -0.8453427202470104,
                        -0.39243354459040377,
                        -0.009968134417009282,
                        -0.33285769662114947,
                        -0.1458456863525307,
                        0.4422515098322727,
                        -1.8232740128512597,
                        -0.8264971665714849
                    ]
                }
            ],
            "biases": [
                {
                    "row": 1,
                    "column": 12,
                    "elements": [
                        0.43018998395105659,
                        -0.3382915713458933,
                        -0.5777805810592621,
                        1.304042457794684,
                        1.0634801803517618,
                        -1.4224298435350636,
                        -0.4719723741045934,
                        -0.6674453313258082,
                        -1.102734677551331,
                        -1.4989888616142258,
                        -0.6852521039855505,
                        -0.45323799874088968
                    ]
                },
                {
                    "row": 1,
                    "column": 4,
                    "elements": [
                        0.6737319114421855,
                        -0.3621326383538899,
                        -0.4257796481204657,
                        0.5951344621365868
                    ]
                }
            ]
        },
        {
            "inputSize": 15,
            "hiddenSize": 12,
            "hiddenLayers": 1,
            "outputSize": 4,
            "weights": [
                {
                    "row": 15,
                    "column": 12,
                    "elements": [
                        -0.8835151675888823,
                        -0.3008031754282106,
                        1.1052590033234853,
                        0.772468013385193,
                        0.3789629014098297,
                        -0.8589588301918278,
                        -0.4484795723498663,
                        0.08585285756113485,
                        0.07195729283123698,
                        -0.9417721385431062,
                        2.8822909659300137,
                        1.2699610509402489,
                        -0.10476784340565536,
                        -1.087992361666065,
                        0.738878423166923,
                        0.8702249736528842,
                        0.044116005744467837,
                        0.8451498098184351,
                        1.0262200510486335,
                        0.29837966048774897,
                        -0.2921942603027161,
                        -0.8429855490849427,
                        0.5496149874324303,
                        0.8435053372183282,
                        1.0447753777816833,
                        0.4434004187114139,
                        0.337887950032451,
                        0.584513971685469,
                        -1.1623091325218323,
                        1.031807324435032,
                        0.0807658081008282,
                        1.0279995833261997,
                        0.18529875547865233,
                        0.7433083581160923,
                        0.39232376154242529,
                        0.044014925731070349,
                        -1.0388382553865805,
                        0.9964452027304411,
                        0.07151375201326255,
                        -0.4016945116182459,
                        -1.7479158019114976,
                        0.4647389601331532,
                        0.9501691823654493,
                        1.5167887779571812,
                        1.3564605897422387,
                        1.0243825961166087,
                        0.4211507586323878,
                        -0.45648854549671638,
                        0.7271710450186943,
                        0.377807405375561,
                        -0.4698366920120805,
                        0.6957574748708977,
                        0.4327275259173619,
                        0.4957417602378992,
                        -1.0220654268752352,
                        -0.18141338309223707,
                        -0.14991593385317998,
                        -0.36267837159127178,
                        -0.29595552495523316,
                        -0.14006300046394483,
                        -0.5037683627880458,
                        -0.340990724598432,
                        -0.21583310568364925,
                        -0.337679203238679,
                        0.9139677552103538,
                        0.7585938714381716,
                        -0.4169527074600293,
                        -0.6260257158528554,
                        -0.5400208501077033,
                        0.9706935896751222,
                        -0.12778340927813906,
                        -0.05251751130685234,
                        -0.4146749813364472,
                        -0.49110092832528609,
                        -0.6960640954176119,
                        -0.8075753951317384,
                        -0.36871795626526907,
                        -0.8855928628727192,
                        0.25820187970805327,
                        -0.3777506442860932,
                        -0.3643134941805307,
                        1.0557652935118128,
                        0.5935234828908422,
                        -0.36240843468984199,
                        -0.7919642702195863,
                        0.3145994165293735,
                        0.8975775792755187,
                        0.6854364838901247,
                        -2.180892258564584,
                        1.1254571274495014,
                        0.8226793738465446,
                        0.5840315891569082,
                        0.19270306488872369,
                        0.5254731915672734,
                        1.5421086482196989,
                        1.3453925112607333,
                        0.7860041839981261,
                        -1.9507141676539779,
                        -0.3248415616284863,
                        -0.7041850537912054,
                        0.10515933172696379,
                        -2.0465147192312105,
                        -1.2295539739891684,
                        0.6191241260615426,
                        0.11222952875439435,
                        -1.0321342217461663,
                        -1.0652917559416649,
                        0.7071370549332425,
                        -1.436837709769571,
                        1.1671986486455027,
                        -0.60832359551828,
                        0.4759715571201285,
                        0.4814303304315842,
                        0.4281054266801036,
                        0.2824042144251165,
                        1.5639044055779779,
                        2.6061734688509494,
                        -0.25252364606409008,
                        0.36992867470466686,
                        -0.14845366994445309,
                        0.8991709853636624,
                        0.6647564508215871,
                        -1.3257319750859236,
                        1.069771317913395,
                        -0.3934678446541838,
                        0.9639027657889777,
                        0.07738025256159997,
                        0.36143571994455439,
                        -1.921898919262867,
                        -0.9862916469573975,
                        0.12468005673754057,
                        -0.536371500980497,
                        -0.12050357743783763,
                        -0.8372829980459057,
                        -0.9444643935186677,
                        -0.7518871712762375,
                        -0.45789742631579735,
                        -0.2609149973669136,
                        0.45817345084387797,
                        0.7399901370709813,
                        0.2629385032015559,
                        -0.583345741540117,
                        0.5940725141577379,
                        -0.40230251567553979,
                        0.06704349455572395,
                        -0.3487897339528803,
                        0.5373535095563724,
                        -0.08055813001792124,
                        0.1667035958796569,
                        0.7312221162369803,
                        0.9991352204009046,
                        -0.05273612693203816,
                        -0.38636724750199449,
                        0.48945854776736538,
                        -0.6331529471288849,
                        -0.18165140117410484,
                        -0.582864554749996,
                        -1.2717703580856324,
                        0.5225043507974558,
                        -1.1011186566625964,
                        -0.08443154014208032,
                        0.03564854316682109,
                        -0.3659379797301291,
                        0.028671434674540698,
                        -0.19905352284017603,
                        -0.9794704755029055,
                        -0.5686727976966286,
                        0.6395157635466171,
                        -0.0817193096953365,
                        0.6533598239470998,
                        1.1063837138265438,
                        1.0755822960216049,
                        -1.443437068829848,
                        0.8189996470536572,
                        -0.5905620490948207,
                        0.006392653263329884,
                        -0.5899950839808439,
                        2.0893455569269299,
                        0.3529151687234801,
                        -0.6667679139370903
                    ]
                },
                {
                    "row": 12,
                    "column": 4,
                    "elements": [
                        -1.6887028598727115,
                        -0.6513729110326677,
                        -0.2745433400042405,
                        0.6211703489593032,
                        0.96748548499529,
                        -0.7528092017873784,
                        0.5548801825592183,
                        1.03851875421459,
                        0.73113900597776,
                        1.8427122374410663,
                        0.13908938090398316,
                        0.8816287469627692,
                        0.15430456344594704,
                        0.748173501432993,
                        -0.6795921862373637,
                        0.4631931662370733,
                        0.06918692569551988,
                        -0.24625533858159233,
                        0.8986457434891153,
                        -0.8626352195823045,
                        0.12422171006564215,
                        0.21954031919245468,
                        -0.573072375330673,
                        -0.06846033579464883,
                        -0.28228842531562006,
                        0.18853983424010824,
                        0.248009574307767,
                        -0.5139451098659141,
                        -0.029516792493019918,
                        1.0715974268615447,
                        -0.29453171609189895,
                        0.07271583487555628,
                        -0.1968165482664495,
                        -0.19868335386866388,
                        0.019439119374614127,
                        0.40418793589429516,
                        -1.1075567988582518,
                        -0.9711463750263115,
                        0.22082881874533134,
                        -0.9615188064963526,
                        -0.8453427202470104,
                        -0.39243354459040377,
                        -0.009968134417009282,
                        -0.33285769662114947,
                        -0.1458456863525307,
                        0.4422515098322727,
                        -1.8232740128512597,
                        -0.8264971665714849
                    ]
                }
            ],
            "biases": [
                {
                    "row": 1,
                    "column": 12,
                    "elements": [
                        0.43018998395105659,
                        -0.3382915713458933,
                        -0.567493320279984,
                        1.304042457794684,
                        1.5847023725509644,
                        -1.4224298435350636,
                        -0.4719723741045934,
                        -0.6674453313258082,
                        -1.102734677551331,
                        -1.4989888616142258,
                        -0.6852521039855505,
                        -0.45323799874088968
                    ]
                },
                {
                    "row": 1,
                    "column": 4,
                    "elements": [
                        0.6737319114421855,
                        -0.367298094771865,
                        -0.4257796481204657,
                        0.5951344621365868
                    ]
                }
            ]
        },
        {
            "inputSize": 15,
            "hiddenSize": 12,
            "hiddenLayers": 1,
            "outputSize": 4,
            "weights": [
                {
                    "row": 15,
                    "column": 12,
                    "elements": [
                        -0.8835151675888823,
                        -0.3008031754282106,
                        1.1052590033234853,
                        0.772468013385193,
                        0.39606634178910418,
                        -0.8589588301918278,
                        -0.4155497997552156,
                        0.08585285756113485,
                        0.07195729283123698,
                        -0.9417721385431062,
                        2.8785484094417059,
                        1.2699610509402489,
                        -0.10476784340565536,
                        -1.087992361666065,
                        0.738878423166923,
                        0.8702249736528842,
                        0.09660026417676093,
                        0.8451498098184351,
                        1.0186317379963142,
                        0.27632962836494398,
                        -0.2921942603027161,
                        -0.8429855490849427,
                        0.5496149874324303,
                        0.8435053372183282,
                        1.0348119031346564,
                        0.4434004187114139,
                        0.33845792330967769,
                        0.584513971685469,
                        -1.1623091325218323,
                        1.04953347240575,
                        0.08270584670869291,
                        1.0556818537111759,
                        0.16847224065700035,
                        0.7629664737789178,
                        0.39232376154242529,
                        0.02666221396454526,
                        -1.0388382553865805,
                        1.0119924412692896,
                        0.07151375201326255,
                        -0.41979581002270185,
                        -1.7376503123242835,
                        0.4647389601331532,
                        0.9501691823654493,
                        1.5167887779571812,
                        1.3564605897422387,
                        1.0243825961166087,
                        0.4211507586323878,
                        -0.45648854549671638,
                        0.7271710450186943,
                        0.38828362002711105,
                        -0.4698366920120805,
                        0.6986922236337121,
                        0.4327275259173619,
                        0.5013150512958444,
                        -1.0281353313053734,
                        -0.18141338309223707,
                        -0.14991593385317998,
                        -0.36267837159127178,
                        -0.29595552495523316,
                        -0.14006300046394483,
                        -0.5249618547269015,
                        -0.3451036911631849,
                        -0.20332014910565436,
                        -0.337679203238679,
                        0.9292454326433004,
                        0.7585938714381716,
                        -0.4169527074600293,
                        -0.6260257158528554,
                        -0.5185540732628466,
                        0.9706935896751222,
                        -0.1257946078134503,
                        -0.05251751130685234,
                        -0.4146749813364472,
                        -0.49110092832528609,
                        -0.6960640954176119,
                        -0.789069813928015,
                        -0.3529863751673886,
                        -0.8855928628727192,
                        0.25820187970805327,
                        -0.379343851222366,
                        -0.34714361012102448,
                        1.0557652935118128,
                        0.5935234828908422,
                        -0.36240843468984199,
                        -0.7919642702195863,
                        0.33800097440550838,
                        0.8870415644772951,
                        0.6854364838901247,
                        -2.180892258564584,
                        1.1254571274495014,
                        0.8226793738465446,
                        0.6179981267077479,
                        0.1861075458510788,
                        0.5254731915672734,
                        1.5421086482196989,
                        1.3401837383602287,
                        0.7860041839981261,
                        -1.9507141676539779,
                        -0.3248415616284863,
                        -0.7027065546501344,
                        0.10515933172696379,
                        -2.0053633253069607,
                        -1.2295539739891684,
                        0.6191241260615426,
                        0.11323845282866588,
                        -1.0321342217461663,
                        -1.0652917559416649,
                        0.7071370549332425,
                        -1.436837709769571,
                        1.131518513358459,
                        -0.6453336135165726,
                        0.5176531415003621,
                        0.4814303304315842,
                        0.4281054266801036,
                        0.28976628970859749,
                        1.5639044055779779,
                        2.6061734688509494,
                        -0.25252364606409008,
                        0.33090757696311737,
                        -0.14845366994445309,
                        0.9346250706364941,
                        0.6647564508215871,
                        -1.3257319750859236,
                        1.069771317913395,
                        -0.3934678446541838,
                        0.9200533462216033,
                        0.07738025256159997,
                        0.3337864514585598,
                        -1.921898919262867,
                        -0.9862916469573975,
                        0.12468005673754057,
                        -0.536371500980497,
                        -0.12050357743783763,
                        -0.8372829980459057,
                        -0.9444643935186677,
                        -0.7480054620853707,
                        -0.4339184067330568,
                        -0.2834860384464264,
                        0.45817345084387797,
                        0.7399901370709813,
                        0.2629385032015559,
                        -0.583345741540117,
                        0.5852102531797155,
                        -0.40230251567553979,
                        0.09191890121864838,
                        -0.3487897339528803,
                        0.5401858921124446,
                        -0.11827133260514124,
                        0.15997928014822797,
                        0.7312221162369803,
                        1.0064170523371039,
                        -0.05273612693203816,
                        -0.38636724750199449,
                        0.48945854776736538,
                        -0.6331529471288849,
                        -0.1952672892269285,
                        -0.582864554749996,
                        -1.2717703580856324,
                        0.5225043507974558,
                        -1.1011186566625964,
                        -0.08443154014208032,
                        0.03564854316682109,
                        -0.3659379797301291,
                        -0.6236870288848877,
                        -0.19905352284017603,
                        -0.9794704755029055,
                        -0.562512701904218,
                        0.6395157635466171,
                        -0.08243192969932092,
                        0.6599620377782962,
                        1.1063837138265438,
                        1.0755822960216049,
                        -1.443437068829848,
                        0.8189996470536572,
                        -0.5943490134266793,
                        0.006392653263329884,
                        -0.5899950839808439,
                        2.0933619073448934,
                        0.3529151687234801,
                        -0.6667679139370903
                    ]
                },
                {
                    "row": 12,
                    "column": 4,
                    "elements": [
                        -1.6887028598727115,
                        -0.6768372568723392,
                        -0.2668850099733149,
                        0.6211703489593032,
                        0.96748548499529,
                        -0.7528092017873784,
                        0.5305968550456576,
                        1.0250775530665837,
                        0.73113900597776,
                        1.8427122374410663,
                        0.13908938090398316,
                        0.8816287469627692,
                        0.15430456344594704,
                        0.748173501432993,
                        -0.6795921862373637,
                        0.46520205431759079,
                        0.06822371666913572,
                        -0.24625533858159233,
                        0.8986457434891153,
                        -0.8626352195823045,
                        0.12422171006564215,
                        0.21954031919245468,
                        -0.573072375330673,
                        -0.06846033579464883,
                        -0.2831294950398579,
                        0.21069165678879965,
                        0.248009574307767,
                        -0.5139451098659141,
                        -0.04662398200436696,
                        1.0715974268615447,
                        -0.29453171609189895,
                        0.04964161854865384,
                        -0.1968165482664495,
                        -0.19868335386866388,
                        0.019439119374614127,
                        0.3849355561919442,
                        -1.1075567988582518,
                        -0.9711463750263115,
                        0.22082881874533134,
                        -0.9433326596898625,
                        -0.8453427202470104,
                        -0.39243354459040377,
                        -0.009968134417009282,
                        -0.311878399928971,
                        -0.1458456863525307,
                        0.4422515098322727,
                        -1.8232740128512597,
                        -0.8264971665714849
                    ]
                }
            ],
            "biases": [
                {
                    "row": 1,
                    "column": 12,
                    "elements": [
                        0.45238052090775718,
                        -0.3382915713458933,
                        -0.5777805810592621,
                        1.304042457794684,
                        1.0634801803517618,
                        -1.4224298435350636,
                        -0.4719723741045934,
                        -0.6674453313258082,
                        -1.102734677551331,
                        0.818304181098938,
                        -0.6852521039855505,
                        -0.4371465915631003
                    ]
                },
                {
                    "row": 1,
                    "column": 4,
                    "elements": [
                        0.699013721637591,
                        -0.3621326383538899,
                        -0.4257796481204657,
                        0.5951344621365868
                    ]
                }
            ]
        },
        {
            "inputSize": 15,
            "hiddenSize": 12,
            "hiddenLayers": 1,
            "outputSize": 4,
            "weights": [
                {
                    "row": 15,
                    "column": 12,
                    "elements": [
                        -0.9153700944166946,
                        -0.3008031754282106,
                        1.0932695090293224,
                        0.772468013385193,
                        0.3686162326824318,
                        -0.8589588301918278,
                        -0.4484795723498663,
                        0.08585285756113485,
                        0.07195729283123698,
                        -0.9417721385431062,
                        2.8822909659300137,
                        1.2699610509402489,
                        -0.10476784340565536,
                        -1.087992361666065,
                        0.738878423166923,
                        0.8702249736528842,
                        0.09660026417676093,
                        0.8451498098184351,
                        1.0142382266799888,
                        0.29837966048774897,
                        -0.2921942603027161,
                        -0.8429855490849427,
                        0.5496149874324303,
                        0.8435053372183282,
                        1.0447753777816833,
                        0.465810675073146,
                        0.33845792330967769,
                        0.584513971685469,
                        -1.1623091325218323,
                        1.031807324435032,
                        0.08270584670869291,
                        1.0279995833261997,
                        0.18529875547865233,
                        0.7629664737789178,
                        0.36129908925080386,
                        0.02666221396454526,
                        -1.0388382553865805,
                        0.9955007388428792,
                        0.04532645668489793,
                        -0.41979581002270185,
                        -1.7376503123242835,
                        0.4647389601331532,
                        0.9501691823654493,
                        1.5167887779571812,
                        1.3564605897422387,
                        1.0243825961166087,
                        0.4211507586323878,
                        -0.45648854549671638,
                        0.7271710450186943,
                        0.377807405375561,
                        -0.4698366920120805,
                        0.6957574748708977,
                        0.4327275259173619,
                        0.5013150512958444,
                        -1.0220654268752352,
                        -0.18141338309223707,
                        -0.14991593385317998,
                        -0.36267837159127178,
                        -0.29595552495523316,
                        -0.14006300046394483,
                        -0.5037683627880458,
                        -0.340990724598432,
                        -0.21583310568364925,
                        -0.337679203238679,
                        0.9139677552103538,
                        0.7457994128580306,
                        -0.42653737910076808,
                        -0.6260257158528554,
                        -0.5185540732628466,
                        0.9706935896751222,
                        -0.12778340927813906,
                        -0.05251751130685234,
                        -0.4146749813364472,
                        -0.49110092832528609,
                        -0.6960640954176119,
                        -0.8075753951317384,
                        -0.36871795626526907,
                        -0.8769259275033529,
                        0.25820187970805327,
                        -0.3777506442860932,
                        -0.34714361012102448,
                        1.0557652935118128,
                        0.5935234828908422,
                        -0.36240843468984199,
                        -0.7919642702195863,
                        0.3145994165293735,
                        0.9075511718107703,
                        0.6854364838901247,
                        -2.1785871205049935,
                        1.1254571274495014,
                        0.8226793738465446,
                        0.5840315891569082,
                        0.19270306488872369,
                        0.5207470818701872,
                        1.5421086482196989,
                        1.3453925112607333,
                        0.7860041839981261,
                        -1.9507141676539779,
                        -0.3248415616284863,
                        -0.7041850537912054,
                        0.10515933172696379,
                        -2.0465147192312105,
                        -1.2295539739891684,
                        0.6191241260615426,
                        0.11222952875439435,
                        -1.0321342217461663,
                        -1.0652917559416649,
                        0.7071370549332425,
                        -1.436837709769571,
                        1.162010675381374,
                        -0.60832359551828,
                        0.4759715571201285,
                        0.4814303304315842,
                        0.4281054266801036,
                        0.28976628970859749,
                        1.5639044055779779,
                        2.6061734688509494,
                        -0.25252364606409008,
                        0.3589379980704448,
                        -0.14921977930447498,
                        0.8991709853636624,
                        0.6868648573479945,
                        -1.3257319750859236,
                        1.0690450097030438,
                        -0.3934678446541838,
                        0.9639027657889777,
                        0.07738025256159997,
                        0.36143571994455439,
                        -1.921898919262867,
                        -0.9470456489752084,
                        0.12468005673754057,
                        -0.536371500980497,
                        -0.12050357743783763,
                        -0.8372829980459057,
                        -0.9444643935186677,
                        -0.7518871712762375,
                        -0.45789742631579735,
                        -0.2834860384464264,
                        0.45817345084387797,
                        0.7399901370709813,
                        0.2629385032015559,
                        -0.583345741540117,
                        0.5852102531797155,
                        -0.40230251567553979,
                        0.06704349455572395,
                        -0.3487897339528803,
                        0.5548127488278215,
                        -0.08055813001792124,
                        0.15997928014822797,
                        0.7312221162369803,
                        1.0064170523371039,
                        -0.05273612693203816,
                        -0.34615006338047185,
                        0.48945854776736538,
                        -0.6331529471288849,
                        -0.18165140117410484,
                        -0.582864554749996,
                        -1.2717703580856324,
                        0.5225043507974558,
                        -1.1011186566625964,
                        -0.08443154014208032,
                        0.03564854316682109,
                        -0.3659379797301291,
                        0.028671434674540698,
                        -0.19905352284017603,
                        -1.001261527834136,
                        -0.5686727976966286,
                        0.5939087460952492,
                        -0.0817193096953365,
                        0.6533598239470998,
                        1.1063837138265438,
                        1.0755822960216049,
                        -1.443437068829848,
                        0.8189996470536572,
                        -0.5943490134266793,
                        -0.006324031985953604,
                        -0.5899950839808439,
                        2.0893455569269299,
                        0.3529151687234801,
                        -0.6667679139370903
                    ]
                },
                {
                    "row": 12,
                    "column": 4,
                    "elements": [
                        -1.663427239023481,
                        -0.6513729110326677,
                        -0.2668850099733149,
                        0.6211703489593032,
                        0.96748548499529,
                        -0.7528092017873784,
                        0.5548801825592183,
                        1.03851875421459,
                        0.73113900597776,
                        1.8427122374410663,
                        0.13908938090398316,
                        0.8816287469627692,
                        0.15430456344594704,
                        0.748173501432993,
                        -0.6795921862373637,
                        0.4631931662370733,
                        0.06918692569551988,
                        -0.24625533858159233,
                        0.8986457434891153,
                        -0.8626352195823045,
                        0.12422171006564215,
                        0.21954031919245468,
                        -0.573072375330673,
                        -0.06846033579464883,
                        -0.28228842531562006,
                        0.18853983424010824,
                        0.248009574307767,
                        -0.5139451098659141,
                        -0.029516792493019918,
                        1.0715974268615447,
                        -0.29453171609189895,
                        0.04964161854865384,
                        -0.1968165482664495,
                        -0.19868335386866388,
                        0.011305729606610974,
                        0.40418793589429516,
                        -1.1075567988582518,
                        -0.9711463750263115,
                        0.22082881874533134,
                        -0.9615188064963526,
                        -0.8453427202470104,
                        -0.39243354459040377,
                        -0.009968134417009282,
                        -0.33285769662114947,
                        -0.1458456863525307,
                        0.4422515098322727,
                        -1.8232740128512597,
                        -0.8264971665714849
                    ]
                }
            ],
            "biases": [
                {
                    "row": 1,
                    "column": 12,
                    "elements": [
                        0.43018998395105659,
                        -0.3382915713458933,
                        -0.567493320279984,
                        1.304042457794684,
                        1.0634801803517618,
                        -1.4224298435350636,
                        -0.4719723741045934,
                        -0.6674453313258082,
                        -1.102734677551331,
                        -1.4989888616142258,
                        -0.6852521039855505,
                        -0.45323799874088968
                    ]
                },
                {
                    "row": 1,
                    "column": 4,
                    "elements": [
                        0.6737319114421855,
                        -0.367298094771865,
                        -0.4358686221324016,
                        0.5951344621365868
                    ]
                }
            ]
        },
        {
            "inputSize": 15,
            "hiddenSize": 12,
            "hiddenLayers": 1,
            "outputSize": 4,
            "weights": [
                {
                    "row": 15,
                    "column": 12,
                    "elements": [
                        -0.8835151675888823,
                        -0.3008031754282106,
                        1.1052590033234853,
                        0.772468013385193,
                        0.39606634178910418,
                        -0.8589588301918278,
                        -0.4484795723498663,
                        0.08585285756113485,
                        0.07195729283123698,
                        -0.9417721385431062,
                        2.8785484094417059,
                        1.2699610509402489,
                        -0.10476784340565536,
                        -1.087992361666065,
                        0.738878423166923,
                        0.8702249736528842,
                        0.09660026417676093,
                        0.8451498098184351,
                        1.0186317379963142,
                        0.27632962836494398,
                        -0.2921942603027161,
                        -0.8429855490849427,
                        0.5496149874324303,
                        0.8435053372183282,
                        1.0348119031346564,
                        0.4434004187114139,
                        0.3437965955898699,
                        0.584513971685469,
                        -1.1623091325218323,
                        1.04953347240575,
                        0.08270584670869291,
                        1.0556818537111759,
                        0.16847224065700035,
                        0.7629664737789178,
                        0.39232376154242529,
                        0.02666221396454526,
                        -1.0388382553865805,
                        1.0119924412692896,
                        0.07151375201326255,
                        -0.41979581002270185,
                        -1.7376503123242835,
                        0.4647389601331532,
                        0.9501691823654493,
                        1.5167887779571812,
                        1.3564605897422387,
                        1.0243825961166087,
                        0.4211507586323878,
                        -0.45648854549671638,
                        0.7271710450186943,
                        0.38828362002711105,
                        -0.4702748941375508,
                        0.6986922236337121,
                        0.4327275259173619,
                        0.5013150512958444,
                        -1.0281353313053734,
                        -0.18141338309223707,
                        -0.14492798542779646,
                        -0.36267837159127178,
                        -0.29595552495523316,
                        -0.14006300046394483,
                        -0.5037683627880458,
                        -0.340990724598432,
                        -0.20332014910565436,
                        -0.337679203238679,
                        0.9292454326433004,
                        0.7585938714381716,
                        -0.4169527074600293,
                        -0.6260257158528554,
                        -0.5185540732628466,
                        0.9814785599559862,
                        -0.1257946078134503,
                        -0.05251751130685234,
                        -0.4146749813364472,
                        -0.49110092832528609,
                        -0.6960640954176119,
                        -0.8075753951317384,
                        -0.3529863751673886,
                        -0.8855928628727192,
                        0.25820187970805327,
                        -0.3777506442860932,
                        -0.34714361012102448,
                        1.0557652935118128,
                        0.5935234828908422,
                        -0.36240843468984199,
                        -0.7919642702195863,
                        0.33800097440550838,
                        0.8870415644772951,
                        0.6854364838901247,
                        -2.180892258564584,
                        1.1254571274495014,
                        0.8226793738465446,
                        0.6084522886843052,
                        0.19270306488872369,
                        0.5254731915672734,
                        1.5421086482196989,
                        1.3401837383602287,
                        0.7860041839981261,
                        -1.9324440247918549,
                        -0.3248415616284863,
                        -0.7027065546501344,
                        0.10515933172696379,
                        -2.0053633253069607,
                        -1.2295539739891684,
                        0.628623431931942,
                        0.11222952875439435,
                        -1.0321342217461663,
                        -1.0652917559416649,
                        0.7071370549332425,
                        -1.4276384965896077,
                        1.131518513358459,
                        -0.6453336135165726,
                        0.5176531415003621,
                        0.4814303304315842,
                        0.4281054266801036,
                        0.28976628970859749,
                        1.5639044055779779,
                        2.6061734688509494,
                        -0.25252364606409008,
                        0.3589379980704448,
                        -0.14845366994445309,
                        0.9346250706364941,
                        0.6647564508215871,
                        -1.3070342142066252,
                        1.069771317913395,
                        -0.3934678446541838,
                        0.9200533462216033,
                        0.07738025256159997,
                        0.34039094635946079,
                        -1.9180006346167052,
                        -0.9862916469573975,
                        0.12468005673754057,
                        -0.536371500980497,
                        -0.12050357743783763,
                        -0.8372829980459057,
                        -0.9864647912157499,
                        -0.719891453512241,
                        -0.4339184067330568,
                        -0.2834860384464264,
                        0.45817345084387797,
                        0.7399901370709813,
                        0.2629385032015559,
                        -0.583345741540117,
                        0.5852102531797155,
                        -0.40230251567553979,
                        0.09191890121864838,
                        -0.3487897339528803,
                        0.5401858921124446,
                        -0.08055813001792124,
                        0.17574742869486074,
                        0.6957019949796779,
                        1.0064170523371039,
                        -0.05273612693203816,
                        -0.38636724750199449,
                        0.48945854776736538,
                        -0.6331529471288849,
                        -0.18165140117410484,
                        -0.582864554749996,
                        -1.2717703580856324,
                        0.5225043507974558,
                        -1.1011186566625964,
                        -0.08443154014208032,
                        0.03564854316682109,
                        -0.3659379797301291,
                        0.028671434674540698,
                        -0.17136893502666279,
                        -0.9794704755029055,
                        -0.5780425457219472,
                        0.6395157635466171,
                        -0.06362862330159916,
                        0.6599620377782962,
                        1.0979856991111854,
                        1.0755822960216049,
                        -1.443437068829848,
                        0.8189996470536572,
                        -0.5943490134266793,
                        0.006392653263329884,
                        -0.5899950839808439,
                        2.0873319523309767,
                        0.3529151687234801,
                        -0.6926436557941778
                    ]
                },
                {
                    "row": 12,
                    "column": 4,
                    "elements": [
                        -1.6887028598727115,
                        -0.6768372568723392,
                        -0.2618897000764429,
                        0.6211703489593032,
                        0.96748548499529,
                        -0.7528092017873784,
                        0.5305968550456576,
                        1.0250775530665837,
                        0.7244285614389532,
                        1.8427122374410663,
                        0.13908938090398316,
                        0.8816287469627692,
                        0.15430456344594704,
                        0.7432553932584478,
                        -0.6795921862373637,
                        0.46520205431759079,
                        0.06918692569551988,
                        -0.2296910448520254,
                        0.9108700371631009,
                        -0.8626352195823045,
                        0.12422171006564215,
                        0.2127958249050345,
                        -0.573072375330673,
                        -0.09288987349857558,
                        -0.2831294950398579,
                        0.18853983424010824,
                        0.248009574307767,
                        -0.5139451098659141,
                        -0.04022463078898991,
                        1.0715974268615447,
                        -0.29453171609189895,
                        0.04964161854865384,
                        -0.1968165482664495,
                        -0.19868335386866388,
                        0.019439119374614127,
                        0.3849355561919442,
                        -1.1075567988582518,
                        -0.9711463750263115,
                        0.22879702914519274,
                        -0.9433326596898625,
                        -0.8453427202470104,
                        -0.061428818851709369,
                        -0.009968134417009282,
                        -0.311878399928971,
                        -0.1458456863525307,
                        0.4422515098322727,
                        -1.8232740128512597,
                        -0.8264971665714849
                    ]
                }
            ],
            "biases": [
                {
                    "row": 1,
                    "column": 12,
                    "elements": [
                        0.43018998395105659,
                        -0.3382915713458933,
                        -0.5777805810592621,
                        1.304042457794684,
                        1.0634801803517618,
                        -1.4224298435350636,
                        -0.4719723741045934,
                        -0.6674453313258082,
                        -1.102734677551331,
                        -1.4989888616142258,
                        -0.6852521039855505,
                        -0.4440596626833385
                    ]
                },
                {
                    "row": 1,
                    "column": 4,
                    "elements": [
                        0.699013721637591,
                        -0.3595625218914085,
                        -0.4257796481204657,
                        0.5951344621365868
                    ]
                }
            ]
        },
        {
            "inputSize": 15,
            "hiddenSize": 12,
            "hiddenLayers": 1,
            "outputSize": 4,
            "weights": [
                {
                    "row": 15,
                    "column": 12,
                    "elements": [
                        -0.8835151675888823,
                        -0.3008031754282106,
                        1.1052590033234853,
                        0.772468013385193,
                        0.38263745376834037,
                        -0.8589588301918278,
                        -0.4484795723498663,
                        0.08585285756113485,
                        0.07195729283123698,
                        -0.9417721385431062,
                        2.8785484094417059,
                        1.2699610509402489,
                        -0.10476784340565536,
                        -1.087992361666065,
                        0.738878423166923,
                        0.8702249736528842,
                        0.09660026417676093,
                        0.8451498098184351,
                        1.0186317379963142,
                        0.27632962836494398,
                        -0.2921942603027161,
                        -0.8429855490849427,
                        0.5496149874324303,
                        0.8435053372183282,
                        1.0348119031346564,
                        0.4434004187114139,
                        0.33845792330967769,
                        0.5878455741247921,
                        -1.1623091325218323,
                        1.04953347240575,
                        0.08270584670869291,
                        1.0556818537111759,
                        0.16847224065700035,
                        0.7629664737789178,
                        0.39232376154242529,
                        0.02666221396454526,
                        -1.0388382553865805,
                        1.0109017154098277,
                        0.07151375201326255,
                        -0.41979581002270185,
                        -1.7376503123242835,
                        0.4647389601331532,
                        0.9501691823654493,
                        1.5167887779571812,
                        1.3564605897422387,
                        1.0243825961166087,
                        0.4211507586323878,
                        -0.45648854549671638,
                        0.7271710450186943,
                        0.38828362002711105,
                        -0.4698366920120805,
                        0.6986922236337121,
                        0.4327275259173619,
                        0.5013150512958444,
                        -1.0281353313053734,
                        -0.18141338309223707,
                        -0.14991593385317998,
                        -0.35283000900794067,
                        -0.29595552495523316,
                        -0.14006300046394483,
                        -0.5037683627880458,
                        -0.340990724598432,
                        -0.23268598125491039,
                        -0.337679203238679,
                        0.9292454326433004,
                        0.7585938714381716,
                        -0.4169527074600293,
                        -0.6260257158528554,
                        -0.4959239568291245,
                        0.9706935896751222,
                        -0.1257946078134503,
                        -0.05251751130685234,
                        -0.42191706293593425,
                        -0.49110092832528609,
                        -0.6960640954176119,
                        -0.8075753951317384,
                        -0.3529863751673886,
                        -0.8855928628727192,
                        0.25820187970805327,
                        -0.3777506442860932,
                        -0.34714361012102448,
                        1.0557652935118128,
                        0.5935234828908422,
                        -0.36240843468984199,
                        -0.7919642702195863,
                        0.33800097440550838,
                        0.8876093659848321,
                        0.6854364838901247,
                        -2.180892258564584,
                        1.1254571274495014,
                        0.8284732742068479,
                        0.5812121250132326,
                        0.19270306488872369,
                        0.5254731915672734,
                        1.5421086482196989,
                        1.3401837383602287,
                        0.7860041839981261,
                        -1.9507141676539779,
                        -0.3117461031752362,
                        -0.6935620019084404,
                        0.10515933172696379,
                        -2.0053633253069607,
                        -1.2295539739891684,
                        0.6191241260615426,
                        0.11222952875439435,
                        -1.0321342217461663,
                        -1.0652917559416649,
                        0.7071370549332425,
                        -1.436837709769571,
                        1.131518513358459,
                        -0.6453336135165726,
                        0.5176531415003621,
                        0.4814303304315842,
                        0.4281054266801036,
                        0.28976628970859749,
                        1.5639044055779779,
                        2.6061734688509494,
                        -0.25252364606409008,
                        0.3589379980704448,
                        -0.14845366994445309,
                        0.9346250706364941,
                        0.6647564508215871,
                        -1.3257319750859236,
                        1.069771317913395,
                        -0.3934678446541838,
                        0.9200533462216033,
                        0.07738025256159997,
                        0.3337864514585598,
