{
    "generation": 0,
    "totalPopulation": 100,
    "brainDataList": [
        {
            "inputSize": 15,
            "hiddenSize": 12,
            "hiddenLayers": 1,
            "outputSize": 4,
            "weights": [
                {
                    "row": 15,
                    "column": 12,
                    "elements": [
                        -0.5373749732971191,
                        0.14367830753326417,
                        0.36349913477897646,
                        0.1535879373550415,
                        -0.7085416316986084,
                        -0.94586181640625,
                        0.0686715841293335,
                        0.5200474262237549,
                        0.1058124303817749,
                        -0.18737566471099854,
                        -0.40811336040496828,
                        -0.5513479709625244,
                        0.494075745344162,
                        -0.7981224060058594,
                        -0.3837205171585083,
                        0.4103865325450897,
                        -0.6317062377929688,
                        0.22134745121002198,
                        -0.23349225521087647,
                        -0.6224572658538818,
                        0.8853073120117188,
                        0.014710307121276856,
                        -0.851527214050293,
                        0.8081347942352295,
                        -0.9873552322387695,
                        0.5848774909973145,
                        -0.9165768623352051,
                        -0.40583908557891848,
                        -0.5814106464385986,
                        0.23817646503448487,
                        0.337997168302536,
                        0.6086366176605225,
                        -0.27823150157928469,
                        0.9126589298248291,
                        -0.1421757936477661,
                        0.5278482437133789,
                        -0.25112593173980715,
                        -0.044268012046813968,
                        0.7489166259765625,
                        -0.8261780738830566,
                        -0.6667919158935547,
                        -0.6464574337005615,
                        -0.41087400913238528,
                        -0.556265115737915,
                        0.7720968723297119,
                        0.7858526706695557,
                        0.32994863390922549,
                        0.3898937404155731,
                        0.3038165271282196,
                        0.4887706935405731,
                        0.3974928557872772,
                        0.2942337691783905,
                        -0.8566172122955322,
                        0.3718542754650116,
                        0.09812676906585694,
                        0.30735012888908389,
                        -0.8268299102783203,
                        -0.22204983234405518,
                        -0.9325780868530273,
                        -0.8656809329986572,
                        0.3278782069683075,
                        -0.8007910251617432,
                        0.1446317434310913,
                        -0.4074810743331909,
                        -0.7074947357177734,
                        -0.12053358554840088,
                        0.24972188472747804,
                        0.050907254219055179,
                        0.5622940063476563,
                        0.6907751560211182,
                        -0.8698539733886719,
                        -0.10367476940155029,
                        -0.3704644441604614,
                        0.9907763004302979,
                        -0.7488527297973633,
                        0.7061617374420166,
                        -0.3925572633743286,
                        -0.9893159866333008,
                        -0.3940645456314087,
                        -0.45231449604034426,
                        -0.7672398090362549,
                        0.309066504240036,
                        0.9786820411682129,
                        0.15291297435760499,
                        0.8094625473022461,
                        0.14922988414764405,
                        -0.32733380794525149,
                        0.5750749111175537,
                        0.5431673526763916,
                        0.22168457508087159,
                        -0.5413894653320313,
                        -0.4271630048751831,
                        0.08674538135528565,
                        0.8652019500732422,
                        0.4662799537181854,
                        -0.3449176549911499,
                        -0.7547271251678467,
                        0.5600156784057617,
                        0.2321416139602661,
                        0.8527462482452393,
                        -0.4644101858139038,
                        -0.13885176181793214,
                        0.15665805339813233,
                        0.9101693630218506,
                        0.31728073954582217,
                        0.3975388705730438,
                        0.8202924728393555,
                        -0.954035758972168,
                        0.7034471035003662,
                        0.18815124034881593,
                        -0.7934854030609131,
                        0.8509776592254639,
                        0.8437807559967041,
                        0.2855837047100067,
                        -0.5076801776885986,
                        -0.7828896045684815,
                        0.6890273094177246,
                        -0.8324832916259766,
                        -0.5878183841705322,
                        0.573636531829834,
                        -0.8951048851013184,
                        -0.13980162143707276,
                        0.048197388648986819,
                        0.48845264315605166,
                        0.7578961849212647,
                        0.050540804862976077,
                        -0.9131548404693604,
                        0.21734726428985597,
                        0.3426642119884491,
                        0.6021203994750977,
                        -0.6162831783294678,
                        0.2930853068828583,
                        -0.5746140480041504,
                        0.28226110339164736,
                        -0.3757833242416382,
                        0.9477121829986572,
                        -0.7597029209136963,
                        0.28389403223991396,
                        0.3083471953868866,
                        0.8476791381835938,
                        -0.36567866802215578,
                        -0.6221408843994141,
                        -0.5129599571228027,
                        -0.3058677911758423,
                        -0.3538600206375122,
                        -0.7135927677154541,
                        -0.1488581895828247,
                        0.07110011577606201,
                        0.0855792760848999,
                        -0.9380042552947998,
                        0.20548641681671143,
                        0.7837710380554199,
                        -0.7536489963531494,
                        -0.5642387866973877,
                        -0.7627675533294678,
                        -0.011162877082824707,
                        -0.5075340270996094,
                        -0.539616584777832,
                        -0.3169442415237427,
                        -0.6206686496734619,
                        0.7416172027587891,
                        -0.5734808444976807,
                        -0.2726813554763794,
                        0.9572813510894775,
                        -0.26916277408599856,
                        -0.44053828716278078,
                        -0.7256555557250977,
                        0.27744433283805849,
                        0.12234103679656983,
                        -0.9514107704162598,
                        -0.5154297351837158,
                        -0.3789302110671997,
                        -0.500840425491333,
                        -0.7468593120574951,
                        0.5262243747711182,
                        0.6892585754394531,
                        -0.34084975719451907,
                        0.9317152500152588,
                        0.35677477717399599,
                        0.10516059398651123
                    ]
                },
                {
                    "row": 12,
                    "column": 4,
                    "elements": [
                        0.8027973175048828,
                        -0.1720982789993286,
                        -0.15012013912200929,
                        0.019591927528381349,
                        -0.7279512882232666,
                        0.5931305885314941,
                        -0.09484279155731201,
                        0.6501367092132568,
                        -0.7849612236022949,
                        0.9474489688873291,
                        -0.3932079076766968,
                        -0.6350936889648438,
                        -0.5694036483764648,
                        0.3570222556591034,
                        -0.1805177927017212,
                        -0.6580395698547363,
                        0.5735287666320801,
                        -0.37600886821746828,
                        -0.45907866954803469,
                        0.7424459457397461,
                        0.8266861438751221,
                        -0.15516984462738038,
                        0.7563309669494629,
                        -0.7969725131988525,
                        -0.8703372478485107,
                        -0.8516960144042969,
                        0.4064333140850067,
                        0.7054286003112793,
                        0.3777253329753876,
                        0.2838916480541229,
                        0.8902726173400879,
                        -0.4691044092178345,
                        0.808950662612915,
                        -0.3536897897720337,
                        0.6933472156524658,
                        -0.4798647165298462,
                        -0.015442967414855957,
                        -0.08324921131134033,
                        -0.3582209348678589,
                        -0.7022519111633301,
                        0.48277541995048525,
                        -0.8467919826507568,
                        -0.4029451608657837,
                        0.28513118624687197,
                        -0.03913390636444092,
                        0.7192220687866211,
                        -0.05394113063812256,
                        0.5336389541625977
                    ]
                }
            ],
            "biases": [
                {
                    "row": 1,
                    "column": 12,
                    "elements": [
                        0.5413873195648193,
                        0.579719066619873,
                        -0.906937837600708,
                        -0.6206960678100586,
                        0.3910791575908661,
                        -0.4087477922439575,
                        -0.8619863986968994,
                        -0.8593246936798096,
                        0.49997398257255556,
                        0.40050575137138369,
                        -0.8992376327514648,
                        0.3196508586406708
                    ]
                },
                {
                    "row": 1,
                    "column": 4,
                    "elements": [
                        -0.3494318723678589,
                        -0.86197829246521,
                        0.7202706336975098,
                        -0.354488730430603
                    ]
                }
            ]
        },
        {
            "inputSize": 15,
            "hiddenSize": 12,
            "hiddenLayers": 1,
            "outputSize": 4,
            "weights": [
                {
                    "row": 15,
                    "column": 12,
                    "elements": [
                        -0.03125965595245361,
                        -0.9851012229919434,
                        -0.019609570503234865,
                        -0.14406263828277589,
                        -0.5499238967895508,
                        0.3092133700847626,
                        0.4000537097454071,
                        0.21360504627227784,
                        -0.8750514984130859,
                        -0.18621361255645753,
                        -0.5496859550476074,
                        -0.744455099105835,
                        -0.9057438373565674,
                        0.4457862079143524,
                        0.7150683403015137,
                        0.7747452259063721,
                        -0.17036473751068116,
                        0.08521902561187744,
                        -0.7555763721466065,
                        0.3686515986919403,
                        -0.984182596206665,
                        0.2946736514568329,
                        -0.4490135908126831,
                        0.31012460589408877,
                        0.023244261741638185,
                        0.7400588989257813,
                        -0.4567807912826538,
                        0.27704355120658877,
                        -0.9711627960205078,
                        -0.44602835178375246,
                        -0.5551471710205078,
                        0.43700501322746279,
                        -0.4505692720413208,
                        -0.3686624765396118,
                        -0.11607182025909424,
                        0.516779899597168,
                        0.20525705814361573,
                        0.16404974460601808,
                        -0.10197985172271729,
                        0.6216261386871338,
                        -0.16648876667022706,
                        -0.4563647508621216,
                        -0.2408064603805542,
                        -0.29412806034088137,
                        0.9208672046661377,
                        -0.19369184970855714,
                        0.9079997539520264,
                        -0.47753751277923586,
                        -0.44621503353118899,
                        -0.23465096950531007,
                        0.4243921935558319,
                        0.18403804302215577,
                        0.05015146732330322,
                        0.5454485416412354,
                        -0.7392981052398682,
                        -0.12927377223968507,
                        0.6641123294830322,
                        -0.08818376064300537,
                        0.3396117389202118,
                        0.09614861011505127,
                        -0.5725052356719971,
                        -0.11881673336029053,
                        -0.14130008220672608,
                        -0.878842830657959,
                        0.6871058940887451,
                        -0.12625610828399659,
                        -0.3973010778427124,
                        0.7119424343109131,
                        0.8766288757324219,
                        -0.870617151260376,
                        -0.29650747776031496,
                        0.13058507442474366,
                        0.751396894454956,
                        0.2128361463546753,
                        0.596515417098999,
                        0.5926036834716797,
                        0.5347654819488525,
                        0.7552871704101563,
                        -0.2491365671157837,
                        0.8949868679046631,
                        0.6958351135253906,
                        -0.37516677379608157,
                        -0.39036452770233157,
                        -0.3247131109237671,
                        0.3818654716014862,
                        -0.5866398811340332,
                        0.3476855456829071,
                        -0.42384183406829836,
                        0.37772151827812197,
                        0.39093419909477236,
                        -0.5583786964416504,
                        -0.43018829822540285,
                        -0.0891793966293335,
                        0.37836262583732607,
                        0.7705075740814209,
                        0.5305261611938477,
                        0.3406336009502411,
                        0.6898894309997559,
                        0.39215442538261416,
                        -0.293099045753479,
                        0.3026094138622284,
                        0.4385235011577606,
                        -0.9157145023345947,
                        -0.5630111694335938,
                        0.07815229892730713,
                        0.4682755172252655,
                        -0.01781308650970459,
                        0.7587666511535645,
                        0.18496954441070558,
                        -0.25811827182769778,
                        0.2630781829357147,
                        0.6137158870697022,
                        -0.9119775295257568,
                        -0.04249536991119385,
                        0.04473745822906494,
                        -0.896458625793457,
                        -0.9486141204833984,
                        -0.6562459468841553,
                        0.06532728672027588,
                        -0.7674176692962647,
                        -0.20068585872650147,
                        0.6274411678314209,
                        0.8315565586090088,
                        0.4420916736125946,
                        0.9572963714599609,
                        -0.7066750526428223,
                        0.4618959128856659,
                        0.40776416659355166,
                        -0.4588066339492798,
                        0.9681496620178223,
                        -0.010710358619689942,
                        0.9956941604614258,
                        0.8183996677398682,
                        -0.5144562721252441,
                        0.8167228698730469,
                        0.17770874500274659,
                        0.27347251772880556,
                        0.010157227516174317,
                        -0.9868490695953369,
                        0.3992757499217987,
                        0.48872897028923037,
                        0.5278220176696777,
                        -0.857454776763916,
                        0.1635967493057251,
                        -0.039380431175231937,
                        0.15234386920928956,
                        -0.9138929843902588,
                        0.4928452670574188,
                        0.20078909397125245,
                        0.8094418048858643,
                        0.17137539386749268,
                        0.6837546825408936,
                        -0.4867488145828247,
                        0.8780713081359863,
                        -0.3171886205673218,
                        0.2974502742290497,
                        -0.25057709217071535,
                        0.2843024432659149,
                        0.2005239725112915,
                        -0.07474291324615479,
                        -0.06172645092010498,
                        -0.5643320083618164,
                        0.044101595878601077,
                        -0.3088630437850952,
                        -0.022124171257019044,
                        -0.07697451114654541,
                        -0.8213815689086914,
                        -0.9281485080718994,
                        -0.12904703617095948,
                        -0.8927528858184815,
                        -0.8789162635803223,
                        -0.189886212348938,
                        -0.36502397060394289,
                        -0.7262139320373535,
                        0.1946779489517212,
                        0.1086357831954956,
                        -0.7188689708709717,
                        0.3500203788280487,
                        -0.8946664333343506,
                        0.08737337589263916
                    ]
                },
                {
                    "row": 12,
                    "column": 4,
                    "elements": [
                        0.5377852916717529,
                        -0.9898805618286133,
                        0.49579426646232607,
                        -0.7050681114196777,
                        0.5890100002288818,
                        -0.7302579879760742,
                        -0.9488475322723389,
                        0.42812177538871767,
                        -0.7415962219238281,
                        0.4373175799846649,
                        -0.3013979196548462,
                        -0.8130166530609131,
                        0.9330689907073975,
                        0.990746021270752,
                        -0.15814173221588136,
                        -0.009333014488220215,
                        0.7056560516357422,
                        0.2967941462993622,
                        0.7686753273010254,
                        -0.9691617488861084,
                        0.2631952464580536,
                        0.959564208984375,
                        -0.8442785739898682,
                        -0.10512888431549072,
                        -0.2961479425430298,
                        0.9011054039001465,
                        -0.893782377243042,
                        -0.4751933813095093,
                        0.09594142436981201,
                        -0.2488483190536499,
                        -0.23250234127044679,
                        0.2262171506881714,
                        0.2845129668712616,
                        0.29615518450737,
                        0.46675345301628115,
                        -0.5609703063964844,
                        -0.5000886917114258,
                        -0.1431978940963745,
                        0.9044475555419922,
                        -0.6529831886291504,
                        -0.43960535526275637,
                        0.8558731079101563,
                        0.006457209587097168,
                        0.5519237518310547,
                        0.07612049579620362,
                        -0.8246293067932129,
                        0.5242831707000732,
                        0.8050796985626221
                    ]
                }
            ],
            "biases": [
                {
                    "row": 1,
                    "column": 12,
                    "elements": [
                        -0.059195876121520999,
                        0.15997087955474854,
                        0.5497777462005615,
                        0.14593732357025147,
                        0.25772950053215029,
                        0.9511692523956299,
                        0.4706530272960663,
                        -0.23495304584503175,
                        0.36139389872550967,
                        0.7930655479431152,
                        0.38336727023124697,
                        -0.1038733720779419
                    ]
                },
                {
                    "row": 1,
                    "column": 4,
                    "elements": [
                        0.9956841468811035,
                        -0.7309386730194092,
                        0.2278803586959839,
                        -0.9666194915771484
                    ]
                }
            ]
        },
        {
            "inputSize": 15,
            "hiddenSize": 12,
            "hiddenLayers": 1,
            "outputSize": 4,
            "weights": [
                {
                    "row": 15,
                    "column": 12,
                    "elements": [
                        0.5895390510559082,
                        0.3962561786174774,
                        0.08581674098968506,
                        0.16239416599273683,
                        0.06986391544342041,
                        0.236047625541687,
                        0.17156469821929933,
                        -0.45082223415374758,
                        0.6235523223876953,
                        0.4660436809062958,
                        0.7811024188995361,
                        -0.8978571891784668,
                        -0.1027597188949585,
                        -0.5509965419769287,
                        -0.1736363172531128,
                        -0.8490567207336426,
                        0.024953484535217286,
                        0.6175739765167236,
                        0.5765402317047119,
                        -0.6500463485717773,
                        0.7787666320800781,
                        -0.29362761974334719,
                        0.08250248432159424,
                        0.5897767543792725,
                        0.6376261711120606,
                        0.07540285587310791,
                        0.6829392910003662,
                        -0.21613585948944093,
                        0.16557276248931886,
                        -0.07504904270172119,
                        0.8889901638031006,
                        -0.6010360717773438,
                        -0.23559510707855225,
                        -0.5335817337036133,
                        0.3404950797557831,
                        -0.5227856636047363,
                        -0.17672622203826905,
                        0.7775537967681885,
                        -0.02575671672821045,
                        0.8668148517608643,
                        0.724306583404541,
                        -0.7437820434570313,
                        0.394832581281662,
                        -0.7946171760559082,
                        -0.13978517055511475,
                        0.5289857387542725,
                        -0.6166539192199707,
                        0.9125330448150635,
                        -0.1536046266555786,
                        0.16385138034820558,
                        -0.7443995475769043,
                        -0.9158551692962647,
                        0.09399473667144776,
                        0.7437887191772461,
                        0.7590200901031494,
                        0.015581727027893067,
                        -0.21685326099395753,
                        0.3039388358592987,
                        0.17612016201019288,
                        -0.43325650691986086,
                        -0.11576807498931885,
                        0.8276257514953613,
                        -0.3949793577194214,
                        -0.1519678831100464,
                        -0.5569097995758057,
                        -0.5090758800506592,
                        -0.7033517360687256,
                        0.576958417892456,
                        -0.29197752475738528,
                        -0.22601664066314698,
                        -0.5804603099822998,
                        -0.9506552219390869,
                        0.7686400413513184,
                        0.6055827140808106,
                        0.2771746814250946,
                        -0.4221380949020386,
                        -0.4204064607620239,
                        0.6302664279937744,
                        -0.27294790744781496,
                        -0.1544121503829956,
                        0.09494078159332276,
                        0.09799659252166748,
                        -0.09312975406646729,
                        0.18271148204803468,
                        -0.1964329481124878,
                        -0.4475642442703247,
                        0.037888407707214358,
                        -0.1661761999130249,
                        -0.00346219539642334,
                        0.6755826473236084,
                        0.5611886978149414,
                        -0.6077015399932861,
                        -0.09482228755950928,
                        -0.5830659866333008,
                        0.6716790199279785,
                        -0.531998872756958,
                        0.01072680950164795,
                        -0.9604218006134033,
                        0.674685001373291,
                        -0.9526894092559815,
                        -0.32211387157440188,
                        0.2215646505355835,
                        0.4030143916606903,
                        0.10008537769317627,
                        -0.785057783126831,
                        0.22140514850616456,
                        -0.7801380157470703,
                        0.5074057579040527,
                        0.39499160647392275,
                        -0.7275817394256592,
                        -0.5746760368347168,
                        0.02121412754058838,
                        -0.41799914836883547,
                        0.317717045545578,
                        0.347121924161911,
                        -0.16508615016937257,
                        -0.24951064586639405,
                        -0.9618566036224365,
                        0.7321624755859375,
                        0.0808030366897583,
                        -0.40643608570098879,
                        0.7205071449279785,
                        0.8286590576171875,
                        0.9946627616882324,
                        -0.0694650411605835,
                        -0.4324761629104614,
                        0.7971086502075195,
                        0.6634311676025391,
                        -0.07484757900238037,
                        0.5175800323486328,
                        -0.04186522960662842,
                        -0.4554065465927124,
                        0.5537669658660889,
                        0.6500546932220459,
                        0.9655425548553467,
                        -0.654411792755127,
                        -0.15913736820220948,
                        0.8126347064971924,
                        -0.2049015760421753,
                        0.874753475189209,
                        -0.03866446018218994,
                        0.3727883994579315,
                        -0.3403414487838745,
                        0.27126237750053408,
                        -0.4618428945541382,
                        -0.8018662929534912,
                        -0.8615188598632813,
                        -0.4491637945175171,
                        0.8023717403411865,
                        -0.4238985776901245,
                        0.2963390052318573,
                        -0.31675422191619875,
                        -0.2792257070541382,
                        0.19405710697174073,
                        -0.0029543638229370119,
                        0.15622293949127198,
                        0.6833295822143555,
                        0.43292734026908877,
                        -0.07911694049835205,
                        -0.6977620124816895,
                        -0.28103935718536379,
                        0.7728235721588135,
                        -0.21678125858306886,
                        0.15915906429290772,
                        0.18056857585906983,
                        0.846482515335083,
                        -0.06729781627655029,
                        0.5768954753875732,
                        -0.7938137054443359,
                        0.033429741859436038,
                        -0.054383158683776858,
                        0.4146990478038788,
                        -0.9081547260284424,
                        -0.020482659339904786,
                        0.9111294746398926,
                        0.00290071964263916,
                        0.13436758518218995,
                        0.012696623802185059,
                        -0.865696907043457,
                        -0.5981400012969971
                    ]
                },
                {
                    "row": 12,
                    "column": 4,
                    "elements": [
                        0.8967564105987549,
                        -0.2837711572647095,
                        0.9685993194580078,
                        -0.5693674087524414,
                        -0.5694599151611328,
                        0.6306428909301758,
                        -0.8738911151885986,
                        -0.663506031036377,
                        0.10517466068267822,
                        -0.5090394020080566,
                        -0.38002312183380129,
                        0.1655787229537964,
                        0.4274437129497528,
                        -0.8462951183319092,
                        -0.14567244052886964,
                        -0.6555416584014893,
                        -0.12123644351959229,
                        -0.3572744131088257,
                        0.27664586901664736,
                        -0.6461093425750732,
                        -0.6945352554321289,
                        0.4270596206188202,
                        -0.060834527015686038,
                        -0.05086076259613037,
                        -0.6847643852233887,
                        -0.959012508392334,
                        -0.3952237367630005,
                        -0.7535839080810547,
                        -0.8817558288574219,
                        0.43976661562919619,
                        -0.5989024639129639,
                        0.27356263995170596,
                        -0.8499374389648438,
                        0.26982924342155459,
                        0.30625030398368838,
                        0.8931527137756348,
                        0.4365949332714081,
                        -0.11168038845062256,
                        0.5556588172912598,
                        -0.32376229763031008,
                        0.6831157207489014,
                        -0.5577659606933594,
                        -0.9997611045837402,
                        -0.31144702434539797,
                        -0.26066577434539797,
                        0.365962952375412,
                        -0.4657183885574341,
                        -0.20914995670318604
                    ]
                }
            ],
            "biases": [
                {
                    "row": 1,
                    "column": 12,
                    "elements": [
                        0.9804465770721436,
                        0.9596266746520996,
                        -0.9806418418884277,
                        0.09478175640106201,
                        -0.575728178024292,
                        -0.2453063726425171,
                        0.18417370319366456,
                        -0.38757288455963137,
                        -0.5617847442626953,
                        -0.8717904090881348,
                        -0.9390847682952881,
                        0.7962889671325684
                    ]
                },
                {
                    "row": 1,
                    "column": 4,
                    "elements": [
                        -0.14199459552764893,
                        0.9573166370391846,
                        0.9268083572387695,
                        0.02734386920928955
                    ]
                }
            ]
        },
        {
            "inputSize": 15,
            "hiddenSize": 12,
            "hiddenLayers": 1,
            "outputSize": 4,
            "weights": [
                {
                    "row": 15,
                    "column": 12,
                    "elements": [
                        -0.1797555685043335,
                        0.20422661304473878,
                        -0.8999226093292236,
                        -0.01303565502166748,
                        0.3611910045146942,
                        0.4324922263622284,
                        0.010500788688659668,
                        0.07099974155426026,
                        0.9875414371490479,
                        0.9569165706634522,
                        -0.6894471645355225,
                        -0.8286807537078857,
                        -0.2075880765914917,
                        0.022331595420837404,
                        -0.683483362197876,
                        -0.4894291162490845,
                        -0.15524184703826905,
                        0.6840558052062988,
                        0.7181735038757324,
                        -0.6477081775665283,
                        -0.24130570888519288,
                        0.7267489433288574,
                        -0.690394401550293,
                        -0.6390149593353272,
                        -0.04109752178192139,
                        0.43407413363456728,
                        -0.7085785865783691,
                        0.5535624027252197,
                        -0.41889631748199465,
                        0.6704120635986328,
                        0.7865176200866699,
                        0.9011673927307129,
                        0.5370609760284424,
                        -0.43390071392059328,
                        0.7933409214019775,
                        -0.4502800703048706,
                        -0.7058286666870117,
                        -0.6832230091094971,
                        -0.9609317779541016,
                        0.046988844871520999,
                        0.9984908103942871,
                        -0.3504828214645386,
                        -0.07314813137054444,
                        0.944690465927124,
                        0.6170914173126221,
                        0.4492928683757782,
                        0.7958149909973145,
                        -0.8415939807891846,
                        -0.21543705463409425,
                        -0.8500401973724365,
                        -0.860443115234375,
                        0.7853162288665772,
                        0.8167989253997803,
                        -0.764467716217041,
                        0.17262613773345948,
                        -0.33961570262908938,
                        0.4478623569011688,
                        -0.5928616523742676,
                        0.8416426181793213,
                        -0.8550114631652832,
                        0.34834858775138857,
                        -0.5270094871520996,
                        -0.5256321430206299,
                        -0.5429635047912598,
                        -0.6689286231994629,
                        0.032218098640441897,
                        0.0072585344314575199,
                        -0.8745334148406982,
                        -0.7964503765106201,
                        0.8799746036529541,
                        -0.3488115072250366,
                        -0.3096822500228882,
                        -0.5523788928985596,
                        -0.983461856842041,
                        -0.9862637519836426,
                        -0.971092939376831,
                        0.5199100971221924,
                        0.01687037944793701,
                        0.2595958411693573,
                        0.2726113498210907,
                        -0.572335958480835,
                        -0.13221967220306397,
                        0.32845064997673037,
                        -0.7569284439086914,
                        -0.21986639499664308,
                        -0.2472621202468872,
                        0.9279563426971436,
                        0.9908850193023682,
                        0.9281771183013916,
                        -0.9866659641265869,
                        -0.41766321659088137,
                        -0.6743621826171875,
                        -0.14936769008636475,
                        0.8571832180023193,
                        -0.8815948963165283,
                        0.045548319816589358,
                        0.7377774715423584,
                        0.7941434383392334,
                        -0.634807825088501,
                        -0.08997452259063721,
                        -0.394584059715271,
                        0.6158134937286377,
                        0.7758865356445313,
                        -0.8653964996337891,
                        0.265381783246994,
                        0.48882195353507998,
                        -0.9894542694091797,
                        0.6344783306121826,
                        -0.6441404819488525,
                        -0.5020043849945068,
                        0.8793396949768066,
                        -0.9962959289550781,
                        0.31227466464042666,
                        -0.5776183605194092,
                        0.13816821575164796,
                        -0.13105833530426026,
                        0.8154408931732178,
                        -0.1549009084701538,
                        0.3398999869823456,
                        0.7798233032226563,
                        -0.5343265533447266,
                        -0.8663291931152344,
                        0.02766549587249756,
                        -0.11117041110992432,
                        0.9534761905670166,
                        -0.8682541847229004,
                        -0.009473681449890137,
                        0.15756022930145265,
                        0.4345657527446747,
                        0.06208240985870361,
                        0.41871926188468935,
                        0.14209306240081788,
                        0.2981874644756317,
                        0.034613728523254397,
                        -0.373432993888855,
                        -0.5004303455352783,
                        -0.24819886684417725,
                        -0.8727016448974609,
                        -0.3014613389968872,
                        -0.1868985891342163,
                        -0.8775739669799805,
                        0.22689783573150636,
                        0.21766459941864015,
                        -0.07312142848968506,
                        0.7431707382202148,
                        0.2667796313762665,
                        -0.4305976629257202,
                        0.5042035579681397,
                        -0.42985761165618899,
                        0.5997500419616699,
                        -0.30342066287994387,
                        0.4668678939342499,
                        -0.2909740209579468,
                        0.7592916488647461,
                        0.5398902893066406,
                        -0.7050237655639648,
                        -0.3859750032424927,
                        0.21450984477996827,
                        -0.7452805042266846,
                        0.7674987316131592,
                        0.8118212223052979,
                        -0.45415198802948,
                        -0.3070427179336548,
                        -0.4645940065383911,
                        -0.25964343547821047,
                        0.7145733833312988,
                        -0.7146027088165283,
                        0.791999340057373,
                        -0.5080475807189941,
                        0.8040506839752197,
                        0.07342946529388428,
                        0.6493368148803711,
                        0.8232908248901367,
                        0.8375759124755859,
                        0.803117036819458,
                        -0.9416351318359375,
                        -0.6379995346069336,
                        -0.9192304611206055,
                        -0.6213529109954834,
                        0.24085843563079835
                    ]
                },
                {
                    "row": 12,
                    "column": 4,
                    "elements": [
                        0.8157331943511963,
                        0.9758565425872803,
                        0.40035364031791689,
                        -0.34074699878692629,
                        -0.093178391456604,
                        -0.44780170917510989,
                        -0.5729067325592041,
                        0.2863278090953827,
                        -0.83184814453125,
                        -0.1531757116317749,
                        0.9169802665710449,
                        0.7451744079589844,
                        0.24055254459381104,
                        -0.6239080429077148,
                        0.8720004558563232,
                        -0.9609594345092773,
                        0.2157365083694458,
                        -0.06349289417266846,
                        0.22531497478485108,
                        0.8407008647918701,
                        0.45542094111442568,
                        0.4353022277355194,
                        0.27035853266716006,
                        0.3331882655620575,
                        0.7965340614318848,
                        0.3644826114177704,
                        -0.8866474628448486,
                        -0.8521323204040527,
                        -0.7580893039703369,
                        0.728034257888794,
                        -0.39839446544647219,
                        0.5164480209350586,
                        0.3908054530620575,
                        -0.01067054271697998,
                        0.28601667284965517,
                        0.26592156291007998,
                        -0.08613193035125733,
                        0.3112291991710663,
                        -0.8703179359436035,
                        -0.6648237705230713,
                        0.45867130160331728,
                        0.26224061846733096,
                        -0.5193569660186768,
                        -0.13089287281036378,
                        0.1429077386856079,
                        0.048621296882629397,
                        -0.9047694206237793,
                        0.7165875434875488
                    ]
                }
            ],
            "biases": [
                {
                    "row": 1,
                    "column": 12,
                    "elements": [
                        -0.7048242092132568,
                        0.34973546862602236,
                        0.8301162719726563,
                        -0.7084479331970215,
                        -0.6217398643493652,
                        -0.7575349807739258,
                        -0.10626280307769776,
                        -0.3510056734085083,
                        -0.19139039516448975,
                        0.46126076579093935,
                        0.06956112384796143,
                        0.3120083510875702
                    ]
                },
                {
                    "row": 1,
                    "column": 4,
                    "elements": [
                        0.7351453304290772,
                        -0.4650071859359741,
                        -0.10869920253753662,
                        0.45390626788139346
                    ]
                }
            ]
        },
        {
            "inputSize": 15,
            "hiddenSize": 12,
            "hiddenLayers": 1,
            "outputSize": 4,
            "weights": [
                {
                    "row": 15,
                    "column": 12,
                    "elements": [
                        -0.6663672924041748,
                        0.4852857291698456,
                        0.8466706275939941,
                        -0.8771085739135742,
                        -0.5132417678833008,
                        -0.04109060764312744,
                        0.6118078231811523,
                        -0.7151658535003662,
                        -0.1285611391067505,
                        0.6156668663024902,
                        -0.4249662160873413,
                        0.131294846534729,
                        0.3209359347820282,
                        -0.7030980587005615,
                        0.04459846019744873,
                        0.5443482398986816,
                        0.36681339144706728,
                        0.3109996020793915,
                        0.026754021644592286,
                        0.05338633060455322,
                        -0.6970162391662598,
                        -0.958244800567627,
                        -0.5038011074066162,
                        -0.40867769718170168,
                        0.8075735569000244,
                        -0.9513504505157471,
                        -0.8978948593139648,
                        -0.8456778526306152,
                        -0.03765594959259033,
                        0.9521441459655762,
                        -0.3121582269668579,
                        -0.3790088891983032,
                        -0.03969419002532959,
                        -0.9939546585083008,
                        -0.3713799715042114,
                        -0.8539900779724121,
                        -0.4285050630569458,
                        0.3594636619091034,
                        -0.434317946434021,
                        -0.7128326892852783,
                        -0.9737277030944824,
                        -0.8766138553619385,
                        0.004016518592834473,
                        0.42394134402275088,
                        -0.6727728843688965,
                        0.6608996391296387,
                        -0.7713565826416016,
                        -0.42952215671539309,
                        -0.9039161205291748,
                        -0.7330429553985596,
                        -0.5239992141723633,
                        -0.7441389560699463,
                        -0.22538721561431886,
                        -0.03653371334075928,
                        0.1959010362625122,
                        0.16142404079437257,
                        0.7336392402648926,
                        0.09047234058380127,
                        0.15526926517486573,
                        -0.8679635524749756,
                        0.9834227561950684,
                        0.6604528427124023,
                        -0.19601428508758546,
                        0.7476320266723633,
                        0.7403271198272705,
                        0.8849740028381348,
                        -0.7132976055145264,
                        0.5415236949920654,
                        -0.25645530223846438,
                        -0.8901453018188477,
                        -0.020603299140930177,
                        -0.2708650827407837,
                        0.11476457118988037,
                        -0.9051110744476318,
                        -0.5076429843902588,
                        -0.9307775497436523,
                        0.45743533968925478,
                        0.5015339851379395,
                        0.4947375953197479,
                        -0.3823314905166626,
                        0.348398894071579,
                        -0.446050763130188,
                        -0.4072374105453491,
                        0.6009635925292969,
                        -0.549262523651123,
                        -0.622861385345459,
                        0.3836030662059784,
                        0.3094441592693329,
                        0.20101392269134522,
                        -0.6383557319641113,
                        0.7118256092071533,
                        -0.7173335552215576,
                        0.16731560230255128,
                        -0.7528512477874756,
                        0.9554591178894043,
                        -0.964855432510376,
                        -0.8028790950775147,
                        -0.1399327516555786,
                        -0.10813391208648682,
                        -0.32455503940582278,
                        -0.010365605354309082,
                        0.07898318767547608,
                        0.9256463050842285,
                        0.3920857608318329,
                        0.43140217661857607,
                        -0.377616286277771,
                        -0.26226866245269778,
                        -0.5122284889221191,
                        0.6661686897277832,
                        -0.9700517654418945,
                        -0.4030817747116089,
                        0.7050082683563232,
                        -0.6123478412628174,
                        0.8753457069396973,
                        0.8182055950164795,
                        0.6648311614990234,
                        -0.36834681034088137,
                        0.7415599822998047,
                        -0.15690362453460694,
                        -0.7838573455810547,
                        0.19410955905914308,
                        -0.41506993770599368,
                        -0.9943461418151856,
                        0.6630880832672119,
                        -0.9146909713745117,
                        0.8942649364471436,
                        -0.29626739025115969,
                        0.6688458919525147,
                        0.34637972712516787,
                        -0.4034343957901001,
                        -0.9928362369537354,
                        0.23898518085479737,
                        0.5832674503326416,
                        0.03439629077911377,
                        0.7273297309875488,
                        0.32886335253715517,
                        0.22668874263763429,
                        -0.8890838623046875,
                        0.8908469676971436,
                        0.19339334964752198,
                        -0.7149403095245361,
                        -0.9315931797027588,
                        -0.006415963172912598,
                        -0.9479944705963135,
                        0.567868709564209,
                        -0.8509938716888428,
                        0.7191755771636963,
                        -0.24914896488189698,
                        -0.3641103506088257,
                        -0.3523043394088745,
                        0.5297443866729736,
                        -0.4586993455886841,
                        -0.9380416870117188,
                        0.5377228260040283,
                        -0.08657729625701904,
                        -0.1163855791091919,
                        -0.6277036666870117,
                        0.6637134552001953,
                        0.7530243396759033,
                        -0.00020515918731689453,
                        0.07221329212188721,
                        -0.2518695592880249,
                        0.4815983474254608,
                        0.6554820537567139,
                        -0.6960461139678955,
                        0.8963170051574707,
                        0.8807380199432373,
                        -0.6715271472930908,
                        -0.660433292388916,
                        -0.6725218296051025,
                        0.21347010135650636,
                        0.2751576602458954,
                        -0.21303212642669679,
                        -0.11436331272125244,
                        -0.7437396049499512,
                        0.18215692043304444,
                        0.19175541400909425,
                        -0.06072103977203369,
                        0.16872060298919679,
                        -0.4083608388900757
                    ]
                },
                {
                    "row": 12,
                    "column": 4,
                    "elements": [
                        0.07305634021759033,
                        -0.3461085557937622,
                        0.4633781611919403,
                        0.2654514014720917,
                        -0.07400071620941162,
                        0.05039036273956299,
                        0.0863715410232544,
                        -0.21897852420806886,
                        0.22790944576263429,
                        0.021815896034240724,
                        0.7183864116668701,
                        -0.9803149700164795,
                        0.5494570732116699,
                        0.6688494682312012,
                        -0.9785788059234619,
                        -0.6222574710845947,
                        -0.33181655406951907,
                        -0.5488059520721436,
                        0.24180424213409425,
                        0.28609034419059756,
                        -0.7170889377593994,
                        0.5704746246337891,
                        -0.12918150424957276,
                        0.08184587955474854,
                        -0.494637131690979,
                        -0.4514991044998169,
                        0.8397023677825928,
                        -0.4523512125015259,
                        0.19019615650177003,
                        -0.44096291065216067,
                        -0.29597008228302,
                        -0.06041133403778076,
                        0.22409260272979737,
                        0.7196147441864014,
                        0.7008910179138184,
                        0.10299813747406006,
                        0.9981551170349121,
                        -0.7386453151702881,
                        -0.6185202598571777,
                        -0.8644819259643555,
                        -0.6937031745910645,
                        -0.1994704008102417,
                        0.5512471199035645,
                        0.9402778148651123,
                        0.9309384822845459,
                        -0.17519056797027589,
                        0.30213233828544619,
                        0.8185312747955322
                    ]
                }
            ],
            "biases": [
                {
                    "row": 1,
                    "column": 12,
                    "elements": [
                        -0.3720301389694214,
                        0.6233165264129639,
                        -0.27865326404571535,
                        0.31080934405326846,
                        -0.9665505886077881,
                        -0.29939258098602297,
                        0.9961843490600586,
                        -0.03620254993438721,
                        0.475387305021286,
                        -0.6217947006225586,
                        -0.9800829887390137,
                        -0.8831806182861328
                    ]
                },
                {
                    "row": 1,
                    "column": 4,
                    "elements": [
                        -0.26821959018707278,
                        0.7326736450195313,
                        -0.8901402950286865,
                        0.6471881866455078
                    ]
                }
            ]
        },
        {
            "inputSize": 15,
            "hiddenSize": 12,
            "hiddenLayers": 1,
            "outputSize": 4,
            "weights": [
                {
                    "row": 15,
                    "column": 12,
                    "elements": [
                        0.1962827444076538,
                        -0.35142529010772707,
                        -0.3144763708114624,
                        -0.9211819171905518,
                        -0.30305516719818118,
                        0.8338685035705566,
                        0.5730252265930176,
                        0.9708831310272217,
                        -0.677025318145752,
                        -0.29389846324920657,
                        0.4861306846141815,
                        0.286525696516037,
                        -0.09712040424346924,
                        0.030884623527526857,
                        0.23954284191131593,
                        -0.6309576034545898,
                        -0.2722228765487671,
                        0.6861815452575684,
                        -0.6398792266845703,
                        -0.5817358493804932,
                        0.19980013370513917,
                        0.6982955932617188,
                        0.8063244819641113,
                        -0.4790259599685669,
                        -0.621166467666626,
                        0.2516739070415497,
                        0.11229383945465088,
                        -0.7269895076751709,
                        0.11511170864105225,
                        -0.6382701396942139,
                        0.9707598686218262,
                        -0.7644946575164795,
                        -0.8974087238311768,
                        0.4486636817455292,
                        0.0627056360244751,
                        -0.5120320320129395,
                        -0.20492708683013917,
                        0.4376530349254608,
                        -0.4505575895309448,
                        0.2915057837963104,
                        -0.8717477321624756,
                        0.1551905870437622,
                        0.6747591495513916,
                        -0.5595862865447998,
                        0.8270449638366699,
                        -0.9133458137512207,
                        -0.520754337310791,
                        -0.37481868267059328,
                        0.8295712471008301,
                        -0.2464224100112915,
                        -0.0011478662490844727,
                        -0.3112422227859497,
                        0.9259433746337891,
                        -0.18029773235321046,
                        0.9025130271911621,
                        0.3907763659954071,
                        -0.09330093860626221,
                        0.5218195915222168,
                        -0.3752495050430298,
                        0.6717422008514404,
                        0.8855087757110596,
                        -0.4223698377609253,
                        0.36147257685661318,
                        -0.13547146320343018,
                        0.1564098596572876,
                        0.02058112621307373,
                        -0.9724628925323486,
                        0.8744125366210938,
                        0.09150946140289307,
                        -0.3150407075881958,
                        -0.6739585399627686,
                        -0.4134308099746704,
                        -0.19453155994415284,
                        0.8394041061401367,
                        -0.7509970664978027,
                        -0.901235818862915,
                        -0.6823427677154541,
                        -0.7807080745697022,
                        -0.884803295135498,
                        0.38524457812309267,
                        0.7520122528076172,
                        0.46814343333244326,
                        0.8256032466888428,
                        0.7557470798492432,
                        -0.029037833213806154,
                        0.5042686462402344,
                        -0.7700891494750977,
                        0.6049950122833252,
                        0.4218287169933319,
                        0.8440828323364258,
                        0.8349039554595947,
                        0.009032607078552246,
                        -0.238885760307312,
                        -0.08707630634307862,
                        0.009698987007141114,
                        0.3304295241832733,
                        0.21516859531402589,
                        -0.9332776069641113,
                        -0.8401567935943604,
                        -0.25013601779937746,
                        0.14489376544952393,
                        -0.24560797214508058,
                        0.7935471534729004,
                        0.4578973948955536,
                        0.521700382232666,
                        -0.37461650371551516,
                        0.46308204531669619,
                        -0.26139819622039797,
                        -0.13106143474578858,
                        0.08320987224578858,
                        -0.871448278427124,
                        0.2171560525894165,
                        0.9480326175689697,
                        -0.027138590812683107,
                        -0.614208459854126,
                        0.6826279163360596,
                        -0.8202338218688965,
                        0.4626741111278534,
                        0.8954451084136963,
                        -0.4858483076095581,
                        0.6749813556671143,
                        0.461210697889328,
                        0.11779487133026123,
                        -0.1943761110305786,
                        -0.22830188274383546,
                        -0.8000288009643555,
                        -0.9492111206054688,
                        -0.887991189956665,
                        -0.7738640308380127,
                        0.6711077690124512,
                        -0.5981428623199463,
                        0.38977620005607607,
                        0.7471756935119629,
                        0.025494933128356935,
                        -0.2972913980484009,
                        0.08575117588043213,
                        0.21905076503753663,
                        0.12205874919891358,
                        -0.09879767894744873,
                        0.7093513011932373,
                        0.015138983726501465,
                        -0.14126622676849366,
                        0.04498636722564697,
                        0.636991024017334,
                        -0.1257232427597046,
                        -0.8286523818969727,
                        0.6125349998474121,
                        -0.2949734926223755,
                        -0.5572493076324463,
                        0.06240284442901611,
                        -0.5528314113616943,
                        -0.02371656894683838,
                        0.15050232410430909,
                        -0.24629676342010499,
                        0.17282164096832276,
                        0.42784950137138369,
                        -0.8104488849639893,
                        0.19023454189300538,
                        -0.4451678991317749,
                        0.40105411410331728,
                        0.45870229601860049,
                        0.5965361595153809,
                        0.5608489513397217,
                        -0.38784468173980715,
                        0.15461480617523194,
                        0.5060491561889648,
                        -0.5498452186584473,
                        -0.9554266929626465,
                        -0.34532034397125246,
                        0.8153018951416016,
                        0.6675052642822266,
                        0.6162753105163574,
                        -0.19161665439605714,
                        -0.301540732383728,
                        -0.7874081134796143,
                        0.3973030745983124,
                        0.4517318904399872,
                        0.032668471336364749,
                        -0.11560571193695069,
                        -0.10914456844329834
                    ]
                },
                {
                    "row": 12,
                    "column": 4,
                    "elements": [
                        0.5168733596801758,
                        -0.7801451683044434,
                        -0.6535608768463135,
                        0.5266876220703125,
                        0.9841375350952148,
                        0.2693319022655487,
                        -0.12373793125152588,
                        -0.9516298770904541,
                        0.1438959836959839,
                        0.6001298427581787,
                        -0.14798438549041749,
                        -0.7480196952819824,
                        -0.6521499156951904,
                        -0.14557874202728272,
                        0.8009788990020752,
                        0.9364376068115234,
                        -0.00344240665435791,
                        -0.2257610559463501,
                        0.7866859436035156,
                        -0.8422644138336182,
                        -0.6795217990875244,
                        0.7164781093597412,
                        0.02832472324371338,
                        -0.34010064601898196,
                        0.5238661766052246,
                        0.9272582530975342,
                        0.71602463722229,
                        -0.2131263017654419,
                        0.3622572124004364,
                        -0.39355480670928957,
                        0.9014225006103516,
                        0.33946821093559267,
                        -0.6888613700866699,
                        0.5944709777832031,
                        0.6243009567260742,
                        -0.5546300411224365,
                        0.8778073787689209,
                        0.8972079753875732,
                        0.8065390586853027,
                        -0.5840976238250732,
                        0.5123145580291748,
                        -0.6051120758056641,
                        0.39020535349845889,
                        0.1518021821975708,
                        -0.4562479257583618,
                        0.03874862194061279,
                        0.13900625705718995,
                        0.29291245341300967
                    ]
                }
            ],
            "biases": [
                {
                    "row": 1,
                    "column": 12,
                    "elements": [
                        0.5127840042114258,
                        -0.8115644454956055,
                        0.9794747829437256,
                        -0.9574556350708008,
                        -0.5303723812103272,
                        0.7009389400482178,
                        0.7321581840515137,
                        0.42598792910575869,
                        0.432432621717453,
                        -0.35130512714385989,
                        0.8126592636108398,
                        -0.8509056568145752
                    ]
                },
                {
                    "row": 1,
                    "column": 4,
                    "elements": [
                        0.5438559055328369,
                        0.3035108745098114,
                        -0.8618230819702148,
                        -0.03827965259552002
                    ]
                }
            ]
        },
        {
            "inputSize": 15,
            "hiddenSize": 12,
            "hiddenLayers": 1,
            "outputSize": 4,
            "weights": [
                {
                    "row": 15,
                    "column": 12,
                    "elements": [
                        0.06228625774383545,
                        0.3688027560710907,
                        0.5553300380706787,
                        0.4500095546245575,
                        -0.6574242115020752,
                        0.5759227275848389,
                        0.16022050380706788,
                        0.8292531967163086,
                        -0.4677034616470337,
                        0.02646815776824951,
                        -0.14444434642791749,
                        -0.5644197463989258,
                        0.6166203022003174,
                        -0.10563623905181885,
                        -0.6222505569458008,
                        -0.09783446788787842,
                        0.59678053855896,
                        0.3876175582408905,
                        0.27192041277885439,
                        0.17485058307647706,
                        -0.5814874172210693,
                        -0.6333918571472168,
                        0.6772587299346924,
                        -0.316982626914978,
                        0.23395287990570069,
                        -0.6137049198150635,
                        -0.2050420045852661,
                        -0.3875354528427124,
                        -0.10254824161529541,
                        -0.14214909076690675,
                        -0.7874009609222412,
                        -0.6254150867462158,
                        -0.6934070587158203,
                        0.965878963470459,
                        -0.5025923252105713,
                        -0.7823483943939209,
                        0.18494808673858643,
                        -0.7531464099884033,
                        -0.4366990327835083,
                        -0.5618298053741455,
                        -0.02134859561920166,
                        -0.6783642768859863,
                        0.3776364028453827,
                        -0.6451787948608398,
                        0.772942304611206,
                        -0.6305313110351563,
                        -0.3045140504837036,
                        0.40871164202690127,
                        -0.35090315341949465,
                        0.017557740211486818,
                        0.1968632936477661,
                        -0.5375075340270996,
                        -0.8263165950775147,
                        0.23306334018707276,
                        0.6826090812683106,
                        0.47945138812065127,
                        -0.9004411697387695,
                        0.8229570388793945,
                        -0.9784698486328125,
                        -0.7754793167114258,
                        -0.4444023370742798,
                        -0.4915975332260132,
                        0.06845700740814209,
                        -0.7632589340209961,
                        0.3545641601085663,
                        -0.9452393054962158,
                        -0.1335819959640503,
                        -0.6054480075836182,
                        -0.74458909034729,
                        0.45894452929496767,
                        0.7068071365356445,
                        -0.8007645606994629,
                        -0.03189671039581299,
                        0.27061864733695986,
                        -0.8281760215759277,
                        -0.4210141897201538,
                        0.9969491958618164,
                        0.043100953102111819,
                        0.41508886218070986,
                        -0.08544719219207764,
                        -0.5895698070526123,
                        0.6888127326965332,
                        -0.05678284168243408,
                        0.9996404647827148,
                        0.3504340350627899,
                        -0.7245934009552002,
                        0.1555386781692505,
                        0.17827975749969483,
                        -0.9885754585266113,
                        0.4313208758831024,
                        -0.198813796043396,
                        -0.9086198806762695,
                        0.14550364017486573,
                        0.005750775337219238,
                        -0.8813011646270752,
                        -0.9226453304290772,
                        -0.8048460483551025,
                        0.23942744731903077,
                        -0.9434905052185059,
                        0.08537089824676514,
                        -0.9726347923278809,
                        -0.7351493835449219,
                        0.4811064898967743,
                        0.5621204376220703,
                        -0.31353986263275149,
                        -0.3196507692337036,
                        0.9815478324890137,
                        -0.26202690601348879,
                        -0.9355103969573975,
                        -0.8754055500030518,
                        0.8785803318023682,
                        0.9907574653625488,
                        -0.25735652446746828,
                        0.28751012682914736,
                        -0.0364457368850708,
                        -0.9705548286437988,
                        0.08022463321685791,
                        -0.3098641633987427,
                        0.8131372928619385,
                        -0.2497469186782837,
                        0.1057206392288208,
                        0.31946656107902529,
                        0.6056721210479736,
                        -0.681612491607666,
                        -0.9012587070465088,
                        0.07631909847259522,
                        -0.0008960962295532227,
                        0.40198323130607607,
                        0.06698358058929444,
                        -0.6774423122406006,
                        0.8969967365264893,
                        0.6860909461975098,
                        -0.9121992588043213,
                        0.34890124201774599,
                        -0.06648910045623779,
                        0.24420106410980225,
                        0.8270766735076904,
                        -0.18020188808441163,
                        0.8692231178283691,
                        0.1673978567123413,
                        -0.291753888130188,
                        0.7769663333892822,
                        0.18177258968353272,
                        0.7317001819610596,
                        0.43858596682548525,
                        0.25947949290275576,
                        -0.2713886499404907,
                        -0.17452728748321534,
                        -0.4177738428115845,
                        -0.0679401159286499,
                        0.3849885165691376,
                        -0.7631003856658936,
                        -0.06636393070220947,
                        0.4621720016002655,
                        -0.3320082426071167,
                        -0.3935016393661499,
                        0.9801762104034424,
                        -0.046231865882873538,
                        -0.43816912174224856,
                        -0.5328855514526367,
                        -0.9720385074615479,
                        0.7796411514282227,
                        -0.4411395788192749,
                        -0.4896630048751831,
                        -0.5585360527038574,
                        -0.15682780742645265,
                        -0.8548309803009033,
                        0.7875521183013916,
                        0.7920217514038086,
                        0.2504989802837372,
                        0.7741396427154541,
                        -0.8407673835754395,
                        0.33861443400382998,
                        0.45052024722099306,
                        -0.5161387920379639,
                        -0.7010080814361572,
                        0.17694532871246339,
                        -0.03299057483673096,
                        0.5174450874328613,
                        0.8572731018066406
                    ]
                },
                {
                    "row": 12,
                    "column": 4,
                    "elements": [
                        -0.43238651752471926,
                        -0.1523350477218628,
                        -0.6824796199798584,
                        -0.7987675666809082,
                        -0.4816540479660034,
                        -0.41473686695098879,
                        -0.2948199510574341,
                        0.7374744415283203,
                        -0.5784633159637451,
                        -0.1013263463973999,
                        0.825782060623169,
                        -0.10617244243621826,
                        0.4086913764476776,
                        0.7176930904388428,
                        0.0381397008895874,
                        -0.686316967010498,
                        -0.7628271579742432,
                        0.12015950679779053,
                        -0.10763752460479737,
                        0.782602071762085,
                        0.7566447257995606,
                        0.0793832540512085,
                        -0.3921886682510376,
                        0.008324265480041504,
                        -0.951807975769043,
                        0.6727263927459717,
                        0.27943989634513857,
                        0.6792261600494385,
                        -0.18037521839141847,
                        -0.8453853130340576,
                        -0.8210453987121582,
                        -0.763397216796875,
                        -0.09204447269439697,
                        0.6787400245666504,
                        0.43748828768730166,
                        0.4216439425945282,
                        -0.6238193511962891,
                        -0.29110777378082278,
                        0.8419454097747803,
                        -0.7335860729217529,
                        0.9433259963989258,
                        -0.08348071575164795,
                        0.9492371082305908,
                        0.2867579162120819,
                        -0.8656377792358398,
                        -0.9559416770935059,
                        -0.5385053157806397,
                        0.30777236819267275
                    ]
                }
            ],
            "biases": [
                {
                    "row": 1,
                    "column": 12,
                    "elements": [
                        0.5331497192382813,
                        0.26119181513786318,
                        0.4284667670726776,
                        -0.47844135761260989,
                        -0.5848855972290039,
                        0.5340526103973389,
                        0.03424394130706787,
                        0.22363197803497315,
                        -0.8873178958892822,
                        -0.8853495121002197,
                        0.5666725635528565,
                        -0.07334411144256592
                    ]
                },
                {
                    "row": 1,
                    "column": 4,
                    "elements": [
                        0.7841620445251465,
                        -0.1306387186050415,
                        -0.2220982313156128,
                        -0.2744866609573364
                    ]
                }
            ]
        },
        {
            "inputSize": 15,
            "hiddenSize": 12,
            "hiddenLayers": 1,
            "outputSize": 4,
            "weights": [
                {
                    "row": 15,
                    "column": 12,
                    "elements": [
                        -0.34739649295806887,
                        -0.33178961277008059,
                        0.23771178722381593,
                        -0.10992014408111572,
                        0.3944809138774872,
                        0.49043628573417666,
                        0.35077473521232607,
                        -0.31210219860076907,
                        -0.711165189743042,
                        0.13552415370941163,
                        -0.46604931354522707,
                        -0.1316150426864624,
                        -0.3804210424423218,
                        -0.4167393445968628,
                        -0.0032738447189331056,
                        0.7041020393371582,
                        0.6848418712615967,
                        0.1510411500930786,
                        -0.750518798828125,
                        -0.40541088581085207,
                        -0.9283347129821777,
                        0.12369143962860108,
                        -0.208013653755188,
                        -0.18698203563690186,
                        -0.2121654748916626,
                        0.3503985106945038,
                        -0.9971694946289063,
                        -0.683936357498169,
                        -0.583796501159668,
                        -0.5148026943206787,
                        0.7791261672973633,
                        0.6351842880249023,
                        -0.44319379329681399,
                        -0.8896920680999756,
                        -0.42550837993621828,
                        0.3187253177165985,
                        0.4583568274974823,
                        0.6638617515563965,
                        -0.9625542163848877,
                        -0.0383073091506958,
                        0.9930510520935059,
                        -0.22093665599822999,
                        0.7665109634399414,
                        0.9253659248352051,
                        -0.9594969749450684,
                        -0.6491820812225342,
                        -0.001946091651916504,
                        -0.406838059425354,
                        -0.8574631214141846,
                        0.758671760559082,
                        0.4798392951488495,
                        -0.4900854825973511,
                        0.2385920286178589,
                        0.7238304615020752,
                        0.45174142718315127,
                        -0.13450753688812257,
                        0.6861538887023926,
                        -0.7706823348999023,
                        0.4746207892894745,
                        -0.8315131664276123,
                        -0.20120728015899659,
                        0.7727594375610352,
                        0.18300187587738038,
                        -0.9869236946105957,
                        -0.6044642925262451,
                        -0.3685497045516968,
                        -0.9178736209869385,
                        -0.0974348783493042,
                        -0.20082151889801026,
                        -0.3613520860671997,
                        0.538482666015625,
                        0.6875133514404297,
                        -0.5112769603729248,
                        -0.8898074626922607,
                        -0.8084213733673096,
                        0.5320003032684326,
                        -0.24031364917755128,
                        -0.39343202114105227,
                        0.10307133197784424,
                        0.21492040157318116,
                        0.5550830364227295,
                        0.8512768745422363,
                        -0.2697046995162964,
                        0.5501296520233154,
                        -0.4977518320083618,
                        -0.6875829696655273,
                        0.34877511858940127,
                        0.9253461360931397,
                        -0.7153055667877197,
                        -0.5923423767089844,
                        -0.5051608085632324,
                        0.7009584903717041,
                        0.31680819392204287,
                        -0.24383175373077393,
                        0.4690265357494354,
                        -0.3469640016555786,
                        -0.5663228034973145,
                        -0.14291560649871827,
                        -0.49095094203948977,
                        0.968839168548584,
                        -0.9901347160339356,
                        0.36350056529045107,
                        -0.0958031415939331,
                        0.8996584415435791,
                        0.4331159293651581,
                        -0.21694672107696534,
                        0.06112492084503174,
                        -0.6375610828399658,
                        -0.026390671730041505,
                        -0.05826866626739502,
                        0.4686591327190399,
                        -0.59731125831604,
                        0.5194993019104004,
                        -0.9689760208129883,
                        -0.09098637104034424,
                        0.9980578422546387,
                        0.6420698165893555,
                        0.849846363067627,
                        -0.6463179588317871,
                        -0.885373592376709,
                        -0.8856179714202881,
                        -0.04162871837615967,
                        0.4323227107524872,
                        0.6421844959259033,
                        -0.26418936252593996,
                        0.74863600730896,
                        0.7062482833862305,
                        0.382611483335495,
                        -0.08096635341644287,
                        -0.06022322177886963,
                        0.9171023368835449,
                        0.24006593227386475,
                        -0.7088890075683594,
                        0.9372305870056152,
                        0.8491463661193848,
                        -0.7689113616943359,
                        0.21774661540985108,
                        -0.9680807590484619,
                        0.18281018733978272,
                        0.7962470054626465,
                        0.528092622756958,
                        -0.9814009666442871,
                        0.3674621284008026,
                        -0.49834954738616946,
                        -0.24241983890533448,
                        -0.662930965423584,
                        0.7668640613555908,
                        -0.7932271957397461,
                        0.1261194944381714,
                        0.30272337794303896,
                        -0.26626861095428469,
                        -0.14611971378326417,
                        -0.5808017253875732,
                        -0.9813368320465088,
                        0.7729954719543457,
                        -0.6857995986938477,
                        0.09790050983428955,
                        0.1528247594833374,
                        -0.8590435981750488,
                        0.5497817993164063,
                        0.4688722789287567,
                        -0.7627253532409668,
                        0.9370651245117188,
                        0.058231234550476077,
                        -0.6108126640319824,
                        0.26025673747062685,
                        -0.3975578546524048,
                        -0.5733969211578369,
                        -0.4769645929336548,
                        -0.3592144250869751,
                        -0.5297098159790039,
                        0.1890169382095337,
                        -0.18239295482635499,
                        0.03072512149810791,
                        -0.909001350402832,
                        -0.27186357975006106,
                        0.8446247577667236,
                        -0.6073694229125977,
                        -0.30462491512298586,
                        -0.739903450012207
                    ]
                },
                {
                    "row": 12,
                    "column": 4,
                    "elements": [
                        0.9532098770141602,
                        0.6219310760498047,
                        0.19991576671600343,
                        0.0883399248123169,
                        -0.9083917140960693,
                        0.6660912036895752,
                        0.24484217166900636,
                        0.9313688278198242,
                        0.6159970760345459,
                        0.57521653175354,
                        -0.8341584205627441,
                        -0.03293406963348389,
                        -0.2361081838607788,
                        -0.46020805835723879,
                        -0.03480255603790283,
                        0.8271579742431641,
                        0.7340259552001953,
                        0.032698988914489749,
                        -0.8983869552612305,
                        -0.08307349681854248,
                        -0.3538452386856079,
                        0.2464507818222046,
                        -0.41448891162872317,
                        -0.3371995687484741,
                        -0.42007553577423098,
                        -0.5718469619750977,
                        -0.6490378379821777,
                        -0.048029303550720218,
                        -0.47671687602996828,
                        0.8012433052062988,
                        -0.44868361949920657,
                        -0.7684831619262695,
                        -0.9662210941314697,
                        0.5809609889984131,
                        0.4864201247692108,
                        -0.7168807983398438,
                        -0.24863159656524659,
                        0.4542853534221649,
                        0.9215867519378662,
                        0.16592419147491456,
                        0.5833234786987305,
                        -0.506824254989624,
                        0.17866718769073487,
                        0.3323499858379364,
                        0.6734895706176758,
                        0.7204821109771729,
                        -0.6395690441131592,
                        0.7950835227966309
                    ]
                }
            ],
            "biases": [
                {
                    "row": 1,
                    "column": 12,
                    "elements": [
                        0.34837600588798525,
                        -0.05778205394744873,
                        -0.663121223449707,
                        -0.7000653743743897,
                        -0.19226324558258058,
                        0.9355177879333496,
                        -0.11957967281341553,
                        0.5617461204528809,
                        -0.3301957845687866,
                        -0.9106135368347168,
                        0.546727180480957,
                        -0.9789948463439941
                    ]
                },
                {
                    "row": 1,
                    "column": 4,
                    "elements": [
                        0.9198641777038574,
                        0.14266574382781983,
                        -0.6433355808258057,
                        -0.8754281997680664
                    ]
                }
            ]
        },
        {
            "inputSize": 15,
            "hiddenSize": 12,
            "hiddenLayers": 1,
            "outputSize": 4,
            "weights": [
                {
                    "row": 15,
                    "column": 12,
                    "elements": [
                        0.9532599449157715,
                        0.40408656001091006,
                        -0.17307507991790772,
                        -0.8392505645751953,
                        0.4926571547985077,
                        -0.3817662000656128,
                        0.4001574218273163,
                        0.13769924640655518,
                        0.6819689273834229,
                        -0.9730188846588135,
                        -0.4073101282119751,
                        -0.29022157192230227,
                        0.8610358238220215,
                        -0.36668360233306887,
                        0.12887299060821534,
                        -0.10153448581695557,
                        0.657963752746582,
                        -0.7582645416259766,
                        -0.8938090801239014,
                        -0.0028382539749145509,
                        0.3725263774394989,
                        0.4170241057872772,
                        -0.20170605182647706,
                        0.9531424045562744,
                        0.14833438396453858,
                        0.5335800647735596,
                        0.5197238922119141,
                        -0.5391988754272461,
                        0.47271963953971865,
                        0.419612854719162,
                        0.6219406127929688,
                        -0.1963125467300415,
                        -0.44966208934783938,
                        -0.5767168998718262,
                        -0.8321695327758789,
                        0.49126455187797549,
                        0.6138021945953369,
                        0.7256982326507568,
                        -0.14430296421051026,
                        0.5852234363555908,
                        0.28526875376701357,
                        0.085715651512146,
                        0.5546085834503174,
                        -0.011831402778625489,
                        0.3288368880748749,
                        -0.8321502208709717,
                        0.40521666407585146,
                        -0.32476890087127688,
                        0.8825275897979736,
                        0.4508456885814667,
                        0.9469141960144043,
                        0.18400943279266358,
                        -0.9415898323059082,
                        -0.5648584365844727,
                        -0.42902958393096926,
                        0.4193854033946991,
                        -0.6805775165557861,
                        -0.04671204090118408,
                        0.4974667727947235,
                        0.45877668261528017,
                        0.9521653652191162,
                        0.399410218000412,
                        -0.025796055793762208,
                        0.9053878784179688,
                        0.16192662715911866,
                        -0.8813536167144775,
                        -0.28291451930999758,
                        0.11860620975494385,
                        -0.35946524143218996,
                        0.39053723216056826,
                        -0.6672179698944092,
                        0.5119595527648926,
                        -0.9708116054534912,
                        0.38892170786857607,
                        0.791619062423706,
                        0.8608670234680176,
                        0.1399019956588745,
                        0.051994919776916507,
                        -0.9564003944396973,
                        -0.5392570495605469,
                        0.7391510009765625,
                        -0.8931913375854492,
                        -0.6876795291900635,
                        0.9365441799163818,
                        0.9414539337158203,
                        -0.17044484615325929,
                        0.046803832054138187,
                        0.5752861499786377,
                        0.5917074680328369,
                        -0.08266198635101319,
                        0.7001481056213379,
                        -0.7653088569641113,
                        0.5165975093841553,
                        -0.4389890432357788,
                        -0.2115994691848755,
                        -0.9585921764373779,
                        -0.9166767597198486,
                        0.022240042686462404,
                        -0.856410026550293,
                        0.9267430305480957,
                        -0.20468533039093018,
                        -0.7634060382843018,
                        -0.8018472194671631,
                        0.37365958094596865,
                        -0.48485052585601809,
                        -0.8333432674407959,
                        0.6127340793609619,
                        0.7736799716949463,
                        0.2442561388015747,
                        -0.5729196071624756,
                        -0.1344674825668335,
                        -0.7676448822021484,
                        -0.1394740343093872,
                        0.2839924991130829,
                        -0.9257495403289795,
                        -0.48097121715545657,
                        0.6772134304046631,
                        0.13525736331939698,
                        -0.25265562534332278,
                        -0.43333137035369875,
                        0.382430762052536,
                        0.8304798603057861,
