{
    "generation": 21,
    "totalPopulation": 100,
    "brainDataList": [
        {
            "inputSize": 15,
            "hiddenSize": 12,
            "hiddenLayers": 1,
            "outputSize": 4,
            "weights": [
                {
                    "row": 15,
                    "column": 12,
                    "elements": [
                        0.6675467491149902,
                        0.3968591101965764,
                        -0.8492687473128106,
                        1.2315985036262687,
                        -0.6435798422540904,
                        -0.5828648519019701,
                        -0.32541219457437267,
                        -1.0965163707733155,
                        0.8792711840261571,
                        0.7033916572057901,
                        0.507600954438868,
                        0.6143976996636948,
                        -0.08184605919122579,
                        -0.268912014403341,
                        0.19321439891413307,
                        0.34035136089426878,
                        0.2781677047306168,
                        -0.13143983048874298,
                        0.102102739901202,
                        -0.7541273337705285,
                        0.2002470184204057,
                        -0.14915067151409557,
                        0.49730804374300288,
                        -0.3945902211512733,
                        -0.8481914333770977,
                        0.4581417912782797,
                        0.360908970360301,
                        -1.0034915366499422,
                        -2.7011104928090754,
                        -0.4155713868117701,
                        0.0890349136761781,
                        -0.3782837867210347,
                        -0.02273645212742048,
                        -0.6990158824183226,
                        -0.37262165253044557,
                        -0.45690686562699769,
                        -0.8680101831909,
                        0.17424219919795903,
                        0.04857036418063354,
                        0.8566909998377645,
                        -0.7754803844981306,
                        0.03136178836793313,
                        -0.5514426168707516,
                        -0.38641601683321627,
                        0.09776921861713461,
                        0.526054260341875,
                        -0.0835228529085068,
                        -0.1422455974454646,
                        0.7828084595327987,
                        -0.49730564045950489,
                        -0.3121729434945324,
                        -0.9138816844211224,
                        -0.20474679752704806,
                        -0.2107028038961678,
                        -2.8657919351372778,
                        0.41431312650824028,
                        0.9596721546200584,
                        0.6967596213312897,
                        -0.35113704735099829,
                        0.38813263555024948,
                        -0.08188493895431748,
                        1.0429854299255262,
                        0.044278918855733987,
                        -0.1256131035442114,
                        1.9189582428307679,
                        0.7665921029367553,
                        -0.5471791777984354,
                        -0.41991331393728617,
                        0.7881667500744093,
                        -0.5002520195433242,
                        0.35764264197616849,
                        -1.1006190208572387,
                        0.30120620155141367,
                        0.5701187036765152,
                        0.29490715997055619,
                        1.49479682011766,
                        -0.7927055402924097,
                        0.6551247543429506,
                        -0.017773561357040003,
                        -0.1946563282142364,
                        0.08365118343133205,
                        -0.44061926410896837,
                        -1.0708383321762086,
                        0.5712719574535137,
                        0.7190559885025927,
                        -0.49841969481119899,
                        -0.5607805533039976,
                        -0.9539603381967599,
                        0.059037483158091767,
                        -0.5971844977744523,
                        -0.5193494883821721,
                        0.4885201063650222,
                        -0.5369882538551423,
                        0.3383635526971682,
                        -0.4428776337844549,
                        -0.803562396968668,
                        0.08413931686411758,
                        -0.03514212670948691,
                        -0.5582754259677943,
                        0.40665644188924957,
                        -0.14279233540705905,
                        -1.1554978799149703,
                        -0.48210829496383669,
                        0.059049693995319788,
                        0.24239991412554308,
                        -0.9779152946673388,
                        0.5185075367277348,
                        0.8400856911531207,
                        0.15231197239482875,
                        0.6723562751982501,
                        1.0595589197842124,
                        0.49264461664145867,
                        0.8118156026230583,
                        -0.3877742172000438,
                        0.31555898918155958,
                        -0.9151854488964908,
                        0.9318128464137772,
                        0.29418780617491438,
                        -0.8823506890331595,
                        -0.595169638651514,
                        0.9311211866307172,
                        0.05019260175634099,
                        0.48893632692832558,
                        0.887002473390087,
                        0.3428089083525778,
                        -0.9241317187290559,
                        -0.41219475642325778,
                        -0.2118759856930743,
                        -0.29915045592464187,
                        0.7400153048470535,
                        -1.0353411959755246,
                        -0.28519215157319346,
                        0.8369919965478041,
                        -0.7642305165911552,
                        0.8070578486367488,
                        1.0265056318035529,
                        0.2595019907514842,
                        0.7033821702898244,
                        -0.6439635016932961,
                        -0.012415184312662087,
                        -0.16738430195859167,
                        0.10884490283760173,
                        0.5986080726618894,
                        0.3848329051213566,
                        0.012784121985262687,
                        0.12024475365445575,
                        -0.35914758989791198,
                        0.40187620593004427,
                        -0.760417626455343,
                        0.8653696485522042,
                        0.34253979468463316,
                        -0.11172728713243085,
                        -0.043494233435719568,
                        0.4871960574453227,
                        -0.7370395617861227,
                        0.28226067743737817,
                        -0.26215906225306498,
                        0.4702031585593849,
                        0.9598294639184433,
                        -0.7670126855996102,
                        0.08382592993315541,
                        0.8371759483980128,
                        -0.07775030993784316,
                        -0.8065089741279934,
                        0.3154329342530633,
                        -1.7104788100002502,
                        0.5678987311894498,
                        0.3405815646601553,
                        -0.5291775201316646,
                        0.41374709316748517,
                        -0.37129585787335275,
                        0.6165236218626057,
                        0.364662631089697,
                        -0.8127488226122868,
                        0.23284847709734536,
                        -0.6287946049649458,
                        -0.39641632488764247,
                        0.055044826374903269,
                        -0.5142949280261213,
                        0.36208829499619457
                    ]
                },
                {
                    "row": 12,
                    "column": 4,
                    "elements": [
                        0.9354299717605086,
                        0.591771597037976,
                        -0.020899063361346394,
                        0.5221713730872466,
                        0.4439338485578954,
                        0.9484210249261622,
                        0.834676333372605,
                        -0.33468688089685019,
                        -0.3542165310866561,
                        -0.22771830929470839,
                        -0.7384858422410905,
                        -0.2802699781715452,
                        0.08838207576930213,
                        0.897808136362666,
                        0.00858931565996457,
                        1.653742022354141,
                        0.5698084520619702,
                        -0.09622123837471008,
                        -0.25023052482669608,
                        -0.6313849096436748,
                        -0.4190137297396088,
                        -0.5134279247494336,
                        0.9025574818513888,
                        0.8527042816507251,
                        0.7631201005834489,
                        -0.06372212950560474,
                        0.7454042138850703,
                        0.0830542463551538,
                        -0.43427221242869198,
                        -0.6479854519321684,
                        -0.14289467636422513,
                        0.8118097413648986,
                        0.32368463004601547,
                        -0.20444411474129166,
                        -0.029663834295330817,
                        0.08945577214322498,
                        0.13707790662460929,
                        0.7973440971024735,
                        -0.1493648073777898,
                        0.9446432904717135,
                        -0.2530350390188647,
                        -0.7539237360554312,
                        0.2804569386682605,
                        -1.0443644823546452,
                        0.8367587651050781,
                        -0.22130504662709428,
                        0.8725983807078399,
                        -1.2335560881714472
                    ]
                }
            ],
            "biases": [
                {
                    "row": 1,
                    "column": 12,
                    "elements": [
                        -0.7960223135192237,
                        0.7015352262681898,
                        0.20019893684544044,
                        0.6030352772343592,
                        0.252343006092277,
                        0.0063501220273805,
                        -0.07846307599267916,
                        0.4479420465887385,
                        0.7062977763495901,
                        0.6492685285323543,
                        -0.546789664428167,
                        0.11750132900102095
                    ]
                },
                {
                    "row": 1,
                    "column": 4,
                    "elements": [
                        -0.6199043360310341,
                        -0.1527383228820085,
                        -1.500393878927977,
                        0.390236269826433
                    ]
                }
            ]
        },
        {
            "inputSize": 15,
            "hiddenSize": 12,
            "hiddenLayers": 1,
            "outputSize": 4,
            "weights": [
                {
                    "row": 15,
                    "column": 12,
                    "elements": [
                        0.6979329419289506,
                        0.3968591101965764,
                        -0.8492687473128106,
                        1.1920530852229048,
                        -0.7215482004715028,
                        -0.1782270222902298,
                        -0.061167763626456487,
                        -1.0965163707733155,
                        0.8697292313350014,
                        0.7033916572057901,
                        0.507600954438868,
                        0.5639558974524181,
                        -0.06833264528459537,
                        -0.2339981345751312,
                        0.2917091876599649,
                        0.30055766156840138,
                        0.2781677047306168,
                        -0.13208749156712297,
                        0.102102739901202,
                        -0.7902721473138805,
                        0.2002470184204057,
                        -0.12705847727113363,
                        0.4703197700036541,
                        -0.30117400583417455,
                        -0.9527789352442131,
                        0.5317878723144531,
                        0.18338187552815533,
                        -1.0502924094050275,
                        -2.5599890174653128,
                        -0.056493282318115237,
                        0.040682261350839968,
                        -0.40156581608284017,
                        -0.01292524319139643,
                        -0.596062688119849,
                        0.3678749180316139,
                        -0.45690686562699769,
                        -0.8680101831909,
                        0.17424219919795903,
                        0.04991473377218236,
                        0.9849977393118717,
                        -0.7706162179258711,
                        0.04547034066920297,
                        -0.4176677874125616,
                        -0.4147296854344775,
                        -0.03774491616796638,
                        0.4978775891477718,
                        -0.0835228529085068,
                        0.06608942064633361,
                        0.8994375532842724,
                        -0.6493673032153779,
                        -0.4428762501179635,
                        -0.8883938599219992,
                        -0.20474679752704806,
                        -0.11497258394956589,
                        -2.866329034996877,
                        0.4738360103813406,
                        0.8133897691800911,
                        0.6967596213312897,
                        -0.32493577936544507,
                        0.5334632676936923,
                        -0.08188493895431748,
                        1.030541059638093,
                        0.05190101778331524,
                        -0.10010278648643034,
                        1.9189582428307679,
                        0.7783591206496272,
                        -0.5366429283978098,
                        -0.46005954494868597,
                        0.746475213898541,
                        -0.5842819781502808,
                        0.3076833177768368,
                        -1.0945447886038369,
                        0.21694389568523965,
                        1.9073983430862427,
                        0.26927231464878789,
                        1.4899346956006117,
                        -0.7927055402924097,
                        0.6151657392930554,
                        -0.1653645653349347,
                        -0.27759248437605979,
                        0.13375788608119167,
                        -0.27898149251691697,
                        -0.3057804156950241,
                        0.5191782935089648,
                        0.7467964824256406,
                        -0.5773540399148738,
                        -0.5802853795518814,
                        -1.0623228151560867,
                        0.23735760342445645,
                        -0.7369301411019125,
                        -0.5193494883821721,
                        0.476627672129909,
                        -0.6039694815304699,
                        0.17813964405133476,
                        -0.3623017959209367,
                        -0.907982393088008,
                        0.04384053029155055,
                        0.07312399278122062,
                        -0.6613046372020145,
                        0.439105361700058,
                        -0.06071447798163343,
                        -1.1616273620999956,
                        0.5835626105072223,
                        0.059049693995319788,
                        0.447269307031946,
                        -0.8076217821126335,
                        0.2493875069556113,
                        0.886457517737135,
                        0.29514165732108746,
                        0.6723562751982501,
                        -1.637424397434863,
                        0.49264461664145867,
                        0.6830260271738471,
                        -0.32041240550805197,
                        0.31555898918155958,
                        -0.9580368402457822,
                        0.9432212259450168,
                        0.21841014493967493,
                        -0.8811519379159201,
                        -0.5925060460729998,
                        0.8834581338467888,
                        0.04693380775127309,
                        0.547907287266082,
                        0.867144974193657,
                        0.33241612405937195,
                        -0.8179849199535898,
                        -0.38716198837112616,
                        -0.13158987782368349,
                        -0.28257684794051199,
                        0.5934630176438893,
                        -0.975108072067755,
                        -0.1363417261370774,
                        0.8194208588981433,
                        -0.8032051537409117,
                        0.8653287380886852,
                        1.0265056318035529,
                        0.22078887742885423,
                        0.636201221747033,
                        -0.6583239089607238,
                        0.06908555502834801,
                        -0.08465970836989811,
                        0.05670137081403159,
                        0.5786197986717044,
                        0.43127368951374459,
                        0.012784121985262687,
                        0.11890445006841766,
                        -0.3058429925775701,
                        0.44034939156756539,
                        -0.7791584558333451,
                        -0.4488249123096466,
                        0.2884330420463428,
                        -0.11172728713243085,
                        -0.07511861265828657,
                        0.4676380237680613,
                        -0.7120166588991399,
                        0.7462729215621948,
                        -0.44641578445523547,
                        0.4600604741735017,
                        0.9598294639184433,
                        -0.6893694569487929,
                        -0.021775375456300595,
                        0.5774911046028137,
                        -0.053185786754953449,
                        0.7186964560161471,
                        0.3154329342530633,
                        0.6807537665979898,
                        0.6593277156498426,
                        0.37627363024449958,
                        -0.4117507373874645,
                        0.48943535547863617,
                        -0.36129039083577565,
                        0.8031177562095131,
                        0.22336372582440945,
                        -0.8717170006051145,
                        0.18108879333894024,
                        -0.6144993855492128,
                        -0.2458895115980475,
                        0.055044826374903269,
                        -0.48940509668621248,
                        0.40425114895888827
                    ]
                },
                {
                    "row": 12,
                    "column": 4,
                    "elements": [
                        0.937489226190614,
                        0.6436202335796857,
                        -0.089380919090841,
                        0.49162901848195519,
                        0.4439338485578954,
                        0.9538136680556955,
                        0.7823935806140325,
                        -0.38870696599400747,
                        -0.3542165310866561,
                        -0.20289456401127382,
                        -0.7384858422410905,
                        -0.19172832388112139,
                        0.09924916940657358,
                        0.9837515561347909,
                        -0.051570245980439469,
                        -0.9154711365699768,
                        0.8072152642691446,
                        -0.4188602439105409,
                        -0.30178588862306379,
                        -0.655674196149425,
                        -0.35594214193578468,
                        -0.5626627055869209,
                        1.0111746488719149,
                        0.7313002441193479,
                        0.759381538268201,
                        -0.04377069437247799,
                        0.8876323025511947,
                        0.2298554139545601,
                        -0.523300444487703,
                        -0.6661015071869478,
                        -0.22231011769511253,
                        0.8160855260272957,
                        0.40261389057526567,
                        -0.2552717728512608,
                        -0.045023336744346668,
                        0.08328111708624553,
                        0.02416525679789805,
                        0.6356270787478584,
                        -0.1493648073777898,
                        1.1102455888745909,
                        -0.2530350390188647,
                        -0.7812891999228357,
                        0.11083263371308405,
                        -0.9696046551079862,
                        0.8027754576149953,
                        -0.2517370287740719,
                        1.0303045737459136,
                        -1.3019487857818604
                    ]
                }
            ],
            "biases": [
                {
                    "row": 1,
                    "column": 12,
                    "elements": [
                        -0.7885222846109699,
                        0.6543888241815186,
                        0.24565008173746318,
                        0.5464722862286608,
                        0.25631988805238617,
                        0.039012491146006137,
                        -0.11445872562829801,
                        0.5145819041447579,
                        0.712204100970883,
                        0.6186965270226084,
                        -0.5147815540635666,
                        0.059491711751467949
                    ]
                },
                {
                    "row": 1,
                    "column": 4,
                    "elements": [
                        -0.6328102867921119,
                        -0.18862895240761547,
                        -1.2604599870257332,
                        0.3303677439689636
                    ]
                }
            ]
        },
        {
            "inputSize": 15,
            "hiddenSize": 12,
            "hiddenLayers": 1,
            "outputSize": 4,
            "weights": [
                {
                    "row": 15,
                    "column": 12,
                    "elements": [
                        0.6240270978800595,
                        0.3968591101965764,
                        -0.8492687473128106,
                        1.2315985036262687,
                        -0.6435798422540904,
                        -0.5828648519019701,
                        -0.32541219457437267,
                        -1.0965163707733155,
                        0.8792711840261571,
                        0.7033916572057901,
                        0.4711252492731757,
                        0.6143976996636948,
                        -0.040375154385132287,
                        -0.29208518720202117,
                        0.1919302747569378,
                        0.34035136089426878,
                        0.2781677047306168,
                        -0.13143983048874298,
                        0.1419674162918767,
                        -0.7541273337705285,
                        0.2002470184204057,
                        -0.17291832377804096,
                        0.5388842020113018,
                        -0.42707236369833,
                        -0.8481914333770977,
                        0.4581417912782797,
                        0.360908970360301,
                        -1.0034915366499422,
                        -2.7011104928090754,
                        -0.4155713868117701,
                        0.0890349136761781,
                        -0.3782837867210347,
                        -0.02273645212742048,
                        -0.7062469469954675,
                        -0.3669372597033165,
                        -0.45690686562699769,
                        -0.8369433923293415,
                        0.17424219919795903,
                        0.04857036418063354,
                        0.8566909998377645,
                        -0.7754803844981306,
                        0.020449818689850298,
                        -0.5514426168707516,
                        -0.3902410303247281,
                        0.12150740949608974,
                        0.5088555241829185,
                        -0.0835228529085068,
                        -0.1422455974454646,
                        0.8160201021641562,
                        -0.49730564045950489,
                        -0.3121729434945324,
                        -0.9074422474911241,
                        -0.17518989549368325,
                        -0.2107028038961678,
                        -2.8657919351372778,
                        0.41431312650824028,
                        0.9596721546200584,
                        0.6967596213312897,
                        -0.3388601854935498,
                        0.3447141894298902,
                        -0.05888509587348523,
                        1.0429854299255262,
                        0.044278918855733987,
                        -0.17302995456474025,
                        1.8891367962998916,
                        0.7665921029367553,
                        -0.5471791777984354,
                        -0.41991331393728617,
                        0.7881667500744093,
                        -0.4461895841522783,
                        0.35764264197616849,
                        -1.1006190208572387,
                        0.30120620155141367,
                        0.6101633169601737,
                        0.1832206230351261,
                        1.49479682011766,
                        -0.7927055402924097,
                        0.6551247543429506,
                        -0.017773561357040003,
                        -0.1946563282142364,
                        0.08365118343133205,
                        -0.3631636021184983,
                        -1.0708383321762086,
                        0.5722134014557623,
                        0.7190559885025927,
                        -0.6258541967545686,
                        -0.6198489422058824,
                        -0.9539603381967599,
                        0.059037483158091767,
                        -0.5971844977744523,
                        -0.5193494883821721,
                        0.4885201063650222,
                        -0.5369882538551423,
                        0.3383635526971682,
                        -0.4428776337844549,
                        -0.803562396968668,
                        0.08413931686411758,
                        -0.033050888723747288,
                        -0.5889935224910036,
                        0.3049801311244478,
                        -0.14279233540705905,
                        -1.1554978799149703,
                        -0.4031773178207487,
                        0.02104424628951662,
                        0.1815299890688502,
                        -0.9779152946673388,
                        0.5185075367277348,
                        0.8899586303373468,
                        0.15231197239482875,
                        0.6723562751982501,
                        1.049111068843673,
                        0.49264461664145867,
                        0.8118156026230583,
                        -0.3877742172000438,
                        0.31555898918155958,
                        -0.9151854488964908,
                        0.9318128464137772,
                        0.29418780617491438,
                        -0.8823506890331595,
                        -0.595169638651514,
                        0.9311211866307172,
                        -0.03968632332391553,
                        0.4030563467663417,
                        0.887002473390087,
                        0.268046198625183,
                        -0.9241317187290559,
                        -0.5533667467054748,
                        -0.27751223212141476,
                        -0.29915045592464187,
                        0.599457018316945,
                        -1.0853004271916067,
                        -0.28519215157319346,
                        0.9207517511960028,
                        -0.7642305165911552,
                        0.8070578486367488,
                        0.711220920085907,
                        0.2595019907514842,
                        0.7109621567460591,
                        -0.6439635016932961,
                        -0.012415184312662087,
                        -0.16738430195859167,
                        0.10884490283760173,
                        0.5180363488601287,
                        0.3848329051213566,
                        0.012784121985262687,
                        0.12024475365445575,
                        -0.35914758989791198,
                        0.40187620593004427,
                        -0.760417626455343,
                        0.9570706090175145,
                        0.34253979468463316,
                        -0.11172728713243085,
                        -0.043494233435719568,
                        0.4871960574453227,
                        -0.7370395617861227,
                        0.28226067743737817,
                        -0.3278228388758282,
                        0.4702031585593849,
                        0.9598294639184433,
                        -0.7670126855996102,
                        0.08382592993315541,
                        0.9502411265167652,
                        -0.07183202624014729,
                        -0.8065089741279934,
                        0.3154329342530633,
                        -1.7609519167212185,
                        0.5678987311894498,
                        0.3405815646601553,
                        -0.5220182395172377,
                        0.41374709316748517,
                        -0.37129585787335275,
                        0.627512060428672,
                        0.364662631089697,
                        -0.8127488226122868,
                        0.23284847709734536,
                        -0.6287946049649458,
                        -0.39641632488764247,
                        0.055044826374903269,
                        -0.5142949280261213,
                        0.356692031778417
                    ]
                },
                {
                    "row": 12,
                    "column": 4,
                    "elements": [
                        0.9827804005543532,
                        0.6521021477217346,
                        -0.05450852767332215,
                        0.5221713730872466,
                        0.4439338485578954,
                        1.048749800980893,
                        0.8047066840589308,
                        -0.33468688089685019,
                        -0.3542165310866561,
                        -0.22771830929470839,
                        -0.7384858422410905,
                        -0.2802699781715452,
                        0.08838207576930213,
                        0.897808136362666,
                        0.00858931565996457,
                        1.653742022354141,
                        0.5698084520619702,
                        -0.09622123837471008,
                        -0.25023052482669608,
                        -0.6313849096436748,
                        -0.4190137297396088,
                        -0.5134279247494336,
                        0.9025574818513888,
                        0.8527042816507251,
                        0.7631201005834489,
                        -0.12596354318796267,
                        0.7454042138850703,
                        0.0830542463551538,
                        -0.43427221242869198,
                        -0.5989080023291891,
                        -0.14289467636422513,
                        0.8118097413648986,
                        0.32368463004601547,
                        -0.20444411474129166,
                        -0.029663834295330817,
                        0.08945577214322498,
                        0.13707790662460929,
                        0.7973440971024735,
                        -0.1493648073777898,
                        0.9446432904717135,
                        -0.2530350390188647,
                        -0.7539237360554312,
                        0.2804569386682605,
                        -1.0443644823546452,
                        0.8367587651050781,
                        -0.22130504662709428,
                        0.7909579217409308,
                        -1.2829639215651732
                    ]
                }
            ],
            "biases": [
                {
                    "row": 1,
                    "column": 12,
                    "elements": [
                        -0.7960223135192237,
                        0.6896417754758195,
                        0.20019893684544044,
                        0.6030352772343592,
                        0.29539124298085397,
                        0.0063501220273805,
                        -0.07846307599267916,
                        0.3824067299014997,
                        0.7062977763495901,
                        0.6390803976891866,
                        -0.546789664428167,
                        0.11750132900102095
                    ]
                },
                {
                    "row": 1,
                    "column": 4,
                    "elements": [
                        -0.6199043360310341,
                        -0.1527383228820085,
                        -1.500393878927977,
                        0.5118882436164416
                    ]
                }
            ]
        },
        {
            "inputSize": 15,
            "hiddenSize": 12,
            "hiddenLayers": 1,
            "outputSize": 4,
            "weights": [
                {
                    "row": 15,
                    "column": 12,
                    "elements": [
                        0.6240270978800595,
                        0.3968591101965764,
                        -0.8164104517585583,
                        1.2315985036262687,
                        -0.6435798422540904,
                        -0.5828648519019701,
                        -0.38367143250988536,
                        -1.0965163707733155,
                        0.8792711840261571,
                        0.7033916572057901,
                        0.4711252492731757,
                        0.6143976996636948,
                        -0.040375154385132287,
                        -0.29208518720202117,
                        0.1919302747569378,
                        0.3488190789975074,
                        0.28283298326134478,
                        -0.13143983048874298,
                        0.10282498371575955,
                        -0.7541273337705285,
                        0.2002470184204057,
                        -0.17291832377804096,
                        0.5681517812992909,
                        -0.42707236369833,
                        -0.8481914333770977,
                        0.44611412989402857,
                        0.360908970360301,
                        -0.1349584013223648,
                        -2.6571467857608299,
                        -0.4155713868117701,
                        0.0890349136761781,
                        -0.3782837867210347,
                        -0.02273645212742048,
                        -0.7062469469954675,
                        -0.37317042447007178,
                        -0.45690686562699769,
                        -0.8369433923293415,
                        0.17424219919795903,
                        0.04857036418063354,
                        0.8566909998377645,
                        -0.7754803844981306,
                        0.020449818689850298,
                        -0.5514426168707516,
                        -0.3902410303247281,
                        0.12150740949608974,
                        0.5088555241829185,
                        -0.0835228529085068,
                        -0.1422455974454646,
                        0.8160201021641562,
                        -0.49730564045950489,
                        -0.3121729434945324,
                        -0.9074422474911241,
                        -0.0981040278866514,
                        -0.2107028038961678,
                        -2.866214407493189,
                        0.41431312650824028,
                        1.0438403560732752,
                        0.6369927708690577,
                        -0.32903992141953167,
                        0.3447141894298902,
                        -0.0900435503377004,
                        1.0427596838344138,
                        0.044278918855733987,
                        -0.14658519652920933,
                        1.923302947750611,
                        0.7665921029367553,
                        -0.5471791777984354,
                        -0.41991331393728617,
                        0.7881667500744093,
                        -0.4461895841522783,
                        0.35764264197616849,
                        -1.1006190208572387,
                        0.30120620155141367,
                        0.6761421852054124,
                        0.1858004245182725,
                        1.489154767302618,
                        -0.7927055402924097,
                        0.6551247543429506,
                        -0.017773561357040003,
                        -0.1946563282142364,
                        0.08365118343133205,
                        -0.38846094864279037,
                        -1.0708383321762086,
                        0.5722134014557623,
                        0.7190559885025927,
                        -0.6258541967545686,
                        -0.6198489422058824,
                        -0.9540016229621202,
                        0.059037483158091767,
                        -0.6035604785540198,
                        -0.5193494883821721,
                        0.4885201063650222,
                        -0.5369882538551423,
                        0.3383635526971682,
                        -0.4410559763673698,
                        -0.803562396968668,
                        0.15697877536305072,
                        -0.033050888723747288,
                        -0.5543562535250731,
                        0.3049801311244478,
                        -0.14279233540705905,
                        0.09635517001152039,
                        -0.3685707297508891,
                        0.02104424628951662,
                        0.11248905367007556,
                        -0.9779152946673388,
                        0.5185075367277348,
                        0.8899586303373468,
                        0.15231197239482875,
                        0.6723562751982501,
                        1.049111068843673,
                        0.49264461664145867,
                        0.8172712499507853,
                        -0.4251772049743756,
                        0.31555898918155958,
                        -0.9151854488964908,
                        0.8956245417435902,
                        0.29418780617491438,
                        -0.9632558436152289,
                        -0.595169638651514,
                        0.9311211866307172,
                        -0.03968632332391553,
                        0.4030563467663417,
                        0.887002473390087,
                        0.268046198625183,
                        -0.21010452508926392,
                        -0.5533667467054748,
                        -0.27826754410991996,
                        -0.29915045592464187,
                        0.599457018316945,
                        -1.0853004271916067,
                        -0.28519215157319346,
                        0.9207517511960028,
                        -0.7642305165911552,
                        0.48268938064575198,
                        0.711220920085907,
                        0.21580881846778827,
                        0.7109621567460591,
                        -0.6439635016932961,
                        0.018341450191204479,
                        -0.16738430195859167,
                        0.10884490283760173,
                        0.5180363488601287,
                        0.3848329051213566,
                        0.012784121985262687,
                        0.12024475365445575,
                        -0.35914758989791198,
                        0.40187620593004427,
                        -0.760417626455343,
                        0.9570706090175145,
                        0.35431700568623639,
                        -0.11172728713243085,
                        -0.043494233435719568,
                        0.4871960574453227,
                        -0.7370395617861227,
                        0.21520143747329713,
                        -0.3278228388758282,
                        0.4702031585593849,
                        0.8447272016161138,
                        -0.7670126855996102,
                        0.08382592993315541,
                        0.9502411265167652,
                        0.02400303387292735,
                        -0.8065089741279934,
                        0.3154329342530633,
                        0.7020741105079651,
                        0.5959520779844264,
                        0.3405815646601553,
                        -0.5220182395172377,
                        0.41374709316748517,
                        -0.37129585787335275,
                        0.627512060428672,
                        0.4060311756431574,
                        -0.8212186918472408,
                        0.23284847709734536,
                        -0.6287946049649458,
                        -0.39641632488764247,
                        0.14558992637024205,
                        -0.5570489694894185,
                        0.4002347106727253
                    ]
                },
                {
                    "row": 12,
                    "column": 4,
                    "elements": [
                        0.9827804005543532,
                        0.6521021477217346,
                        -0.10180242265144379,
                        0.5221713730872466,
                        0.4439338485578954,
                        1.048749800980893,
                        0.8047066840589308,
                        -0.33468688089685019,
                        -0.3542165310866561,
                        -0.22771830929470839,
                        -0.7384858422410905,
                        -0.2607448100496841,
                        0.08838207576930213,
                        0.897808136362666,
                        0.00858931565996457,
                        1.653742022354141,
                        0.5698084520619702,
                        -0.09622123837471008,
                        -0.25023052482669608,
                        -0.6313849096436748,
                        -0.4190137297396088,
                        -0.5134279247494336,
                        0.9025574818513888,
                        0.8527042816507251,
                        0.7631201005834489,
                        -0.12596354318796267,
                        0.7454042138850703,
                        0.0830542463551538,
                        -0.4599815087231147,
                        -0.5989080023291891,
                        -0.14289467636422513,
                        0.7914951454544053,
                        0.32368463004601547,
                        -0.20444411474129166,
                        0.07400509320209281,
                        0.08945577214322498,
                        0.2809245958427602,
                        0.7973440971024735,
                        -0.1493648073777898,
                        0.9446432904717135,
                        -0.2530350390188647,
                        -0.7539237360554312,
                        0.2804569386682605,
                        -1.0443644823546452,
                        0.7606658513148159,
                        -0.22130504662709428,
                        0.7909579217409308,
                        -1.2829639215651732
                    ]
                }
            ],
            "biases": [
                {
                    "row": 1,
                    "column": 12,
                    "elements": [
                        -0.7960223135192237,
                        0.6664391663261009,
                        0.16864986690244677,
                        0.58688427454313,
                        0.29539124298085397,
                        0.0063501220273805,
                        -0.07846307599267916,
                        0.3824067299014997,
                        0.7700823114311568,
                        0.6375198251668812,
                        -0.546789664428167,
                        0.11750132900102095
                    ]
                },
                {
                    "row": 1,
                    "column": 4,
                    "elements": [
                        -0.6199043360310341,
                        -0.1527383228820085,
                        -1.500393878927977,
                        0.5118882436164416
                    ]
                }
            ]
        },
        {
            "inputSize": 15,
            "hiddenSize": 12,
            "hiddenLayers": 1,
            "outputSize": 4,
            "weights": [
                {
                    "row": 15,
                    "column": 12,
                    "elements": [
                        0.6675467491149902,
                        0.3968591101965764,
                        -0.8109214180798267,
                        1.2315985036262687,
                        -0.6435798422540904,
                        -0.5828648519019701,
                        -0.32541219457437267,
                        -1.1779063757812978,
                        0.8792711840261571,
                        0.7033916572057901,
                        0.507600954438868,
                        0.6143976996636948,
                        -0.02647967320019351,
                        -0.268912014403341,
                        0.19321439891413307,
                        0.34035136089426878,
                        0.2781677047306168,
                        -0.13143983048874298,
                        0.102102739901202,
                        -0.7822861182060703,
                        0.24739128546861623,
                        -0.14915067151409557,
                        0.49730804374300288,
                        -0.3945902211512733,
                        -0.8481914333770977,
                        0.4581417912782797,
                        0.360908970360301,
                        -1.0034915366499422,
                        -2.7011104928090754,
                        -0.4155713868117701,
                        0.1587265100924764,
                        -0.33337819154141359,
                        -0.02273645212742048,
                        -0.6990158824183226,
                        -0.34247431222689186,
                        -0.45690686562699769,
                        -0.8680101831909,
                        0.17424219919795903,
                        0.04857036418063354,
                        0.8566909998377645,
                        -0.7754803844981306,
                        0.05344455017548455,
                        -0.5514426168707516,
                        -0.38641601683321627,
                        0.09776921861713461,
                        0.526054260341875,
                        -0.0835228529085068,
                        -0.1422455974454646,
                        0.7828084595327987,
                        -0.49730564045950489,
                        -0.3121729434945324,
                        -0.9239306077168159,
                        -0.20474679752704806,
                        -0.2107028038961678,
                        -2.7405401935192907,
                        0.41431312650824028,
                        0.9596721546200584,
                        0.6967596213312897,
                        -0.35113704735099829,
                        0.38813263555024948,
                        -0.10362856224054973,
                        1.083277124737176,
                        0.044278918855733987,
                        -0.1256131035442114,
                        1.9189582428307679,
                        0.7972822115018516,
                        -0.5471791777984354,
                        -0.41991331393728617,
                        0.7881667500744093,
                        -0.5002520195433242,
                        0.35764264197616849,
                        -1.1006190208572387,
                        0.2517304546227319,
                        0.5701187036765152,
                        0.29490715997055619,
                        1.49479682011766,
                        -0.7927055402924097,
                        0.6551247543429506,
                        -0.017773561357040003,
                        -0.20056376550527989,
                        0.08365118343133205,
                        -0.44061926410896837,
                        -1.027298224626378,
                        0.5712719574535137,
                        0.7190559885025927,
                        -0.49841969481119899,
                        0.09539437294006348,
                        -0.9539603381967599,
                        0.059037483158091767,
                        -0.5971844977744523,
                        -0.5193494883821721,
                        0.4885201063650222,
                        -0.5005946493225189,
                        0.3479214439689935,
                        -0.4451694920717837,
                        -0.803562396968668,
                        0.014077861691362159,
                        -0.07966038943429421,
                        -0.5582754259677943,
                        0.34153492212015648,
                        -0.14279233540705905,
                        -1.1554978799149703,
                        -0.4867369403294184,
                        0.059049693995319788,
                        0.22236676063002659,
                        -0.9779152946673388,
                        0.5185075367277348,
                        0.8400856911531207,
                        0.02862332211702956,
                        0.6723562751982501,
                        1.0595589197842124,
                        0.5288038747749995,
                        0.8118156026230583,
                        -0.40352837274663569,
                        0.31555898918155958,
                        -1.9471418857574463,
                        0.98093354753291,
                        0.29418780617491438,
                        -0.8823506890331595,
                        -0.5996774943055889,
                        0.9763815915854845,
                        0.05019260175634099,
                        0.48893632692832558,
                        0.8548788384904853,
                        0.3428089083525778,
                        -0.8009923276588733,
                        -0.41219475642325778,
                        -0.2118759856930743,
                        -0.29915045592464187,
                        0.7400153048470535,
                        -1.0353411959755246,
                        -0.3704401746559274,
                        0.7692297238814185,
                        -0.7642305165911552,
                        0.8070578486367488,
                        1.0265056318035529,
                        0.22577341489684206,
                        0.7002649622811692,
                        -0.6439635016932961,
                        -0.012415184312662087,
                        -0.260569861596359,
                        0.08431825334157694,
                        0.5986080726618894,
                        0.3848329051213566,
                        0.012784121985262687,
                        0.16268776972430566,
                        -0.39190762719134755,
                        0.32558461554573628,
                        -0.6741821713303509,
                        0.8653696485522042,
                        0.34253979468463316,
                        -0.11172728713243085,
                        -0.043494233435719568,
                        0.4871960574453227,
                        -0.7196202300201797,
                        0.2627569652003494,
                        -0.26215906225306498,
                        0.4702031585593849,
                        0.9598294639184433,
                        -0.7670126855996102,
                        0.08382592993315541,
                        0.8213404807878337,
                        -0.07775030993784316,
                        -0.8065089741279934,
                        0.27649231466752469,
                        -1.7104788100002502,
                        0.5645699842764241,
                        0.3405815646601553,
                        -0.5291775201316646,
                        0.41374709316748517,
                        -0.37129585787335275,
                        0.6165236218626057,
                        0.364662631089697,
                        -0.8127488226122868,
                        0.23284847709734536,
                        -0.6287946049649458,
                        -0.39641632488764247,
                        0.055044826374903269,
                        -0.5142949280261213,
                        0.2848555853804591
                    ]
                },
                {
                    "row": 12,
                    "column": 4,
                    "elements": [
                        0.9354299717605086,
                        0.6381474219017207,
                        0.030512566212619775,
                        0.47513187312732088,
                        0.4439338485578954,
                        0.9484210249261622,
                        0.8702046751240351,
                        -0.33468688089685019,
                        -0.3542165310866561,
                        -0.22771830929470839,
                        -0.7384858422410905,
                        -0.38144324240375396,
                        0.08838207576930213,
                        0.897808136362666,
                        0.03341578785600596,
                        1.653742022354141,
                        0.48484924925743658,
                        -0.09622123837471008,
                        -0.25023052482669608,
                        -0.6313849096436748,
                        -0.4190137297396088,
                        -0.5134279247494336,
                        0.9169090628626675,
                        0.8527042816507251,
                        0.7631201005834489,
                        -0.06372212950560474,
                        0.7454042138850703,
                        0.0830542463551538,
                        -0.43427221242869198,
                        -0.6805454321879303,
                        -0.14289467636422513,
                        0.7863952770733871,
                        0.32368463004601547,
                        1.3167524337768555,
                        -0.029663834295330817,
                        0.08945577214322498,
                        0.11389845388030606,
                        0.7973440971024735,
                        -0.1493648073777898,
                        0.9446432904717135,
                        -0.2530350390188647,
                        -0.7713244693833259,
                        0.2804569386682605,
                        -1.0443644823546452,
                        0.8977131475625879,
                        -0.22130504662709428,
                        0.8725983807078399,
                        -1.2335560881714472
                    ]
                }
            ],
            "biases": [
                {
                    "row": 1,
                    "column": 12,
                    "elements": [
                        -0.7960223135192237,
                        0.7015352262681898,
                        0.2617817072559292,
                        0.6030352772343592,
                        0.252343006092277,
                        0.0063501220273805,
                        -0.07846307599267916,
                        0.4479420465887385,
                        0.7062977763495901,
                        0.6492685285323543,
                        -0.5559961541185697,
                        0.07444884706947441
                    ]
                },
                {
                    "row": 1,
                    "column": 4,
                    "elements": [
                        -0.6227943019184998,
                        -0.1527383228820085,
                        -1.500393878927977,
                        0.390236269826433
                    ]
                }
            ]
        },
        {
            "inputSize": 15,
            "hiddenSize": 12,
            "hiddenLayers": 1,
            "outputSize": 4,
            "weights": [
                {
                    "row": 15,
                    "column": 12,
                    "elements": [
                        0.6979329419289506,
                        0.3968591101965764,
                        -0.8492687473128106,
                        1.1920530852229048,
                        -0.7447667508841,
                        -0.1782270222902298,
                        -0.061167763626456487,
                        -1.0965163707733155,
                        0.8599626981681743,
                        0.7033916572057901,
                        0.507600954438868,
                        0.5639558974524181,
                        -0.06833264528459537,
                        -0.2339981345751312,
                        0.2917091876599649,
                        0.30055766156840138,
                        0.2781677047306168,
                        -0.13208749156712297,
                        0.102102739901202,
                        -0.8014750508509514,
                        0.2002470184204057,
                        -0.12705847727113363,
                        0.4703197700036541,
                        -0.30117400583417455,
                        -0.9527789352442131,
                        0.5317878723144531,
                        0.13629222541021569,
                        -1.0502924094050275,
                        -2.5599890174653128,
                        -0.056493282318115237,
                        0.040682261350839968,
                        -0.3027890162936977,
                        -0.01292524319139643,
                        -0.596062688119849,
                        0.3678749180316139,
                        -0.45690686562699769,
                        -0.8680101831909,
                        0.2855042246838728,
                        0.04991473377218236,
                        0.9849977393118717,
                        -0.7706162179258711,
                        0.04547034066920297,
                        -0.3771405910637675,
                        -0.4147296854344775,
                        -0.03774491616796638,
                        0.4978775891477718,
                        0.01969762352892168,
                        0.10195166882315654,
                        0.8994375532842724,
                        -0.6493673032153779,
                        -0.5366461236484257,
                        -0.8883938599219992,
                        -0.2015032617156025,
                        -0.05418606486771438,
                        -2.8306521703856939,
                        0.4738360103813406,
                        0.8133897691800911,
                        0.6967596213312897,
                        -0.2146863772298584,
                        0.5334632676936923,
                        -0.10002398431754678,
                        1.030541059638093,
                        0.05190101778331524,
                        -0.10010278648643034,
                        1.9730116874568387,
                        0.7783591206496272,
                        -0.5941162182639905,
                        -0.46005954494868597,
                        0.746475213898541,
                        -0.5842819781502808,
                        0.3076833177768368,
                        -1.0945447886038369,
                        0.21694389568523965,
                        1.9073983430862427,
                        0.26927231464878789,
                        1.4899346956006117,
                        -0.9459541664152269,
                        0.6151657392930554,
                        -0.1653645653349347,
                        -0.3397970123185792,
                        0.13375788608119167,
                        -0.27898149251691697,
                        -0.3057804156950241,
                        0.5191782935089648,
                        0.7467964824256406,
                        -0.5701071176703678,
                        -0.5802853795518814,
                        -1.0623228151560867,
                        0.23735760342445645,
                        -0.7369301411019125,
                        -0.5193494883821721,
                        0.48668171308060628,
                        -0.6741421732799111,
                        0.30837740500196988,
                        -0.3623017959209367,
                        -0.907982393088008,
                        0.01851323064392929,
                        0.07312399278122062,
                        -0.6613046372020145,
                        0.4306359636398396,
                        -0.0652223278242553,
                        -1.1616273620999956,
                        0.5835626105072223,
                        0.05468363064424242,
                        0.43744669334273747,
                        -0.8076217821126335,
                        0.29543582693306638,
                        0.836430605444221,
                        0.3552935013517793,
                        0.6723562751982501,
                        -1.637424397434863,
                        0.4616928067205195,
                        0.6830260271738471,
                        0.0659065917134285,
                        0.31555898918155958,
                        -2.4486663341522219,
                        0.9080026400080499,
                        0.21841014493967493,
                        -0.8811519379159201,
                        -0.5354301058186319,
                        0.8834581338467888,
                        0.04693380775127309,
                        0.5640556578160934,
                        0.8224792293062357,
                        0.33241612405937195,
                        -0.8179849199535898,
                        -0.5137871498053457,
                        -0.13158987782368349,
                        -0.28257684794051199,
                        0.5934630176438893,
                        -1.0068757956983312,
                        -0.03802601597731048,
                        0.8194208588981433,
                        -0.8032051537409117,
                        0.8556752305320279,
                        1.0265056318035529,
                        0.22078887742885423,
                        0.636201221747033,
                        -0.6583239089607238,
                        0.06908555502834801,
                        -0.03916305801199016,
                        -0.016481181570605187,
                        0.6615567516972422,
                        0.43127368951374459,
                        0.004369246083926193,
                        0.11890445006841766,
                        -0.3058429925775701,
                        0.4684626589143157,
                        -0.7791584558333451,
                        -0.4488249123096466,
                        0.2884330420463428,
                        -0.11172728713243085,
                        -0.1650813371040556,
                        0.4676380237680613,
                        -0.687776303040323,
                        0.7462729215621948,
                        -0.5221970398506977,
                        0.4600604741735017,
                        0.9598294639184433,
                        -0.9555099010467529,
                        -0.021775375456300595,
                        0.5774911046028137,
                        -0.03882359045404171,
                        0.6927618362741264,
                        0.3154329342530633,
                        0.6983091865021988,
                        0.6593277156498426,
                        0.37627363024449958,
                        -0.4117507373874645,
                        0.5289463843847839,
                        -0.36129039083577565,
                        0.8031177562095131,
                        0.22336372582440945,
                        -0.8717170006051145,
                        0.18108879333894024,
                        -0.6144993855492128,
                        -0.20430400851316933,
                        0.055044826374903269,
                        -0.48940509668621248,
                        0.40425114895888827
                    ]
                },
                {
                    "row": 12,
                    "column": 4,
                    "elements": [
                        0.937489226190614,
                        0.6578107836960081,
                        -0.089380919090841,
                        0.435510094018408,
                        0.4439338485578954,
                        0.9538136680556955,
                        0.7823935806140325,
                        -0.38870696599400747,
                        -0.3542165310866561,
                        -0.180705232670908,
                        -0.7384858422410905,
                        -0.2012732064387075,
                        0.09924916940657358,
                        1.140529883630776,
                        -0.051570245980439469,
                        -0.9154711365699768,
                        0.8072152642691446,
                        -0.4188602439105409,
                        -0.30178588862306379,
                        -0.7036946014427468,
                        -0.35594214193578468,
                        -0.6367588040932164,
                        0.9381421714520428,
                        0.7313002441193479,
                        0.759381538268201,
                        -0.04377069437247799,
                        0.9664273810987947,
                        0.23799161190445429,
                        -0.523300444487703,
                        -0.6661015071869478,
                        -0.22231011769511253,
                        0.8985276794192192,
                        0.40261389057526567,
                        -0.16864003742182555,
                        -0.045023336744346668,
                        0.08328111708624553,
                        0.02416525679789805,
                        0.6356270787478584,
                        -0.15879074468967503,
                        1.1102455888745909,
                        -0.2530350390188647,
                        -0.7812891999228357,
                        0.11083263371308405,
                        -0.9696046551079862,
                        0.8027754576149953,
                        -0.22301036165891342,
                        1.0303045737459136,
                        -1.4063119977459593
                    ]
                }
            ],
            "biases": [
                {
                    "row": 1,
                    "column": 12,
                    "elements": [
                        -0.7885222846109699,
                        0.6543888241815186,
                        0.3334906709365526,
                        0.5464722862286608,
                        0.25631988805238617,
                        0.07741267062751956,
                        -0.1823601584564633,
                        0.4309679043164989,
                        0.712204100970883,
                        0.6186965270226084,
                        -0.5559799035075724,
                        0.059491711751467949
                    ]
                },
                {
                    "row": 1,
                    "column": 4,
                    "elements": [
                        -0.6328102867921119,
                        -0.18862895240761547,
                        -1.2794652178500937,
                        0.3303677439689636
                    ]
                }
            ]
        },
        {
            "inputSize": 15,
            "hiddenSize": 12,
            "hiddenLayers": 1,
            "outputSize": 4,
            "weights": [
                {
                    "row": 15,
                    "column": 12,
                    "elements": [
                        0.6675467491149902,
                        0.3968591101965764,
                        -0.8492687473128106,
                        1.2562196294682489,
                        -0.6435798422540904,
                        -0.5828648519019701,
                        -0.32541219457437267,
                        -1.0965163707733155,
                        0.9719173692909902,
                        0.7033916572057901,
                        0.5153050556518504,
                        0.5856592147351472,
                        -0.08184605919122579,
                        -0.268912014403341,
                        0.19321439891413307,
                        0.34035136089426878,
                        0.2781677047306168,
                        -0.1555331637367754,
                        0.102102739901202,
                        -0.7541273337705285,
                        0.37847872735358836,
                        -0.1489403977602703,
                        0.49730804374300288,
                        -0.3945902211512733,
                        -0.8481914333770977,
                        0.4581417912782797,
                        0.3829814467899413,
                        -0.906816344267003,
                        -2.7011104928090754,
                        -0.4303463768846161,
                        0.0890349136761781,
                        -0.3782837867210347,
                        -0.02273645212742048,
                        -0.6811537894520008,
                        -0.36672724764648848,
                        -0.4580016505188925,
                        -0.8680101831909,
                        0.17424219919795903,
                        0.04857036418063354,
                        0.8566909998377645,
                        -0.7754803844981306,
                        0.03136178836793313,
                        -0.5590076947146194,
                        -0.3813994399861169,
                        0.09776921861713461,
                        0.526054260341875,
                        -0.0835228529085068,
                        -0.1422455974454646,
                        0.7828084595327987,
                        -0.49730564045950489,
                        -0.3121729434945324,
                        -0.9138816844211224,
                        -0.2498480974130084,
                        -0.2107028038961678,
                        -2.8657919351372778,
                        0.42181773037118566,
                        0.9596721546200584,
                        0.6967596213312897,
                        -0.35113704735099829,
                        0.38813263555024948,
                        -0.06702905613657695,
                        0.9438442001711884,
                        0.044278918855733987,
                        -0.14681438056980279,
                        1.9189582428307679,
                        0.7665921029367553,
                        -0.5471791777984354,
                        -0.4156118265589477,
                        0.7286010509911726,
                        -0.5002520195433242,
                        0.35764264197616849,
                        -1.1006190208572387,
                        0.30120620155141367,
                        0.5781400351267125,
                        0.29490715997055619,
                        1.49479682011766,
                        -0.7927055402924097,
                        0.6551247543429506,
                        -0.017773561357040003,
                        -0.1946563282142364,
                        0.08365118343133205,
                        -0.4870888268170903,
                        -1.0147733272685607,
                        0.5712719574535137,
                        0.7720715827074791,
                        -0.49841969481119899,
                        -0.5974882016093996,
                        -0.9102623272078088,
                        0.059037483158091767,
                        -0.5971844977744523,
                        -0.5193494883821721,
                        0.4885201063650222,
                        -0.5369882538551423,
                        0.3383635526971682,
                        -0.38089768184725827,
                        -0.803562396968668,
                        0.08413931686411758,
                        -0.03514212670948691,
                        -0.6495021003348515,
                        0.40665644188924957,
                        -0.25377278615567935,
                        -1.1554978799149703,
                        -0.48210829496383669,
                        0.059049693995319788,
                        0.24239991412554308,
                        -1.0657663337531656,
                        0.5071921091535998,
                        0.8383316753620417,
                        0.15231197239482875,
                        0.6723562751982501,
                        1.0595589197842124,
                        0.49264461664145867,
                        0.8118156026230583,
                        -0.3877742172000438,
                        0.3091090764368025,
                        -0.9027718927215149,
                        0.9318128464137772,
                        0.23871385644555333,
                        -0.8823506890331595,
                        -0.595169638651514,
                        0.9311211866307172,
                        0.05019260175634099,
                        0.48893632692832558,
                        0.8915948360658477,
                        0.3428089083525778,
                        -0.9295244968631149,
                        -0.41219475642325778,
                        -0.2224432986516054,
                        -0.1974018399544828,
                        0.7400153048470535,
                        -1.0353411959755246,
                        -0.28519215157319346,
                        0.8369919965478041,
                        -0.7642305165911552,
                        0.8628101222659481,
                        1.0265056318035529,
                        0.2595019907514842,
                        0.7033821702898244,
                        -0.6439635016932961,
                        0.02502768254688781,
                        -0.16738430195859167,
                        0.10884490283760173,
                        0.5986080726618894,
                        0.3848329051213566,
                        0.012784121985262687,
                        0.12024475365445575,
                        -0.3693563603402694,
                        0.40187620593004427,
                        -0.7144769238603992,
                        0.8653696485522042,
                        0.2863265601720961,
                        -0.005944027828731713,
                        -0.043494233435719568,
                        0.41577894225699776,
                        -0.7370395617861227,
                        0.28226067743737817,
                        -0.2840764801733928,
                        0.4702031585593849,
                        0.9598294639184433,
                        -0.7670126855996102,
                        0.08382592993315541,
                        0.8371759483980128,
                        -0.07775030993784316,
                        -0.9568319752871446,
                        0.3154329342530633,
                        -1.7194269770242335,
                        0.5678987311894498,
                        0.3248445806163591,
                        -0.5291775201316646,
                        0.41374709316748517,
                        -0.37129585787335275,
                        0.6165236218626057,
                        0.364662631089697,
                        -0.7868342497012399,
                        0.23284847709734536,
                        -0.6287946049649458,
                        -0.5410316994772195,
                        0.11674340384642079,
                        -0.5142949280261213,
                        0.36208829499619457
                    ]
                },
                {
                    "row": 12,
                    "column": 4,
                    "elements": [
                        0.9354299717605086,
                        0.591771597037976,
                        1.4557493925094605,
                        0.5221713730872466,
                        0.4406198039506517,
                        0.9484210249261622,
                        0.834676333372605,
                        -0.33468688089685019,
                        -0.39863527670049905,
                        -0.22771830929470839,
                        -0.7384858422410905,
                        -0.2802699781715452,
                        0.08838207576930213,
                        0.9659888908724628,
                        0.00858931565996457,
                        1.653742022354141,
                        0.6606841432722277,
                        -0.09622123837471008,
                        -0.25023052482669608,
                        -0.6313849096436748,
                        -0.4190137297396088,
                        -0.5134279247494336,
                        0.9025574818513888,
                        0.8527042816507251,
                        0.7631201005834489,
                        -0.021978898219268573,
                        0.7454042138850703,
                        0.0830542463551538,
                        -0.43427221242869198,
                        -0.6479854519321684,
                        -0.14289467636422513,
                        0.8118097413648986,
                        0.32368463004601547,
                        -0.20444411474129166,
                        -0.029663834295330817,
                        0.16684756179381567,
                        0.15389190670718157,
                        0.7768099319770174,
                        -0.09141265377645525,
                        0.9446432904717135,
                        -0.2530350390188647,
                        -0.7539237360554312,
                        0.2804569386682605,
                        -1.0212338797910017,
                        0.8367587651050781,
                        -0.22130504662709428,
                        0.8939933579354871,
                        -1.2335560881714472
                    ]
                }
            ],
            "biases": [
                {
                    "row": 1,
                    "column": 12,
                    "elements": [
                        -0.7960223135192237,
                        0.7015352262681898,
                        0.14456462677340355,
                        0.6934663225452953,
                        0.252343006092277,
                        0.0063501220273805,
                        -0.06618754719316406,
                        0.4479420465887385,
                        0.7062977763495901,
                        0.6492685285323543,
                        -0.546789664428167,
                        0.11750132900102095
                    ]
                },
                {
                    "row": 1,
                    "column": 4,
                    "elements": [
                        -0.6199043360310341,
                        -0.13603750308366537,
                        -1.500393878927977,
                        0.37230643498653928
                    ]
                }
            ]
        },
        {
            "inputSize": 15,
            "hiddenSize": 12,
            "hiddenLayers": 1,
            "outputSize": 4,
            "weights": [
                {
                    "row": 15,
                    "column": 12,
                    "elements": [
                        0.6979329419289506,
                        0.3968591101965764,
                        -0.8492687473128106,
                        1.204548023198905,
                        -0.6751928319226579,
                        -0.3656595668169871,
                        -0.000806085011773483,
                        -1.0965163707733155,
                        0.8949291457188862,
                        0.7033916572057901,
                        0.507600954438868,
                        0.5639558974524181,
                        -0.02030187951150708,
                        -0.2339981345751312,
                        0.2917091876599649,
                        0.30055766156840138,
                        0.2781677047306168,
                        -0.13208749156712297,
                        0.15230446427953837,
                        -0.7902721473138805,
                        0.2002470184204057,
                        -0.12705847727113363,
                        0.4703197700036541,
                        -0.30117400583417455,
                        -0.9157003338410323,
                        0.40221299610237795,
                        0.17144927382469178,
                        -1.0502924094050275,
                        -2.5599890174653128,
                        -0.056493282318115237,
                        0.040682261350839968,
                        -0.40156581608284017,
                        -0.01292524319139643,
                        -0.596062688119849,
                        0.3678749180316139,
                        -0.45690686562699769,
                        -0.8680101831909,
                        0.17424219919795903,
                        -0.040852953817450469,
                        0.9849977393118717,
                        -0.7706162179258711,
                        0.04547034066920297,
                        -0.4176677874125616,
                        -0.4147296854344775,
                        -0.015394233855689166,
                        0.49049920065835109,
                        -0.0835228529085068,
                        0.06608942064633361,
                        0.8994375532842724,
                        -0.6493673032153779,
                        -0.4428762501179635,
                        -0.8106622236468812,
                        -0.20474679752704806,
                        -0.11497258394956589,
                        -2.866329034996877,
                        0.4738360103813406,
                        0.8133897691800911,
                        0.6967596213312897,
                        -0.32493577936544507,
                        0.4193909450837783,
                        -0.08188493895431748,
                        1.030541059638093,
                        0.163168135890281,
                        -0.10010278648643034,
                        1.9189582428307679,
                        0.7783591206496272,
                        -0.4229433184148581,
                        -0.46005954494868597,
                        0.746475213898541,
                        -0.5793943650469859,
                        0.3076833177768368,
                        -1.0945447886038369,
                        0.22972210176655873,
                        1.9073983430862427,
                        0.38504382031343456,
                        1.5252377890062992,
                        -0.682257862106006,
                        0.6151657392930554,
                        -0.1653645653349347,
                        -0.21422399926830083,
                        0.13375788608119167,
                        -0.18537798032500509,
                        -0.3057804156950241,
                        0.5191782935089648,
                        0.7467964824256406,
                        -0.5773540399148738,
                        -0.5802853795518814,
                        -1.047881662665266,
                        0.23735760342445645,
                        -0.7369301411019125,
                        -0.5193494883821721,
                        0.4419510319103541,
                        -0.6039694815304699,
                        0.17813964405133476,
                        -0.3623017959209367,
                        -0.907982393088008,
                        0.04384053029155055,
                        0.09919261747908959,
                        -0.6613046372020145,
                        0.439105361700058,
                        -0.06071447798163343,
                        -1.1616273620999956,
                        0.5835626105072223,
                        0.059049693995319788,
                        0.4417769340028581,
                        -0.8076217821126335,
                        0.2152580087866065,
                        0.8490049770433537,
                        0.29514165732108746,
                        0.6723562751982501,
                        -1.7108375196681394,
                        0.5575391642984138,
                        0.6830260271738471,
                        -1.355985403060913,
                        0.31555898918155958,
                        -0.9580368402457822,
                        0.9432212259450168,
                        0.21841014493967493,
                        -0.8811519379159201,
                        -0.5925060460729998,
                        0.902354559964067,
                        0.04693380775127309,
                        0.547907287266082,
                        0.867144974193657,
                        0.33241612405937195,
                        -0.8179849199535898,
                        -0.2723202007610013,
                        -0.13158987782368349,
                        -0.28257684794051199,
                        0.6091423949883139,
                        -0.8478341879591369,
                        -0.1363417261370774,
                        0.8194208588981433,
                        -0.8032051537409117,
                        0.8653287380886852,
                        1.037658060635306,
                        0.22078887742885423,
                        0.5576447096075334,
                        -0.6583239089607238,
                        0.06908555502834801,
                        0.021484476145744226,
                        0.03481020099216647,
                        0.6776344281555086,
                        0.43127368951374459,
                        0.09698369455636424,
                        -0.0040807318586743028,
                        -0.2685131933494662,
                        0.44034939156756539,
                        -0.7791584558333451,
                        -0.5225352590763706,
                        0.30872903057809078,
                        -0.11172728713243085,
                        -0.07511861265828657,
                        0.4676380237680613,
                        -0.7120166588991399,
                        0.7462729215621948,
                        -0.4015884489852213,
                        0.4600604741735017,
                        0.9598294639184433,
                        -0.6893694569487929,
                        -0.021775375456300595,
                        0.5774911046028137,
                        -0.053185786754953449,
                        0.6441590876177443,
                        0.3154329342530633,
                        0.6807537665979898,
                        0.6593277156498426,
                        0.37627363024449958,
                        -0.403196784472831,
                        0.6289737731175107,
                        -0.3772055486670931,
                        0.8031177562095131,
                        0.2717554633010657,
                        -0.8717170006051145,
                        0.18108879333894024,
                        -0.6144993855492128,
                        -0.32155674807189529,
                        -0.01815961283616474,
                        -0.48940509668621248,
                        0.40425114895888827
                    ]
                },
                {
                    "row": 12,
                    "column": 4,
                    "elements": [
                        0.937489226190614,
                        0.6436202335796857,
                        -0.089380919090841,
                        0.49162901848195519,
                        0.470499121825533,
                        0.933682492333765,
                        0.7823935806140325,
                        -0.46220041144977488,
                        -0.3542165310866561,
                        -0.20289456401127382,
                        -0.7384858422410905,
                        -0.24897290713993226,
                        0.09924916940657358,
                        0.9837515561347909,
                        -0.051570245980439469,
                        -0.9154711365699768,
                        0.767379677330462,
                        -0.45714892574701407,
                        -0.30178588862306379,
                        -0.655674196149425,
                        -0.41133513544130198,
                        -0.5626627055869209,
                        1.0111746488719149,
                        0.6141486524547322,
                        0.759381538268201,
                        -0.04377069437247799,
                        0.8876323025511947,
                        0.21753983709065229,
                        -0.523300444487703,
                        -0.6661015071869478,
                        -0.22231011769511253,
                        0.8160855260272957,
                        0.40261389057526567,
                        -0.2552717728512608,
                        -0.045023336744346668,
                        0.10313929756379237,
                        0.02416525679789805,
                        0.6843113021885143,
                        -0.1493648073777898,
                        1.1102455888745909,
                        -0.2530350390188647,
                        -0.7812891999228357,
                        0.10136055972210034,
                        -0.9696046551079862,
                        0.8027754576149953,
                        -0.2517370287740719,
                        0.9818396584518658,
                        -1.3019487857818604
                    ]
                }
            ],
            "biases": [
                {
                    "row": 1,
                    "column": 12,
                    "elements": [
                        -0.7885222846109699,
                        0.6543888241815186,
                        0.24565008173746318,
                        0.4270238294863562,
                        0.3156730667662314,
                        0.039012491146006137,
                        -0.24669186770915986,
                        0.5145819041447579,
                        0.712204100970883,
                        0.6186965270226084,
                        -0.5147815540635666,
                        -0.5889313220977783
                    ]
                },
                {
                    "row": 1,
                    "column": 4,
                    "elements": [
                        -0.6328102867921119,
                        -0.18862895240761547,
                        -1.2604599870257332,
                        0.3303677439689636
                    ]
                }
            ]
        },
        {
            "inputSize": 15,
            "hiddenSize": 12,
            "hiddenLayers": 1,
            "outputSize": 4,
            "weights": [
                {
                    "row": 15,
                    "column": 12,
                    "elements": [
                        0.6161660829631224,
                        0.4089271611798484,
                        -0.8594660343238493,
                        1.2315985036262687,
                        -0.6435798422540904,
                        -0.7161483721746826,
                        -0.32541219457437267,
                        -1.0965163707733155,
                        0.8792711840261571,
                        0.7033916572057901,
                        0.507600954438868,
                        0.6614193218057562,
                        -0.08184605919122579,
                        -0.268912014403341,
                        1.5155590772628785,
                        0.3142009520640072,
                        0.2781677047306168,
                        -0.1312620097469973,
                        0.08093838795451625,
                        -0.7541273337705285,
                        0.2002470184204057,
                        -0.14915067151409557,
                        0.5541460684720172,
                        -0.43822212820235598,
                        -0.8481914333770977,
                        0.4581417912782797,
                        0.360908970360301,
                        -0.9538859135793198,
                        -2.768521768013546,
                        -0.4155713868117701,
                        0.0890349136761781,
                        -0.3782837867210347,
                        -0.02273645212742048,
                        -0.6990158824183226,
                        -0.37262165253044557,
                        -0.45690686562699769,
                        -0.8680101831909,
                        0.17424219919795903,
                        0.09147590396766925,
                        0.8354100504724289,
                        -0.7754803844981306,
                        -0.7342228293418884,
                        -0.5995704607326431,
                        -0.38641601683321627,
                        0.09776921861713461,
                        0.526054260341875,
                        -0.0835228529085068,
                        -0.1422455974454646,
                        0.7828084595327987,
                        -0.4710221904805394,
                        -0.3121729434945324,
                        -0.9138816844211224,
                        -0.20978547845951746,
                        -0.2107028038961678,
                        -2.8657919351372778,
                        0.41431312650824028,
                        1.029445905313608,
                        0.6967596213312897,
                        -0.35113704735099829,
                        0.38813263555024948,
                        -0.006374879934988087,
                        1.0285999422146733,
                        0.044278918855733987,
                        -0.1256131035442114,
                        1.9189582428307679,
                        0.7665921029367553,
                        -0.5471791777984354,
                        -0.41991331393728617,
                        0.7459710301092805,
                        -0.5002520195433242,
                        0.3787397402113424,
                        -1.1006190208572387,
                        0.30120620155141367,
                        0.627893548949805,
                        0.29490715997055619,
                        1.49479682011766,
                        -0.7927055402924097,
                        0.6551247543429506,
                        0.11834494666870565,
                        -0.1946563282142364,
                        0.08365118343133205,
                        -0.4530486953856645,
                        -1.0708383321762086,
                        0.5712719574535137,
                        0.6707120622975964,
                        -0.49841969481119899,
                        -0.5607805533039976,
                        -0.9539603381967599,
                        0.059037483158091767,
                        -0.5971844977744523,
                        -0.5193494883821721,
                        0.4885201063650222,
                        -0.5468477532841893,
                        0.3383635526971682,
                        -0.45332578781462509,
                        -0.803562396968668,
                        0.08413931686411758,
                        -0.03514212670948691,
                        -0.5582754259677943,
                        0.40665644188924957,
                        -0.14279233540705905,
                        -1.1554978799149703,
                        -0.48210829496383669,
                        0.059049693995319788,
                        0.24239991412554308,
                        -0.9779152946673388,
                        0.5185075367277348,
                        0.8400856911531207,
                        0.04664264618205216,
                        0.6512568291360252,
                        1.0407279806967048,
                        0.44334340284845066,
                        0.8118156026230583,
                        -0.3877742172000438,
                        0.29833913509612,
                        -0.9151854488964908,
                        0.9318128464137772,
                        0.29418780617491438,
                        -0.844546027925911,
                        -0.595169638651514,
                        0.9798529173593327,
                        0.05019260175634099,
                        0.5306507691700912,
                        0.887002473390087,
